tree
version=v4
num_class=1
num_tree_per_iteration=1
label_index=0
max_feature_idx=76
objective=binary sigmoid:1
feature_names=Open High Low Close Volume Dividends Stock_Splits EMA_10 EMA_20 EMA_50 EMA_100 EMA_200 SMA_20 SMA_50 SMA_200 Dist_EMA_20 Dist_EMA_50 Dist_EMA_200 EMA_20_Slope EMA_50_Slope Golden_Cross Death_Cross Bull_Cross_20_50 Above_EMA_20 Above_EMA_50 Above_EMA_200 Trend_Strength_Score RSI_14 MACD MACD_Signal MACD_Hist ADX_14 Plus_DI_14 Minus_DI_14 ROC_10 MOM_10 Avg_Vol_20 Rel_Vol_20 OBV MFI_14 VWAP_20 Dist_VWAP_20 Vol_Spike_Score Vol_Percentile_20 True_Range ATR_14 ATR_Expansion BB_Mid BB_Upper BB_Lower BB_Width Hist_Volatility_20 Daily_Range_Pct Daily_Traded_Value Avg_Daily_Traded_Value_20 Avg_Daily_Volume_20 Liquidity_Score Tradability_Score Turnover_Ratio_Proxy Dist_High_20 Dist_High_50 Dist_Low_20 Range_Compression Consolidation_Score NR7_Flag Inside_Bar_Flag Breakout_Score Trend_Factor Relative_Strength_Factor Breakout_Quality_Factor Volatility_Factor Liquidity_Factor Market_Breadth_Factor Regime_Factor Risk_Factor Momentum_Factor Institutional_Activity_Factor
feature_infos=[1.9550000429153442:161093.63230029997] [2.0199999809265137:162743.56708177418] [1.8799999952316284:160208.66728114561] [1.8949999809265137:161673.609375] [0:1073741823] [0:410] [0:10] [2.04012676783708:158674.2611780517] [2.0836516624685921:157544.88860359252] [2.1115645875558857:154517.13330588484] [2.1436545534630387:150976.09944052895] [2.1990688251080153:145389.97451436426] [2.0287500262260436:158589.22500000001] [2.1103655004501345:155826.6615625] [2.1843715128691299:147702.6700390625] [-0.88204852561843539:0.60681957856651292] [-0.89277724472548614:0.86990503799528074] [-0.89684826760906766:2.4956779008485896] [-0.35535280618391596:0.34829641339478828] [-0.16340041179235273:0.18972672482722761] [0:1] [0:1] [0:1] [0:1] [0:1] [0:1] [0:3] [0:100] [-4290.0696309542982:6242.0027924632886] [-3841.4953933281595:6005.3782964657321] [-1855.9060741891765:2247.1899299813786] [4.9979149085256322:100.00000000000001] [0:100] [0:98.750139731566833] [-91.164137104416412:121.93110297868435] [-18109.140625:20294.6015625] [0:677999806] [0:20] [-4886878024:16922673463] [0:100] [2.0224699528228229:159018.61824670379] [-0.82600949400458989:0.88425660706614073] [0:3] [0.050000000000000003:1] [0:16204.634596889489] [0:4167.0776111331852] [0.45216389486609548:10.376383129588051] [2.0287500262260436:158589.22500000001] [2.1333733774415973:163783.64571195462] [-644.1215274538248:154957.53844550741] [0:5.8446989048438471] [0:8.2140294105490046] [0:0.5713999649816025] [0:370469970082.37848] [0:73841434376.266052] [0:677999806] [0:5.8683001243077655] [0:0.58683001243077659] [0:20] [0:10.695030162202638] [0:11.526285658033462] [0:1.6621620591202892] [0:13.480010676197498] [0:1.4611747262109618] [0:1] [0:1] [0:4] [0:100] none [0:100] [0:100] [0:100] none none none [0:100] none
tree_sizes=5190 5462 5121 5244 5128 6217 5792 6347 6888 5547 5510 6004 5261 6030 6779 6665 6355 6345 6575 6685 6501 4687 6347 4909 5116 6453 5216 3306 5000 4663 4668 6540 2527 6244 6185 5844 6799 5698 4669 3388 6281 4803 6897 5704 4772 5370 3200 5182 5103 6647 6580 5819 5607 3008 6350 4893 3789 6286 5439 5578 3203 6910 6233 6800 5711 6360 5645 5353 5330 4380 6640 2967 4127 5433 5561 5828 6762 3481 6440 5255 3789 6311 4713 5314 6787 2850 5468 5866 5332 7122 6271 4973 4315 4433 6406 5080 6823 6056 5605 5352 3922 5875 4885 5564 4226 6221 5897 4022 6606 6835 6470 5832 6553 4011 5912 5143 5113 3824 6209 7059 6110 6108 6276 6219

Tree=0
num_leaves=47
num_cat=0
split_feature=46 30 27 27 50 61 51 15 52 39 51 46 60 37 35 59 50 62 59 51 27 11 70 19 60 14 51 37 19 33 40 17 35 62 28 28 69 34 37 38 37 34 30 0 4 44
split_gain=581.542 409.609 421.621 288.527 340.012 279.046 293.79 254.307 173.287 179.023 149.029 157.929 147.192 144.709 141.687 132.055 181.622 130.366 129.14 121.752 105.425 91.5493 91.1144 72.4038 65.9444 70.3543 61.6325 55.2577 55.2344 55.1337 49.5495 45.8854 39.6532 35.334 35.2466 30.0892 28.0745 15.1309 9.93326 9.86405 8.51358 6.82555 4.04279 2.76317 4.55532 1.94162
threshold=0.96003705255349148 0.094152387804954288 99.997942325459277 99.997942325459277 0.0062063565749776199 0.0019928175883090851 0.0021651356205669601 -0.068883879191317901 0.0080720652296400967 76.898255329199472 0.0021651356205669601 1.0538227908506046 0.074662182154804538 0.54962964687100579 -7.6457366943359366 1.0000000180025095e-35 0.01803508268106346 0.92131380871639024 0.0020000254759347052 0.013623825263146481 88.97825316881331 434.02272027477784 0.43565641175279374 0.00084541852860439291 0.059219111092892344 203.25684852600099 0.18509528558431346 2.8759967576792977 -0.016397598095493411 21.884534563128366 999.90618118646955 1.0000000180025095e-35 2.9003391265869145 0.30656228251283185 -203.60644813063206 0.052274405085940508 4.4875186838835566 20.346230403125414 2.1154866882961341 2044633.5000000002 2.292373088804712 0.24144307350908292 -0.091240338012442121 1009.4540483497617 12493918.000000002 0.92302721427516243
decision_type=10 2 10 10 8 10 8 2 2 2 10 10 10 10 10 10 10 10 10 8 10 2 2 8 10 2 10 10 10 10 8 2 10 10 2 2 2 10 10 2 8 10 2 2 2 2
left_child=3 2 7 5 41 6 31 17 9 18 20 -12 22 -14 28 26 32 34 -7 -11 -9 -16 -10 -6 25 -18 45 -19 -8 -26 42 -1 -17 -32 -2 -33 -4 40 -39 -34 -28 -5 -25 44 -38 -3
right_child=1 15 36 4 23 8 14 10 12 19 11 -13 13 -15 21 16 24 27 -20 -21 -22 -23 -24 30 29 -27 37 -29 -30 -31 33 35 39 -35 -36 -37 43 38 -40 -41 -42 -43 -44 -45 -46 -47
leaf_value=0.04554993317164311 0.003871704550097714 0.25071169301065038 0.10220750807604245 0.25071169301065038 0.23858091637567583 -0.01116144759686296 0.021000865459119694 -0.068030185137756688 0.079963467858063172 0.24305014987277174 0.059990800825654271 0.07359599975335715 0.03554416366244019 0.049298805174035953 -0.026779822514392725 0.063063741938387638 0.06720932118927489 0.10888815130323434 0.079655716904463242 0.095988474457815331 0.14969746888203045 0.04117148097995698 0.053899578271446494 -0.069540810152678018 0.045526271289536041 0.054339646221642654 0.15730471292134626 0.065441649858311621 0.057712879247351037 0.057559533890745161 0.19352374601719891 -0.13158329669798527 -0.077808198141948753 0.02460749517543008 0.072454379937316654 -0.021772054428736205 0.17064856721981825 0.064106230555455765 0.11727315002593021 -0.14693516508381577 0.094197311765414682 0.18190744428415406 -0.14960393594351015 0.25071169301065038 0.25071169301065038 0.20361573666310209
leaf_weight=19.984230995178223 78.188303768634796 27.977923393249512 15.487779021263121 146.88409781455994 16.486990571022034 179.858078956604 685.20932024717331 132.39553034305573 1506.3114112615585 104.41760694980621 20933.731770336628 14401.885869562626 11785.700229406357 21791.554885804653 637.4969687461853 15.987384796142576 5811.9139791727066 2448.8177055716515 1209.5455809831619 122.15361195802689 26.728908956050873 287.77292633056641 12239.592075884342 12.490144371986391 11516.41271674633 15782.796231329441 59.952692985534668 332.48764318227768 1019.6953865289688 5688.2615498900414 13.988961696624754 155.37739598751068 45.963731288909912 107.9148473739624 1801.328621327877 29.726543605327606 12.490144371986391 95.924308776855469 55.456241011619568 37.470433115959167 33.223784029483795 15.987384796142576 12.739947259426115 116.40814554691315 16.486990571022034 12.739947259426115
leaf_count=80 313 112 62 588 66 720 2743 530 6030 418 83801 57653 47180 87235 2552 64 23266 9803 4842 489 107 1152 48997 50 46102 63181 240 1331 4082 22771 56 622 184 432 7211 119 50 384 222 150 133 64 51 466 66 51
internal_value=0.0561743 0.0615557 0.0686321 0.0479628 0.141674 0.0473718 0.0168709 0.0679848 0.0491389 0.0813402 0.0651011 0.0655359 0.0480393 0.0444709 0.0258597 0.0542748 0.0537776 0.0899461 0.0678994 0.163763 -0.0314574 -0.00564594 0.0567557 0.0398584 0.0541235 0.0578033 0.122064 0.103694 0.0429581 0.0495047 0.0175907 -0.0984064 -0.0812083 0.0439913 0.0696013 -0.113948 0.230199 0.103098 0.0835832 -0.108853 0.134803 0.243958 -0.109969 0.243833 0.216202 0.235976
internal_weight=131601 79500.5 40316.4 52100.9 326.492 51774.4 2835.26 40155.6 48939.1 1615.97 35494.7 35335.6 47323.2 33577.3 2630.17 39184.1 38898.8 4660.82 1389.4 226.571 159.124 925.27 13745.9 163.621 38799.4 21594.7 285.275 2781.31 1704.9 17204.7 147.134 205.088 99.4215 121.904 1879.52 185.104 160.873 244.557 151.381 83.4342 93.1765 162.871 25.2301 145.385 28.9771 40.7179
internal_count=526821 318253 161393 208568 1307 207261 11350 160749 195911 6469 142091 141454 189442 134415 10529 156860 155718 18658 5562 907 637 3704 55027 655 155320 86447 1142 11134 6825 68873 589 821 398 488 7524 741 644 979 606 334 373 652 101 582 116 163
is_linear=0
shrinkage=1


Tree=1
num_leaves=49
num_cat=0
split_feature=46 30 27 51 27 50 61 51 51 15 31 41 34 34 67 50 2 52 44 49 38 60 3 19 51 19 48 67 4 40 17 33 38 1 71 28 36 70 31 50 16 62 17 34 30 30 62 27
split_gain=475.382 354.562 324.135 267.261 251.092 291.727 236.996 242.7 185.529 175.058 152.472 124.763 164.354 121.455 109.656 100.589 124.032 97.9042 94.2525 177.586 89.525 83.7955 76.0592 70.8159 67.5136 59.4411 54.6288 64.0472 46.4942 42.6577 37.528 35.8055 34.8751 79.8449 33.8765 24.7982 24.3307 27.5445 21.549 19.3251 18.1829 10.8482 5.67142 5.62466 3.52721 3.52681 3.36458 0.68424
threshold=0.97673806636069327 0.094152387804954288 98.749304557898498 0.013623825263146481 99.997942325459277 0.0062063565749776199 0.0019928175883090851 0.0021651356205669601 0.0021651356205669601 -0.066770285072482852 29.126899228419251 -0.0070868592044309392 -5.3575831178672244 -12.267713624078077 42.248649023177329 0.01803508268106346 1004.8469572814504 0.037977356966913393 3.2736746575986122 1001.1255566618955 1034151295.5000001 1.0000000180025095e-35 477.13839721679693 -0.015645811073742969 0.16442862576700235 0.00084541852860439291 383.53991569134359 63.015713666018073 87827.500000000015 999.90618118646955 1.0000000180025095e-35 12.631830447241081 7030508.5000000009 1007.9250465740329 1.6593087752254725 0.052274405085940508 132563.17500000002 2.5365221511465532 49.160207303638352 0.060505269518498904 0.00041981200026655277 0.23881845107759012 0.020491688659301618 0.24144307350908292 -0.091240338012442121 0.15242414688891984 1.144395579418926 99.997942325459277
decision_type=10 2 10 10 10 8 10 8 10 2 10 8 10 10 2 10 2 2 2 10 2 10 2 10 8 8 10 2 2 8 2 10 2 2 2 2 2 2 10 10 2 10 2 10 2 2 10 10
left_child=4 2 8 32 6 43 7 30 36 17 11 12 -8 23 -11 16 41 -10 19 -12 -13 24 -15 -9 39 -7 27 -23 -20 44 -1 -28 33 -4 -31 -32 37 -2 -26 -17 -38 45 -5 -6 -27 -3 -43 -34
right_child=1 15 3 42 5 25 10 13 9 14 18 20 -14 22 -16 21 -18 -19 28 -21 -22 26 -24 -25 38 29 31 -29 -30 34 35 -33 47 -35 -36 -37 40 -39 -40 -41 -42 46 -44 -45 -46 -47 -48 -49
leaf_value=-0.0095591566028170524 0.086324669258185258 -0.11785046201636934 -0.11562155662523964 -0.12059177706157904 0.17784566666085547 0.16647998228254807 -0.0005772649525199032 -0.028108467391890265 0.0073536785086979091 0.0014455407654707804 0.014744831538195488 -0.00089798065797013762 -0.019363493106202785 -0.067509630881191565 0.013960914516964205 0.017405232211079827 0.17670806984178011 0.039978831822135429 -0.014661580080576598 0.14174981973180026 -0.022239089910539828 -0.0041866458591853948 -0.019605706256299094 0.018626451143648665 0.026800127747610609 -0.11318544443860273 -0.011235165720763274 0.0098446921499778378 0.0025341239500475702 0.040356119691968791 -0.16973893388177599 -0.0024500694527361008 0.19187802708207941 0.17958376786513433 -0.06496888995628014 -0.070100094750957048 -0.14005418298501005 -0.10813096267140616 -0.0038630829551010884 0.14398598864111614 -0.029765447621083792 -0.054098724725689634 -0.21009144371729838 0.11616842957062928 -0.18702498068690721 -0.17733568044768777 -0.12278976305757672 0.17895803112169878
leaf_weight=19.989629983901978 13.215856060385706 12.459965959191321 13.71160353720188 15.972987979650499 153.33209846913815 16.267410725355148 6654.6390722841024 657.16646631062031 1287.6234593391418 10804.733668282628 2755.4559277147055 19472.80729277432 15512.924133464694 804.00583791732788 19884.692152544856 15.238161966204641 14.10482534766197 3219.9785511791706 1928.5410420000553 114.67678932845592 2186.3695667386055 6390.3838153481483 563.9094168394804 639.96520493924618 847.14057144522667 12.484899908304216 6828.7061043977737 6626.4368514865637 8514.3006861507893 63.615944102406502 155.82769161462784 14470.336719989777 64.366951286792755 27.614054620265961 58.729663863778114 29.746474802494049 95.88430567085743 16.230354592204094 314.19070562720299 57.848273977637291 17.709564253687859 13.229788020253183 12.717449709773062 16.363825798034668 13.426276758313177 49.815178945660591 15.467357814311979 112.86744098365307
leaf_count=80 53 50 55 64 623 66 26635 2629 5158 43266 11033 77945 62088 3217 79628 61 57 12910 7719 463 8753 25581 2257 2562 3393 50 27334 26530 34080 255 626 57921 258 112 235 119 384 65 1258 233 71 53 51 66 54 200 62 458
internal_value=6.91111e-07 0.00553245 0.0125939 0.126692 -0.0065301 0.0799058 -0.00701149 -0.035049 0.0117956 0.0122575 -0.00560293 -0.00844998 -0.0137239 -0.0269735 0.00955466 -0.00151547 -0.0992122 0.0306593 0.00376963 0.0198193 -0.00305224 -0.00122671 -0.0477617 -0.00505088 0.0243712 -0.0149782 -0.00214752 0.00295625 -0.000641508 -0.0348886 -0.139744 -0.00526667 0.164361 0.0816364 -0.0102031 -0.153767 -0.101862 -0.0208567 0.0185044 0.117595 -0.12286 -0.141992 -0.160264 0.171898 -0.151447 -0.165434 -0.0911222 0.18365
internal_weight=131587 71242.7 35587.3 247.25 60344.5 334.22 60010.3 2870.61 35340.1 35197 57139.7 43826.7 22167.6 2665.05 30689.4 35655.4 105.077 4507.6 13313 2870.13 21659.2 35550.3 1367.92 1297.13 1234.42 164.524 34315.9 13016.8 10442.8 148.257 205.564 21299 218.56 41.3257 122.346 185.574 143.04 29.4462 1161.33 73.0864 113.594 90.9723 28.6904 169.696 25.9112 62.2751 28.6971 177.234
internal_count=526821 285266 142533 998 241555 1349 240206 11490 141535 140962 228716 175421 88723 10665 122894 142733 422 18068 53295 11496 86698 142311 5474 5191 4945 660 137366 52111 41799 594 825 85255 883 167 490 745 573 118 4651 294 455 365 115 689 104 250 115 716
is_linear=0
shrinkage=0.1


Tree=2
num_leaves=46
num_cat=0
split_feature=46 30 27 50 51 35 27 50 50 60 45 67 51 41 30 44 17 50 38 62 35 37 60 19 38 51 51 38 38 7 40 11 52 51 27 31 30 44 31 34 30 35 54 70 2
split_gain=396.222 319.298 231.588 262.929 214.398 271.855 207.426 180.866 157.389 160.652 147.557 131.499 120.868 114.336 96.932 96.1199 79.7977 72.9707 71.6838 71.0683 67.4643 64.7316 57.3717 50.9252 50.7656 46.7047 40.6743 56.4677 41.1567 38.4929 38.0174 33.1809 30.2639 29.1544 28.6011 19.6286 16.2774 12.0009 10.4183 4.58094 3.35374 0.877459 0.661154 0.221983 0.0566288
threshold=1.0026634863981163 0.20134296265216459 99.997942325459277 0.0062063565749776199 0.0021651356205669601 0.18583631515502932 99.997942325459277 0.029788498294277824 0.0062063565749776199 0.3957506288001697 5.6717933142169388 9.0051394550024213 0.013623825263146481 -0.07640772080813886 0.055038756859403508 0.030002593994140628 0.0036925011213533453 0.01803508268106346 361107.50000000006 0.85652910223613732 30.578521728515629 0.54962964687100579 1.0000000180025095e-35 0.00084541852860439291 35644006.000000007 0.16962053574467648 0.86508941209289281 51545439.500000007 2229049.5000000005 128.05198325969721 999.90618118646955 434.02272027477784 0.0029860232332780648 1.0092322605310089 62.330296307834338 61.459109380786764 0.85586003436069114 0.030002593994140628 41.134762280166051 0.24144307350908292 -0.091240338012442121 2.730005264282227 148521536.35180643 2.6967695949713337 111.94499969482423
decision_type=10 2 10 8 10 8 10 8 10 8 2 2 10 8 2 2 2 10 2 10 8 10 10 8 2 8 10 2 2 2 8 2 2 8 10 10 2 2 10 10 2 10 2 2 2
left_child=2 6 4 39 5 10 13 43 14 11 18 -10 41 19 24 29 -17 37 -1 33 -9 -11 25 -5 -6 36 28 -28 -24 -15 40 -21 -32 -2 -12 -27 -19 42 -16 -4 -25 44 -3 -7 -8
right_child=1 17 3 23 8 7 12 20 9 21 34 -13 -14 15 38 16 -18 22 -20 31 -22 -23 26 30 -26 35 27 -29 -30 -31 32 -33 -34 -35 -36 -37 -38 -39 -40 -41 -42 -43 -44 -45 -46
leaf_value=-0.07682139267020216 0.013748232213384197 -0.1443626630506282 0.16518560300140411 0.15444540099656431 0.066179589112777035 0.18449265202860288 0.17228725118923149 -0.054910322679184442 -0.017101527434957613 -0.0034009172427730376 -0.018346067744628377 -0.0041100275661887136 -0.15524599281452245 0.017179881588582142 -0.15303784384970406 0.0028800861992583507 0.014721083188894011 0.1612632259065041 -0.15359279542871637 0.049223983971844715 -0.0059154651732589809 0.018982216924961201 -0.012836145135263058 -0.10262997680783847 0.1738641976244584 0.021407243097461334 0.010514601237834731 -0.057838490651673236 -0.00019919719481699028 -0.095198011375570157 0.13932490042353837 0.026836808827774696 -0.025860224141961565 -0.049763805227007428 -0.076778049329871839 -0.029514152544634804 0.054354037763574815 -0.056711601777529444 -0.029611543271561808 0.11178206460989633 -0.17360521282412905 0.13854507507027988 -0.17309617744389197 0.16934745495264322 0.16542593333544287
leaf_weight=244.17840403318405 1356.1949413865805 15.934842154383658 163.16118304431438 16.08772112429142 113.14390100538731 12.833465144038199 13.631874009966849 352.67364872992039 9087.1999600082636 1948.2727254033089 307.25425682961941 54629.576401993632 13.109234556555746 40.828982219099998 14.232397973537447 8535.4382677078247 17080.200565472245 29.760173290967941 242.32795041799545 1321.9763695895672 1383.7226355820894 3835.8621319681406 2882.2088328897953 12.396237999200823 71.408764868974686 867.19034218788147 202.61538590490818 299.53023782372475 24357.840420901775 120.25387585163116 12.336315557360647 1326.2246138751507 109.89865745604038 76.344306439161301 115.16759820282459 82.938515037298203 27.310686483979225 17.975862935185432 13.164479315280913 17.816499456763268 14.381161645054815 12.699954092502592 16.098075419664383 39.355185896158218 102.28857561945915
leaf_count=981 5435 65 683 67 455 52 56 1413 36366 7799 1230 218666 53 164 57 34190 68438 122 981 5310 5539 15359 11536 50 289 3476 811 1199 97501 484 50 5327 440 306 461 332 110 73 53 73 59 53 66 163 428
internal_value=1.37035e-06 0.00610612 -0.00493222 0.0766764 -0.00532226 -0.0329843 0.0133264 -0.0103537 -0.00425189 -0.00451428 -0.0775168 -0.00596286 0.134017 0.0127535 0.0817899 0.0102913 0.0107755 -0.00141492 -0.115061 0.0283063 -0.0158666 0.0114429 -0.00120498 -0.0145817 0.107846 0.0222398 -0.00205616 -0.0302581 -0.00153628 -0.0667141 -0.0328303 0.0380124 -0.00918925 0.0103635 -0.0342768 0.0169622 0.110103 -0.122106 -0.0937302 0.159928 -0.140748 0.163499 -0.158803 0.173072 0.166233
internal_weight=131555 58798.6 72756.5 346.078 72410.4 2697.51 29999.2 1788.58 69712.9 69500.9 908.928 63716.8 141.73 29857.5 211.95 25776.7 25615.6 28799.4 486.506 4080.74 1736.4 5784.13 28749.4 165.1 184.553 1007.2 27742.2 502.146 27240 161.083 149.012 2648.2 122.235 1432.54 422.422 950.129 57.0709 50.0088 27.3969 180.978 26.7774 128.62 32.0329 52.1887 115.92
internal_count=526821 235535 291286 1422 289864 10820 120244 7167 279044 278190 3653 255032 590 119654 854 103276 102628 115291 1962 16378 6952 23158 115087 666 744 4040 111047 2010 109037 648 599 10637 490 5741 1691 3808 232 204 110 756 109 537 131 215 484
is_linear=0
shrinkage=0.1


Tree=3
num_leaves=47
num_cat=0
split_feature=46 33 51 18 17 39 50 27 59 52 30 34 17 46 37 27 51 18 41 60 27 51 50 14 49 30 28 41 38 33 52 18 51 41 39 67 67 36 31 35 38 0 41 11 43 17
split_gain=341.713 326.439 269.546 253.693 192.743 167.247 159.301 155.954 142.208 142.158 117.862 109.972 97.064 96.3487 89.7616 84.7779 89.8281 81.0744 71.6945 70.9749 67.8996 84.638 57.2851 55.2665 46.0242 39.9648 39.748 50.9688 32.825 72.5343 30.6778 26.1937 22.0139 17.4206 10.5708 11.6714 10.0501 9.05474 8.23794 7.58139 3.48985 1.99851 0.879866 0.766694 0.0728423 0.0157614
threshold=0.92086978829275856 27.540007440656304 0.013623825263146481 0.00082089477635338627 0.026831905914929573 94.666527637654426 1.0000000180025095e-35 98.749304557898498 0.05000370272981073 0.05491334131994275 2.5898345146196586 0.11415825428673269 0.021573323833100993 1.0295906123445711 3.3829168594579371 99.997942325459277 0.0021651356205669601 -0.014649737320196685 -0.018471746793729042 0.070321993809816574 99.997942325459277 0.0021651356205669601 0.0062063565749776199 143.95958065032963 32.892879596275449 -0.021014309872039564 -32.675331526178063 -0.12353646694039558 6086783.5000000009 5.0129423770148298 0.060033825856702368 -0.053438084689895672 0.23680890303545007 0.00075231810741441317 19.274560837300061 9.9627990546590848 50.533267482190105 518592.70000000007 43.634027675601374 2.5590729713439946 2457624.0000000005 864.94827185075428 0.0025638094575962064 109.34215424762307 0.73750000000000016 0.077971905482824719
decision_type=10 8 8 10 2 2 8 10 8 2 2 10 2 10 10 10 8 8 10 10 10 10 10 2 10 2 2 10 2 10 2 10 10 8 2 2 2 2 10 10 2 2 10 2 10 2
left_child=5 2 3 25 7 6 41 19 15 20 13 -7 39 -6 26 16 -8 24 -19 -4 21 33 -17 -23 -10 38 31 -28 29 -5 -12 -11 -14 -3 35 -16 -36 -27 -2 43 -9 45 -30 -13 -22 -1
right_child=1 9 4 28 10 11 8 40 17 14 30 12 32 -15 34 22 -18 18 -20 -21 44 23 -24 -25 -26 37 27 -29 42 -31 -32 -33 -34 -35 36 -37 -38 -39 -40 -41 -42 -43 -44 -45 -46 -47
leaf_value=-0.16345018771765971 0.089411868338772155 -0.11940645259152172 0.0018247389611730617 0.14856513377525549 0.0016819409433530504 -0.12167039556669218 -0.070077750629378793 -0.12108224199028098 -0.024940497370891671 -0.012503780149389541 -0.0017287296701311555 0.18306912659439423 -0.095454638789574886 0.011816834275223126 -0.051882773368647196 0.14838203919027604 0.0011381074015194303 -0.02395733468744091 -0.010123971903720365 -0.0093195390775213365 0.15928266154545664 0.025124552620224797 -0.064642637385633361 0.007997383228143938 -0.0020179436323300702 -0.071976646617298912 0.070834603686600731 0.036843010252051028 0.16413621159134997 -0.065716677671522519 -0.013576393886635982 0.031012047080867713 0.054284071675080328 0.0063359753714891517 -0.032914895267507162 0.037434550895958089 0.0090893346780237336 -0.1516076487071609 -0.019030810997776138 0.085772482488560065 -0.16442994610622813 -0.11958637061575922 0.13784155263397435 0.15649399968339767 0.14936313859815517 -0.16749663054134453
leaf_weight=48.924824416637421 14.941090881824495 60.125745743513107 7933.0104918479919 51.856137409806252 19196.093607142568 23.181044727563858 180.21785525977612 30.350832641124725 1007.614515170455 214.20030944049358 12721.128244966269 12.081752046942709 21.63580259680748 18343.653848230839 18.679999947547913 61.732557371258736 10291.929209813476 8177.1181603521109 6914.6556585431099 20437.924371302128 20.789951950311661 2313.5765106827021 15.868476390838621 10147.918358817697 6701.3296856433153 32.797565966844559 558.97533889114857 2092.2817326039076 167.09371337294579 22.717290446162224 2638.9114711284637 390.50260683894157 17.975078359246254 13.489905744791029 214.92731955647469 67.484272971749306 77.502371460199356 25.29044833779335 13.188734784722326 15.948981583118437 47.859647259116173 11.993009015917776 13.774771168828009 107.0066751241684 11.496630251407622 11.983906760811804
leaf_count=206 60 244 31764 222 76858 95 742 124 4036 861 50916 49 87 73515 75 268 41201 32734 27670 81814 90 9272 66 40660 26818 132 2251 8399 709 92 10563 1568 72 55 862 271 311 103 53 66 199 49 58 461 50 50
internal_value=2.07763e-06 0.00298936 0.000417642 0.0890535 4.5378e-05 -0.0086958 -0.00923842 -0.00659214 -0.00891564 0.015956 0.00361499 0.0829794 0.110143 0.00663432 0.0333741 0.000684214 -8.74645e-05 -0.0133574 -0.0176193 -0.0062034 0.0109187 0.0105456 0.104821 0.0111772 -0.00501409 -0.0592681 0.0387329 0.0440096 0.139116 0.0832885 -0.0037642 0.0155977 -0.0275045 -0.0963644 -0.0127123 0.018071 -0.0217826 -0.106647 0.0385683 0.150519 -0.147608 -0.156899 0.162134 0.15919 0.155751 -0.164246
internal_weight=131514 97892.5 81690.6 341.66 81348.9 33621.2 33423.4 28449.1 33350.5 16202 52899.8 197.829 174.648 37539.7 3634.55 10549.7 10472.1 22800.7 15091.8 28370.9 12567.4 12535.1 77.601 12461.5 7708.94 86.2178 3255.96 2651.26 255.442 74.5734 15360 604.703 39.6109 73.6157 378.594 86.1643 292.43 58.088 28.1298 135.037 78.2105 72.9017 180.868 119.088 32.2866 60.9087
internal_count=526821 392151 327182 1429 325753 134670 133840 113901 133535 64969 211852 830 735 150373 14598 42277 41943 91258 60404 113578 50371 50231 334 49932 30854 348 13079 10650 1081 314 61479 2429 159 299 1519 346 1173 235 113 576 323 305 767 510 140 256
is_linear=0
shrinkage=0.1


Tree=4
num_leaves=46
num_cat=0
split_feature=46 33 51 18 67 39 50 27 52 30 59 33 27 34 38 37 51 27 52 46 35 51 37 51 35 51 15 60 61 30 38 33 41 27 59 29 28 36 39 67 11 32 27 35 32
split_gain=280.9 238.067 210.261 204.186 154.479 141.187 139.731 121.278 117.931 113.095 112.344 106.756 97.3847 95.532 83.8124 67.2942 62.186 56.7285 54.1741 51.8297 48.0833 47.0899 46.7891 44.4875 42.736 41.3434 39.7762 36.2651 34.1399 29.0899 24.3935 55.1079 22.6787 21.5492 19.4022 18.1588 16.5458 10.5022 8.88703 7.10461 3.96273 1.98303 0.657339 0.132117 0.0717271
threshold=0.94533062884676855 27.540007440656304 0.013623825263146481 0.00082089477635338627 51.635398065569056 96.948405682206015 1.0000000180025095e-35 98.749304557898498 0.038461561974218315 0.69026772322948993 0.044695158863634739 26.190856551260143 99.997942325459277 0.11415825428673269 616463881.50000012 2.6367187483698307 0.013623825263146481 99.997942325459277 0.071772466908037194 1.4081934915222647 3.1000213623046879 0.0021651356205669601 0.53805654592735253 0.92529246757680472 -19.441467285156246 0.64324064785726554 -0.0098037008493636665 0.026034094595468869 0.08007304876412101 -0.021014309872039564 6086783.5000000009 4.104276652911099 0.013804466346480861 47.958911820040903 0.15847794292948561 0.45870940082080258 -20.142432658316633 518592.70000000007 39.318371245346391 83.654111351328297 16.351960786209883 43.29294424662492 99.997942325459277 2.4056320190429692 36.513603698899956
decision_type=10 10 8 10 2 2 8 10 2 2 8 8 10 10 2 10 10 10 2 10 10 10 8 8 10 8 2 8 10 2 2 10 8 10 10 2 2 2 2 2 2 10 10 10 10
left_child=5 2 3 29 19 6 41 9 17 -6 12 24 14 -7 -8 18 -14 21 23 22 40 33 -4 -10 -12 -13 -23 -22 -20 39 31 -5 -9 -3 38 -21 -36 -31 -17 -2 -15 -1 -32 -42 -19
right_child=1 8 4 30 7 13 10 32 15 -11 11 25 16 20 -16 34 -18 44 28 35 27 26 -24 -25 -26 -27 -28 -29 -30 37 42 -33 -34 -35 36 -37 -38 -39 -40 -41 43 -43 -44 -45 -46
leaf_value=-0.10979871638177141 0.087244478685271867 0.03149312196168965 -0.011628964595218262 0.14084640935948553 0.0094246681935087374 -0.11129531240217015 0.003745249515086856 -0.13963315414567798 0.024501446367858136 -0.00098757433291742601 -0.0064781205835590817 0.0016824928212545347 0.14906307873467137 0.087282399940332406 -0.019010561990962141 -0.042666162299762361 -0.043544169425709392 0.15143054819720597 0.058416333900403961 -0.080621413034809228 -0.12315780809219781 0.0041208877337827387 -0.0022746006398650198 -0.051058716551250154 -0.01609254636894834 -0.024557156337158426 0.026314251196768491 0.1138473002803691 0.024875483889339009 -0.057452509697194634 0.16086498101715038 -0.055833642803037591 0.010129236841616955 -0.10873741108565678 -0.012338975172543365 -0.026297791473461951 0.026535521364630422 -0.14649640664423072 -0.0075089171974314422 -0.018731623017199214 0.14854214127835477 -0.15475906104796389 0.14787981428495717 0.15777734640989843 0.14128873484843404
leaf_weight=11.770863264799116 12.618835479021074 13.95178873836994 7025.8185852617025 47.515544936060905 23262.20408539474 21.177312105894089 11253.213179022074 69.145535856485367 4588.0304579436779 18913.056276336312 6445.9941712170839 7951.5102828890085 70.654238626360893 11.067110270261763 1890.4422688186169 135.67682571709156 21.976869627833366 16.566831484436992 834.65056192874908 110.15076300501823 13.149785310029985 6661.5585185140371 22378.364036992192 79.266828387975693 16349.717756301165 649.51746287941933 918.96735143661499 12.683206066489218 476.84297534823418 30.747860580682755 68.846527978777885 20.346169039607048 11.843336641788481 51.075230106711388 196.90437015891075 139.41313278675079 246.60883784294128 23.26980522274971 152.95641891658306 12.685049012303351 85.086250841617584 58.889649197459221 89.879498943686485 18.938388794660568 12.042664244771002
leaf_count=49 51 57 28125 212 93243 88 45079 294 18436 75710 25793 31822 321 45 7568 544 95 75 3372 441 54 26695 89590 318 65437 2601 3685 51 1918 124 291 83 50 211 791 558 992 97 613 51 385 258 411 82 55
internal_value=2.84665e-06 0.00332994 0.000989871 0.0837195 0.000637934 -0.00641918 -0.00675698 0.00452064 0.0150775 0.00475541 -0.00653453 -0.00979205 0.00119238 0.0867381 0.000472298 0.0247599 0.103367 0.0066104 0.0282641 -0.00489488 0.116497 0.00608446 -0.00450973 0.0232182 -0.0133739 -0.000299027 0.00681133 -0.00679557 0.0462213 -0.0543632 0.132058 0.0818782 -0.117733 -0.0786504 -0.00385586 -0.0502748 0.0092766 -0.095811 -0.0240352 0.0341178 0.144171 -0.147269 0.153512 0.150223 0.147162
internal_weight=131467 86601 72215.9 305.909 71910 44865.8 44703.7 42256.2 14385.1 42175.3 44633 31396.7 13236.3 162.102 13143.7 6710.94 92.6311 7674.16 5978.79 29653.7 140.925 7645.55 29404.2 4667.3 22795.7 8601.03 7580.53 25.833 1311.49 79.3216 226.588 67.8617 80.9889 65.027 732.146 249.564 443.513 54.0177 288.633 25.3039 115.092 70.6605 158.726 104.025 28.6095
internal_count=526821 347093 289331 1320 288011 179728 179023 169297 57762 168953 178716 125653 53063 705 52647 26984 416 30778 24044 118714 617 30648 117715 18754 91230 34423 30380 105 5290 323 997 295 344 268 2940 999 1783 221 1157 102 512 307 702 467 130
is_linear=0
shrinkage=0.1


Tree=5
num_leaves=56
num_cat=0
split_feature=46 33 29 51 27 50 51 35 60 50 67 50 45 28 27 35 37 52 18 33 19 32 51 46 75 29 27 19 39 41 18 31 31 38 51 31 27 28 41 38 62 32 67 46 17 53 17 2 32 35 38 15 39 15 18
split_gain=236.239 208.408 153.931 184.702 143.331 171.596 133.338 200.911 127.326 125.957 104.846 99.539 92.0298 91.6713 79.6604 78.7996 66.6384 117.244 63.261 61.6793 53.8694 53.5683 51.4599 44.8937 62.6463 50.1232 43.6701 41.2944 41.182 39.9162 37.9788 34.8257 29.716 27.6823 26.6706 24.6194 21.9992 21.9044 21.1457 20.1554 19.7796 12.5971 18.3148 17.2467 12.1023 11.8452 11.8284 11.2236 10.9991 9.02695 7.82318 6.65091 0.352998 0.052457 0.0130837
threshold=1.0139351942318553 23.041080134545119 0.016638388506946131 0.013623825263146481 99.997942325459277 0.0062063565749776199 0.0021651356205669601 1.6959381103515627 0.3957506288001697 0.0062063565749776199 9.0051394550024213 0.0062063565749776199 5.6717933142169388 0.052274405085940508 98.749304557898498 3.1000213623046879 2.7465536068562728 0.060806673408899774 0.00082089477635338627 16.826717734296377 -0.038749644758748709 15.665710149546266 1.0000000180025095e-35 1.0923064374763032 28.863275890629563 2.3644423235062417 67.150216188788747 0.00084541852860439291 69.852843233581638 0.0034490572270275497 0.037475729545465318 54.024813153375533 51.791886212682535 1139142.5000000002 0.41645975170432026 30.34541788438251 62.330296307834338 1.8609716144555668 0.013804466346480861 22199885.500000004 1.0938512228095945 15.852957291691789 11.553230813017654 1.4691743450610211 0.27065284363935532 5638002301.7767448 0.019557557666378827 508.85926671544377 6.2763987045233582 2.5590729713439946 6086783.5000000009 0.0005990347834919095 94.666527637654426 0.0012761369322257718 0.001200330045108542
decision_type=10 10 2 8 10 8 10 8 8 10 2 8 2 2 10 10 8 2 10 10 10 10 10 10 2 2 10 8 2 10 8 10 10 2 10 10 10 2 8 2 10 10 2 10 2 2 2 2 10 8 2 2 2 2 10
left_child=4 2 28 18 6 49 7 12 9 15 -11 52 13 -1 19 -8 17 22 51 -5 31 -22 -3 24 -19 -25 -24 -7 29 32 -13 -10 -2 48 35 -30 -14 -35 -16 -36 -31 42 47 44 -43 -44 -45 -18 -29 53 -20 -4 -9 -6 -55
right_child=1 16 3 14 5 27 8 11 20 10 -12 30 36 -15 38 -17 41 23 50 -21 21 -23 26 25 -26 -27 -28 33 34 40 -32 -33 -34 37 39 -37 -38 -39 -40 -41 -42 43 45 46 -46 -47 -48 -49 -50 -51 -52 -53 -54 54 -56
leaf_value=-0.10869414582101543 -0.01556638599776595 -0.14627911931724857 0.02034222461454465 0.00061521365564482324 0.14852104850865597 0.14530286323409636 0.090924198399344125 0.16223154165391032 -0.025407665867953039 -0.014168410718001765 -0.0028911736632412284 0.0040268697836514083 -0.013923600532897443 -0.0017057087981756686 -0.12966570500544583 -0.14246416244397728 -0.0017712689283624385 0.041695843793277593 0.096694584630568167 0.010287610431063366 0.025743696005201433 0.0055427845168647301 0.01190370556623762 0.033148176057630332 -0.0053760675970778377 0.071171118625024399 0.071890960674414084 -0.0021070081315152215 -0.030209817791927759 0.0091905112838763792 -0.026695747365267676 0.035103905342126589 -0.10222127098177443 -0.087568166467388672 -0.03300114368164845 -0.076933190656898659 -0.063990426177420137 0.0150948183079409 0.02126887872123967 -0.0028004485577707745 -0.0087319532850185979 -0.025903090549668446 0.027606174835232634 0.0015756592374263326 0.053433289348425422 -0.014222931271058788 0.12631834670710076 -0.063687599216215654 0.095394815214097747 0.044796290399813969 0.14688003271261463 -0.071186144851525843 0.14294197688140647 0.14095756018708197 0.14439698479361637
leaf_weight=443.38043817877769 2270.9763987064362 20.446418568491936 16.671354755759243 20840.677494347095 10.680579259991644 15.546504124999045 192.70295502245426 21.798416674137115 574.96533584594727 9584.7271194607019 58944.675829097629 978.18580831587315 317.79163500666618 97.741332337260246 56.603354945778847 15.640744730830191 62.436223700642586 625.61985494196415 44.09315413236618 9643.4738904684782 2319.8815791457891 3023.5963165909052 12283.781794056296 972.99039752781391 515.85525643825531 538.61337339878082 122.56822711229324 29.975989460945129 865.25895221531391 1376.1793639212847 683.53645716607571 113.96026872098446 40.27528640627861 68.794184327125549 335.04326932132244 129.67538420855999 121.2455277889967 29.779038965702057 11.102721855044363 649.11853682994843 1114.4267862141132 552.34330500662327 229.18011622130871 18.435266390442852 19.921026989817619 96.081580355763435 12.934915289282797 55.125031962990761 18.8428805321455 10.24862417578697 105.10233986377716 15.156979098916052 16.79746250808239 128.99338303506374 12.097390577197073
leaf_count=1845 9097 83 68 83486 49 67 795 93 2305 38353 235945 3920 1274 401 251 63 251 2536 200 38659 9300 12111 49289 3927 2071 2170 518 120 3463 5508 2737 457 165 284 1341 520 487 121 47 2598 4461 2216 921 74 80 386 52 221 76 46 489 61 80 626 57
internal_value=3.60306e-06 0.00510899 0.00102218 0.00403111 -0.00351747 0.0627571 -0.00379554 -0.0257096 -0.00300993 -0.00423241 -0.00446844 -0.00492322 -0.0617685 -0.0893691 0.00343437 0.0734033 0.0146159 0.0163093 0.104744 0.00367502 0.0109199 0.0143131 0.0122351 0.0353925 0.0204231 0.0466965 0.0124963 -0.00970529 -0.012615 -0.00761189 -0.00861064 -0.015398 -0.0170764 -0.0260551 -0.0247539 -0.0362995 -0.0277502 -0.0565536 -0.104915 -0.0130818 0.00117107 -0.00978648 0.00302345 -0.0191838 -0.0231413 0.01525 0.053011 -0.0308041 0.0355263 0.13563 0.132048 -0.0232445 0.153836 0.141764 0.141252
internal_weight=131416 53640.2 37513.8 30732.9 77775.6 324.959 77450.6 2680.48 74770.2 68737.7 68529.4 1700.32 980.159 541.122 30551.9 208.344 16126.3 15079.9 181.024 30484.2 6032.4 5343.48 12426.8 2653.08 1141.48 1511.6 12406.4 162.939 6780.95 4801.86 1661.72 688.926 2311.25 147.392 1979.1 994.934 439.037 98.5732 67.7061 984.162 2490.61 1046.46 442.823 603.635 572.264 325.262 31.3702 117.561 48.8189 162.02 149.195 31.8283 38.5959 151.771 141.091
internal_count=526821 215209 150414 123261 311612 1446 310166 10837 299329 275156 274298 6830 4007 2246 122443 858 64795 60594 818 122145 24173 21411 49890 10704 4607 6097 49807 668 27153 19231 6657 2762 9262 601 7922 3983 1761 405 298 3939 9969 4201 1779 2422 2296 1307 126 472 196 778 689 129 173 732 683
is_linear=0
shrinkage=0.1


Tree=6
num_leaves=52
num_cat=0
split_feature=15 27 51 46 41 62 34 67 70 51 33 51 61 52 60 60 50 48 41 28 51 19 67 19 37 62 40 54 15 51 19 48 9 29 34 29 32 38 59 37 67 54 53 32 51 38 53 17 34 45 50
split_gain=211.651 207.027 245.549 183.459 119.594 103.195 88.5257 86.5831 140.423 133.204 116.647 81.6036 76.7253 111.732 74.3522 59.7755 57.4751 56.5049 56.1918 49.1463 47.245 38.7683 37.7734 32.5142 30.1693 39.2057 27.9008 26.4851 23.732 21.8553 20.0876 19.8071 26.7047 19.2287 17.9317 17.7774 16.8253 16.5548 15.7062 14.1233 13.3465 12.2641 13.0839 11.9814 9.41673 7.53039 3.55227 3.02977 1.72593 0.502505 0.124429
threshold=-0.064917251957769054 99.997942325459277 0.013623825263146481 0.92086978829275856 -0.017445200550128305 0.92131380871639024 -5.7882227728376305 51.635398065569056 2.1792703411276007 0.013623825263146481 25.21911509566058 0.087261730418830813 0.0032774293926999274 0.011013444602077304 0.0015467139750078194 0.087202204049623686 0.375053822445581 4801.3033005814368 0.00075231810741441317 0.58767309582880156 0.76720443502331825 0.00084541852860439291 17.826130832429079 -0.019461165042637486 3.9436553082919925 1.7968996790546796 999.90618118646955 15904902.274145702 -0.10705645525060099 0.39874956822297453 -0.034414099926392175 2500.0998649131948 745.61517621393079 -101.24609876280813 0.28568626742090114 74.642618369681955 9.9775064719292086 1139142.5000000002 0.23111593512693149 1.254555180459733 21.131472975610375 145499868.29964289 1159638593.3598578 14.199289111425179 0.53327549129881391 15225504.000000002 400905375.10010386 0.021573323833100993 0.16819795660547585 0.3951425165090745 0.0062063565749776199
decision_type=2 10 8 10 10 10 10 2 2 8 10 10 10 2 8 10 10 8 10 2 8 8 2 10 10 10 10 2 2 8 10 10 2 2 10 2 10 2 10 10 2 2 2 10 10 2 2 2 10 2 10
left_child=5 3 34 4 6 20 23 10 9 -9 15 -10 19 -14 -8 -5 -12 24 21 -6 22 -4 29 -2 25 28 33 -22 -7 36 -31 32 -29 -24 48 40 -1 -23 -28 -27 46 45 -43 -33 -42 -26 -19 -20 -3 -49 -50
right_child=1 2 18 7 12 17 14 8 11 -11 16 -13 13 -15 -16 -17 -18 35 47 -21 27 37 26 -25 41 39 38 31 -30 30 -32 43 -34 -35 -36 -37 -38 -39 -40 -41 44 42 -44 -45 -46 -47 -48 49 50 -51 -52
leaf_value=0.013764952316148363 -0.019587430356332928 0.095924937748775571 0.14118834508399325 -0.00091484106937520968 -0.083997224870083487 0.042445690001831869 -0.13409993549843732 0.1436236388810129 -0.048431935551847605 0.010242400525823335 0.0062539156046068443 0.00024969385671719653 0.021151876669191917 -0.0045475403198836995 -0.019265101274958167 -0.0099532249174088226 -0.053387225026820098 0.069510060621560635 -0.090610069731494547 0.1082391527600227 0.083304444327783875 0.032074232423954858 0.14162225027611539 0.0024939894554777604 0.0020455254969815807 0.093798449441772652 0.015723351102805119 -0.037621056499009535 0.022845335923628311 -0.020289093160185206 0.016678276670008787 -0.12734922107281929 0.026005947861806683 0.021680312466680243 0.0094155618016102255 0.082973277583044278 -0.02714741984514198 -0.042182236789836354 -0.017152420087575997 0.04993792453594733 -0.032521658380578411 -0.1198319242633912 -0.014522099443588342 -0.018949906385687346 -0.11152403734937864 0.080623137772384196 0.0041728640745163385 -0.13974820445287819 0.13650089598843718 -0.16835587753129105 0.14793898502409777
leaf_weight=125.70597007870674 848.29520516097546 10.701288819313048 18.510393932461739 13540.129044786096 161.3171334117651 808.41489337384701 56.709673255681992 75.18222850561142 348.35300682485104 18220.488292858005 13031.099890530109 29840.903437763453 1897.83701620996 15577.782035663724 9782.4377706199884 15920.804044306278 163.60875687003136 12.395650103688238 11.673188701272009 14.493895068764685 21.099726930260658 48.683917701244354 13.477904513478277 3117.3799450099468 30.86661995947361 94.979859784245491 259.14563825726509 309.44160822033882 2619.1073562651873 203.13966317474842 531.79726213216782 31.974228844046593 83.834798395633698 1612.8478284031153 11.872400373220442 15.291450455784796 501.71757580339909 78.327334031462669 330.8380538225174 323.36029416322708 166.42095723748207 12.94442307949066 133.18571884930134 14.97068729996681 16.591791436076164 20.162859737873077 25.315269306302071 13.940826088190081 228.09378725290298 10.973083540797232 9.9245704710483533
leaf_count=504 3397 54 83 54206 684 3284 267 332 1460 73047 52218 119550 7655 62335 39173 63713 656 50 53 59 85 196 54 12477 124 387 1039 1243 10566 815 2134 128 336 6471 55 62 2011 320 1327 1315 671 52 535 60 67 81 102 65 1167 50 46
internal_value=4.11297e-06 -0.00103963 0.0672219 -0.00128613 -0.00787077 0.0154413 -0.014843 0.000986493 0.00387748 0.0107905 -0.00229957 -0.000312042 -0.00241789 -0.00175661 -0.019927 -0.00579922 0.00551439 0.0262633 -0.0218681 -0.0681492 0.00397885 0.00598488 0.0078615 -0.00222943 0.0290398 0.0309957 0.0159165 -0.0261406 0.0274683 -0.00524241 0.00646034 -0.0313863 -0.0240577 0.0226743 0.12948 -0.0212979 -0.0189505 -0.0137194 -0.002712 0.059896 -0.0285217 -0.00911221 -0.0238506 -0.0927808 -0.039684 0.0330933 0.0256493 -0.132651 0.135212 -0.152348 0.136978
internal_weight=131359 123040 442.701 122597 31456.3 8319.03 13804.8 91140.6 48484.9 18295.7 42655.6 30189.3 17651.4 17475.6 9839.15 29460.9 13194.7 4279.04 182.109 175.811 4039.99 145.522 3578.67 3965.68 4043.02 3845.86 2216.31 461.321 3427.52 1362.36 734.937 440.221 393.276 1626.33 260.592 236.015 627.424 127.011 589.984 418.34 220.724 197.16 146.13 46.9449 183.013 51.0295 37.7109 36.5871 248.72 24.9139 238.018
internal_count=526821 493318 2089 491229 126047 33503 55314 365182 194389 73379 170793 121010 70733 69990 39440 117919 52874 17296 767 743 16207 599 14355 15874 16344 15552 8891 1852 13850 5464 2949 1767 1579 6525 1322 952 2515 516 2366 1702 890 792 587 188 738 205 152 168 1267 115 1213
is_linear=0
shrinkage=0.1


Tree=7
num_leaves=57
num_cat=0
split_feature=15 29 50 50 38 30 8 27 52 39 59 67 46 33 51 46 69 60 51 15 51 50 46 17 28 49 59 53 36 41 17 59 31 33 41 34 28 69 31 3 18 14 7 34 43 32 50 34 39 11 38 75 37 52 51 61
split_gain=174.775 200.876 435.107 248.082 214.147 140.105 151.242 124.118 110.745 103.32 154.394 89.6399 76.2377 100.93 63.2042 62.0462 56.9923 109.035 60.0471 49.4494 47.3867 46.0741 44.1809 40.5118 40.1875 35.2454 30.2966 26.6695 26.5852 25.513 24.6412 24.6264 24.5275 23.9488 23.182 26.279 25.024 22.4785 22.4783 20.7566 19.9518 19.6641 17.6305 16.9538 22.4645 15.9602 14.0241 13.8723 12.9413 11.0659 9.93213 27.5976 7.09545 7.05779 5.5331 1.41912
threshold=-0.04864955745615198 0.016638388506946131 0.0062063565749776199 0.0045458920696085136 7440046.0000000009 -0.16275752801729784 999.99690907532056 47.417851003241957 0.038712580468653751 64.189892181136855 0.036769742477151118 3.3503303460388998 1.0222510963877487 18.759074978818422 0.76720443502331825 1.1094704534947937 2.438416528469936 0.059219111092892344 0.049366510687917413 -0.085121136818564647 0.36736793444695448 0.27452151731883073 1.090247198428892 0.026831905914929573 0.28525153073988646 32.892879596275449 0.023223181896174453 2049821.6827264621 1166420.7250000003 -0.14492651331819742 0.13101048207662522 0.25191936982744262 24.72803297269795 26.777410759821375 -0.14492651331819742 -16.125056226452283 -16.954366085433772 4.2272154560516144 28.269843107831022 203.48333740234378 -0.070574324482892123 986.98810394287125 981.62622851503215 -12.791651387969855 0.63750000000000007 7.240797422740374 0.34811370464267227 -0.52806506424740562 43.189663466252327 12.092418136251974 771301.00000000012 45.029095606365992 0.13274320654238794 0.066166624460655063 0.013623825263146481 0.0019928175883090851
decision_type=2 2 8 8 2 2 2 10 2 2 8 2 10 10 8 10 2 8 8 2 8 10 10 2 2 10 8 2 2 8 2 10 10 10 10 10 2 2 10 2 8 2 2 10 10 10 10 8 2 2 2 2 10 2 10 10
left_child=8 3 4 7 5 42 -7 52 25 10 30 -12 16 20 19 -15 17 -4 -18 34 -14 22 -21 54 43 29 27 -11 31 49 -5 32 -27 46 36 -36 -10 -23 -28 -33 -31 -35 -3 45 -45 -16 -30 -42 -26 -1 51 -9 -2 -50 -6 -52
right_child=1 2 12 9 23 6 -8 50 14 26 11 -13 13 15 24 -17 18 -19 -20 21 -22 37 -24 -25 48 28 38 -29 33 40 -32 39 -34 41 35 -37 -38 -39 -40 -41 47 -43 -44 44 -46 -47 -48 -49 53 -51 55 -53 -54 -55 -56 -57
leaf_value=-0.040889844397970221 0.017918658265363624 0.17187457867342426 0.021364565444303703 0.014684864461116581 0.14169590670105658 -0.062639303179495995 0.13857090557604432 0.0071967633599114289 0.025733311329495186 0.09357785098107553 -0.020405867570686739 -0.0040241922528254405 0.0061808934098986123 0.0066385692612368737 0.02419959615776783 0.023081009643261395 -0.064831998274720595 -0.0026720823346283538 -0.0035989281054411171 0.012971864417189448 -0.0028769998248516838 0.0060848427996007641 0.038414637751289761 -0.0090319195661939505 -0.020135794557917416 -0.0091654124915001751 -0.016019174923472088 -0.0072466007348593268 -0.020540726623009306 0.094807433223199733 -0.012163074700147871 0.016362033502472454 0.0090316013235907065 0.018621073602253745 0.0034379313584476795 0.032111131686170601 0.066407353282817716 -0.033327639659611275 -0.031286747601422055 -0.029706795393480614 -0.030012947897063175 -0.0068547447345713736 0.044304278760502538 -0.057599452158562353 0.0097294095181073015 -0.021231218437611544 0.079489492389114222 0.031962597631104137 0.02056206719245484 -0.14622015790124973 -0.1332740808217697 -0.13610724240225344 0.10431182948758355 0.094929067132520653 0.072171823246411249 -0.15192219349206962
leaf_weight=17.213119953870773 17.170901000499725 52.502789124846458 2843.1362198740244 4740.4870724827051 347.98635967075825 176.61509472131729 47.378458678722382 18.898736566305161 267.12038084864616 26.48383854329586 3793.7094704955816 27948.030801936984 10744.042955055833 5428.1855296194553 118.24253271520138 3976.0385126918554 161.06525938212872 5612.8381785899401 28100.217813268304 3147.2042556852102 12489.766732975841 323.6090802103281 871.49930757284164 19.3754822909832 18.328528538346291 1328.187427058816 5650.2295549809933 2793.2875650823116 288.14981864392757 14.830425202846527 368.42204719781876 121.23188988864422 1674.6617192178965 1804.5002213716507 394.33430247008801 1687.3790366053581 348.73299852013588 261.76643152534962 1162.7789506465197 506.0184935182333 339.62110900878906 364.11884699761868 13.649963334202765 185.83823004364967 67.575471594929695 223.477717846632 14.732252821326254 40.414447754621506 17.434588313102722 23.717230871319771 105.59523712098598 46.514200508594513 21.297905579209328 47.613773539662361 11.836527541279791 66.513083413243294
leaf_count=69 71 219 11388 18974 1745 733 248 80 1082 107 15183 111914 43110 21783 475 15977 667 22478 112505 12647 50048 1302 3522 79 74 5320 22611 11179 1154 60 1475 486 6713 7237 1601 6837 1423 1054 4657 2028 1363 1460 58 750 272 902 59 162 70 95 505 200 88 194 48 280
internal_value=4.69088e-06 -0.00128166 0.00210742 -0.00635698 0.0823468 0.0176838 -0.0200799 -0.100886 0.0103525 -0.00579572 -0.00338528 -0.0059821 0.00133303 0.00484959 0.0182577 0.0135903 -0.00179285 0.00540971 -0.0039479 0.0209706 0.00131165 0.0146714 0.0184894 0.131824 -0.0109366 0.000702714 -0.015017 -0.00629964 0.00266503 -0.0267717 0.0127488 -0.00278149 0.000982897 0.0106648 0.0317218 0.0266796 0.0487654 -0.0115395 -0.0186249 -0.0208028 -0.0189817 0.0143436 0.145552 -0.0200459 -0.0396455 -0.00551118 -0.0156752 -0.0234222 0.0540841 -0.101924 -0.127874 -0.0947047 0.0657495 0.0749969 0.139409 -0.140481
internal_weight=131302 116784 70024.6 46759.4 669.345 290.146 223.994 275.99 14517.6 46483.4 36850.6 31741.7 69355.3 32638 7980.16 9404.22 36717.3 8455.97 28261.3 7301.65 23233.8 4604.08 4018.7 379.198 678.511 6537.4 9632.78 2819.77 6101.6 435.796 5108.91 3630.1 3002.85 2471.5 2697.57 2081.71 615.853 585.376 6813.01 627.25 394.866 2168.62 66.1528 595.134 253.414 341.72 302.882 380.036 83.3769 40.9304 237.521 65.4129 38.4688 65.0484 359.823 172.108
internal_count=526821 468410 281086 187324 3130 1258 981 1224 58411 186100 147546 127097 277956 130918 32205 37760 147038 33866 113172 29468 93158 18525 16169 1872 2737 26206 38554 11286 24457 1749 20449 14547 12033 9910 10943 8438 2505 2356 27268 2514 1585 8697 277 2399 1022 1377 1213 1525 338 164 1065 280 159 264 1793 785
is_linear=0
shrinkage=0.1


Tree=8
num_leaves=62
num_cat=0
split_feature=46 33 26 51 18 41 27 38 51 30 0 52 51 27 32 37 46 27 62 60 60 53 45 29 67 54 39 44 38 39 59 60 31 34 45 69 41 38 52 9 4 61 37 54 69 38 27 30 50 15 17 41 38 39 33 33 18 27 61 14 34
split_gain=153.448 156.081 122.285 111.808 128.643 88.92 111.345 272.998 108.213 90.8579 90.268 83.4184 81.327 76.8186 75.8586 72.1006 67.4944 67.27 56.9283 55.4211 51.9078 55.8634 51.0317 47.6681 42.9952 53.319 43.4604 47.3178 42.0662 40.0167 72.9693 50.3295 37.9759 43.3958 36.7375 32.2359 32.2299 29.2608 29.0835 28.9833 28.0459 34.1286 31.0752 27.6068 25.9522 25.0186 23.8271 21.1236 18.9021 18.2452 18.7376 17.3544 16.5969 11.0318 10.8777 7.77558 1.75467 1.54304 1.3574 0.628665 0.10644
threshold=0.91963611848627091 23.128038678898328 1.5000000000000002 0.013623825263146481 0.00082089477635338627 -0.0080259990511302934 98.749304557898498 8245695.5000000009 0.0021651356205669601 -0.19319721863449313 999.99499511718761 0.044211219018433036 0.17440118742775637 98.749304557898498 17.859384078361135 2.2290522133783486 1.1005632697552563 35.951781741048244 0.041715652298959072 0.0015467139750078194 0.20623685265520539 80023997.020111635 3.1496024653439885 2.9864441283728533 11.553230813017654 1160816345.1261563 85.806943694164147 0.030002593994140628 3016524.0000000005 69.627405587367733 0.030981983292428409 0.050899609714333362 31.018275238100049 6.135811403776616 10.959415294263994 0.15004218178205322 0.1102473646835818 241500395.50000003 0.033619991375623055 416.81051043330928 2580.5000000000005 0.0045427398169052609 0.55734419443808059 2655169791.7361331 3.2300711296560936 2632625770.5000005 50.491244637601497 -0.021014309872039564 0.32583957808836211 -0.04864955745615198 0.13330868673188365 0.013804466346480861 6086783.5000000009 80.665488773335866 2.3531523149482925 24.702410819460688 0.00011673345006647584 99.997942325459277 0.0019928175883090851 109.11699607849123 0.24144307350908292
decision_type=10 10 2 8 10 10 10 2 8 2 2 2 8 10 10 10 10 10 10 8 10 2 2 2 2 2 2 2 2 2 10 10 10 10 2 2 10 2 2 2 2 10 10 2 2 2 10 2 10 2 2 8 2 2 10 10 10 10 10 2 10
left_child=5 2 29 4 47 14 8 9 28 54 -11 24 39 22 20 16 17 -13 -14 56 21 35 -5 -18 25 38 27 -26 46 30 43 -32 45 -34 -23 -1 48 -27 -3 -10 41 -22 -42 -2 -38 -21 -7 -4 -31 50 -17 -15 -6 -51 -8 -28 -16 59 -30 -9 -59
right_child=1 11 3 13 52 6 7 57 12 10 -12 15 18 51 19 49 23 -19 -20 32 40 34 -24 -25 26 37 55 -29 58 36 31 -33 33 -35 -36 -37 44 -39 -40 -41 42 -43 -44 -45 -46 -47 -48 -49 -50 53 -52 -53 -54 -55 -56 -57 -58 60 -60 -61 -62
leaf_value=0.019106878227428459 0.015182713455907899 -0.014483936152104783 0.023735707449782411 0.0099744051080536723 0.067270296172105642 0.047122101503324992 0.01315082345271542 0.16029077935405101 0.030275899157906169 -0.12985159110285677 0.135599258621561 0.028142855711201061 0.04579188888250367 -0.1213574090145227 -0.13168907511833824 0.0022244067255661189 0.024001997940592715 0.0058245078020573672 -0.0046385196480704825 -0.019677823565198038 -0.080119705795069718 -0.016983989374104683 0.00019754120911863595 0.055111342420787648 -0.052247703486821132 0.026856679344615105 0.035076570634398035 0.0071082428092719158 -0.12566252293241861 -0.019086881625056933 0.016081068942432556 -0.011930700959732922 0.0074426085769125801 -0.047369598229511568 0.0015709641279227846 -0.027966155640545089 0.059501926274548006 -0.0041779601673832501 0.0039303514027431759 0.006933204912510294 -0.0097221118585697885 0.088664327577481883 0.0074846329638004394 -0.024884086831083525 -0.007029668477677122 -0.049421692974010334 -0.071572074538230307 -0.09129514424729808 -0.064503301110047082 -0.013825870471300187 0.069210265229447884 0.012210861757040118 0.13208490622991337 -0.08660457106473185 0.13660936766889614 0.12379507007831202 -0.08477253553507319 0.12723735719502968 -0.15264238324362647 0.14268563876184689 0.13757931896109546
leaf_weight=157.02958889305592 1822.3003085851669 2868.9742212444544 25.294920265674591 6040.3877163827419 57.632403925061226 25.452656492590904 10.430144175887106 27.82246170938015 969.82828648388386 90.764946565032005 14.915672078728674 2065.2790319025517 228.22406631708145 62.543179497122765 41.113752394914627 736.74023389816284 1572.9151362478733 3902.1982931941748 11660.102402850986 5507.192354157567 14.460397586226462 1648.9811996817589 45962.224806323647 717.09831431508064 135.4381527453661 762.59044173359871 13.529423192143438 16069.802704170346 47.110611498355865 3379.0194734036922 696.65658161044121 8089.4833837598562 937.39374096691608 170.75298741459846 3023.7379947900772 1977.4671001285315 90.443844333291054 504.97834874689579 1223.469792291522 1178.0291946083307 1607.8140216767788 69.840377047657967 3022.9946501851082 189.88707362115383 166.67776320874691 298.10022765398026 50.406928107142448 43.275567218661308 94.194204956293106 709.23175397515297 44.267931804060936 11.519154876470564 125.62469306588173 21.457724884152412 22.60086253285408 36.611447617411613 9.8889003247022611 66.194637194275856 30.865353137254715 74.854184001684189 11.712610289454458
leaf_count=631 7296 11487 102 24226 290 104 48 120 3888 383 82 8389 917 295 225 2981 6373 15670 46658 22040 59 6621 184131 2911 563 3055 55 64488 225 13522 2792 32369 3766 687 12109 7930 362 2023 4906 4718 6435 280 12104 760 667 1193 221 187 377 2844 180 49 689 86 97 165 42 395 131 362 60
internal_value=5.42573e-06 0.00198711 -0.000743823 0.00150967 0.0679815 -0.0058948 -3.50965e-05 0.0583641 -0.00134916 -0.0471393 -0.0923861 0.0078047 -0.000434937 0.00118823 -0.0104938 0.0154735 0.0191492 0.0135486 -0.00367039 -0.0187332 -0.0055136 -0.0110997 0.00133318 0.0337436 0.00433876 -0.00342807 0.00689978 0.00661217 -0.0847642 -0.00886033 -0.0057757 -0.00970964 -0.017967 -0.00100334 -0.00497699 -0.0245031 -0.0177895 0.014493 -0.00897883 0.0174732 0.00255104 0.0597122 0.00151046 0.0114017 0.0163732 -0.0212052 -0.0317474 -0.0488615 -0.0203186 -0.00460507 0.0060212 -0.100583 0.111701 -0.0159631 0.0976251 0.0998563 -0.122592 0.139404 -0.136342 0.147456 0.128792
internal_weight=131238 98241.7 66857.2 52328.5 251.828 32996.1 14509.3 319.296 14190 138.712 105.681 31384.6 14036.2 52076.7 18486.8 9769.19 8257.49 5967.48 11888.3 6964.44 11522.3 6807.22 52002.6 2290.01 21615.4 5360.01 16255.4 16205.2 153.836 14528.7 10798.3 8786.14 6913.44 1108.15 4672.72 2134.5 3730.34 1267.57 4092.44 2147.86 4715.11 84.3008 4630.81 2012.19 257.122 5805.29 75.8596 68.5705 3473.21 1511.7 781.008 74.0623 183.257 730.689 33.031 50.1409 51.0027 180.584 77.976 102.677 77.9072
internal_count=526821 394290 268114 209969 1268 132531 58409 1547 56862 610 465 126176 56181 208701 74122 39434 33343 24059 47575 27953 46169 27291 208357 9284 86742 21471 65271 65051 681 58145 43217 35161 27686 4453 18730 8561 14928 5078 16393 8606 18878 339 18539 8056 1029 23233 325 289 13899 6091 3161 344 979 2930 145 220 267 937 356 482 455
is_linear=0
shrinkage=0.1


Tree=9
num_leaves=50
num_cat=0
split_feature=46 33 51 38 67 39 27 31 51 28 50 70 52 37 51 39 34 41 34 27 27 51 14 50 37 34 59 38 50 41 30 15 41 32 62 60 45 36 69 17 27 38 44 37 29 32 54 27 38
split_gain=131.595 143.356 122.625 132.067 90.3896 86.8439 86.0108 83.53 69.9963 117.84 70.7031 68.5765 65.2786 52.0334 51.9146 50.6337 47.1089 46.7271 63.2544 38.7501 38.5869 40.191 48.9955 47.9135 37.8445 37.1215 37.0299 36.5516 35.5885 34.4521 31.5801 28.3068 23.6994 21.5941 17.8274 15.2954 13.4986 12.8259 17.5701 11.2741 8.86524 5.85493 2.14851 1.98921 0.760886 0.332982 0.293968 0.293533 0.018587
threshold=0.85672608808930806 28.862339941066161 0.013623825263146481 6428150.5000000009 51.635398065569056 88.414033106753664 98.749304557898498 91.845655371154592 0.0021651356205669601 0.48571820380100666 0.0062063565749776199 2.1792703411276007 0.059346750463039943 0.54962964687100579 0.013623825263146481 71.196404141186505 0.11415825428673269 -0.014308176458569711 -12.267713624078077 47.417851003241957 99.997942325459277 0.34073821536020193 101.92408946990967 0.31942682868443584 2.2290522133783486 0.28568626742090114 0.064699798373828984 1034151295.5000001 0.375053822445581 0.14976484976654372 -0.021014309872039564 -0.10705645525060099 -0.16662546215163584 33.355919973964028 1.0000000180025095e-35 0.0087884597553357976 27.641306164803307 11664428.375000002 17.640967215534783 0.091917370297688331 88.97825316881331 624258.50000000012 0.030002593994140628 0.69189464967849368 0.15104322483662222 39.457873201466164 35781998.954453282 99.997942325459277 65777970.000000007
decision_type=10 10 8 2 2 2 10 10 8 2 8 2 2 8 8 2 10 10 10 10 10 10 2 10 10 10 10 2 10 10 2 2 10 10 10 10 2 2 2 2 10 2 2 8 2 10 2 10 2
left_child=5 2 3 7 13 8 11 30 9 19 25 -6 20 26 16 -15 -7 18 -12 -1 21 22 -3 -23 28 35 -4 -19 31 33 -2 -14 -30 36 -8 -10 -16 38 -26 -39 -5 -21 -18 -11 -42 48 -9 -44 -22
right_child=1 12 4 40 6 14 34 46 10 43 17 -13 24 15 29 -17 42 27 -20 41 45 23 -24 -25 37 -27 -28 -29 32 -31 -32 -33 -34 -35 -36 -37 -38 39 -40 -41 44 -43 47 -45 -46 -47 -48 -49 -50
leaf_value=0.038844231600620553 0.034731089825935493 0.02502725532543968 -0.0018677418472805897 0.036693671236136538 0.0070318725753084335 -0.071838229772371642 0.025905035924371968 0.12605460551226472 0.04152573123502562 0.098848222061060198 0.0026959207815192804 -0.00030835999745669398 0.059279581745325632 0.00022715322887012043 0.042633175773896942 -0.0094192569297447508 0.08454614076213085 8.9203353700217003e-05 -0.020347644178604813 -0.078019112542424274 0.13358220454872066 0.01674970684341864 -0.0020425299575607694 -0.0062074258383354652 0.0083481380983407537 -0.096608813068780344 -0.01278617511610243 -0.029258808403014716 0.038331524778827834 0.14210369518178476 -0.071048626831838949 0.029301411076485925 -0.02205352122331438 -0.10797673612686663 -0.11506716360649041 0.12157070698142583 -0.066962330901672404 0.022411714191634874 -0.032519922659284425 0.12330525134161863 0.10555636717293547 -0.12449783494682443 0.13719341597542142 0.15667814272940822 0.13093816287754315 0.10756490476812895 0.1458321355354156 0.12549252763165283 0.12735918869691373
leaf_weight=18.475091636180878 40.522228702902794 760.03145830333233 4836.4333281517029 11.181533977389334 20553.463893607259 13.80489234626293 10.192369192838667 25.895329281687737 39.820921555161476 9.7817116528749484 1500.4516907781363 33429.048140004277 413.16810770332813 28857.129581958055 35.36006373167038 6705.8372315764427 11.309284433722494 4260.5270306617022 5779.9926156997681 34.781295210123062 10.660893410444265 5008.5597919225693 5559.9264840632677 1110.7363645881414 464.59753268957138 12.010572910308836 8682.7284814417362 471.32097260653973 98.634241446852684 14.110302180051802 92.989695265889168 1325.3752092421055 190.57160340249538 23.374087378382683 74.836060523986816 59.604854002594948 16.474399000406265 43.109055772423744 135.98968283832073 14.904450193047522 12.866368383169172 122.76677763462067 39.875264346599579 15.176780864596365 143.94405372440815 9.0670423060655576 10.588493108749388 46.373106017708778 8.7298659831285459
leaf_count=76 168 3058 19358 48 82447 64 44 152 174 50 6020 133934 1716 115558 142 26843 59 17064 23200 155 59 20140 22349 4468 1882 50 34762 1886 404 59 402 5399 775 99 360 274 66 175 548 61 76 627 209 78 833 54 53 291 52
internal_value=5.69777e-06 0.00103486 -0.00029532 0.0598399 -0.000492363 -0.00974262 0.00232809 -0.0023003 -0.0108051 -0.0693366 -0.00983484 0.00248638 0.0101187 -0.0035993 0.0555116 -0.0015918 0.101062 -0.0105704 -0.0155985 -0.0981698 0.00707215 0.00680606 0.00121285 0.0125827 0.0242582 0.0694519 -0.00888014 -0.00283404 0.0310225 -0.00128062 -0.0389434 0.0364258 -0.00145908 -0.0281818 -0.0981688 0.089512 0.00780075 0.00343166 -0.00090553 0.0483326 0.122721 -0.114237 0.125528 0.134013 0.128856 0.123384 0.131795 0.130902 0.130781
internal_weight=131167 118642 103488 337.988 103150 12525.4 54067.5 169.996 12324.7 200.982 12123.7 53982.5 15154.1 49082.1 200.681 35563 111.363 12012.3 7280.44 176.023 12467.7 12439.3 6319.96 6119.3 2686.35 111.436 13519.2 4731.85 2027.75 89.3189 133.512 1738.54 289.206 75.2086 85.0284 99.4258 51.8345 658.601 600.587 58.0135 167.992 157.548 97.5577 24.9585 156.81 28.4578 36.4838 86.2484 19.3908
internal_count=526821 476178 415038 1732 413306 50643 216785 775 49654 986 48668 216381 61140 196521 989 142401 623 48170 29220 858 50180 50015 25407 24608 10960 498 54120 18950 8294 366 570 7115 1179 307 404 448 208 2666 2430 236 957 782 559 128 909 165 205 500 111
is_linear=0
shrinkage=0.1


Tree=10
num_leaves=49
num_cat=0
split_feature=46 30 50 27 50 34 46 60 44 51 38 51 33 17 67 51 60 41 45 38 37 18 62 51 33 17 41 52 19 51 7 7 28 60 39 67 17 31 62 17 15 31 38 30 18 41 32 17
split_gain=113.489 127.065 67.718 78.99 195.293 101.183 72.9601 100.679 67.4047 106.559 63.7063 62.3686 53.7773 83.9212 52.0172 50.4964 48.1598 46.1283 52.013 46.7389 40.4911 39.775 37.4353 37.2926 32.9075 49.9368 37.0584 32.7775 31.3728 30.2401 27.6868 25.8335 25.6338 24.7735 24.6861 20.1563 19.9227 17.3772 17.2723 19.7817 16.0389 14.4463 12.2432 16.1168 14.3095 7.5354 1.91966 0.0180279
threshold=1.0139351942318553 0.35524990330023548 1.0000000180025095e-35 98.749304557898498 0.0062063565749776199 0.28568626742090114 0.85672608808930806 0.3957506288001697 0.030002593994140628 0.10254261353004653 8611122.5000000019 0.013623825263146481 22.204870954758096 0.064616808621893299 9.0051394550024213 0.10254261353004653 0.045612148052714248 0.0021733870214425354 8.7179973476989066 345966252.00000006 1.580758958165204 0.00082089477635338627 0.23881845107759012 0.56589829237429445 17.508164215348824 0.035410441656485422 0.037841107924531776 0.063250459095406483 0.0007228422351380333 0.013623825263146481 128.05198325969721 23.141368699175199 42.168391046760128 0.067859069319819471 81.946491390248397 67.397556235391846 0.077971905482824719 30.040938859054467 1.254592026629535 -0.022707069368830719 0.049972672571820996 14.925927076287941 1536411.5000000002 1.0000000180025095e-35 0.0070582641901890579 -0.002684499621475313 43.29294424662492 0.077971905482824719
decision_type=10 2 8 10 8 10 10 8 2 8 2 10 10 2 2 10 10 10 2 2 10 10 10 8 10 2 10 2 10 10 2 2 2 10 2 2 2 10 10 2 2 10 2 2 8 10 10 2
left_child=2 8 46 6 5 28 17 14 30 10 16 22 13 -11 -8 -14 -10 18 -4 -19 24 -13 -6 -9 25 32 27 -26 -5 -12 36 -27 -3 38 40 -36 45 -28 41 -40 -35 -22 43 -32 -44 -2 -1 -48
right_child=1 20 3 4 11 -7 7 23 9 12 29 21 15 -15 -16 -17 -18 19 -20 -21 33 -23 -24 -25 26 31 37 -29 -30 -31 42 -33 -34 34 35 -37 -38 -39 39 -41 -42 -43 44 -45 -46 -47 47 -49
leaf_value=-0.077454268970561055 0.023620188074477327 -0.018999417193776517 -0.022471587115583874 -0.040738678694785091 0.090702810293253194 -0.103469915467283 -0.009858911142769022 0.018521246172294399 0.0018370116855371621 -0.0084678180788398828 0.13001484984092335 0.016804654281842725 -0.12723437835595205 0.0084893152793871999 -0.0012098572190761454 0.012127957840603892 0.093339533495961219 0.0077176953670421468 -0.0070470803698117401 -0.02211225342470069 0.048082070556188135 -0.13904581993105478 -0.016274345964473892 -0.0031876883816748616 -0.00089986420459262453 -0.090618796691367021 0.02357797357171057 0.029166129340303739 0.12678458554635436 0.060251274371961032 0.028430640733252816 0.00093379466983940047 0.018824017161391756 -0.020590793461601163 -0.066756112131950915 -0.014673660586882501 -0.070279862719844682 -0.0026061477176736103 -0.03941893474398947 -0.0065592088224255343 0.0032021280501226112 0.0027884351114546208 -0.11265516165115859 -0.084870524332950656 0.02074450739678407 0.13334633478282362 -0.12490748824437797 -0.13003277718788897
leaf_weight=10.130515217781065 13.709372609853745 2068.867349177599 3687.3230551481247 11.773271560668944 42.728763684630394 22.557133316993713 8012.9737468808889 3331.206090182066 266.85445715487003 4296.1284053325653 101.11731258034706 22.591786548495293 26.047294348478317 9101.7870877087116 52596.56523154676 14244.695431292057 73.325088620185852 2324.0221915096045 5370.1024216711521 678.63973128795624 75.402005344629288 59.512846648693085 139.529601380229 1037.8411607593298 4061.9488664269447 30.912583485245705 1439.1621505767107 398.13805471360683 221.46575729548931 161.16396848857403 21.881040021777153 10370.373569399118 196.17090225219727 930.07182343304157 176.82960264384747 128.16332547366619 15.520657673478125 307.63644641637802 194.35554966330528 3192.9631260186434 407.43545314669609 1065.3166019171476 75.650189161300659 29.455729424953461 8.9974314868450147 11.51620551943779 33.219560235738754 8.6499160528182966
leaf_count=49 55 8283 14913 53 192 96 32086 13389 1153 17218 605 95 107 36568 210612 57496 303 9309 21521 2716 302 258 563 4170 16270 124 5765 1598 1331 649 92 41540 785 3725 708 513 63 1233 778 12788 1631 4269 359 133 36 60 209 50
internal_value=6.06013e-06 0.00355002 -0.00243654 -0.00236006 0.0364779 0.0987694 -0.00262229 -0.00129648 0.00812295 0.00850782 0.0501135 -0.0237949 0.00760189 0.0030519 -0.00235332 0.0118736 0.0215602 -0.00976558 -0.0133265 0.000975748 -0.00164449 -0.0961622 0.00880544 0.0133644 0.000654669 -0.00226838 0.0066197 0.00178403 0.118328 0.0871472 -0.0534423 0.000661701 -0.0157236 -0.0086767 -0.0191972 -0.0448702 0.0188649 0.0189666 -0.00486051 -0.00844461 -0.0133429 0.00578236 -0.0751084 -0.0365787 -0.0984757 0.0737133 -0.116515 -0.125966
internal_weight=131102 53491.6 77610.8 77558.8 520.159 255.796 77038.7 64978.6 28447.8 28271.1 602.461 264.363 27668.7 13397.9 60609.5 14270.7 340.18 12060.1 9057.43 3002.66 25043.7 82.1046 182.258 4369.05 18873.2 12666.3 6206.89 4460.09 233.239 262.281 176.731 10401.3 2265.04 6170.54 1642.5 304.993 40.7462 1746.8 4528.04 3387.32 1337.51 1140.72 135.984 51.3368 84.6476 25.2256 52 41.8695
internal_count=526821 215209 311612 311304 2588 1480 308716 260257 114897 114099 2710 1108 111389 53786 242698 57603 1456 48459 36434 12025 100312 353 755 17559 75598 50732 24866 17868 1384 1254 798 41664 9068 24714 6577 1221 178 6998 18137 13566 5356 4571 620 225 395 115 308 259
is_linear=0
shrinkage=0.1


Tree=11
num_leaves=54
num_cat=0
split_feature=34 27 51 51 60 33 70 46 70 51 19 52 27 51 35 29 69 51 15 59 67 30 38 28 33 41 33 37 30 38 39 29 33 37 37 45 54 30 38 48 35 53 67 32 30 10 60 4 15 50 45 30 33
split_gain=102.767 151.919 156.755 120.587 110.752 107.49 105.783 87.7225 87.1493 104.642 71.5387 68.9019 58.683 53.1892 50.3097 49.2243 48.0031 44.3287 42.6847 42.8561 40.0408 39.9077 36.4735 28.33 27.6263 40.717 27.3713 27.0145 25.9785 25.6211 23.8888 23.3986 21.9145 21.2914 20.794 20.1853 24.6112 24.2101 20.1632 19.4287 17.6217 14.7754 14.0215 19.0527 12.9571 12.31 6.98831 4.47901 2.62406 0.531891 0.413109 0.194493 0.169325
threshold=-6.3790584454269208 99.997942325459277 0.0021651356205669601 0.013623825263146481 0.087202204049623686 21.719921226540137 2.6967695949713337 1.0538227908506046 0.45008574011460217 0.11277990123582386 -0.034414099926392175 0.034386295524816465 98.749304557898498 0.12030777830234135 -0.27569389343261713 0.016638388506946131 3.1584141028416024 1.0000000180025095e-35 -0.089186467230889452 0.18256270321986048 50.996792033354012 -0.16275752801729784 361107.50000000006 1.4881997436540362 34.918406358349564 -0.082253579989054831 18.907200955095231 0.35118297031721796 -2.4328162891708929 4009635796.0000005 69.398820763761179 -56.68051309228251 31.97761517964728 0.47051006197695455 0.42335549195899075 6.4552479644394412 1895398.3463081534 -9.7218462629099829 4191093.0000000005 875.97256507217242 3.1000213623046879 582361392.99300098 23.137399382252003 14.868883889636059 -0.16275752801729784 1686.5579107618489 0.79115937399034586 1157399.5000000002 0.0016437544867557213 0.0062063565749776199 0.57117609472952979 0.15242414688891984 22.124773052327644
decision_type=10 10 10 10 10 10 2 10 2 10 10 2 10 10 8 2 2 10 2 8 2 2 2 2 8 10 10 8 2 2 2 2 10 8 10 2 2 2 2 8 10 2 2 10 2 2 10 2 2 8 2 2 10
left_child=10 2 6 40 8 13 15 -7 9 -4 24 14 31 -6 20 22 -10 -17 30 32 26 -5 -2 -21 25 35 -12 44 38 -30 39 -8 -20 45 -22 36 -1 -37 -29 -13 48 -35 43 -27 46 -16 -26 -44 -3 -50 51 -23 -14
right_child=1 3 4 21 5 7 12 -9 16 -11 11 18 52 -15 33 17 -18 -19 19 23 34 50 -24 -25 27 42 -28 28 29 -31 -32 -33 -34 41 -36 37 -38 -39 -40 -41 -42 -43 47 -45 -46 -47 -48 -49 49 -51 -52 -53 -54
leaf_value=0.084675787224986018 -0.050302445344483963 0.062503294193393608 0.046844280709060784 0.082526011298220694 0.036385837422028437 -0.0026909332476443859 -0.13253104216363273 0.011663204219815438 0.0061855384760777111 0.0082182165010887456 -0.047174242625042245 0.032224613715065416 0.12499271461675857 -0.0095709841015203176 -0.010376688831515466 -0.042472300479810508 -0.0010298516670762474 0.057689015314757099 0.014075946889897512 -0.0015957839511501768 -0.0012399763184743919 -0.13218132280373893 -0.10335056501634937 0.02212797992899268 -0.051500601223573562 -0.005996241290991737 -0.0033576358986397792 0.037334003333427963 0.043664696776517124 -0.090227895365024957 0.13924388192223064 -0.004755318931541172 0.032416118738139224 0.038667252089498928 0.020202239565736007 -0.080517623566323415 -0.045169001418791654 -0.00060452501782426102 -0.018708341045578124 0.011354753086741991 -0.017039767300712709 0.09316690922477637 -0.10108740617961985 -0.097628750946929174 0.015477939901043063 0.094720962831710886 -0.12908157221524127 -0.17372144355355243 0.11963655327441379 0.13824765058764363 -0.14905087580402093 -0.11237716829803797 0.14111184862136389
leaf_weight=15.455831155180929 268.45688489079475 7.8967785984277716 791.49643486738205 11.933315277099608 254.49790592491627 22785.433495208621 14.762164443731306 5235.8561403155327 12084.858984351158 6159.412158831954 146.57465632259846 1457.6946175247431 23.923491552472115 24106.731477707624 88.720254495739937 277.21944044530392 38899.904363781214 52.564227849245071 3356.4679599702358 2855.8847831189632 720.28997340798378 12.811141148209577 250.59606778621674 611.06204584240913 26.141342163085938 42.434117436408997 5213.7609367966652 81.496500015258789 224.4917995929718 15.263414219021795 18.740520253777504 491.32757586240768 808.44124262034893 137.51231314241886 1215.456202596426 40.48239965736866 262.91717101633549 596.73392577469349 302.46381217241287 642.76652324199677 10.051351323723791 77.940235331654549 22.360823452472687 48.770982459187508 17.197598189115524 12.745915859937666 20.88849775493145 13.686224192380903 160.60840168595314 16.979436308145523 10.216762080788611 8.0907647013664228 8.9567137211561185
leaf_count=63 1129 49 3284 61 1030 91265 60 21059 48428 24718 588 5993 152 96538 356 1144 155955 247 13493 11527 2889 71 1213 2467 105 171 20902 330 910 62 78 1986 3273 553 4879 163 1060 2399 1225 2623 48 312 90 196 69 51 84 55 1180 89 53 51 45
internal_value=6.33749e-06 -0.00115026 -0.00132051 0.0785609 -0.000900355 -0.00423256 -0.0347194 -8.82262e-06 0.00211246 0.0126165 0.00678697 0.00871942 -7.18106e-05 -0.00909088 0.00159027 -0.0567189 0.000680404 -0.0265076 0.0142854 0.010799 -0.000103982 -0.0729495 -0.0759138 0.00258562 -0.0126003 -0.0228617 -0.00455577 0.00295481 0.00931382 0.0351408 0.0268411 -0.00848242 0.0176359 0.0405951 0.0122236 -0.0154952 -0.0379598 -0.00568141 -0.00681322 0.0258382 0.11192 0.0583826 -0.0758642 -0.0549958 -0.0587978 0.0028254 -0.0859585 -0.128665 0.118908 0.121416 -0.132571 -0.124515 0.129384
internal_weight=131039 111945 111706 238.588 110318 52382.5 1387.81 28021.3 57935.7 6950.91 19094.8 17364.1 538.97 24361.2 7613 848.837 50984.8 329.784 9751.06 7631.86 7296.08 43.052 519.053 3466.95 1730.78 1042.84 5360.34 687.943 623.716 239.755 2119.2 506.09 4164.91 316.919 1935.75 915.589 278.373 637.216 383.96 2100.46 195.536 215.453 127.252 91.2051 64.2274 101.466 47.0298 36.047 185.485 177.588 31.1187 20.9019 32.8802
internal_count=526821 449855 448253 1602 442277 209892 5976 112324 232385 28002 76966 69984 2243 97568 30530 3733 204383 1391 39454 30760 29258 236 2342 13994 6982 4197 21490 2785 2527 972 8694 2046 16766 1272 7768 3685 1123 2562 1555 8616 1366 865 512 367 258 407 189 145 1318 1269 175 122 197
is_linear=0
shrinkage=0.1


Tree=12
num_leaves=47
num_cat=0
split_feature=33 29 51 38 36 39 41 8 27 51 18 52 69 60 51 18 27 41 37 49 39 34 37 46 50 38 45 15 31 50 10 33 33 15 48 14 40 70 50 70 67 31 27 9 45 61
split_gain=88.0424 119.964 174.76 120.93 62.4357 76.2915 70.0056 62.1861 60.5962 84.6995 66.2541 57.4382 48.626 53.5945 53.4164 93.1248 47.5611 46.871 46.6769 52.155 44.8101 44.3618 45.5991 42.4377 41.7451 39.2033 36.7856 36.0439 35.7739 34.9032 37.7671 31.59 30.863 30.679 28.8904 25.3911 16.9003 13.1966 10.5979 9.59293 1.29783 1.74299 0.840146 0.405794 0.362463 0.0136488
threshold=25.117071784592966 0.048723525109130861 0.013623825263146481 6711918.0000000009 78428.250000000015 55.846815258813074 0.0038981434201391415 999.99690907532056 99.997942325459277 0.0021651356205669601 0.00011673345006647584 0.060806673408899774 2.7088391777098977 0.050899609714333362 0.049366510687917413 0.0006544829085787827 47.958911820040903 -0.0075693295115755021 0.46641304870059497 32.892879596275449 76.352958981562111 6.7466787480120329 2.2290522133783486 0.97673806636069327 0.23348611588706988 2632625770.5000005 0.48497689073430644 0.0079805505831486417 18.542295191177413 1.0000000180025095e-35 127.46425596174082 12.631830447241081 46.605799098867557 0.16397204094007692 2869.0246235874688 655.72327186584482 56.434485976875507 2.1238552822042394 0.060505269518498904 5.0644522584647866 99.997527006134263 55.395846537653689 99.997942325459277 1004.3782947836935 0.95191920211002246 0.028844171833354072
decision_type=8 2 8 2 2 2 10 2 8 10 8 2 2 10 8 10 10 10 8 10 2 10 10 10 10 2 2 2 10 8 2 10 10 2 10 2 10 2 8 2 2 8 10 2 2 10
left_child=1 4 3 7 29 6 25 33 9 10 16 18 13 20 15 -14 32 24 19 -11 -4 22 -13 -16 -7 -6 -8 -20 -19 -1 31 -31 -2 -3 -32 -15 -5 -18 -12 -23 41 44 -38 -9 -10 -46
right_child=8 2 12 36 5 17 26 43 40 11 38 21 14 35 23 -17 37 28 27 -21 -22 39 -24 -25 -26 -27 -28 -29 -30 30 34 -33 -34 -35 -36 -37 42 -39 -40 -41 -42 -43 -44 -45 45 -47
leaf_value=-0.11974111144316431 -0.041891282391666784 -0.033710031788930381 0.01977283787192155 0.010473942558660928 -0.0026682876131838714 -0.024361761668504227 -0.069366358932255109 0.1439918915773874 0.093202602033006815 -0.047398046975151757 0.16377653180015839 0.023848103457253973 0.11018387167970074 0.00061099379317800602 -0.0047995951401349768 -0.10573345601401399 -0.026415387986365359 -0.00011343912180008184 0.0041375677193467514 -0.0032285290529240293 0.0018549802589349726 -0.058027170869103063 -0.0017263653699932391 0.0014071107408279819 0.04014124374056325 -0.037686269384308475 0.013098416821183649 0.021649643595952686 -0.012077323255002643 -0.055718976128113031 -0.023693127984349603 0.032624470467919962 0.091345273782446057 0.13268708911360105 -0.0062114100345468451 0.079034400874173169 0.13012428243921134 -0.11536876505026601 0.034943992626744795 0.00015041434255826851 0.080284816468021603 0.16909389325138782 0.11724038381594543 0.120003815861839 0.11771311687452327 0.12284228985917221
leaf_weight=32.728937715291977 93.927729964256287 139.31672629714012 3681.9419553875923 13.928658679127691 12081.750162735581 2621.3254642188549 54.88451611995697 9.7031274735927564 6.7968923375010482 285.15367384254932 13.630005031824114 3014.5066484957933 24.636477336287498 9783.7497201859951 16868.323144927621 105.57466764748096 19.25713124871254 4250.3000171929598 21798.308370321989 4277.3071528077126 2247.8420573920012 93.92146073281765 906.92612040042877 31752.967033341527 104.32670642435551 328.38773718476295 3750.5407820791006 1242.3027836680412 6066.7946472615004 48.291432708501816 3129.6076863110065 250.11469721794128 21.334616050124168 12.037639603018759 1354.4644309729338 41.459664866328239 112.28214883804321 124.50889471173286 12.012543439865111 40.592063933610916 8.5231084525585157 6.8750834167003623 92.151266843080521 25.810870304703712 19.710417047142986 7.0413861647248259
leaf_count=238 387 589 14792 60 48468 10510 220 50 54 1147 63 12356 113 39220 67542 525 80 17011 87608 17153 9023 378 3673 127312 418 1316 15014 4988 24301 195 12559 1003 87 68 5422 166 663 604 49 163 54 40 746 189 155 49
internal_value=6.27493e-06 -0.00146769 0.00105456 0.0665197 -0.00627269 -0.00453613 4.35208e-05 0.00746752 0.00456672 0.00439636 -0.0499068 0.00488464 0.000643304 0.00547298 -0.000917498 -0.064881 -0.0650858 -0.0102298 0.00325189 -0.00598912 0.0129806 0.0159964 0.0179334 -0.000746199 -0.0218929 -0.00359491 0.0119091 0.00508178 -0.0071486 -0.0168245 -0.0161201 0.0183277 -0.0172297 -0.020476 -0.0184126 0.000941919 0.117055 -0.103454 0.103423 -0.040471 0.115747 0.123224 0.124317 0.126558 0.113824 0.119063
internal_weight=130978 98985.2 64911.7 405.23 34073.5 29258.3 16215.6 186.868 31992.6 31943.7 284.671 31659 64506.5 15755 48751.5 130.211 259.028 13042.7 27603.1 4562.46 5929.78 4055.95 3921.43 48621.3 2725.65 12410.1 3805.43 23040.6 10317.1 4815.21 4782.48 298.406 115.262 151.354 4484.07 9825.21 218.362 143.766 25.6425 134.514 48.9469 40.4238 204.433 35.514 33.5487 26.7518
internal_count=526821 397733 261058 2365 136675 117258 65018 896 129088 128736 1270 127466 258693 63201 195492 638 1158 52240 110896 18300 23815 16570 16029 194854 10928 49784 15234 92596 41312 19417 19179 1198 474 657 17981 39386 1469 684 112 541 352 298 1409 239 258 204
is_linear=0
shrinkage=0.1


Tree=13
num_leaves=54
num_cat=0
split_feature=34 27 51 60 51 52 70 38 70 51 52 51 30 52 27 41 17 37 29 51 46 50 30 56 38 29 45 69 31 49 39 31 37 36 11 50 44 32 17 56 35 31 17 33 56 31 31 75 15 51 45 30 33
split_gain=79.2735 117.092 111.318 98.0551 96.1522 90.0742 86.1148 70.8621 69.7737 86.563 58.8573 63.5715 49.6762 45.4526 43.5169 37.5856 36.9273 38.0002 35.8596 34.3109 33.4786 36.0253 31.8936 30.7358 29.4684 29.1217 28.4517 26.9944 24.9677 22.5617 21.8034 20.9736 24.0772 18.0159 17.6703 20.5149 17.4627 16.775 16.754 16.6377 16.2109 15.2761 14.9758 14.0856 12.5637 11.7112 9.37799 7.5948 2.58253 0.402806 0.371962 0.162772 0.0745337
threshold=-5.2612682463352485 99.997942325459277 0.0021651356205669601 0.087202204049623686 0.013623825263146481 0.0066279840373927304 2.6967695949713337 2632625770.5000005 0.45008574011460217 0.013623825263146481 0.034386295524816465 0.73192856553026575 -0.10529004342657088 0.048841171149262681 98.749304557898498 -0.14492651331819742 0.00087012906380894975 0.45376688558186662 0.016638388506946131 1.0000000180025095e-35 1.090247198428892 0.23139959709075666 -0.16275752801729784 3.2275050988677969 361107.50000000006 -10.477961767575499 1.8076585610252396 4.984574530696757 16.430991140164554 18.673795626394377 8.9669900971334915 26.312236845029439 0.54962964687100579 2211020.6250000005 235.51346876142699 0.30907901536284393 1190.3616716252657 20.407936110450681 -0.34140288117697665 1.0000000180025095e-35 3.1000213623046879 14.480032568049332 0.29823549762424478 46.605799098867557 3.1251232605073871 49.967350230286094 34.765154585074178 39.149060034406475 0.0016437544867557213 1.0000000180025095e-35 0.65354053082276764 0.16794583682394651 22.204870954758096
decision_type=10 10 10 10 10 2 2 2 2 10 2 8 2 2 10 10 2 10 2 10 10 10 2 2 2 2 2 2 8 10 2 10 8 2 2 10 2 10 2 2 10 10 2 10 2 10 8 2 2 10 2 2 8
left_child=10 2 6 8 40 12 18 -7 9 -4 16 15 -5 -10 33 34 30 39 24 -20 29 -22 -6 27 -2 38 -27 44 47 -17 43 36 -33 -8 37 -36 -32 -12 -25 -18 48 -41 -30 45 -13 -1 -29 -19 -3 -50 51 -24 -16
right_child=1 4 3 5 22 7 14 -9 13 -11 11 23 -14 -15 52 20 17 28 19 -21 21 -23 50 25 -26 26 -28 46 42 -31 31 32 -34 -35 35 -37 -38 -39 -40 41 -42 -43 -44 -45 -46 -47 -48 -49 49 -51 -52 -53 -54
leaf_value=-0.036793961206394478 -0.044421678330243859 0.057130415813930829 0.10744740278136536 -0.0065113082067232396 0.072846972562706308 -0.0039481743017900431 -0.018539821015137455 -0.02398465201297359 0.0018680763514298546 0.0099669579326862948 0.06186300885255136 -0.014747229661913079 0.063667044464247757 -0.0062517943603044275 0.11942125533212836 -0.019333727559966915 -0.10475983113394492 -0.0040181513348696947 -0.039392293870265736 0.050403517499329344 0.029353999304374961 0.0030776598477669946 -0.12550303232742682 0.016153124523989225 -0.094424512707795449 -0.044282796446768052 0.013003822579209928 -0.1685177218326733 0.021096472480560582 0.0090018472214998171 -0.0080674737814984184 -0.010767697047877813 0.0080975016137757577 0.023051927749890466 0.051832834446944448 0.0040575736795530944 -0.12659785851825267 -0.04849531251116769 -0.049469612954055983 -0.043840856961978841 -0.017919015048105728 -0.0013391312785310666 -0.016976858115699989 -0.12078478144688548 -0.066123070341340545 0.060535748367422565 -0.071722293693518735 -0.047801016668157413 0.14182318832864146 0.11608632425308241 -0.14389704620727065 -0.10666070138816407 0.13099106376746988
leaf_weight=154.13847737014294 244.20507204532623 7.5214252024888983 92.333427578210831 151.82685507833958 11.425462663173674 45466.599046215415 330.01166188716888 1836.4016672968864 42290.026803180575 6794.7249847501516 249.84723007678986 405.23600815236568 300.50216682255268 8236.4780451208353 20.468263961374763 291.40756013989449 16.564972013235092 299.39220297336578 267.9529492110014 50.585047423839569 1703.7882910221815 752.08786927163601 12.122019141912466 51.580015659332275 227.80557487905025 95.756290689110756 916.33769807219505 13.324233844876288 2039.2342111468315 7868.9900649040937 3846.5914492309093 964.16005280613899 2267.7045569419861 152.16712997853756 144.6703077852726 237.32373006641865 12.469722226262091 14.577340841293333 158.32615917921066 90.151010230183601 9.8447887748479825 1365.2666753828526 108.82498954236507 18.567456677556038 53.93424217402935 13.440650269389151 40.230505794286728 45.662014678120613 6.3475786298513404 144.86910423636436 8.0773875713348371 7.373411461710929 7.6487024128437033
leaf_count=618 1045 49 484 609 61 182175 1337 7368 169577 27308 1045 1638 1221 33012 153 1175 69 1199 1114 247 6949 3067 77 208 1183 388 3701 54 8188 31753 15411 3869 9106 617 603 971 50 60 638 361 48 5474 437 75 218 54 163 183 32 1237 45 53 44
internal_value=6.3328e-06 -0.00116665 -0.00131294 -0.000953324 0.0738653 -0.00430134 -0.0303867 -0.00472603 0.00183148 0.0112739 0.00516859 0.00975142 0.0401113 0.000544432 0.00163757 0.0124961 -0.000129763 0.0076345 -0.0510583 -0.0251324 0.0110707 0.0213071 -0.067639 -0.00806861 -0.0685544 0.000553503 0.00758382 -0.0286181 0.0151567 0.00798998 -0.00436032 -0.00347345 0.00246946 -0.0054142 0.0359071 0.0221512 -0.00845048 0.0557791 -0.0333442 -0.00510598 0.106599 -0.00397176 0.0191676 -0.0381441 -0.0207818 -0.0289877 -0.0958047 -0.00981206 0.114322 0.117167 -0.125853 -0.118377 0.122569
internal_weight=130917 106677 106470 105169 207.581 47755.3 1300.84 47303 57413.6 6887.06 24239.6 12997.4 452.329 50526.5 510.296 11262.7 11242.2 3965.1 790.549 318.538 10616.3 2455.88 38.9983 1734.73 472.011 1222 1012.09 512.725 2493.11 8160.4 7277.07 7090.93 3231.86 482.179 646.419 381.994 3859.06 264.425 209.906 1471.98 168.583 1455.42 2148.06 186.147 459.17 167.579 53.5547 345.054 158.738 151.217 27.5728 19.4954 28.117
internal_count=526821 429096 427494 421754 1602 191373 5740 189543 230381 27792 97725 52631 1830 202589 2151 45623 45094 15911 3589 1361 42944 10016 236 7008 2228 4935 4089 2073 10007 32928 29183 28436 12975 1954 2679 1574 15461 1105 846 5904 1366 5835 8625 747 1856 672 217 1382 1318 1269 175 130 197
is_linear=0
shrinkage=0.1


Tree=14
num_leaves=61
num_cat=0
split_feature=4 30 51 31 44 51 38 38 30 51 45 60 38 46 33 17 60 28 48 12 30 48 44 38 52 56 36 38 45 45 50 31 19 51 47 61 28 35 67 38 61 36 34 14 51 54 17 41 30 39 17 32 15 36 51 35 28 46 36 62
split_gain=71.283 79.4676 83.9612 79.7748 76.0417 114.567 137.09 111.32 110.549 67.6768 63.2104 62.2569 59.0522 54.7684 48.3498 47.4274 45.3765 61.3972 52.2749 67.2436 50.6883 45.216 40.5271 40.3547 39.4578 39.395 37.4788 42.3841 33.5748 33.333 36.5837 31.9701 30.924 29.3465 28.0064 27.2682 27.0807 26.9399 23.9776 23.9634 34.3587 26.6679 23.0572 22.4612 21.4848 20.1181 18.3366 17.2518 15.6013 14.6637 14.2836 13.488 13.0666 12.5959 11.6368 10.7467 9.24175 6.68395 4.96669 0.575777
threshold=101504.00000000001 -0.5631927987655363 0.21931558594077452 27.061544560726386 0.030002593994140628 0.013623825263146481 7840826.0000000009 15225504.000000002 -0.16275752801729784 0.86508941209289281 6.0561086426529567 0.0015467139750078194 554808135.00000012 0.89650115569476652 33.615770538750247 0.72521408798462461 0.30496076001436173 -1.5619847360036301 22.322974418215932 17.429165959358219 -0.11914447175189134 899.19722570942463 0.4056064326602889 1536411.5000000002 0.013812015976538821 2.4472667963465162 1686374.5000000002 272970478.00000006 5.0783920574575356 64.80532166689629 0.13449089334630338 91.845655371154592 -0.034414099926392175 0.087261730418830813 32499.803662109378 0.045178933560557792 -203.60644813063206 73.700103759765639 1.6916041015230923 95679924.500000015 0.11470628803852985 484142.40000000008 -6.3790584454269208 1324.4775251770022 0.29024379116822513 429020659.26181823 -0.25144774611748932 0.011752831058531059 -5.4708945849698507 76.898255329199472 -0.25144774611748932 19.305718874350045 -0.085121136818564647 4970228.3000000017 0.44770755855652017 -416.15429687499994 -0.62100583208992066 1.122031979155975 257054.50000000003 0.41434818318990968
decision_type=2 2 8 10 2 10 2 2 2 8 2 10 2 10 10 2 10 2 8 2 2 8 2 2 2 2 2 2 2 2 8 8 10 10 8 8 2 10 2 2 10 2 10 2 10 2 2 10 2 2 2 10 2 2 10 10 2 10 2 10
left_child=16 3 4 13 7 6 -6 8 -3 11 25 28 -7 39 -13 21 17 29 19 20 -19 33 42 -12 31 -11 27 -15 -4 30 45 -20 48 -5 47 -26 -23 46 -28 41 -41 -2 52 -32 -36 -1 -34 -31 55 53 -50 -21 -18 -17 -39 -24 58 -51 -44 -9
right_child=1 2 9 15 5 12 -8 59 -10 10 23 14 -14 26 -16 49 22 18 24 51 -22 36 32 -25 35 -27 38 -29 -30 34 43 -33 37 -35 44 -37 -38 54 -40 40 -42 -43 56 -45 -46 -47 -48 -49 50 57 -52 -53 -54 -55 -56 -57 -58 -59 -60 -61
leaf_value=-0.026252313822008572 0.0094285818332699445 0.073217475987692168 0.032063575282587992 -0.064311266038277956 -0.026096800936444967 0.0093448910335419098 0.11476915080512767 0.13111133049641441 -0.10188160457038196 0.015426977645964414 0.019462284462549204 -0.0028961640079739857 -0.0090950244095434028 0.0017360246635170435 0.019304796520480394 -0.082600909588844668 0.064403043118222661 -0.14359066886651028 0.0094927917814797442 -0.026888138776917554 0.022322444686682097 -0.036280335176241178 0.00046399094966889767 -0.016638118530217409 0.0075448341949358629 -0.0469688095324583 0.044815306121559907 -0.019564688340431277 0.0055236242333137897 -0.0032168170517527534 -0.0035818595351498985 0.071606654499575179 -0.016010490549613853 0.016594969904410669 -0.016770246318212903 -0.0061055695628158234 0.0058704586348743626 0.0097964364465871721 0.0081798596893678382 -0.021511010340046231 0.029722496359951563 -0.013928036409672365 0.084913618200876312 -0.035523871308708918 -0.072367310303087642 0.022570872086846799 0.018323849474820179 0.022622457644520907 0.0049789508947497346 -0.02762434411458653 -0.092174985549582603 -0.13387591803869411 -0.074163121074065072 -0.019861826522093923 -0.092750166105561943 -0.10271235825503047 0.029496189891501923 0.070916466602306313 0.15007982506578507 0.099887973075037315
leaf_weight=3054.7609841972589 1002.0503406375647 44.203374750912189 753.07044996321201 45.085646629333496 103.82771246880293 9830.2267213016748 206.47206681966782 26.238924764096737 195.64021170139313 115.43940663337708 436.47282595932484 52792.08481284976 2109.3193490058184 12114.485883891582 999.53167249262333 79.252958312630653 14.355026096105577 22.054554775357246 1722.1152724325657 13.968073353171347 111.54897394776344 156.29439799487591 13.282537564635275 1065.6825393885374 1792.8107439056039 819.67293833196163 183.42231623828411 1012.1970066577196 1298.6773550957441 2034.4939120858908 1748.8005753904581 87.05302232503891 178.24219810962677 7980.4834974259138 473.69554856419563 7964.7881431728601 6152.3763144910336 16.243033349514008 6866.7333741784096 1766.9094544351101 141.36963096261024 954.47545219957829 18.047903463244438 251.84879444539547 81.45976759493351 86.796430066227913 1221.6082755327225 295.97982324659824 85.471235781908035 13.427485287189485 18.388378292322159 75.349518701434135 12.939698591828344 53.671331018209457 34.719417676329613 42.070170074701309 11.951599448919294 14.123562589287756 33.229076728224754 7.6215153634548178
leaf_count=12242 4013 199 3029 184 484 39437 1543 160 1022 470 1758 211535 8452 48704 4043 319 58 89 7078 56 455 629 54 4287 7191 3356 736 4069 5207 8155 7019 502 718 32181 1899 31913 24749 65 27639 7078 566 3823 75 1010 327 348 4916 1185 344 54 74 437 52 216 139 170 50 57 134 67
internal_value=6.34367e-06 0.00104173 -0.000947156 0.00469598 0.00648147 0.00764623 0.0676348 -0.0456484 -0.0696107 -0.00254345 -0.0188549 -0.00183154 0.00608717 0.00116317 -0.00248364 0.0105557 -0.00525481 -0.0066 -0.00200698 -0.0499721 -0.0050656 0.0111609 0.0104215 -0.00614863 -0.00108257 -0.0392661 0.00325208 9.35291e-05 0.0152648 -0.0133453 -0.0181724 0.0124816 0.00676099 0.0161405 -0.00474344 -0.00359751 0.00482619 0.0113521 0.009133 -0.00974233 -0.0177155 -0.00196576 0.0755265 -0.00760283 -0.0249282 -0.0249034 0.0139521 6.48779e-05 -0.0350749 -0.0435064 -0.0122222 -0.117144 -0.00128747 -0.0572685 -0.0600659 -0.077954 0.108686 0.0228909 0.127143 0.124083
internal_weight=130859 109341 70804.2 38536.4 12523.5 12249.8 310.3 273.704 239.844 58280.6 2437.27 55843.4 11939.5 24041.6 53791.6 14494.7 21518.1 19817.5 11789.7 222.921 133.604 14334.2 1700.55 1502.16 11566.8 935.112 20176.8 13126.7 2051.75 8027.84 5142.21 1809.17 1610.03 8025.57 2885.63 9757.6 6308.67 1450.81 7050.16 3864.8 1908.28 1956.53 90.5233 2000.65 555.155 3141.56 1399.85 2330.47 159.212 160.475 103.86 89.3176 27.2947 132.924 50.9625 55.3527 63.2286 27.551 51.277 33.8604
internal_count=526821 440066 285049 155017 51364 49916 2027 1448 1221 233685 9871 223814 47889 96628 215578 58389 86755 79906 47721 1037 544 57743 6849 6045 46684 3826 81148 52773 8236 32185 20619 7580 6480 32365 11566 39104 25378 5838 28375 15480 7644 7836 369 8029 2226 12590 5634 9340 642 646 418 493 110 535 204 224 259 111 209 227
is_linear=0
shrinkage=0.1


Tree=15
num_leaves=60
num_cat=0
split_feature=46 30 38 51 71 44 30 50 27 51 44 51 36 35 17 60 70 52 38 48 41 37 7 1 30 33 17 59 11 53 52 17 36 28 19 46 37 45 33 19 39 54 51 51 50 30 60 7 36 9 38 27 18 29 51 38 37 67 45
split_gain=64.2855 71.3086 56.2274 70.4222 62.2306 59.6354 75.5669 60.9726 50.1769 47.8334 41.0378 60.4738 46.757 41.0035 39.8264 37.8875 48.1512 48.8478 37.6274 34.8902 33.9453 30.5192 29.9943 57.0634 28.4026 28.2575 37.7129 31.3122 27.0804 25.9167 25.6371 25.432 25.063 29.2907 24.4602 22.3543 22.1709 21.805 19.9522 18.3455 40.1012 23.6168 17.7886 16.7371 16.327 15.2715 14.9957 14.8722 15.4321 13.0487 9.29955 14.8943 10.3962 8.64147 7.3148 0.548304 0.38629 0.0643974 0.0285968
threshold=1.0139351942318553 0.35524990330023548 540362254.00000012 0.013623825263146481 0.12899360192917061 0.030002593994140628 -0.16275752801729784 0.0062063565749776199 88.97825316881331 0.63465763000809006 0.030002593994140628 0.12700221442583284 772722.80000000016 -1.2757415771484373 0.10860830688693481 0.30496076001436173 0.012128149908720321 0.011013444602077304 7440046.0000000009 14.549054783086111 -0.058160370202011057 1.580758958165204 1002.5308253307969 845.00844936773422 -18.605752729984143 17.508164215348824 0.035410441656485422 0.021866095719185366 1967.1286680187732 3952658.6820195522 0.063250459095406483 -0.23996713009589651 1622946.9500000004 -1.0822554789528593 0.078412757130086955 0.94533062884676855 0.53805654592735253 92.079086227677962 2.3531523149482925 0.0034718435760354252 80.347011370062759 529275219.52222347 0.39704034501182295 0.56116390471433497 0.28178300312920773 0.35524990330023548 0.050899609714333362 128.05198325969721 10619.725 19.499953181900874 1536411.5000000002 51.684967587322205 0.0070582641901890579 0.72236381328739341 0.32041497008500075 2814575063.5000005 0.90934575263073381 65.966426199852734 1.1068193808475011
decision_type=10 2 2 8 2 2 2 8 10 8 2 8 2 10 2 10 2 2 2 10 8 10 2 2 2 10 2 10 2 2 2 2 2 2 10 10 10 2 10 10 2 2 10 10 10 2 10 2 2 2 2 10 8 2 10 2 10 2 2
left_child=2 10 4 55 15 6 38 8 -7 -9 47 22 20 24 -14 16 19 -18 -8 -1 -13 25 23 -12 35 26 37 43 -24 44 -29 -31 45 -34 -28 -5 -26 -3 -6 40 42 49 -23 -27 -17 -15 -43 48 -2 -41 51 -49 -52 -42 -50 57 -57 -4 -59
right_child=1 21 3 13 5 7 18 9 -10 -11 11 12 14 32 -16 29 17 -19 -20 -21 -22 39 28 -25 36 27 34 30 -30 31 -32 -33 33 -35 -36 -37 -38 -39 -40 41 53 46 -44 -45 -46 -47 -48 50 54 -51 52 -53 -54 -55 -56 56 -58 58 -60
leaf_value=0.00021442946581770909 -0.06589067171344018 -0.016546075362165975 0.13655234359321664 -0.11056563362304134 -0.043820961510772131 -0.031201309205252659 -0.10287032657963079 0.0017346147118469689 0.098250528082656316 -0.0098120062008091972 0.038504489509429383 0.010299440991960547 0.0050188395074396118 -0.06249685542896443 0.015202462179906676 0.025967658558720866 0.010842619832432685 -0.010167508192692871 0.090869604035834162 -0.12005340084788585 -0.0023991380460958323 -0.01929799537909288 0.11339238468757405 -0.040412595146484875 -0.011373653244840364 0.018289750214926907 0.0014795322344534529 0.00084220853402574777 -0.0029819016369176093 -0.02783488917665379 0.023784893087820801 0.011197139471252043 0.0046933135306701946 -0.014709907879566561 -0.026836370380395685 0.010484124069427095 0.0034799451081218994 0.019272944354811344 0.11090083345812383 -0.088943739510357403 -0.060642435868248072 -0.0074405038544755435 0.0043851153789674817 0.061408521112751725 0.090120040543577681 -0.023425557484875553 -0.028055205153254704 0.073207301828000865 0.11812679447947028 0.0035179297419537636 -0.097169378455375099 -0.057436074329666992 0.017515271387513253 0.016141322377695406 0.0043282930167258113 0.084555690363535635 0.11847843024966363 0.1297030953460144 0.12158488055438557
leaf_weight=37.938063144683838 15.689082756638525 2079.2860836982727 9.4708897173404711 42.190476283431053 11.762799918651579 40.738045111298561 136.45844111591578 48172.053584560752 112.99045700579882 3876.4573679119349 579.94777774065733 2788.4729690849781 9583.9605379402637 149.51889933645725 6408.003587782383 186.19365693628788 1236.0789237767458 10563.520323172212 10.819405332207678 66.233778282999992 8589.4530262798071 811.65251618623734 77.798463672399521 108.81727330386639 1411.2592777013779 882.78743535280228 10084.580195307732 4676.8353082090616 26.913240358233452 212.76600167155266 543.6787127405405 774.90397870540619 904.6568409204483 5557.194495305419 314.58607360720634 23.896613612771034 3489.8507324159145 185.08054482936859 28.598157823085785 15.364132046699522 213.07194420695305 1833.4761147499084 520.55614486336708 100.24419765174389 50.413243964314461 302.29008036851883 436.96455143392086 11.352238923311232 11.697638779878618 2322.9850532561541 65.370493091642857 37.730116069316864 8.9914946109056455 15.739867597818373 10.922702699899672 5.3781262934207907 8.9317735657095891 10.525773361325266 7.382282279431819
leaf_count=153 64 8327 52 169 56 186 717 193043 870 15666 2463 11379 38707 599 25843 750 5147 42321 61 414 34521 3251 603 475 5657 3541 40390 18738 108 855 2185 3112 3623 22260 1274 96 14009 741 130 62 855 7343 2085 402 208 1210 1750 49 70 9305 359 176 36 63 44 51 77 63 57
internal_value=6.15225e-06 0.0026768 -0.00183411 -0.00815075 -0.000684652 0.000858108 -0.0554164 0.00106038 0.0639458 0.000874648 0.00611364 0.0064021 0.00561311 -0.00860601 0.00909943 -0.00684132 -0.00856416 -0.00796657 -0.0886377 -0.0762534 0.000712997 -0.00121142 0.0336172 0.0260365 -0.00167518 0.000785132 -0.00192354 0.00631446 0.0834816 0.00991005 0.00323152 0.00278878 -0.0135855 -0.0119935 0.000622945 -0.0667949 -0.000797102 -0.0136184 0.0658087 -0.0073168 -0.0166863 -0.00414329 -0.0100439 0.0226868 0.0396364 -0.0363556 -0.011408 -0.0441115 0.0103191 0.00291041 -0.0610034 -0.0272196 -0.0833023 -0.0553605 0.0631768 0.121592 0.105729 0.129883 0.126357
internal_weight=130802 53362 77440.5 11922.5 65517.9 52389.9 187.639 52202.2 153.729 52048.5 28325.1 28163.4 27369.9 11880.9 15992 13128 11903.8 11799.6 147.278 104.172 11377.9 25036.9 793.477 688.765 4967.2 18867.1 12663.5 6203.55 104.712 1224.28 5220.51 987.67 6913.66 6461.85 10399.2 66.0871 4901.11 2264.37 40.361 6169.81 1561.02 4608.79 1332.21 983.032 236.607 451.809 2270.44 161.754 38.3094 2338.35 123.444 49.0824 74.362 228.812 22.6203 41.6888 14.3099 27.3789 17.9081
internal_count=526821 215209 311612 47923 263689 210729 964 209765 1056 208709 114897 114099 110450 47623 64550 52960 48035 47468 778 567 45900 100312 3649 2938 19931 75598 50732 24866 711 4925 20923 3967 27692 25883 41664 265 19666 9068 186 24714 6254 18460 5336 3943 958 1809 9093 798 178 9367 620 225 395 918 114 300 128 172 120
is_linear=0
shrinkage=0.1


Tree=16
num_leaves=57
num_cat=0
split_feature=37 16 33 50 15 15 51 60 69 44 46 29 32 52 27 8 35 52 51 44 4 27 33 16 51 51 59 36 52 31 45 37 54 37 14 48 48 45 38 37 32 29 75 30 40 38 56 35 28 0 17 69 3 32 51 31
split_gain=58.0357 79.2624 70.6522 62.6377 64.5854 51.8389 47.501 46.3879 53.6277 52.3758 44.8329 58.2946 56.6875 39.2576 38.7975 39.5717 35.0634 33.915 32.2686 62.1831 40.2454 32.2634 30.0028 32.4709 31.678 28.7297 31.8573 28.7996 28.0303 27.4737 27.2514 27.1304 26.774 26.3389 25.8131 21.921 21.044 20.3797 21.2401 20.1178 18.9566 18.106 17.7651 17.2556 16.6209 16.2765 14.4432 13.9785 6.44875 6.3264 6.2592 1.79808 0.981451 0.805813 0.777748 0.0264146
threshold=0.54962964687100579 0.016421822854240348 21.804923599615574 0.0062063565749776199 0.00024418581511606439 0.0027255371947550728 0.32903267528264651 0.092680579594452153 2.4051843132465618 0.15053164287660883 1.0883776486278214 -5.3317884075922422 15.380043713869034 0.040717079065535865 99.997942325459277 999.99690907532056 -6.6802139282226554 0.033067005216061172 0.16962053574467648 0.030002593994140628 1.0000000180025095e-35 99.997942325459277 16.210684381469076 -0.014073111190325593 0.11277990123582386 0.35301462147641505 0.00074305912167503313 69994029.210714296 2.0019731642822068e-05 27.190293522557109 38.21145722247315 1.7306813370387319 62138410.946679778 2.6367187483698307 910.03675140380869 4801.3033005814368 34620.180208153637 0.28453775355479055 252544750.50000003 1.4154238372035779 6.2763987045233582 1.0216966255778421 90.82427988327386 -0.16275752801729784 15.559908598019069 51545439.500000007 2.4778334521687868 36.047454833984382 1.1328930720530332 999.99499511718761 0.026831905914929573 1.9852640274913267 1069.284851074219 53.422399374026682 1.0000000180025095e-35 56.977539589286131
decision_type=10 2 8 8 2 2 10 10 2 2 10 2 10 2 8 2 10 2 8 2 2 8 10 2 10 8 8 2 2 10 2 10 2 10 2 10 10 2 2 10 10 2 2 2 10 2 2 10 2 2 2 2 2 8 10 8
left_child=1 14 3 4 46 50 21 8 13 -10 12 33 35 -5 16 48 17 36 19 -18 -20 28 24 -24 -9 30 42 32 43 -30 37 -13 -28 -12 47 -8 -1 44 -39 -14 -19 -29 51 -4 -3 -36 -2 -32 -16 -48 -6 -27 54 55 -17 -23
right_child=2 25 6 7 5 -7 10 22 9 -11 11 31 39 -15 15 52 18 40 20 -21 -22 53 23 -25 -26 26 27 41 29 -31 34 -33 -34 -35 45 -37 -38 38 -40 -41 -42 -43 -44 -45 -46 -47 49 -49 -50 -51 -52 -53 -54 -55 -56 -57
