{"learner":{"attributes":{"best_iteration":"122","best_score":"0.00192424714234618"},"feature_names":["Dividends","Stock Splits","EMA_10","EMA_20","EMA_50","EMA_100","EMA_200","SMA_20","SMA_50","SMA_200","Dist_EMA_20","Dist_EMA_50","Dist_EMA_200","EMA_20_Slope","EMA_50_Slope","Golden_Cross","Death_Cross","Bull_Cross_20_50","Above_EMA_20","Above_EMA_50","Above_EMA_200","Trend_Strength_Score","RSI_14","MACD","MACD_Signal","MACD_Hist","ADX_14","Plus_DI_14","Minus_DI_14","ROC_10","MOM_10","Avg_Vol_20","Rel_Vol_20","OBV","MFI_14","VWAP_20","Dist_VWAP_20","Vol_Spike_Score","Vol_Percentile_20","True_Range","ATR_14","ATR_Expansion","BB_Mid","BB_Upper","BB_Lower","BB_Width","Hist_Volatility_20","Daily_Range_Pct","Daily_Traded_Value","Avg_Daily_Traded_Value_20","Avg_Daily_Volume_20","Liquidity_Score","Tradability_Score","Turnover_Ratio_Proxy","Dist_High_20","Dist_High_50","Dist_Low_20","Range_Compression","Consolidation_Score","NR7_Flag","Inside_Bar_Flag","Breakout_Score","Target_Return_5d","Target_Return_7d","Target_Class_5d","Target_Breakout_Success","Simulated_Return_Pct","MFE_Pct","MAE_Pct","Days_To_Target","Days_To_Stop","Simulated_Exit_Price","Trade_Quality_Score","Simulated_Entry_Price","Label_Baseline","Label_TradeSuccess","Label_Ranking","Trend_Factor","Relative_Strength_Factor","Breakout_Quality_Factor","Volatility_Factor","Liquidity_Factor","Market_Breadth_Factor","Regime_Factor","Risk_Factor","Momentum_Factor","Institutional_Activity_Factor"],"feature_types":["float","float","float","float","float","float","float","float","float","float","float","float","float","float","float","int","int","int","int","int","int","int","float","float","float","float","float","float","float","float","float","float","float","float","float","float","float","float","float","float","float","float","float","float","float","float","float","float","float","float","float","float","float","float","float","float","float","float","float","int","int","int","float","float","float","float","float","float","float","int","int","float","float","float","int","int","int","float","float","float","float","float","float","float","float","float","float"],"gradient_booster":{"model":{"cats":{"enc":[],"feature_segments":[],"sorted_idx":[]},"gbtree_model_param":{"num_parallel_tree":"1","num_trees":"173"},"iteration_indptr":[0,1,2,3,4,5,6,7,8,9,10,11,12,13,14,15,16,17,18,19,20,21,22,23,24,25,26,27,28,29,30,31,32,33,34,35,36,37,38,39,40,41,42,43,44,45,46,47,48,49,50,51,52,53,54,55,56,57,58,59,60,61,62,63,64,65,66,67,68,69,70,71,72,73,74,75,76,77,78,79,80,81,82,83,84,85,86,87,88,89,90,91,92,93,94,95,96,97,98,99,100,101,102,103,104,105,106,107,108,109,110,111,112,113,114,115,116,117,118,119,120,121,122,123,124,125,126,127,128,129,130,131,132,133,134,135,136,137,138,139,140,141,142,143,144,145,146,147,148,149,150,151,152,153,154,155,156,157,158,159,160,161,162,163,164,165,166,167,168,169,170,171,172,173],"tree_info":[0,0,0,0,0,0,0,0,0,0,0,0,0,0,0,0,0,0,0,0,0,0,0,0,0,0,0,0,0,0,0,0,0,0,0,0,0,0,0,0,0,0,0,0,0,0,0,0,0,0,0,0,0,0,0,0,0,0,0,0,0,0,0,0,0,0,0,0,0,0,0,0,0,0,0,0,0,0,0,0,0,0,0,0,0,0,0,0,0,0,0,0,0,0,0,0,0,0,0,0,0,0,0,0,0,0,0,0,0,0,0,0,0,0,0,0,0,0,0,0,0,0,0,0,0,0,0,0,0,0,0,0,0,0,0,0,0,0,0,0,0,0,0,0,0,0,0,0,0,0,0,0,0,0,0,0,0,0,0,0,0,0,0,0,0,0,0,0,0,0,0,0,0],"trees":[{"base_weights":[-0E0,-2.0375597E0,1.9462375E-1,-2.0567222E-1,-9.704493E-1,-1.4753697E0,7.8791547E-1,-1.2227771E0,-1.995148E0,8.68933E-2,1.2557815E0,-7.5049835E-1,-1.5354277E0,-3.5958666E-1,-2.011634E-1,-5.818778E-1,4.3886238E-1,-8.335025E-2,1.2881516E0,-1.6363262E0,-5.0428265E-1,-1.8147768E0,-9.013912E-1,1.9163528E-2,-8.970614E-2,2.359318E-1,-9.2171955E-1,6.3557476E-1,-3.9093423E-1,-5.8086496E-2,1.3201307E0,-0E0,-1.684652E0,-3.9946577E-1,-1.766795E-1,-1.8319223E0,-4.1425534E-2,-1.1163449E0,-3.3120793E-1,7.526548E-1,-5.417114E-1,3.365145E-2,-1.2064217E0,-9.743595E-2,7.499158E-1,-0E0,-1.0027548E0,1.3601722E0,-0E0,-1.7305002E-1,-3.6820357E-3,2.4087615E-2,-6.267006E-2,-5.2119967E-2,-1.8484287E-1,1.4676048E-2,-6.9763E-2,-1.0919044E-2,-1.199178E-1,2.1326488E-2,-6.895583E-2,-2.5299734E-2,1.1543687E-1,-9.4467774E-2,-0E0,8.74386E-2,-2.6531471E-2,-0E0,-1.3260198E-1,-4.333196E-2,8.088006E-2,8.181577E-2,-3.795764E-2,-1.3371103E-1,-0E0,2.6115088E-2,1.3940305E-1,8.74386E-2,-3.9538518E-2],"categories":[],"categories_nodes":[],"categories_segments":[],"categories_sizes":[],"default_left":[0,0,0,0,0,0,0,0,0,0,0,0,0,0,0,0,0,0,0,0,1,0,0,0,0,0,0,0,0,0,0,0,0,0,0,0,0,0,0,0,0,0,0,0,0,0,0,0,0,0,0,0,0,0,0,0,0,0,0,0,0,0,0,0,0,0,0,0,0,0,0,0,0,0,0,0,0,0,0],"id":0,"left_children":[1,3,-1,-1,5,7,9,11,13,15,17,19,21,23,-1,25,27,-1,29,31,33,35,37,-1,-1,39,41,43,45,-1,47,-1,49,51,-1,53,55,57,59,61,63,65,67,-1,69,71,73,75,77,-1,-1,-1,-1,-1,-1,-1,-1,-1,-1,-1,-1,-1,-1,-1,-1,-1,-1,-1,-1,-1,-1,-1,-1,-1,-1,-1,-1,-1,-1],"loss_changes":[5.341384E5,1.3405625E3,0E0,0E0,1.0349458E3,1.1313684E2,8.3759476E1,8.704425E1,4.8066406E0,2.5044518E1,1.2003067E1,5.0974197E1,6.055652E1,2.2837605E0,0E0,1.090117E1,1.2073825E1,0E0,1.0673721E1,4.8744965E0,2.304549E1,5.72229E0,1.2297432E1,0E0,0E0,4.8349314E0,8.415981E0,1.1312935E1,3.75452E0,0E0,7.0307007E0,0E0,2.0380096E0,2.7144562E1,0E0,2.060791E0,1.1469258E0,5.396454E0,7.300999E0,4.2213054E0,1.2798201E0,2.4109979E0,2.9174461E0,0E0,4.6248055E0,3.2054827E0,1.8159089E0,3.4373474E0,2.7655082E0,0E0,0E0,0E0,0E0,0E0,0E0,0E0,0E0,0E0,0E0,0E0,0E0,0E0,0E0,0E0,0E0,0E0,0E0,0E0,0E0,0E0,0E0,0E0,0E0,0E0,0E0,0E0,0E0,0E0,0E0],"parents":[2147483647,0,0,1,1,4,4,5,5,6,6,7,7,8,8,9,9,10,10,11,11,12,12,13,13,15,15,16,16,18,18,19,19,20,20,21,21,22,22,25,25,26,26,27,27,28,28,30,30,32,32,33,33,35,35,36,36,37,37,38,38,39,39,40,40,41,41,42,42,44,44,45,45,46,46,47,47,48,48],"right_children":[2,4,-1,-1,6,8,10,12,14,16,18,20,22,24,-1,26,28,-1,30,32,34,36,38,-1,-1,40,42,44,46,-1,48,-1,50,52,-1,54,56,58,60,62,64,66,68,-1,70,72,74,76,78,-1,-1,-1,-1,-1,-1,-1,-1,-1,-1,-1,-1,-1,-1,-1,-1,-1,-1,-1,-1,-1,-1,-1,-1,-1,-1,-1,-1,-1,-1],"split_conditions":[2.203573E-4,0E0,1.9462375E-1,-2.0567222E-1,6.300003E0,9.9547356E1,3.27676E0,1.21632E5,4.211263E0,9.151889E6,-1.1771932E-1,0E0,1.1462498E0,4.335E3,-2.011634E-1,4.654558E1,5.4886627E0,-8.335025E-2,5.4950715E6,-5.0623474E0,2.4923676E-1,1.6541016E0,4.6464357E0,1.9163528E-2,-8.970614E-2,1.7087765E-1,-5.2106444E-2,5.44923E0,1.07878E0,-5.8086496E-2,1.0179736E1,-0E0,9.559832E1,0E0,-1.766795E-1,-2.5890837E0,1.5002441E-1,6.2250447E0,2.235902E0,1.4377754E0,-5.2527748E-2,6.95653E-4,9.0035826E-1,-9.743595E-2,2.1350364E7,1.3384683E-3,7.3291664E0,1.20968895E1,3.716685E0,-1.7305002E-1,-3.6820357E-3,2.4087615E-2,-6.267006E-2,-5.2119967E-2,-1.8484287E-1,1.4676048E-2,-6.9763E-2,-1.0919044E-2,-1.199178E-1,2.1326488E-2,-6.895583E-2,-2.5299734E-2,1.1543687E-1,-9.4467774E-2,-0E0,8.74386E-2,-2.6531471E-2,-0E0,-1.3260198E-1,-4.333196E-2,8.088006E-2,8.181577E-2,-3.795764E-2,-1.3371103E-1,-0E0,2.6115088E-2,1.3940305E-1,8.74386E-2,-3.9538518E-2],"split_indices":[62,62,0,0,39,22,80,33,27,33,36,63,39,31,0,22,67,0,49,30,46,23,40,0,0,54,25,40,32,0,81,0,34,29,0,66,39,77,67,80,10,14,41,0,48,63,67,26,80,0,0,0,0,0,0,0,0,0,0,0,0,0,0,0,0,0,0,0,0,0,0,0,0,0,0,0,0,0,0],"split_type":[0,0,0,0,0,0,0,0,0,0,0,0,0,0,0,0,0,0,0,0,0,0,0,0,0,0,0,0,0,0,0,0,0,0,0,0,0,0,0,0,0,0,0,0,0,0,0,0,0,0,0,0,0,0,0,0,0,0,0,0,0,0,0,0,0,0,0,0,0,0,0,0,0,0,0,0,0,0,0],"sum_hessian":[1.3469181E5,6.5802086E4,6.888973E4,6.463947E4,1.1626136E3,9.03811E2,2.588027E2,6.1178357E2,2.9202737E2,1.0492001E2,1.5388268E2,2.4631221E2,3.6547137E2,3.7471433E0,2.882802E2,3.4973335E1,6.994667E1,1.4988573E0,1.5238382E2,5.1460766E1,1.9485144E2,2.5130841E2,1.14162964E2,1.2490478E0,2.4980955E0,9.492763E0,2.5480574E1,5.7706005E1,1.2240668E1,1.7486669E0,1.5063516E2,1.2490478E0,5.021172E1,1.8186136E2,1.2990096E1,2.4831068E2,2.9977145E0,8.093829E1,3.322467E1,6.495048E0,2.9977145E0,5.2460003E0,2.0234573E1,2.747905E0,5.49581E1,7.4942865E0,4.7463813E0,1.4563896E2,4.996191E0,4.821324E1,1.9984764E0,4.6464577E1,1.3539677E2,4.2467623E0,2.4406393E2,1.7486669E0,1.2490478E0,7.244477E0,7.369382E1,1.2240668E1,2.0984001E1,1.2490478E0,5.2460003E0,1.7486669E0,1.2490478E0,1.7486669E0,3.4973338E0,1.9984764E0,1.8236097E1,1.4988573E0,5.3459244E1,2.4980955E0,4.996191E0,3.247524E0,1.4988573E0,5.49581E0,1.4014316E2,1.7486669E0,3.247524E0],"tree_param":{"num_deleted":"0","num_feature":"87","num_nodes":"79","size_leaf_vector":"1"}},{"base_weights":[4.9020856E-4,-1.8429203E0,1.7788842E-1,-1.8602715E-1,-8.7819135E-1,-1.3331871E0,7.110745E-1,-1.5172015E0,-7.444809E-1,7.1858585E-2,1.1394528E0,-1.6216221E0,-6.072606E-1,-6.6212934E-1,-1.5573037E0,-5.2836984E-1,3.8980302E-1,-7.832139E-2,1.1701217E0,-1.6866914E0,-6.9523567E-1,1.6834821E-1,-1.1277863E0,-7.6241E-1,1.982595E-1,-1.6926925E-1,-0E0,1.9775444E-1,-8.3322424E-1,5.696977E-1,-3.5945004E-1,-5.436289E-2,1.2003232E0,-1.7928298E0,-1.4511468E0,-1.6051583E-1,-3.6944E-1,-1.9977246E-1,5.9121215E-1,2.6021546E-2,-1.239895E0,-1.2460104E0,-5.792202E-1,7.177391E-1,-1.7551701E-1,6.7931664E-1,-5.002839E-1,2.4098726E-2,-1.0931919E0,-9.0267204E-2,6.7641634E-1,2.7941557E-2,-8.5223776E-1,1.2367065E0,-0E0,-1.8122594E-1,-0E0,-7.66742E-2,-1.641435E-1,5.973908E-2,-5.531652E-2,1.655861E-2,-7.031942E-2,8.3467565E-2,-3.474081E-2,-0E0,-1.3621564E-1,8.393338E-2,-1.3540979E-1,-7.007966E-2,5.3841885E-2,-0E0,1.2765034E-1,-8.244935E-2,4.71035E-2,-2.3887115E-2,1.0634705E-1,-8.9295164E-2,-0E0,8.211135E-2,-2.4457032E-2,-0E0,-1.2011015E-1,8.890625E-2,1.8114645E-2,7.4735686E-2,-1.1545113E-2,-1.12216346E-1,-0E0,1.0754557E-1,1.5740982E-1,8.211135E-2,-3.6494713E-2],"categories":[],"categories_nodes":[],"categories_segments":[],"categories_sizes":[],"default_left":[0,0,0,0,0,0,0,0,0,0,0,0,0,0,0,0,0,0,0,0,0,0,0,0,0,0,0,0,0,0,0,0,0,0,0,0,0,0,0,0,0,0,0,0,0,0,0,0,0,0,0,0,0,0,0,0,0,0,0,0,0,0,0,0,0,0,0,0,0,0,0,0,0,0,0,0,0,0,0,0,0,0,0,0,0,0,0,0,0,0,0,0,0],"id":1,"left_children":[1,3,-1,-1,5,7,9,11,13,15,17,19,21,23,25,27,29,-1,31,33,35,37,39,41,43,-1,-1,45,47,49,51,-1,53,55,57,-1,59,61,63,-1,65,67,69,71,73,75,77,79,81,-1,83,85,87,89,91,-1,-1,-1,-1,-1,-1,-1,-1,-1,-1,-1,-1,-1,-1,-1,-1,-1,-1,-1,-1,-1,-1,-1,-1,-1,-1,-1,-1,-1,-1,-1,-1,-1,-1,-1,-1,-1,-1],"loss_changes":[4.3720325E5,1.0917969E3,0E0,0E0,8.4028033E2,9.438257E1,6.9440765E1,6.190674E1,1.1354401E1,2.0230553E1,1.03641815E1,3.3410156E1,3.0676447E1,1.8055397E1,3.0044937E0,8.751936E0,9.94896E0,0E0,9.184845E0,8.436157E0,1.0166576E1,5.097035E0,8.252762E0,1.3509422E1,4.69363E0,0E0,0E0,4.03502E0,6.9930954E0,9.576668E0,3.3740811E0,0E0,5.7032776E0,1.3980713E1,2.0508453E1,0E0,6.279281E0,3.4567876E0,4.258084E0,0E0,5.5461884E0,1.2340866E1,1.8858463E1,3.809081E0,5.668146E0,3.7105563E0,1.1914058E0,2.1136413E0,2.3707657E0,0E0,4.6404915E0,1.4650826E0,2.1547337E0,3.5691833E0,2.4141583E0,0E0,0E0,0E0,0E0,0E0,0E0,0E0,0E0,0E0,0E0,0E0,0E0,0E0,0E0,0E0,0E0,0E0,0E0,0E0,0E0,0E0,0E0,0E0,0E0,0E0,0E0,0E0,0E0,0E0,0E0,0E0,0E0,0E0,0E0,0E0,0E0,0E0,0E0],"parents":[2147483647,0,0,1,1,4,4,5,5,6,6,7,7,8,8,9,9,10,10,11,11,12,12,13,13,14,14,15,15,16,16,18,18,19,19,20,20,21,21,22,22,23,23,24,24,27,27,28,28,29,29,30,30,32,32,33,33,34,34,36,36,37,37,38,38,40,40,41,41,42,42,43,43,44,44,45,45,46,46,47,47,48,48,50,50,51,51,52,52,53,53,54,54],"right_children":[2,4,-1,-1,6,8,10,12,14,16,18,20,22,24,26,28,30,-1,32,34,36,38,40,42,44,-1,-1,46,48,50,52,-1,54,56,58,-1,60,62,64,-1,66,68,70,72,74,76,78,80,82,-1,84,86,88,90,92,-1,-1,-1,-1,-1,-1,-1,-1,-1,-1,-1,-1,-1,-1,-1,-1,-1,-1,-1,-1,-1,-1,-1,-1,-1,-1,-1,-1,-1,-1,-1,-1,-1,-1,-1,-1,-1,-1],"split_conditions":[2.203573E-4,0E0,1.7788842E-1,-1.8602715E-1,6.300003E0,1.9139005E0,3.27676E0,9.999912E2,2.3174848E-1,9.151889E6,-1.1771932E-1,2.6753725E9,4.7870796E1,5.6383866E8,1E0,4.654558E1,5.4886627E0,-7.832139E-2,5.4950715E6,1.3473173E-2,0E0,1.3219142E-1,4.4245057E0,1.840116E2,7.395015E0,-1.6926925E-1,-0E0,1.7087765E-1,-5.2106444E-2,5.44923E0,1E0,-5.436289E-2,1.0179736E1,2.0019732E-5,2.6145722E7,-1.6051583E-1,2.7037284E0,0E0,2E0,2.6021546E-2,0E0,1.4785033E-2,2.910443E-1,2.6942715E-1,2.591723E9,1.4377754E0,-2.2085623E-3,6.95653E-4,9.0035826E-1,-9.0267204E-2,1.0382484E0,-4.252839E0,4.1165096E-1,2.1865837E3,3.716685E0,-1.8122594E-1,-0E0,-7.66742E-2,-1.641435E-1,5.973908E-2,-5.531652E-2,1.655861E-2,-7.031942E-2,8.3467565E-2,-3.474081E-2,-0E0,-1.3621564E-1,8.393338E-2,-1.3540979E-1,-7.007966E-2,5.3841885E-2,-0E0,1.2765034E-1,-8.244935E-2,4.71035E-2,-2.3887115E-2,1.0634705E-1,-8.9295164E-2,-0E0,8.211135E-2,-2.4457032E-2,-0E0,-1.2011015E-1,8.890625E-2,1.8114645E-2,7.4735686E-2,-1.1545113E-2,-1.12216346E-1,-0E0,1.0754557E-1,1.5740982E-1,8.211135E-2,-3.6494713E-2],"split_indices":[62,62,0,0,39,40,80,2,12,33,36,49,22,33,60,22,67,0,49,67,63,32,79,9,79,0,0,54,25,40,61,0,81,63,49,0,81,29,37,0,29,55,25,46,33,80,14,14,41,0,41,68,12,9,80,0,0,0,0,0,0,0,0,0,0,0,0,0,0,0,0,0,0,0,0,0,0,0,0,0,0,0,0,0,0,0,0,0,0,0,0,0,0],"split_type":[0,0,0,0,0,0,0,0,0,0,0,0,0,0,0,0,0,0,0,0,0,0,0,0,0,0,0,0,0,0,0,0,0,0,0,0,0,0,0,0,0,0,0,0,0,0,0,0,0,0,0,0,0,0,0,0,0,0,0,0,0,0,0,0,0,0,0,0,0,0,0,0,0,0,0,0,0,0,0,0,0,0,0,0,0,0,0,0,0,0,0,0,0],"sum_hessian":[1.333604E5,6.5482906E4,6.78775E4,6.432404E4,1.1588666E3,9.0154956E2,2.5731702E2,6.843602E2,2.1718932E2,1.04655174E2,1.5266183E2,6.122233E2,7.21369E1,1.9997375E2,1.721556E1,3.4921642E1,6.9733536E1,1.4997034E0,1.5116212E2,5.702676E2,4.1955753E1,2.8470263E1,4.3666637E1,1.8024219E2,1.9731567E1,1.5466789E1,1.7487708E0,9.460056E0,2.5461588E1,5.7501747E1,1.2231785E1,1.7499964E0,1.4941212E2,3.8563864E2,1.8462895E2,9.21702E0,3.273873E1,1.4238127E1,1.4232137E1,2.4980192E0,4.1168617E1,4.642495E1,1.3381723E2,8.990964E0,1.07406025E1,6.461682E0,2.998374E0,5.240407E0,2.022118E1,2.7487748E0,5.4752975E1,6.2402277E0,5.991557E0,1.444212E2,4.990927E0,3.816494E2,3.989231E0,4.240316E1,1.422258E2,3.999166E0,2.8739567E1,7.48822E0,6.749906E0,1.2234765E1,1.9973717E0,4.240933E0,3.6927685E1,1.4984313E0,4.492652E1,1.2183209E2,1.1985142E1,4.494716E0,4.4962482E0,5.9947863E0,4.745816E0,1.2497203E0,5.2119617E0,1.7492319E0,1.2491419E0,1.7411268E0,3.49928E0,1.9984764E0,1.8222704E1,3.633723E1,1.8415743E1,1.4960907E0,4.744137E0,4.7437053E0,1.2478516E0,1.0255712E2,4.1864075E1,1.7411268E0,3.2498002E0],"tree_param":{"num_deleted":"0","num_feature":"87","num_nodes":"93","size_leaf_vector":"1"}},{"base_weights":[7.9140847E-4,-1.6979611E0,1.651948E-1,-1.7142351E-1,-8.020436E-1,-1.2178565E0,6.469362E-1,-1.0040112E0,-1.6636411E0,6.205504E-2,1.0419093E0,-6.042346E-1,-1.2711643E0,-2.0650892E-1,-1.6785991E0,-4.8247737E-1,3.5149246E-1,-7.374384E-2,1.071246E0,-1.3799856E0,-3.903625E-1,-1.5123024E0,-7.3008305E-1,2.7213765E-2,-7.435599E-2,-1.6854337E-1,-1.2061878E-2,7.466565E-2,-8.061965E-1,6.1469954E-1,-1.23543344E-1,-5.0930895E-2,1.1000793E0,-1.4515986E0,-0E0,-2.982677E-1,-1.5082034E-1,-1.5217177E0,-0E0,-9.085958E-1,-2.5447878E-1,6.368068E-1,-5.159428E-1,-9.151212E-1,2.0556105E-2,-9.883293E-2,7.398628E-1,4.2765346E-1,-5.5991673E-1,1.1335939E0,-0E0,-4.4200566E-2,-1.5637907E-1,-5.7860952E-2,2.487588E-2,2.4003455E-2,-4.9085595E-2,-3.9493006E-2,-1.5356821E-1,-9.607354E-2,-0E0,-1.3316508E-3,-1.13014236E-1,-7.614871E-3,9.683461E-2,-1.11537755E-1,-0E0,-0E0,-1.00994624E-1,6.3861473E-3,9.530302E-2,-4.7036733E-2,7.423013E-2,2.5110621E-2,-8.83617E-2,9.735707E-2,1.4321749E-1,6.9291E-2,-4.1807916E-2],"categories":[],"categories_nodes":[],"categories_segments":[],"categories_sizes":[],"default_left":[0,0,0,0,0,0,0,0,0,0,0,0,0,1,0,1,0,0,0,0,1,0,0,0,0,0,0,0,0,0,0,0,0,0,0,0,0,0,0,0,0,0,0,0,0,0,0,0,0,0,0,0,0,0,0,0,0,0,0,0,0,0,0,0,0,0,0,0,0,0,0,0,0,0,0,0,0,0,0],"id":2,"left_children":[1,3,-1,-1,5,7,9,11,13,15,17,19,21,23,25,27,29,-1,31,33,35,37,39,-1,-1,-1,-1,41,43,45,47,-1,49,51,53,55,-1,57,-1,59,61,63,65,67,-1,-1,69,71,73,75,77,-1,-1,-1,-1,-1,-1,-1,-1,-1,-1,-1,-1,-1,-1,-1,-1,-1,-1,-1,-1,-1,-1,-1,-1,-1,-1,-1,-1],"loss_changes":[3.6441578E5,9.297656E2,0E0,0E0,6.914877E2,8.059131E1,5.786116E1,6.209131E1,3.9972534E0,1.6600851E1,9.029068E0,3.853849E1,4.374475E1,1.88798E0,9.940796E-1,7.229272E0,9.368388E0,0E0,7.984482E0,4.2261047E0,1.7859398E1,4.1864014E0,8.324764E0,0E0,0E0,0E0,0E0,4.7313995E0,3.5201054E0,9.876104E0,6.2826843E0,0E0,4.697586E0,2.8331146E0,9.19719E-1,1.929874E1,0E0,1.336853E0,0E0,4.2559814E0,6.0550156E0,2.8387113E0,2.7579682E0,2.3509846E0,0E0,0E0,5.3458138E0,3.5634553E0,4.83479E0,3.042923E0,2.2071614E0,0E0,0E0,0E0,0E0,0E0,0E0,0E0,0E0,0E0,0E0,0E0,0E0,0E0,0E0,0E0,0E0,0E0,0E0,0E0,0E0,0E0,0E0,0E0,0E0,0E0,0E0,0E0,0E0],"parents":[2147483647,0,0,1,1,4,4,5,5,6,6,7,7,8,8,9,9,10,10,11,11,12,12,13,13,14,14,15,15,16,16,18,18,19,19,20,20,21,21,22,22,27,27,28,28,29,29,30,30,32,32,33,33,34,34,35,35,37,37,39,39,40,40,41,41,42,42,43,43,46,46,47,47,48,48,49,49,50,50],"right_children":[2,4,-1,-1,6,8,10,12,14,16,18,20,22,24,26,28,30,-1,32,34,36,38,40,-1,-1,-1,-1,42,44,46,48,-1,50,52,54,56,-1,58,-1,60,62,64,66,68,-1,-1,70,72,74,76,78,-1,-1,-1,-1,-1,-1,-1,-1,-1,-1,-1,-1,-1,-1,-1,-1,-1,-1,-1,-1,-1,-1,-1,-1,-1,-1,-1,-1],"split_conditions":[2.203573E-4,0E0,1.651948E-1,-1.7142351E-1,6.300003E0,9.9547356E1,3.27676E0,1.21632E5,4.211263E0,9.151889E6,-1.1771932E-1,0E0,1.1462498E0,6.628445E-1,1.9834129E0,0E0,5.1516094E-3,-7.374384E-2,5.4950715E6,5.208725E0,2.4923676E-1,4.3272877E0,4.6464357E0,2.7213765E-2,-7.435599E-2,-1.6854337E-1,-1.2061878E-2,1.4636137E-1,8.305088E-2,5.44923E0,3.1342328E-2,-5.0930895E-2,1.0179736E1,2.0019732E-5,7.6314896E-1,0E0,-1.5082034E-1,-2.5890837E0,-0E0,7E0,2.1733403E-1,9.2037034E-1,1.3181151E1,-2.6406694E7,2.0556105E-2,-9.883293E-2,-1.528348E0,9.107783E-1,3.0041772E-1,1.0577132E1,4.7870796E1,-4.4200566E-2,-1.5637907E-1,-5.7860952E-2,2.487588E-2,2.4003455E-2,-4.9085595E-2,-3.9493006E-2,-1.5356821E-1,-9.607354E-2,-0E0,-1.3316508E-3,-1.13014236E-1,-7.614871E-3,9.683461E-2,-1.11537755E-1,-0E0,-0E0,-1.00994624E-1,6.3861473E-3,9.530302E-2,-4.7036733E-2,7.423013E-2,2.5110621E-2,-8.83617E-2,9.735707E-2,1.4321749E-1,6.9291E-2,-4.1807916E-2],"split_indices":[62,62,0,0,39,22,80,33,27,33,36,63,39,32,23,29,63,0,49,40,46,23,40,0,0,0,0,45,54,40,47,0,81,47,67,29,0,66,0,70,12,41,39,33,0,0,25,41,46,79,22,0,0,0,0,0,0,0,0,0,0,0,0,0,0,0,0,0,0,0,0,0,0,0,0,0,0,0,0],"split_type":[0,0,0,0,0,0,0,0,0,0,0,0,0,0,0,0,0,0,0,0,0,0,0,0,0,0,0,0,0,0,0,0,0,0,0,0,0,0,0,0,0,0,0,0,0,0,0,0,0,0,0,0,0,0,0,0,0,0,0,0,0,0,0,0,0,0,0,0,0,0,0,0,0,0,0,0,0,0,0],"sum_hessian":[1.2991885E5,6.403616E4,6.588269E4,6.2891727E4,1.1444338E3,8.8990735E2,2.5452654E2,6.0512225E2,2.847851E2,1.0408504E2,1.504415E2,2.4520084E2,3.5992142E2,3.7234814E0,2.8106158E2,3.469318E1,6.939186E1,1.4957583E0,1.4894574E2,5.0802677E1,1.9439816E2,2.4644688E2,1.13474525E2,1.2450683E0,2.478413E0,2.7911353E2,1.9480773E0,1.1897322E1,2.2795858E1,4.5816837E1,2.357502E1,1.7485677E0,1.4719717E2,4.78231E1,2.9795752E0,1.8159836E2,1.2799811E1,2.4520215E2,1.2447317E0,8.031587E1,3.3158657E1,6.9229784E0,4.9743433E0,2.155876E1,1.2370995E0,2.2401555E0,4.3576683E1,9.413237E0,1.4161784E1,1.4221944E2,4.9777303E0,6.1683517E0,4.1654747E1,1.2409681E0,1.7386072E0,4.64177E1,1.3518065E2,4.23667E0,2.4096548E2,7.634025E1,3.9756253E0,2.7689909E1,5.468745E0,1.4845738E0,5.4384046E0,2.4952462E0,2.4790974E0,1.7323623E0,1.9826397E1,1.1883188E1,3.1693495E1,1.4893885E0,7.923848E0,3.222607E0,1.0939177E1,9.7548546E1,4.46709E1,2.2342362E0,2.743494E0],"tree_param":{"num_deleted":"0","num_feature":"87","num_nodes":"79","size_leaf_vector":"1"}},{"base_weights":[9.756789E-4,-1.5860658E0,1.5526687E-1,-1.6017112E-1,-7.385548E-1,-1.1228306E0,5.9139824E-1,-1.585834E0,-9.313623E-1,5.5205807E-2,9.575824E-1,-1.5970437E-1,-0E0,-2.8146952E-1,-1.0827936E0,3.109038E-1,-4.6548533E-1,-6.955417E-2,9.8584384E-1,8.1462756E-2,-7.5344586E-1,-4.5700896E-1,-1.2529327E0,-2.678766E-1,4.928126E-1,-6.016346E-1,2.0196107E-1,-4.775773E-2,1.0135905E0,8.9058405E-1,-5.1523514E-2,-9.536438E-1,2.773918E-1,-2.0088394E-1,-1.0306621E0,-8.606884E-1,-1.5249893E-1,1.7606805E-1,-6.8445385E-1,7.50091E-1,-0E0,-8.1468517E-1,-0E0,-4.3803803E-3,6.789564E-2,1.0847492E0,4.1979754E-1,-2.324555E-2,1.5398468E-1,1.61863E-2,-7.494108E-2,-1.0472494E-1,4.1071627E-2,-4.093578E-2,7.7324115E-2,-3.234202E-2,5.998264E-2,-1.308887E-1,-2.9760873E-4,-3.86468E-3,-9.99667E-2,6.494408E-2,-2.877338E-2,-0E0,-9.459034E-2,1.0439233E-2,9.516329E-2,4.7854684E-2,-3.312261E-2,4.208811E-3,-9.873262E-2,-2.6760379E-2,5.6232966E-2,-0E0,1.1029147E-1,-1.3277965E-2,9.681683E-2],"categories":[],"categories_nodes":[],"categories_segments":[],"categories_sizes":[],"default_left":[0,0,0,0,0,0,0,0,0,0,0,0,0,0,0,0,0,0,0,0,0,1,0,0,0,0,0,0,0,0,0,0,0,1,0,0,0,0,0,0,0,0,0,0,0,0,0,0,0,0,0,0,0,0,0,0,0,0,0,0,0,0,0,0,0,0,0,0,0,0,0,0,0,0,0,0,0],"id":3,"left_children":[1,3,-1,-1,5,7,9,11,13,15,17,-1,-1,19,21,23,25,-1,27,29,31,33,35,37,39,41,43,-1,45,47,49,51,53,55,57,59,-1,61,63,65,67,69,71,-1,-1,73,75,-1,-1,-1,-1,-1,-1,-1,-1,-1,-1,-1,-1,-1,-1,-1,-1,-1,-1,-1,-1,-1,-1,-1,-1,-1,-1,-1,-1,-1,-1],"loss_changes":[3.079122E5,8.161094E2,0E0,0E0,5.753462E2,7.335547E1,4.8395546E1,5.903137E0,5.9467163E1,1.3889136E1,7.914566E0,0E0,0E0,2.1287758E1,5.1188965E1,7.9269857E0,3.564846E0,0E0,6.9901123E0,8.152124E0,1.1972639E1,1.475078E1,3.8243286E1,3.6854002E0,7.590576E0,4.1129026E0,1.2720176E0,0E0,4.178787E0,9.430488E0,9.329506E0,6.9159317E0,3.6278932E0,7.631752E0,7.9951096E0,1.7746582E1,0E0,2.2246532E0,2.223796E0,3.766962E0,3.170037E0,4.268134E0,1.5025752E0,0E0,0E0,3.6094055E0,6.625019E0,0E0,0E0,0E0,0E0,0E0,0E0,0E0,0E0,0E0,0E0,0E0,0E0,0E0,0E0,0E0,0E0,0E0,0E0,0E0,0E0,0E0,0E0,0E0,0E0,0E0,0E0,0E0,0E0,0E0,0E0],"parents":[2147483647,0,0,1,1,4,4,5,5,6,6,7,7,8,8,9,9,10,10,13,13,14,14,15,15,16,16,18,18,19,19,20,20,21,21,22,22,23,23,24,24,25,25,26,26,28,28,29,29,30,30,31,31,32,32,33,33,34,34,35,35,37,37,38,38,39,39,40,40,41,41,42,42,45,45,46,46],"right_children":[2,4,-1,-1,6,8,10,12,14,16,18,-1,-1,20,22,24,26,-1,28,30,32,34,36,38,40,42,44,-1,46,48,50,52,54,56,58,60,-1,62,64,66,68,70,72,-1,-1,74,76,-1,-1,-1,-1,-1,-1,-1,-1,-1,-1,-1,-1,-1,-1,-1,-1,-1,-1,-1,-1,-1,-1,-1,-1,-1,-1,-1,-1,-1,-1],"split_conditions":[2.203573E-4,0E0,1.5526687E-1,-1.6017112E-1,6.300003E0,4.3722897E1,3.27676E0,6.1194575E-1,0E0,1.3802745E0,-1.1771932E-1,-1.5970437E-1,-0E0,2.0020062E-1,8.5350684E2,1.1352791E7,3.230005E1,-6.955417E-2,5.4950715E6,4.3737877E1,8.792189E8,3.9470565E-2,1.616457E6,-9.8237265E-3,5.1516094E-3,9.874796E-2,4.563E2,-4.775773E-2,3.4653296E0,-9.937924E-3,2.26949E6,7.606887E1,5.7033247E-1,1.8319972E2,7.833464E-1,5.138722E1,-1.5249893E-1,1.4636137E-1,1.683521E1,1.6993088E0,5.5445623E-2,-1.6719457E0,3.9560776E0,-4.3803803E-3,6.789564E-2,4.3771017E2,2.4163895E1,-2.324555E-2,1.5398468E-1,1.61863E-2,-7.494108E-2,-1.0472494E-1,4.1071627E-2,-4.093578E-2,7.7324115E-2,-3.234202E-2,5.998264E-2,-1.308887E-1,-2.9760873E-4,-3.86468E-3,-9.99667E-2,6.494408E-2,-2.877338E-2,-0E0,-9.459034E-2,1.0439233E-2,9.516329E-2,4.7854684E-2,-3.312261E-2,4.208811E-3,-9.873262E-2,-2.6760379E-2,5.6232966E-2,-0E0,1.1029147E-1,-1.3277965E-2,9.681683E-2],"split_indices":[62,62,0,0,39,73,80,12,29,57,36,0,0,46,6,33,39,0,49,22,33,54,33,10,63,36,71,0,81,12,33,34,57,35,80,22,0,45,26,67,56,24,30,0,0,6,26,0,0,0,0,0,0,0,0,0,0,0,0,0,0,0,0,0,0,0,0,0,0,0,0,0,0,0,0,0,0],"split_type":[0,0,0,0,0,0,0,0,0,0,0,0,0,0,0,0,0,0,0,0,0,0,0,0,0,0,0,0,0,0,0,0,0,0,0,0,0,0,0,0,0,0,0,0,0,0,0,0,0,0,0,0,0,0,0,0,0,0,0,0,0,0,0,0,0,0,0,0,0,0,0,0,0,0,0,0,0],"sum_hessian":[1.2503337E5,6.181229E4,6.3221074E4,6.068986E4,1.1224314E3,8.71522E2,2.5090936E2,2.513088E2,6.202132E2,1.03394104E2,1.4751526E2,2.5009378E2,1.2150251E0,1.18993835E2,5.0121933E2,7.0900246E1,3.2493855E1,1.4878888E0,1.4602737E2,6.653757E1,5.2456272E1,1.0918654E2,3.920328E2,1.5527252E1,5.5372997E1,2.8314884E1,4.1789713E0,1.7448916E0,1.4428249E2,9.649626E0,5.688794E1,4.4800568E1,7.655704E0,7.762284E1,3.1563698E1,1.637629E2,2.2826991E2,6.634124E0,8.893128E0,3.6824707E1,1.8548288E1,2.1184084E1,7.1308002E0,1.973741E0,2.2052302E0,1.2660011E2,1.7682367E1,3.205971E0,6.4436545E0,4.3057743E1,1.3830197E1,4.282763E1,1.9729352E0,2.437485E0,5.2182193E0,6.892059E1,8.70225E0,2.385796E1,7.7057385E0,2.4908066E1,1.3885483E2,4.15214E0,2.4819837E0,2.2277167E0,6.6654115E0,1.0301273E1,2.6523436E1,6.675584E0,1.1872705E1,2.7081368E0,1.8475948E1,4.6610847E0,2.4697156E0,1.201417E0,1.253987E2,8.27658E0,9.405787E0],"tree_param":{"num_deleted":"0","num_feature":"87","num_nodes":"77","size_leaf_vector":"1"}},{"base_weights":[1.1006634E-3,-1.4972936E0,1.4731811E-1,-1.5126501E-1,-6.830536E-1,-1.087065E0,4.0937987E-1,-8.7516356E-1,-1.4319004E0,1.6516988E-1,1.0562398E0,-5.339802E-1,-1.1502466E0,1.3247591E-1,-1.4619869E0,-1.0599576E0,2.7226892E-1,-4.480764E-2,1.0976179E0,-1.2867993E0,-3.2782552E-1,-1.3224117E0,-7.836395E-1,5.8723565E-2,-3.377615E-2,-0E0,-1.4831184E0,-1.2924751E0,-0E0,-5.844026E-1,3.7091282E-1,1.1395568E0,-8.879481E-4,-1.3370034E0,-0E0,-9.102838E-1,-1.7824526E-1,-0E0,-1.3313859E0,-0E0,-8.5505176E-1,4.326732E-2,-2.7227372E-1,-1.489187E0,-0E0,-0E0,-1.3913304E-1,3.3006493E-2,-1.5000395E-2,7.30436E-2,-8.236199E-1,1.8454579E-1,6.5278614E-1,1.1849434E0,-0E0,-1.4064053E-1,-4.1176653E-3,-9.952099E-2,2.32996E-2,2.2760198E-2,-3.208434E-2,-1.3401899E-1,-0E0,6.347614E-2,-7.248827E-2,-9.05058E-2,-0E0,-6.61055E-2,-0E0,-1.492414E-1,-0E0,-2.1688992E-2,5.6940556E-2,-1.0580802E-1,4.030281E-3,-3.442739E-3,4.326294E-2,7.6321326E-2,-0E0,-0E0,1.2127846E-1,-5.2114245E-2,4.9762916E-2],"categories":[],"categories_nodes":[],"categories_segments":[],"categories_sizes":[],"default_left":[0,0,0,0,0,0,0,0,0,0,0,0,0,0,0,1,0,0,0,0,0,0,0,0,0,0,0,0,0,0,0,1,0,1,0,0,0,0,1,0,0,0,0,0,0,0,0,0,0,0,0,1,0,0,0,0,0,0,0,0,0,0,0,0,0,0,0,0,0,0,0,0,0,0,0,0,0,0,0,0,0,0,0],"id":4,"left_children":[1,3,-1,-1,5,7,9,11,13,15,17,19,21,23,25,27,29,-1,31,33,35,37,39,-1,-1,41,43,45,47,49,51,53,-1,55,-1,57,59,-1,61,63,65,-1,67,69,-1,-1,-1,-1,-1,71,73,75,77,79,81,-1,-1,-1,-1,-1,-1,-1,-1,-1,-1,-1,-1,-1,-1,-1,-1,-1,-1,-1,-1,-1,-1,-1,-1,-1,-1,-1,-1],"loss_changes":[2.629276E5,7.353906E2,0E0,0E0,4.8506876E2,5.499945E1,4.537766E1,4.469873E1,1.5721313E1,2.8006464E1,6.111084E0,3.319464E1,1.4198395E1,1.727007E0,9.2647705E0,4.7903156E0,1.7016972E1,0E0,4.7901E0,4.0386887E0,1.4483183E1,2.288971E0,5.2122803E0,0E0,0E0,7.390045E-1,2.1029663E0,1.465374E0,3.1777668E-1,3.9767385E0,8.613613E0,3.4611588E0,0E0,2.6477432E0,0E0,4.420706E0,8.633136E0,0E0,1.7785034E0,4.4171014E0,4.029724E0,0E0,8.048283E-1,2.5750732E-1,0E0,0E0,0E0,0E0,0E0,1.2205966E0,4.2925606E0,6.5632114E0,5.3916283E0,3.1298141E0,1.3629569E0,0E0,0E0,0E0,0E0,0E0,0E0,0E0,0E0,0E0,0E0,0E0,0E0,0E0,0E0,0E0,0E0,0E0,0E0,0E0,0E0,0E0,0E0,0E0,0E0,0E0,0E0,0E0,0E0],"parents":[2147483647,0,0,1,1,4,4,5,5,6,6,7,7,8,8,9,9,10,10,11,11,12,12,13,13,14,14,15,15,16,16,18,18,19,19,20,20,21,21,22,22,25,25,26,26,27,27,28,28,29,29,30,30,31,31,33,33,35,35,36,36,38,38,39,39,40,40,42,42,43,43,49,49,50,50,51,51,52,52,53,53,54,54],"right_children":[2,4,-1,-1,6,8,10,12,14,16,18,20,22,24,26,28,30,-1,32,34,36,38,40,-1,-1,42,44,46,48,50,52,54,-1,56,-1,58,60,-1,62,64,66,-1,68,70,-1,-1,-1,-1,-1,72,74,76,78,80,82,-1,-1,-1,-1,-1,-1,-1,-1,-1,-1,-1,-1,-1,-1,-1,-1,-1,-1,-1,-1,-1,-1,-1,-1,-1,-1,-1,-1],"split_conditions":[2.203573E-4,0E0,1.4731811E-1,-1.5126501E-1,4.6464357E0,7.30439E1,3.6650024E1,2.5E4,0E0,1.1255043E-1,1.147042E1,0E0,1E0,0E0,-2.6406694E7,1.0560296E0,1.8178941E2,-4.480764E-2,1.0179736E1,9.559832E1,2.3070135E0,-3.649994E0,6.2250447E0,5.8723565E-2,-3.377615E-2,5.8086617E1,1.9834129E0,1.6300196E1,2.7099669E1,2.3295734E0,3.27676E0,6.666782E-1,-8.879481E-4,1.4707602E0,-0E0,2.6130164E-2,5.138722E1,-0E0,4.1664442E-1,8.007126E-1,7E0,4.326732E-2,4.75E-1,5.31438E0,-0E0,-0E0,-1.3913304E-1,3.3006493E-2,-1.5000395E-2,1.8904867E1,1.3768827E0,7.991949E-2,1.0867872E0,-8.637697E-2,6.217079E1,-1.4064053E-1,-4.1176653E-3,-9.952099E-2,2.32996E-2,2.2760198E-2,-3.208434E-2,-1.3401899E-1,-0E0,6.347614E-2,-7.248827E-2,-9.05058E-2,-0E0,-6.61055E-2,-0E0,-1.492414E-1,-0E0,-2.1688992E-2,5.6940556E-2,-1.0580802E-1,4.030281E-3,-3.442739E-3,4.326294E-2,7.6321326E-2,-0E0,-0E0,1.2127846E-1,-5.2114245E-2,4.9762916E-2],"split_indices":[62,62,0,0,40,27,39,33,12,67,26,63,39,29,33,32,6,0,81,34,80,30,77,0,0,34,23,28,26,67,80,46,0,41,0,11,22,0,45,57,70,0,38,0,0,0,0,0,0,28,25,55,32,10,34,0,0,0,0,0,0,0,0,0,0,0,0,0,0,0,0,0,0,0,0,0,0,0,0,0,0,0,0],"split_type":[0,0,0,0,0,0,0,0,0,0,0,0,0,0,0,0,0,0,0,0,0,0,0,0,0,0,0,0,0,0,0,0,0,0,0,0,0,0,0,0,0,0,0,0,0,0,0,0,0,0,0,0,0,0,0,0,0,0,0,0,0,0,0,0,0,0,0,0,0,0,0,0,0,0,0,0,0,0,0,0,0,0,0],"sum_hessian":[1.1919863E5,5.9071016E4,6.012762E4,5.7975516E4,1.0954991E3,8.004072E2,2.9509186E2,4.997491E2,3.006581E2,2.1625142E2,7.884045E1,2.260087E2,2.7374042E2,4.981842E0,2.9567624E2,1.591881E1,2.0033261E2,1.2004726E0,7.763997E1,4.64164E1,1.795923E2,1.8263634E2,9.110409E1,3.4872003E0,1.4946418E0,4.1818786E0,2.914944E2,1.3246566E1,2.6722443E0,1.9130678E1,1.8120193E2,7.564666E1,1.9933114E0,4.5181618E1,1.2347802E0,3.429158E1,1.4530072E2,1.1759405E0,1.814604E2,7.613019E0,8.349107E1,1.4826713E0,2.6992073E0,2.900636E2,1.4307919E0,1.1955574E0,1.2051008E1,1.4599904E0,1.212254E0,4.173876E0,1.4956802E1,1.1221247E2,6.898946E1,7.23526E1,3.2940626E0,4.207132E1,3.110299E0,3.285519E1,1.4363875E0,3.580048E1,1.09500244E2,1.800612E2,1.3991915E0,4.1749916E0,3.4380274E0,7.933193E1,4.159141E0,1.4692838E0,1.2299235E0,2.889218E2,1.1417584E0,1.7184699E0,2.4554057E0,1.2497792E1,2.45901E0,5.7919575E1,5.4292892E1,5.9457607E1,9.5318575E0,1.201273E0,7.115132E1,1.1692187E0,2.1248438E0],"tree_param":{"num_deleted":"0","num_feature":"87","num_nodes":"83","size_leaf_vector":"1"}},{"base_weights":[1.1803554E-3,-1.425365E0,1.4083575E-1,-1.4406769E-1,-6.344624E-1,-1.0138843E0,3.7330484E-1,-1.4212421E0,-8.377711E-1,1.4883053E-1,9.8077387E-1,-1.4328525E0,-0E0,-4.8977372E-1,-1.1394297E0,-8.989488E-1,2.550606E-1,-4.216361E-2,1.0217397E0,-1.4401674E0,-1.9712836E-1,-1.1666884E0,-3.3927518E-1,-5.737127E-1,-1.3262608E0,-1.204583E0,-0E0,-5.285368E-1,3.4707624E-1,1.0630304E0,-8.2881266E-4,-1.4441374E-1,-0E0,-0E0,-3.9964493E-2,-0E0,-1.2397947E0,-8.340758E-1,-1.8243492E-1,1.9865572E-1,-7.560986E-1,1.0058168E-1,-1.3545128E0,-1.3535428E-1,-0E0,5.312078E-1,-6.0022987E-2,4.0021967E-2,-6.7807937E-1,1.8098679E-1,5.9779936E-1,1.1069497E0,-0E0,-1.2974273E-1,-0E0,3.378459E-2,-9.432444E-2,2.2364385E-2,-3.2302227E-2,-6.468521E-2,5.3438086E-2,1.6877698E-3,-8.404358E-2,-1.8203234E-3,-1.3623534E-1,-0E0,8.02624E-2,1.8388294E-2,-8.372434E-2,2.627781E-2,-4.4617202E-2,1.1969748E-2,7.7375844E-2,-0E0,1.1346908E-1,-4.8956033E-2,4.6742544E-2],"categories":[],"categories_nodes":[],"categories_segments":[],"categories_sizes":[],"default_left":[0,0,0,0,0,0,0,0,0,0,0,0,0,0,0,0,0,0,0,1,0,0,0,0,0,1,0,0,0,1,0,0,0,0,0,0,0,0,0,0,0,0,0,0,0,0,0,0,0,0,0,0,0,0,0,0,0,0,0,0,0,0,0,0,0,0,0,0,0,0,0,0,0,0,0,0,0],"id":5,"left_children":[1,3,-1,-1,5,7,9,11,13,15,17,19,-1,21,23,25,27,-1,29,31,33,35,37,39,41,43,45,47,49,51,-1,-1,-1,-1,-1,-1,53,55,57,59,61,-1,63,-1,-1,65,-1,-1,67,69,71,73,75,-1,-1,-1,-1,-1,-1,-1,-1,-1,-1,-1,-1,-1,-1,-1,-1,-1,-1,-1,-1,-1,-1,-1,-1],"loss_changes":[2.2640706E5,6.7527344E2,0E0,0E0,4.089082E2,5.2218445E1,3.8512417E1,5.193054E0,5.5118896E1,2.3564627E1,5.4746246E0,1.5661621E-1,0E0,2.4256771E1,2.8003296E1,5.303542E0,1.4224329E1,0E0,4.301712E0,2.477417E-1,2.1744515E-1,5.0379066E0,1.5336769E1,1.1289534E1,1.59427185E1,1.8766193E0,2.1809165E0,3.324614E0,6.536499E0,3.0402222E0,0E0,0E0,0E0,0E0,0E0,0E0,4.308136E0,7.2410736E0,9.552023E0,4.2339993E0,4.881138E0,0E0,8.396301E-1,0E0,0E0,5.6187344E-1,0E0,0E0,3.3467655E0,5.6310787E0,4.751486E0,2.8709488E0,1.2011062E0,0E0,0E0,0E0,0E0,0E0,0E0,0E0,0E0,0E0,0E0,0E0,0E0,0E0,0E0,0E0,0E0,0E0,0E0,0E0,0E0,0E0,0E0,0E0,0E0],"parents":[2147483647,0,0,1,1,4,4,5,5,6,6,7,7,8,8,9,9,10,10,11,11,13,13,14,14,15,15,16,16,18,18,19,19,20,20,21,21,22,22,23,23,24,24,25,25,26,26,27,27,28,28,29,29,36,36,37,37,38,38,39,39,40,40,42,42,45,45,48,48,49,49,50,50,51,51,52,52],"right_children":[2,4,-1,-1,6,8,10,12,14,16,18,20,-1,22,24,26,28,-1,30,32,34,36,38,40,42,44,46,48,50,52,-1,-1,-1,-1,-1,-1,54,56,58,60,62,-1,64,-1,-1,66,-1,-1,68,70,72,74,76,-1,-1,-1,-1,-1,-1,-1,-1,-1,-1,-1,-1,-1,-1,-1,-1,-1,-1,-1,-1,-1,-1,-1,-1],"split_conditions":[2.203573E-4,0E0,1.4083575E-1,-1.4406769E-1,4.6464357E0,4.3722897E1,3.6650024E1,6.1194575E-1,1.87051E6,1.9231105E-1,1.147042E1,2.6034153E0,-0E0,0E0,2.1840254E2,9.519137E-3,1.8178941E2,-4.216361E-2,1.0179736E1,8.7224156E-1,1.1558086E0,1.5350132E-1,2.3070135E0,1.823295E-2,4.2711143E1,9.878621E-1,3.0045068E-2,8.903771E-1,3.27676E0,6.666782E-1,-8.2881266E-4,-1.4441374E-1,-0E0,-0E0,-3.9964493E-2,-0E0,4.991899E-2,1.6930692E-1,0E0,6.40211E0,1.5350132E-1,1.0058168E-1,4.2466965E1,-1.3535428E-1,-0E0,-5.3451565E-4,-6.0022987E-2,4.0021967E-2,2.8289834E-1,2.0649994E1,1.8044639E-1,-1.3496713E1,6.217079E1,-1.2974273E-1,-0E0,3.378459E-2,-9.432444E-2,2.2364385E-2,-3.2302227E-2,-6.468521E-2,5.3438086E-2,1.6877698E-3,-8.404358E-2,-1.8203234E-3,-1.3623534E-1,-0E0,8.02624E-2,1.8388294E-2,-8.372434E-2,2.627781E-2,-4.4617202E-2,1.1969748E-2,7.7375844E-2,-0E0,1.1346908E-1,-4.8956033E-2,4.6742544E-2],"split_indices":[62,62,0,0,40,73,39,12,33,67,26,39,0,63,35,47,6,0,81,46,32,80,80,56,22,32,47,41,80,46,0,0,0,0,0,0,12,80,29,72,80,0,77,0,0,36,0,0,46,39,81,29,34,0,0,0,0,0,0,0,0,0,0,0,0,0,0,0,0,0,0,0,0,0,0,0,0],"split_type":[0,0,0,0,0,0,0,0,0,0,0,0,0,0,0,0,0,0,0,0,0,0,0,0,0,0,0,0,0,0,0,0,0,0,0,0,0,0,0,0,0,0,0,0,0,0,0,0,0,0,0,0,0,0,0,0,0,0,0,0,0,0,0,0,0,0,0,0,0,0,0,0,0,0,0,0,0],"sum_hessian":[1.1278414E5,5.6006273E4,5.6777867E4,5.494053E4,1.0657424E3,7.749587E2,2.9078378E2,2.3006331E2,5.448954E2,2.144358E2,7.634798E1,2.2886328E2,1.2000264E0,2.55772E2,2.8912338E2,1.8185999E1,1.9624982E2,1.2103517E0,7.513763E1,2.2654753E2,2.315746E0,4.408573E1,2.1168626E2,7.411855E1,2.1500482E2,1.3340199E1,4.8458004E0,1.8982735E1,1.7726707E2,7.314431E1,1.9933221E0,2.25417E2,1.1305269E0,1.1475631E0,1.168183E0,1.8827653E0,4.2202965E1,4.8375877E1,1.633104E2,1.3094376E1,6.1024174E1,1.7356663E0,2.1326917E2,1.1381862E1,1.9583373E0,2.655335E0,2.1904655E0,1.4727354E0,1.7509998E1,1.10065445E2,6.720163E1,6.985865E1,3.2856581E0,4.1009327E1,1.1936383E0,3.1632829E0,4.5212593E1,4.0017693E1,1.232927E2,2.6116645E0,1.0482712E1,4.915429E0,5.6108746E1,2.0073614E0,2.112618E2,1.1819894E0,1.4733454E0,1.7257842E0,1.5784215E1,9.929175E1,1.0773701E1,2.0059895E1,4.714173E1,1.1925461E0,6.86661E1,1.1838999E0,2.1017582E0],"tree_param":{"num_deleted":"0","num_feature":"87","num_nodes":"77","size_leaf_vector":"1"}},{"base_weights":[1.2379097E-3,-1.3660837E0,1.3547051E-1,-1.3815434E-1,-5.9089506E-1,-9.492613E-1,3.4138027E-1,-7.471739E-1,-1.2949803E0,-3.148577E-1,5.1550627E-1,-4.4239587E-1,-1.0040575E0,9.901516E-2,-1.3248522E0,-1.1987736E-1,-7.6748624E-2,2.5462177E-1,8.759533E-1,-1.1253606E0,-2.6517308E-1,-1.1781515E0,-6.50216E-1,5.225403E-2,-2.9906714E-2,-0E0,-1.3463506E0,3.8678262E-2,-9.139666E-1,-2.0194858E-1,4.086782E-1,-2.6875317E-2,9.135455E-1,-0E0,-1.2457368E0,-7.60379E-1,-1.4113542E-1,-5.1533604E-1,-1.2183664E0,-3.013751E-1,-8.373152E-1,4.047448E-2,-2.2391725E-1,-1.3526825E0,-0E0,-5.9954494E-1,2.7605402E-1,-1.1794143E-1,-0E0,8.953244E-2,-3.5645264E-1,6.0891235E-1,-0E0,9.495492E-1,-2.4008745E-2,-5.9796687E-2,8.678153E-2,-4.8622265E-3,-1.3061777E-1,-0E0,-9.216348E-2,-7.3317373E-3,-1.0750107E-1,5.820019E-2,-8.726906E-2,-0E0,-1.2283093E-1,5.124249E-2,-6.782322E-2,-9.107636E-2,1.3496212E-2,-6.0603708E-2,-0E0,-1.355917E-1,-0E0,-1.09148204E-1,1.3707891E-2,5.843957E-2,-1.4008868E-2,-0E0,-7.949229E-2,2.4611792E-3,7.837557E-2,-4.11258E-2,3.9904572E-2,4.317938E-2,1.0435267E-1],"categories":[],"categories_nodes":[],"categories_segments":[],"categories_sizes":[],"default_left":[0,0,0,0,0,0,0,0,0,0,0,0,0,0,0,0,0,0,0,0,0,0,1,0,0,0,0,0,0,0,0,0,0,0,0,0,0,0,0,0,0,0,0,0,0,0,0,0,0,0,1,0,0,0,0,0,0,0,0,0,0,0,0,0,0,0,0,0,0,0,0,0,0,0,0,0,0,0,0,0,0,0,0,0,0,0,0],"id":6,"left_children":[1,3,-1,-1,5,7,9,11,13,15,17,19,21,23,25,-1,27,29,31,33,35,37,39,-1,-1,41,43,45,47,49,51,-1,53,55,57,59,61,63,65,67,69,-1,71,73,-1,75,77,-1,-1,-1,79,81,83,85,-1,-1,-1,-1,-1,-1,-1,-1,-1,-1,-1,-1,-1,-1,-1,-1,-1,-1,-1,-1,-1,-1,-1,-1,-1,-1,-1,-1,-1,-1,-1,-1,-1],"loss_changes":[1.9628938E5,6.295156E2,0E0,0E0,3.4661688E2,4.9279663E1,3.3187317E1,3.541739E1,1.2721313E1,1.1187744E1,2.0143124E1,2.5122143E1,1.31762085E1,1.3835135E0,7.8789062E0,0E0,5.64145E0,9.829625E0,4.9338837E0,4.761341E0,9.945858E0,2.1287842E0,4.388336E0,0E0,0E0,5.8985144E-1,1.9484863E0,6.346218E0,1.5128789E0,5.4175367E0,8.092354E0,0E0,4.760826E0,3.39644E0,1.4115944E0,4.2810497E0,7.98563E0,5.8147497E0,2.0669708E0,1.104524E1,4.8412247E0,0E0,7.133045E-1,2.6745605E-1,0E0,5.022072E0,4.775961E0,0E0,0E0,0E0,4.6154003E0,6.1597576E0,6.0629077E0,2.4682693E0,0E0,0E0,0E0,0E0,0E0,0E0,0E0,0E0,0E0,0E0,0E0,0E0,0E0,0E0,0E0,0E0,0E0,0E0,0E0,0E0,0E0,0E0,0E0,0E0,0E0,0E0,0E0,0E0,0E0,0E0,0E0,0E0,0E0],"parents":[2147483647,0,0,1,1,4,4,5,5,6,6,7,7,8,8,9,9,10,10,11,11,12,12,13,13,14,14,16,16,17,17,18,18,19,19,20,20,21,21,22,22,25,25,26,26,27,27,28,28,29,29,30,30,32,32,33,33,34,34,35,35,36,36,37,37,38,38,39,39,40,40,42,42,43,43,45,45,46,46,50,50,51,51,52,52,53,53],"right_children":[2,4,-1,-1,6,8,10,12,14,16,18,20,22,24,26,-1,28,30,32,34,36,38,40,-1,-1,42,44,46,48,50,52,-1,54,56,58,60,62,64,66,68,70,-1,72,74,-1,76,78,-1,-1,-1,80,82,84,86,-1,-1,-1,-1,-1,-1,-1,-1,-1,-1,-1,-1,-1,-1,-1,-1,-1,-1,-1,-1,-1,-1,-1,-1,-1,-1,-1,-1,-1,-1,-1,-1,-1],"split_conditions":[2.203573E-4,0E0,1.3547051E-1,-1.3815434E-1,4.6464357E0,7.30439E1,6.300003E0,2.5E4,0E0,5.000519E-2,9.047131E2,0E0,1E0,0E0,-2.6406694E7,-1.1987736E-1,2.1733403E-1,5.98524E6,1.147042E1,2.0019732E-5,2.3070135E0,7.434491E0,0E0,5.225403E-2,-2.9906714E-2,5.8086617E1,1.9834129E0,1.4473321E0,7.687678E1,-1.7100477E-1,5.556396E-3,-2.6875317E-2,9.423601E0,9.132303E-1,3.327875E-1,5.7263416E-3,1E2,-4.9119562E-2,-6.0722774E-1,1.913126E-2,3E0,4.047448E-2,4.75E-1,5.31438E0,-0E0,9.4423406E-2,8.8421356E2,-1.1794143E-1,-0E0,8.953244E-2,1.0192285E-1,1.7280707E0,4.5493018E2,-9.545741E-3,-2.4008745E-2,-5.9796687E-2,8.678153E-2,-4.8622265E-3,-1.3061777E-1,-0E0,-9.216348E-2,-7.3317373E-3,-1.0750107E-1,5.820019E-2,-8.726906E-2,-0E0,-1.2283093E-1,5.124249E-2,-6.782322E-2,-9.107636E-2,1.3496212E-2,-6.0603708E-2,-0E0,-1.355917E-1,-0E0,-1.09148204E-1,1.3707891E-2,5.843957E-2,-1.4008868E-2,-0E0,-7.949229E-2,2.4611792E-3,7.837557E-2,-4.11258E-2,3.9904572E-2,4.317938E-2,1.0435267E-1],"split_indices":[62,62,0,0,40,27,39,33,12,67,9,63,39,29,33,0,12,33,26,47,80,28,29,0,0,34,23,79,34,12,63,0,81,41,32,56,77,66,25,47,69,0,38,0,0,54,43,0,0,0,45,67,43,14,0,0,0,0,0,0,0,0,0,0,0,0,0,0,0,0,0,0,0,0,0,0,0,0,0,0,0,0,0,0,0,0,0],"split_type":[0,0,0,0,0,0,0,0,0,0,0,0,0,0,0,0,0,0,0,0,0,0,0,0,0,0,0,0,0,0,0,0,0,0,0,0,0,0,0,0,0,0,0,0,0,0,0,0,0,0,0,0,0,0,0,0,0,0,0,0,0,0,0,0,0,0,0,0,0,0,0,0,0,0,0,0,0,0,0,0,0,0,0,0,0,0,0],"sum_hessian":[1.0606454E5,5.276185E4,5.3302688E4,5.1728164E4,1.0336875E3,7.474302E2,2.862574E2,4.7552148E2,2.719087E2,5.8653957E1,2.2760344E2,2.2051169E2,2.550098E2,4.953609E0,2.6695508E2,1.06997385E1,4.7954216E1,1.3463673E2,9.2966705E1,4.3166817E1,1.7734486E2,1.6746124E2,8.754855E1,3.4657502E0,1.4878587E0,4.142434E0,2.6281262E2,4.193239E1,6.021831E0,3.2251717E1,1.0238502E2,1.9146254E0,9.1052086E1,5.0551662E0,3.8111652E1,3.28806E1,1.4446426E2,1.1791781E1,1.5566946E2,3.3340927E1,5.4207623E1,1.4795731E0,2.6628609E0,2.6141348E2,1.3991472E0,9.812213E0,3.2120174E1,4.3043594E0,1.7174716E0,2.5900786E0,2.966164E1,6.7396065E1,3.4988953E1,8.9308586E1,1.7434988E0,3.8461192E0,1.209047E0,2.713647E0,3.5398006E1,5.7787538E0,2.7101847E1,1.3668733E2,7.776923E0,2.0548673E0,9.736914E0,1.1561242E0,1.5451334E2,9.599067E0,2.3741861E1,5.141535E1,2.7922704E0,1.4421536E0,1.2207074E0,2.603085E2,1.1049838E0,6.408353E0,3.4038596E0,1.9597832E1,1.2522342E1,1.7192436E1,1.2469204E1,1.7102432E1,5.0293633E1,1.6470348E1,1.8518602E1,1.6214214E1,7.309437E1],"tree_param":{"num_deleted":"0","num_feature":"87","num_nodes":"87","size_leaf_vector":"1"}},{"base_weights":[1.2689614E-3,-1.3165411E0,1.3097578E-1,-1.3323025E-1,-5.521766E-1,-8.9485997E-1,3.045149E-1,-1.3071797E0,-7.245479E-1,1.115018E-1,8.5949916E-1,-1.3198246E0,2.3425876E-3,-4.1021916E-1,-1.015195E0,-4.3876937E-1,2.623258E-1,-3.813679E-2,9.002549E-1,-1.3274688E0,-1.2637055E-1,-1.0228192E0,-2.809091E-1,-4.6146458E-1,-1.2037735E0,-1.902594E-1,-1.2211003E-1,2.8102664E-2,5.631424E-1,9.4174874E-1,-2.5520301E-3,-1.3315484E-1,-0E0,-0E0,-3.3894658E-2,3.446047E-3,-1.0976293E0,-8.1010276E-1,-1.5101704E-1,2.4146722E-1,-6.4063466E-1,9.0609394E-2,-1.2327684E0,-9.7284436E-1,-0E0,3.244774E-1,-3.5238132E-1,-8.934072E-3,6.7211235E-1,1.188021E0,6.2256026E-1,-1.1581476E-1,2.2400818E-3,-9.578564E-2,3.4157302E-2,2.1446796E-2,-2.7818961E-2,-4.957057E-2,5.192391E-2,-7.3625095E-4,-8.2106374E-2,-0E0,-1.2407481E-1,-0E0,-1.1363659E-1,-7.042536E-2,1.5250235E-2,-1.514501E-2,5.8409035E-2,3.0358512E-2,-4.7255088E-2,-1.0951831E-1,4.7532152E-2,7.891654E-2,7.3770224E-3,-0E0,1.22781515E-1,2.0359294E-2,8.927513E-2],"categories":[],"categories_nodes":[],"categories_segments":[],"categories_sizes":[],"default_left":[0,0,0,0,0,0,0,0,0,0,0,0,0,0,0,0,0,0,0,1,0,0,0,0,0,0,0,0,0,1,0,0,0,0,0,0,0,0,0,0,0,0,0,0,0,0,0,0,0,0,0,0,0,0,0,0,0,0,0,0,0,0,0,0,0,0,0,0,0,0,0,0,0,0,0,0,0,0,0],"id":7,"left_children":[1,3,-1,-1,5,7,9,11,13,15,17,19,-1,21,23,25,27,-1,29,31,33,35,37,39,41,43,-1,45,47,49,-1,-1,-1,-1,-1,-1,51,53,55,57,59,-1,61,63,65,67,69,71,73,75,77,-1,-1,-1,-1,-1,-1,-1,-1,-1,-1,-1,-1,-1,-1,-1,-1,-1,-1,-1,-1,-1,-1,-1,-1,-1,-1,-1,-1],"loss_changes":[1.7113528E5,5.9309375E2,0E0,0E0,2.9502438E2,4.7356934E1,2.9590965E1,4.8029175E0,4.486325E1,1.7768847E1,4.521927E0,2.5216675E-1,0E0,1.8128738E1,2.5272339E1,7.1371374E0,1.1418172E1,0E0,3.6731224E0,2.5582886E-1,1.9257551E-1,4.3962593E0,1.3233095E1,9.351765E0,1.3338226E1,4.9876213E0,0E0,1.1236591E1,5.2070427E0,2.88554E0,0E0,0E0,0E0,0E0,0E0,0E0,3.8609543E0,7.6310368E0,8.023828E0,3.102896E0,5.6868477E0,0E0,8.2943726E-1,7.3114777E-1,3.6596298E0,7.635632E0,3.6466455E0,7.013844E0,3.4651356E0,5.151329E-1,2.5691862E0,0E0,0E0,0E0,0E0,0E0,0E0,0E0,0E0,0E0,0E0,0E0,0E0,0E0,0E0,0E0,0E0,0E0,0E0,0E0,0E0,0E0,0E0,0E0,0E0,0E0,0E0,0E0,0E0],"parents":[2147483647,0,0,1,1,4,4,5,5,6,6,7,7,8,8,9,9,10,10,11,11,13,13,14,14,15,15,16,16,18,18,19,19,20,20,21,21,22,22,23,23,24,24,25,25,27,27,28,28,29,29,36,36,37,37,38,38,39,39,40,40,42,42,43,43,44,44,45,45,46,46,47,47,48,48,49,49,50,50],"right_children":[2,4,-1,-1,6,8,10,12,14,16,18,20,-1,22,24,26,28,-1,30,32,34,36,38,40,42,44,-1,46,48,50,-1,-1,-1,-1,-1,-1,52,54,56,58,60,-1,62,64,66,68,70,72,74,76,78,-1,-1,-1,-1,-1,-1,-1,-1,-1,-1,-1,-1,-1,-1,-1,-1,-1,-1,-1,-1,-1,-1,-1,-1,-1,-1,-1,-1],"split_conditions":[2.203573E-4,0E0,1.3097578E-1,-1.3323025E-1,4.53553E0,4.3722897E1,3.6650024E1,6.1194575E-1,1.87051E6,4.2575316E7,1.147042E1,2.6034153E0,2.3425876E-3,0E0,2.1428593E2,-5.882712E-2,1.5286257E1,-3.813679E-2,1.0179736E1,8.7224156E-1,1.1558086E0,1.5350132E-1,9.3283704E2,1.823295E-2,4.2711143E1,1.9999203E2,-1.2211003E-1,5.8505463E1,-1.5929587E1,1.3155401E-1,-2.5520301E-3,-1.3315484E-1,-0E0,-0E0,-3.3894658E-2,3.446047E-3,4.991899E-2,1.6833448E-3,0E0,6.40211E0,3.8944706E-2,9.0609394E-2,4.2466965E1,-1.4668705E-1,-4.3265095E0,8.191531E0,-5.62797E6,2.0235286E0,2.4412732E6,4.3814545E0,-2.1684048E0,-1.1581476E-1,2.2400818E-3,-9.578564E-2,3.4157302E-2,2.1446796E-2,-2.7818961E-2,-4.957057E-2,5.192391E-2,-7.3625095E-4,-8.2106374E-2,-0E0,-1.2407481E-1,-0E0,-1.1363659E-1,-7.042536E-2,1.5250235E-2,-1.514501E-2,5.8409035E-2,3.0358512E-2,-4.7255088E-2,-1.0951831E-1,4.7532152E-2,7.891654E-2,7.3770224E-3,-0E0,1.22781515E-1,2.0359294E-2,8.927513E-2],"split_indices":[62,62,0,0,40,73,39,12,33,48,26,39,0,63,35,68,40,0,81,46,32,80,35,56,22,44,0,77,23,45,0,0,0,0,0,0,12,14,29,72,55,0,77,12,68,72,33,67,31,79,25,0,0,0,0,0,0,0,0,0,0,0,0,0,0,0,0,0,0,0,0,0,0,0,0,0,0,0,0],"split_type":[0,0,0,0,0,0,0,0,0,0,0,0,0,0,0,0,0,0,0,0,0,0,0,0,0,0,0,0,0,0,0,0,0,0,0,0,0,0,0,0,0,0,0,0,0,0,0,0,0,0,0,0,0,0,0,0,0,0,0,0,0,0,0,0,0,0,0,0,0,0,0,0,0,0,0,0,0,0,0],"sum_hessian":[9.9244836E4,4.9445918E4,4.979892E4,4.8444914E4,1.0010016E3,7.15799E2,2.8520258E2,2.0557127E2,5.1022775E2,2.1383687E2,7.1365685E1,2.0438858E2,1.1826901E0,2.4793896E2,2.622888E2,4.4164883E1,1.69672E2,1.2234085E0,7.014228E1,2.0214363E2,2.2449536E0,4.0661934E1,2.0727702E2,6.885551E1,1.9343327E2,3.5431404E1,8.733475E0,9.7878845E1,7.1793144E1,6.815064E1,1.9916333E0,2.0104506E2,1.0985774E0,1.1176409E0,1.1273127E0,1.8393183E0,3.8822613E1,3.830067E1,1.6897636E2,1.2781459E1,5.6074047E1,1.744617E0,1.9168866E2,5.663372E0,2.9768034E1,5.6580997E1,4.129785E1,1.0165723E1,6.1627422E1,3.516437E1,3.2986275E1,3.7647232E1,1.1753838E0,3.4864357E1,3.4363127E0,4.141185E1,1.2756451E2,2.2980516E0,1.0483407E1,1.3893528E1,4.218052E1,1.9317161E0,1.8975694E2,1.2135254E0,4.4498463E0,5.1787643E0,2.458927E1,1.8758072E1,3.782292E1,4.8694158E0,3.6428436E1,3.382276E0,6.783447E0,4.9879364E1,1.1748055E1,1.9645256E0,3.3199844E1,1.5071108E1,1.7915167E1],"tree_param":{"num_deleted":"0","num_feature":"87","num_nodes":"79","size_leaf_vector":"1"}},{"base_weights":[1.2960838E-3,-1.2746227E0,1.2717234E-1,-1.2908438E-1,-5.1610416E-1,-8.0146307E-1,3.9406773E-1,-6.244714E-1,-1.23429E0,3.6894254E-2,6.5936726E-1,-3.385299E-1,-8.4016025E-1,-1.2557025E0,-1.20413855E-1,-3.4653476E-1,2.1969935E-1,-7.098538E-2,6.88336E-1,-9.3798095E-1,-1.9465545E-1,-1.0751361E0,-4.4733962E-1,-1.2630312E0,-0E0,3.348471E-4,-4.168673E-1,6.809527E-2,-4.6846235E-1,4.4036373E-1,-1.6353211E-1,5.371369E-1,1.066012E0,-2.5748086E-1,-1.1977643E0,-1.2835518E-1,-1.1118215E0,-1.0912145E0,-0E0,-3.3344212E-1,-1.0258241E0,-0E0,-1.26758E0,-6.53307E-2,-0E0,9.4870605E-2,-6.5081143E-1,-8.479442E-2,5.492799E-1,3.265456E-1,-4.8682514E-1,6.153189E-1,-5.478851E-1,1.1104258E0,-0E0,-9.513529E-2,4.0599655E-2,8.107736E-3,-1.2865679E-1,-6.186415E-3,-9.2117265E-2,-1.17894486E-1,-0E0,-0E0,-1.1097746E-1,-2.0264016E-2,2.627197E-2,-4.222409E-2,5.5583883E-2,-1.10637896E-1,-0E0,-1.2715755E-1,-0E0,6.293805E-2,-1.2020803E-2,-0E0,-8.1926264E-2,7.048603E-2,-0E0,8.9732826E-2,-2.1148536E-2,4.9026683E-3,-7.788799E-2,-4.3174084E-2,6.514775E-2,-1.250484E-1,1.1850183E-2,-0E0,1.13348246E-1],"categories":[],"categories_nodes":[],"categories_segments":[],"categories_sizes":[],"default_left":[0,0,0,0,0,0,0,0,0,0,0,0,0,0,0,0,0,0,0,0,1,0,0,0,0,0,0,0,1,0,0,0,0,1,0,0,0,0,0,0,0,0,0,0,0,0,0,0,0,0,0,0,0,0,0,0,0,0,0,0,0,0,0,0,0,0,0,0,0,0,0,0,0,0,0,0,0,0,0,0,0,0,0,0,0,0,0,0,0],"id":8,"left_children":[1,3,-1,-1,5,7,9,11,13,15,17,19,21,23,25,27,29,-1,31,33,35,37,39,41,-1,-1,43,-1,45,47,49,51,53,55,57,59,61,63,65,67,69,-1,71,-1,-1,73,75,-1,77,79,81,83,85,87,-1,-1,-1,-1,-1,-1,-1,-1,-1,-1,-1,-1,-1,-1,-1,-1,-1,-1,-1,-1,-1,-1,-1,-1,-1,-1,-1,-1,-1,-1,-1,-1,-1,-1,-1],"loss_changes":[1.4990112E5,5.6521875E2,0E0,0E0,2.523916E2,5.39722E1,2.1179615E1,3.1105896E1,3.5238342E0,7.040483E0,5.661148E0,1.8584242E1,2.5535309E1,9.416809E-1,6.3436556E-1,4.025687E0,6.3432703E0,0E0,5.2168922E0,5.8471565E0,1.0090323E1,3.2925873E0,5.874071E0,5.7455444E-1,0E0,0E0,5.7118374E-1,0E0,3.6405745E0,6.749423E0,4.2762184E0,8.578213E0,8.9888763E-1,7.483461E0,4.696331E0,8.348863E0,3.8781357E-1,3.0202637E0,2.521956E-1,7.9177656E0,1.0398521E0,0E0,3.4649658E-1,0E0,0E0,1.3582823E0,2.8292065E0,0E0,4.0861177E0,3.7303655E0,3.3782527E0,3.954193E0,4.1575155E0,3.7160492E-1,0E0,0E0,0E0,0E0,0E0,0E0,0E0,0E0,0E0,0E0,0E0,0E0,0E0,0E0,0E0,0E0,0E0,0E0,0E0,0E0,0E0,0E0,0E0,0E0,0E0,0E0,0E0,0E0,0E0,0E0,0E0,0E0,0E0,0E0,0E0],"parents":[2147483647,0,0,1,1,4,4,5,5,6,6,7,7,8,8,9,9,10,10,11,11,12,12,13,13,14,14,15,15,16,16,18,18,19,19,20,20,21,21,22,22,23,23,26,26,28,28,29,29,30,30,31,31,32,32,33,33,34,34,35,35,36,36,37,37,38,38,39,39,40,40,42,42,45,45,46,46,48,48,49,49,50,50,51,51,52,52,53,53],"right_children":[2,4,-1,-1,6,8,10,12,14,16,18,20,22,24,26,28,30,-1,32,34,36,38,40,42,-1,-1,44,-1,46,48,50,52,54,56,58,60,62,64,66,68,70,-1,72,-1,-1,74,76,-1,78,80,82,84,86,88,-1,-1,-1,-1,-1,-1,-1,-1,-1,-1,-1,-1,-1,-1,-1,-1,-1,-1,-1,-1,-1,-1,-1,-1,-1,-1,-1,-1,-1,-1,-1,-1,-1,-1,-1],"split_conditions":[2.203573E-4,0E0,1.2717234E-1,-1.2908438E-1,6.300003E0,9.9547356E1,3.27676E0,1.21632E5,1.1886966E-2,6.310037E6,-1.1771932E-1,0E0,1E0,1.9834129E0,9.095418E-1,-1.7100477E-1,5.1516094E-3,-7.098538E-2,2.1865837E3,5.2046917E1,2.4923676E-1,1.6541016E0,4.379562E-2,1.928737E1,-0E0,3.348471E-4,1.5002441E-1,6.809527E-2,2.9324052E-1,5.44923E0,3.0176193E-1,1.990905E3,8.269263E1,1.26884155E2,2.6748994E-1,1E2,1.6285719E-1,-2.5890837E0,1.7283655E1,2.3648975E9,6.726341E1,-0E0,5.31438E0,-6.53307E-2,-0E0,5.3303104E-2,8.281655E-3,-8.479442E-2,5.260921E2,4.9339104E-2,3.1342328E-2,8.2657E3,2.6722017E1,2.0179214E0,-0E0,-9.513529E-2,4.0599655E-2,8.107736E-3,-1.2865679E-1,-6.186415E-3,-9.2117265E-2,-1.17894486E-1,-0E0,-0E0,-1.1097746E-1,-2.0264016E-2,2.627197E-2,-4.222409E-2,5.5583883E-2,-1.10637896E-1,-0E0,-1.2715755E-1,-0E0,6.293805E-2,-1.2020803E-2,-0E0,-8.1926264E-2,7.048603E-2,-0E0,8.9732826E-2,-2.1148536E-2,4.9026683E-3,-7.788799E-2,-4.3174084E-2,6.514775E-2,-1.250484E-1,1.1850183E-2,-0E0,1.13348246E-1],"split_indices":[62,62,0,0,39,22,80,33,13,33,36,63,39,23,32,12,63,0,9,22,46,23,47,34,0,0,39,0,32,40,46,9,77,43,79,77,56,66,28,33,22,0,0,0,0,25,54,0,9,56,47,31,26,77,0,0,0,0,0,0,0,0,0,0,0,0,0,0,0,0,0,0,0,0,0,0,0,0,0,0,0,0,0,0,0,0,0,0,0],"split_type":[0,0,0,0,0,0,0,0,0,0,0,0,0,0,0,0,0,0,0,0,0,0,0,0,0,0,0,0,0,0,0,0,0,0,0,0,0,0,0,0,0,0,0,0,0,0,0,0,0,0,0,0,0,0,0,0,0,0,0,0,0,0,0,0,0,0,0,0,0,0,0,0,0,0,0,0,0,0,0,0,0,0,0,0,0,0,0,0,0],"sum_hessian":[9.247465E4,4.6137215E4,4.6337434E4,4.5169234E4,9.679778E2,7.378605E2,2.3011736E2,5.2708E2,2.1078043E2,1.0016855E2,1.299488E2,2.2972992E2,2.973501E2,2.0579916E2,4.981256E0,3.0283573E1,6.988497E1,1.4901954E0,1.284586E2,4.2051777E1,1.8767813E2,1.8337622E2,1.1397388E2,2.0399657E2,1.8026066E0,1.8319526E0,3.1493034E0,1.8560557E0,2.8427517E1,4.5910217E1,2.3974758E1,9.535435E1,3.310426E1,1.3231773E1,2.8820005E1,1.7710574E2,1.0572392E1,1.8074805E2,2.6281812E0,9.7986435E1,1.5987439E1,1.1110498E0,2.0288551E2,2.0276768E0,1.1216266E0,5.727924E0,2.2699593E1,2.3341548E0,4.357606E1,8.295873E0,1.5678886E1,9.020883E1,5.145519E0,3.115967E1,1.9445901E0,6.992383E0,6.23939E0,1.1457973E0,2.7674208E1,1.655601E2,1.1545634E1,9.571174E0,1.0012187E0,3.5760608E0,1.7717198E2,1.4053075E0,1.2228737E0,9.059028E1,7.39616E0,1.44533E1,1.5341386E0,2.0182053E2,1.0649922E0,2.4248667E0,3.3030574E0,4.528755E0,1.8170837E1,3.429408E1,9.281982E0,4.6032434E0,3.6926289E0,4.616609E0,1.1062277E1,1.7228677E0,8.848596E1,2.8085093E0,2.3370094E0,1.0057998E0,3.015387E1],"tree_param":{"num_deleted":"0","num_feature":"87","num_nodes":"89","size_leaf_vector":"1"}},{"base_weights":[1.3036365E-3,-1.2388011E0,1.2392656E-1,-1.2556133E-1,-4.8351976E-1,-7.9573536E-1,2.6141888E-1,-1.224078E0,-6.300405E-1,9.428622E-2,7.622045E-1,-1.2381383E0,5.1680407E-3,-3.4472394E-1,-9.118037E-1,-3.9318994E-1,2.2734167E-1,-3.6439322E-2,8.035274E-1,-1.2464918E0,-6.289881E-2,-9.110975E-1,-2.317125E-1,-3.771907E-1,-1.1093838E0,-1.7220442E-1,-1.125592E-1,3.2205552E-2,4.8105302E-1,9.693709E-1,3.2342944E-1,-1.25101E-1,-0E0,-0E0,-2.9134491E-2,-0E0,-1.0181725E0,-7.041208E-1,-1.2084545E-1,4.653017E-1,-5.2751815E-1,8.75768E-2,-1.1405497E0,-0E0,-7.547229E-1,1.6688925E-1,-7.1057457E-1,-1.4705034E-2,6.0640174E-1,1.0308968E0,-0E0,8.3287954E-2,-0E0,8.8540636E-2,-6.640562E-2,-2.6978205E-3,-1.229288E-1,-8.515825E-2,3.5007056E-2,2.014151E-2,-2.349396E-2,-1.9321134E-2,8.4707685E-2,-7.324915E-2,6.6853017E-3,-1.1586012E-1,-2.8184447E-2,6.581112E-2,-1.5891727E-2,-1.0973066E-1,1.0354254E-2,2.7246976E-2,-5.7678413E-2,1.4901622E-2,-1.0286436E-1,5.4132212E-2,-6.1291654E-2,7.814362E-2,1.9908555E-2,1.06134884E-1,-0E0,-4.2454757E-2,4.995093E-2,-6.297423E-2,3.761285E-2],"categories":[],"categories_nodes":[],"categories_segments":[],"categories_sizes":[],"default_left":[0,0,0,0,0,0,0,0,0,0,0,0,0,0,0,0,0,0,0,1,0,0,0,0,0,1,0,0,0,0,1,0,0,0,0,0,0,0,0,0,0,0,0,1,0,0,0,0,0,1,0,0,0,0,0,0,0,0,0,0,0,0,0,0,0,0,0,0,0,0,0,0,0,0,0,0,0,0,0,0,0,0,0,0,0],"id":9,"left_children":[1,3,-1,-1,5,7,9,11,13,15,17,19,-1,21,23,25,27,-1,29,31,33,35,37,39,41,43,-1,45,47,49,51,-1,-1,-1,-1,53,55,57,59,61,63,-1,65,67,69,71,73,75,77,79,81,-1,83,-1,-1,-1,-1,-1,-1,-1,-1,-1,-1,-1,-1,-1,-1,-1,-1,-1,-1,-1,-1,-1,-1,-1,-1,-1,-1,-1,-1,-1,-1,-1,-1],"loss_changes":[1.3182003E5,5.423281E2,0E0,0E0,2.1865858E2,4.4318726E1,2.221576E1,4.510559E0,3.7071686E1,1.3542178E1,3.876915E0,3.8500977E-1,0E0,1.4148775E1,2.339032E1,5.593524E0,7.748502E0,0E0,3.6751938E0,3.647461E-1,1.6481575E-1,3.9376698E0,9.812478E0,8.856802E0,1.196521E1,4.150415E0,0E0,9.359211E0,4.974575E0,2.4595528E0,3.068994E0,0E0,0E0,0E0,0E0,3.4905949E0,5.952404E0,6.5502014E0,6.284927E0,3.2674394E0,7.8730164E0,0E0,8.871918E-1,3.3681588E0,3.7987065E0,6.506485E0,4.87776E0,4.9174614E0,2.9857578E0,1.2137604E0,1.1198554E0,0E0,3.3917913E0,0E0,0E0,0E0,0E0,0E0,0E0,0E0,0E0,0E0,0E0,0E0,0E0,0E0,0E0,0E0,0E0,0E0,0E0,0E0,0E0,0E0,0E0,0E0,0E0,0E0,0E0,0E0,0E0,0E0,0E0,0E0,0E0],"parents":[2147483647,0,0,1,1,4,4,5,5,6,6,7,7,8,8,9,9,10,10,11,11,13,13,14,14,15,15,16,16,18,18,19,19,20,20,21,21,22,22,23,23,24,24,25,25,27,27,28,28,29,29,30,30,35,35,36,36,37,37,38,38,39,39,40,40,42,42,43,43,44,44,45,45,46,46,47,47,48,48,49,49,50,50,52,52],"right_children":[2,4,-1,-1,6,8,10,12,14,16,18,20,-1,22,24,26,28,-1,30,32,34,36,38,40,42,44,-1,46,48,50,52,-1,-1,-1,-1,54,56,58,60,62,64,-1,66,68,70,72,74,76,78,80,82,-1,84,-1,-1,-1,-1,-1,-1,-1,-1,-1,-1,-1,-1,-1,-1,-1,-1,-1,-1,-1,-1,-1,-1,-1,-1,-1,-1,-1,-1,-1,-1,-1,-1],"split_conditions":[2.203573E-4,0E0,1.2392656E-1,-1.2556133E-1,4.53553E0,4.353473E1,3.6650024E1,6.1194575E-1,1.87051E6,4.2575316E7,1.147042E1,2.6034153E0,5.1680407E-3,0E0,2.1428593E2,-5.882712E-2,1.5286257E1,-3.6439322E-2,4.5736622E-2,8.7224156E-1,1.1558086E0,3.7694725E-1,9.3283704E2,1.5350132E-1,4.2711143E1,1.7181224E-1,-1.125592E-1,1.909114E-1,2.1962852E1,8.31375E1,5.783058E-2,-1.25101E-1,-0E0,-0E0,-2.9134491E-2,7.128954E-1,5.2046917E1,1.6833448E-3,0E0,8.371772E-1,8.792189E8,8.75768E-2,1.2963005E6,-1.0693298E1,1.06627144E8,4.3296486E1,2.3497683E8,7.6941075E0,2E0,2.832925E-1,5.2000435E1,8.3287954E-2,-1.0940431E-2,8.8540636E-2,-6.640562E-2,-2.6978205E-3,-1.229288E-1,-8.515825E-2,3.5007056E-2,2.014151E-2,-2.349396E-2,-1.9321134E-2,8.4707685E-2,-7.324915E-2,6.6853017E-3,-1.1586012E-1,-2.8184447E-2,6.581112E-2,-1.5891727E-2,-1.0973066E-1,1.0354254E-2,2.7246976E-2,-5.7678413E-2,1.4901622E-2,-1.0286436E-1,5.4132212E-2,-6.1291654E-2,7.814362E-2,1.9908555E-2,1.06134884E-1,-0E0,-4.2454757E-2,4.995093E-2,-6.297423E-2,3.761285E-2],"split_indices":[62,62,0,0,40,2,39,12,33,48,26,39,0,63,35,68,40,0,47,46,32,79,35,80,22,45,0,12,77,77,54,0,0,0,0,67,22,14,29,41,33,0,31,30,49,27,49,77,70,45,26,0,63,0,0,0,0,0,0,0,0,0,0,0,0,0,0,0,0,0,0,0,0,0,0,0,0,0,0,0,0,0,0,0,0],"split_type":[0,0,0,0,0,0,0,0,0,0,0,0,0,0,0,0,0,0,0,0,0,0,0,0,0,0,0,0,0,0,0,0,0,0,0,0,0,0,0,0,0,0,0,0,0,0,0,0,0,0,0,0,0,0,0,0,0,0,0,0,0,0,0,0,0,0,0,0,0,0,0,0,0,0,0,0,0,0,0,0,0,0,0,0,0],"sum_hessian":[8.586291E4,4.2893926E4,4.296898E4,4.195798E4,9.3594574E2,6.6042523E2,2.755205E2,1.8074727E2,4.7967798E2,2.0896536E2,6.6555145E1,1.7958142E2,1.1658448E0,2.412043E2,2.3847368E2,4.2775978E1,1.6618939E2,1.2219841E0,6.533316E1,1.7740889E2,2.172524E0,3.7476192E1,2.037281E2,6.650216E1,1.7197151E2,3.4858665E1,7.91731E0,9.68036E1,6.938579E1,4.6253487E1,1.9079672E1,1.7635559E2,1.0533093E0,1.0829482E0,1.0895759E0,3.8687246E0,3.3607468E1,3.59924E1,1.677357E2,8.744915E0,5.7757244E1,1.7432957E0,1.7022823E2,2.6705366E1,8.153299E0,8.374098E1,1.3062618E1,1.2571213E1,5.6814575E1,4.309578E1,3.1577077E0,6.452138E0,1.2627535E1,1.6318622E0,2.2368624E0,6.9309506E0,2.6676516E1,3.2576363E1,3.4160357E0,4.1366215E1,1.2636949E2,2.4292834E0,6.315632E0,4.402498E1,1.3732266E1,1.6524078E2,4.9874296E0,5.4807563E0,2.1224611E1,6.4609733E0,1.6923265E0,7.506252E1,8.678455E0,2.8224335E0,1.0240185E1,5.698244E0,6.8729687E0,3.7378475E1,1.9436098E1,4.1679207E1,1.4165733E0,1.4114991E0,1.7462085E0,4.183776E0,8.443759E0],"tree_param":{"num_deleted":"0","num_feature":"87","num_nodes":"85","size_leaf_vector":"1"}},{"base_weights":[1.3152584E-3,-1.2079037E0,1.2113684E-1,-1.2254415E-1,-4.5264384E-1,-7.5059634E-1,2.3991679E-1,-1.187961E0,-5.876691E-1,8.482904E-2,7.161773E-1,-1.2131646E0,-0E0,-3.155673E-1,-8.65699E-1,-7.712818E-1,1.5292642E-1,-3.4353014E-2,7.575694E-1,-1.2180211E-1,-0E0,3.6049422E-2,-3.829166E-2,-8.629639E-1,-2.1027966E-1,-1.0737153E0,-3.548904E-1,-9.989752E-1,-0E0,-4.6458256E-1,2.2779751E-1,1.0084414E0,4.1849422E-1,5.3681876E-3,-9.4075173E-1,-1.13294356E-1,-6.808382E-1,4.034355E-2,-1.1026618E0,6.989698E-1,-4.7810137E-1,-0E0,-1.0936502E-1,3.2843452E-2,-9.214598E-4,3.9163668E-2,-7.5142115E-1,5.2415955E-1,9.906373E-2,1.0579355E0,-0E0,-0E0,7.162485E-1,-1.6749403E-2,-1.1235762E-1,1.2170116E-2,-3.346424E-2,7.429502E-2,-8.154616E-2,-1.1236643E-1,-0E0,-8.435386E-3,1.0962719E-1,8.555474E-2,-5.5404373E-2,1.06108405E-1,-5.3620603E-2,-0E0,-1.10894024E-1,6.246258E-2,-7.924966E-3,2.6691088E-2,-3.5060428E-2,1.1008221E-1,-0E0,5.1404774E-2,-4.8141807E-2,-0E0,7.9921454E-2],"categories":[],"categories_nodes":[],"categories_segments":[],"categories_sizes":[],"default_left":[0,0,0,0,0,0,0,0,0,0,0,1,0,0,0,1,0,0,1,0,0,0,0,0,0,0,0,0,0,0,0,0,0,0,0,0,0,0,0,0,0,0,0,0,0,0,0,0,0,0,0,0,0,0,0,0,0,0,0,0,0,0,0,0,0,0,0,0,0,0,0,0,0,0,0,0,0,0,0],"id":10,"left_children":[1,3,-1,-1,5,7,9,11,13,15,17,19,21,23,25,27,29,-1,31,-1,-1,-1,-1,33,35,37,39,41,43,45,47,49,51,-1,53,55,57,-1,59,61,63,-1,-1,-1,-1,65,67,69,71,73,-1,75,77,-1,-1,-1,-1,-1,-1,-1,-1,-1,-1,-1,-1,-1,-1,-1,-1,-1,-1,-1,-1,-1,-1,-1,-1,-1,-1],"loss_changes":[1.16306234E5,5.243711E2,0E0,0E0,1.8745998E2,4.271115E1,1.9229515E1,4.5512238E0,3.377234E1,1.1620551E1,3.529789E0,1.9334412E-1,8.207072E-1,1.2503717E1,2.2408325E1,3.2166348E0,8.861837E0,0E0,3.584343E0,0E0,0E0,0E0,0E0,3.5512028E0,8.396085E0,7.9887543E0,9.05214E0,1.0428209E0,2.3352611E-1,3.6197119E0,6.023923E0,2.2675972E0,3.348217E0,0E0,3.4470901E0,9.165326E0,6.9536963E0,0E0,2.6494446E0,3.209031E0,6.5611315E0,0E0,0E0,0E0,0E0,5.1580763E0,3.9301867E0,3.6617117E0,9.519846E0,1.6079788E0,0E0,3.8826516E0,1.4203815E0,0E0,0E0,0E0,0E0,0E0,0E0,0E0,0E0,0E0,0E0,0E0,0E0,0E0,0E0,0E0,0E0,0E0,0E0,0E0,0E0,0E0,0E0,0E0,0E0,0E0,0E0],"parents":[2147483647,0,0,1,1,4,4,5,5,6,6,7,7,8,8,9,9,10,10,11,11,12,12,13,13,14,14,15,15,16,16,18,18,23,23,24,24,25,25,26,26,27,27,28,28,29,29,30,30,31,31,32,32,34,34,35,35,36,36,38,38,39,39,40,40,45,45,46,46,47,47,48,48,49,49,51,51,52,52],"right_children":[2,4,-1,-1,6,8,10,12,14,16,18,20,22,24,26,28,30,-1,32,-1,-1,-1,-1,34,36,38,40,42,44,46,48,50,52,-1,54,56,58,-1,60,62,64,-1,-1,-1,-1,66,68,70,72,74,-1,76,78,-1,-1,-1,-1,-1,-1,-1,-1,-1,-1,-1,-1,-1,-1,-1,-1,-1,-1,-1,-1,-1,-1,-1,-1,-1,-1],"split_conditions":[2.203573E-4,0E0,1.2113684E-1,-1.2254415E-1,4.53553E0,4.3722897E1,3.6650024E1,1.1061622E0,1.87051E6,1.1255043E-1,1.147042E1,2.9612427E0,3.0749987E1,0E0,2.014038E-3,1.0560296E0,1.4473321E0,-3.4353014E-2,1.3455942E-1,-1.2180211E-1,-0E0,3.6049422E-2,-3.829166E-2,1.5350132E-1,9.6170395E1,-4.2166125E-6,1.396869E-1,1.6300196E1,7.75E-1,-3.224201E-2,3.3333335E-2,6.498724E1,-2.1684048E0,5.3681876E-3,5.2046917E1,4.573227E-3,8.540947E2,4.034355E-2,1.2963005E6,2.6333075E1,-1.8098542E-1,-0E0,-1.0936502E-1,3.2843452E-2,-9.214598E-4,2.1822498E1,2.3900878E0,4.3294586E1,1.0560296E0,6.944956E9,-0E0,-1.4103538E1,-6.1521427E1,-1.6749403E-2,-1.1235762E-1,1.2170116E-2,-3.346424E-2,7.429502E-2,-8.154616E-2,-1.1236643E-1,-0E0,-8.435386E-3,1.0962719E-1,8.555474E-2,-5.5404373E-2,1.06108405E-1,-5.3620603E-2,-0E0,-1.10894024E-1,6.246258E-2,-7.924966E-3,2.6691088E-2,-3.5060428E-2,1.1008221E-1,-0E0,5.1404774E-2,-4.8141807E-2,-0E0,7.9921454E-2],"split_indices":[62,62,0,0,40,73,39,23,33,67,26,30,27,63,47,32,79,0,45,0,0,0,0,80,77,10,80,28,38,36,56,72,25,0,22,45,2,0,31,27,12,0,0,0,0,28,67,26,32,48,0,23,23,0,0,0,0,0,0,0,0,0,0,0,0,0,0,0,0,0,0,0,0,0,0,0,0,0,0],"split_type":[0,0,0,0,0,0,0,0,0,0,0,0,0,0,0,0,0,0,0,0,0,0,0,0,0,0,0,0,0,0,0,0,0,0,0,0,0,0,0,0,0,0,0,0,0,0,0,0,0,0,0,0,0,0,0,0,0,0,0,0,0,0,0,0,0,0,0,0,0,0,0,0,0,0,0,0,0,0,0],"sum_hessian":[7.948454E4,3.975556E4,3.972898E4,3.885145E4,9.041082E2,6.3309784E2,2.7101038E2,1.6845782E2,4.6464005E2,2.0691057E2,6.40998E1,1.6458232E2,3.8755062E0,2.3772023E2,2.269198E2,1.3402697E1,1.9350787E2,1.2270339E0,6.2872765E1,1.6339484E2,1.1874825E0,1.447029E0,2.4284773E0,3.5654808E1,2.0206543E2,1.5907861E2,6.784118E1,1.0808637E1,2.59406E0,1.891798E1,1.7458989E2,3.3306747E1,2.9566013E1,1.8076776E0,3.384713E1,1.7032599E2,3.173944E1,2.1447973E0,1.5693382E2,5.7626243E0,6.2078556E1,1.084131E0,9.724505E0,1.1629868E0,1.4310733E0,5.912183E0,1.3005798E1,4.9589264E1,1.25000626E2,3.219789E1,1.1088595E0,1.360448E1,1.59615345E1,7.88468E0,2.596245E1,8.064313E1,8.968286E1,1.7097805E0,3.002966E1,1.5318346E2,3.7503633E0,1.3572899E0,4.4053345E0,2.0820122E0,5.9996544E1,2.4516377E0,3.4605453E0,4.379169E0,8.626629E0,4.3901802E1,5.6874595E0,9.293948E1,3.206114E1,3.0988514E1,1.2093759E0,7.1924515E0,6.4120283E0,1.1150404E0,1.4846494E1],"tree_param":{"num_deleted":"0","num_feature":"87","num_nodes":"79","size_leaf_vector":"1"}},{"base_weights":[1.3208095E-3,-1.1810225E0,1.1872437E-1,-1.19943E-1,-4.2368034E-1,-8.168705E-1,4.7843914E-2,-3.7154248E-1,-9.5448077E-1,-1.9545807E-1,4.8858276E-1,-9.67303E-1,-1.6368587E-1,-7.725296E-1,-1.1509019E0,-5.0807613E-1,-4.982396E-2,3.659028E-1,9.1301703E-1,-0E0,-1.096497E0,3.1012386E-1,-3.840659E-1,-4.602648E-1,-9.4013005E-1,-1.1610916E0,-0E0,-0E0,-6.35375E-1,2.62061E-1,-2.5798E-1,4.3111488E-1,-5.737411E-1,1.0365738E0,1.3703723E-1,-4.436711E-2,6.494423E-2,-1.1530542E-1,-0E0,5.0853354E-1,-2.548428E-1,-1.0933995E0,-1.577661E-1,-2.0601478E-1,-1.1381769E-1,-1.0049304E0,-2.3708896E-1,-1.1721387E0,-0E0,6.4874357E-1,-4.9450734E-1,-7.406137E-1,-0E0,-2.4886045E-1,4.5580158E-1,7.0100024E-2,-4.7726366E-1,7.540238E-2,5.9310114E-1,-1.1396406E0,2.2928191E-2,-0E0,1.099912E0,5.597497E-2,-2.4734927E-2,1.4943323E-2,1.2818216E-1,-6.749925E-2,2.040157E-2,-0E0,-1.2763901E-1,-9.4778E-2,-3.1764014E-4,1.5252105E-2,-4.3905284E-2,-1.0192639E-1,-0E0,-6.0170352E-2,3.3789825E-2,-1.1774039E-1,-0E0,-1.4151918E-2,1.3502686E-1,-8.9297205E-2,1.9354186E-3,-3.4594192E-4,-8.333783E-2,7.510439E-2,-8.1501015E-2,2.8687933E-2,-7.840507E-2,5.618016E-2,-4.5538496E-2,-4.628773E-4,8.287337E-2,3.3544827E-2,-6.567952E-2,2.3193741E-2,-5.494935E-2,7.848261E-2,1.8987045E-2,-1.5948048E-1,-0E0,-0E0,1.1370247E-1],"categories":[],"categories_nodes":[],"categories_segments":[],"categories_sizes":[],"default_left":[0,0,0,0,0,0,0,0,0,0,0,0,0,0,0,0,0,0,1,0,0,0,0,0,0,0,0,0,0,0,0,0,0,0,0,0,0,0,0,1,0,0,0,1,0,1,0,0,0,0,0,0,0,0,0,0,0,0,0,0,0,0,0,0,0,0,0,0,0,0,0,0,0,0,0,0,0,0,0,0,0,0,0,0,0,0,0,0,0,0,0,0,0,0,0,0,0,0,0,0,0,0,0,0,0],"id":11,"left_children":[1,3,-1,-1,5,7,9,11,13,15,17,19,21,23,25,27,29,31,33,35,37,39,41,43,45,47,-1,49,51,53,55,57,59,61,63,-1,-1,-1,-1,65,67,69,71,73,-1,75,77,79,-1,81,83,85,87,89,91,93,95,97,99,101,-1,-1,103,-1,-1,-1,-1,-1,-1,-1,-1,-1,-1,-1,-1,-1,-1,-1,-1,-1,-1,-1,-1,-1,-1,-1,-1,-1,-1,-1,-1,-1,-1,-1,-1,-1,-1,-1,-1,-1,-1,-1,-1,-1,-1],"loss_changes":[1.0291092E5,5.1021875E2,0E0,0E0,1.6301562E2,2.7630188E1,4.3025948E1,1.3107601E1,1.0162018E1,1.1046532E1,5.8419533E0,4.0650806E0,9.448474E0,8.327568E0,1.9811859E0,5.3698654E0,1.1590389E1,7.124857E0,1.5230045E0,1.5226457E0,9.7506523E-1,3.4381053E0,8.590653E0,1.0805499E1,4.1366196E0,1.4101562E0,0E0,5.564592E0,4.2240314E0,7.213968E0,8.275951E0,5.549942E0,4.293057E0,2.0691872E0,1.4795065E0,0E0,0E0,0E0,0E0,4.4343467E0,1.8501141E0,2.4455967E0,5.095546E0,4.91105E0,0E0,2.0670013E0,3.1959443E0,4.836731E-1,0E0,5.714876E0,2.8073566E0,2.895172E0,6.8149986E0,5.9906745E0,5.4104853E0,3.2473557E0,1.0351648E1,3.4377823E0,4.4896164E0,3.5343838E0,0E0,0E0,6.3612556E-1,0E0,0E0,0E0,0E0,0E0,0E0,0E0,0E0,0E0,0E0,0E0,0E0,0E0,0E0,0E0,0E0,0E0,0E0,0E0,0E0,0E0,0E0,0E0,0E0,0E0,0E0,0E0,0E0,0E0,0E0,0E0,0E0,0E0,0E0,0E0,0E0,0E0,0E0,0E0,0E0,0E0,0E0],"parents":[2147483647,0,0,1,1,4,4,5,5,6,6,7,7,8,8,9,9,10,10,11,11,12,12,13,13,14,14,15,15,16,16,17,17,18,18,19,19,20,20,21,21,22,22,23,23,24,24,25,25,27,27,28,28,29,29,30,30,31,31,32,32,33,33,34,34,39,39,40,40,41,41,42,42,43,43,45,45,46,46,47,47,49,49,50,50,51,51,52,52,53,53,54,54,55,55,56,56,57,57,58,58,59,59,62,62],"right_children":[2,4,-1,-1,6,8,10,12,14,16,18,20,22,24,26,28,30,32,34,36,38,40,42,44,46,48,-1,50,52,54,56,58,60,62,64,-1,-1,-1,-1,66,68,70,72,74,-1,76,78,80,-1,82,84,86,88,90,92,94,96,98,100,102,-1,-1,104,-1,-1,-1,-1,-1,-1,-1,-1,-1,-1,-1,-1,-1,-1,-1,-1,-1,-1,-1,-1,-1,-1,-1,-1,-1,-1,-1,-1,-1,-1,-1,-1,-1,-1,-1,-1,-1,-1,-1,-1,-1,-1],"split_conditions":[2.203573E-4,0E0,1.1872437E-1,-1.19943E-1,1.1462498E0,0E0,1.5286257E1,2.4857204E0,7.30439E1,1.6044E2,2.2544802E3,3.2384577E-1,5.138722E1,2.6145722E7,9.300003E-1,1.904754E0,6.448169E1,1.990905E3,1.0938224E0,-1.657735E-3,1.9834129E0,1.9934852E0,5.3256816E-5,5.429996E-2,2.0751114E0,1.8920165E0,-0E0,6.628445E-1,-1.7330952E0,8.314693E0,9.8112984E7,1.514331E8,3.0484486E1,-9.4237995E0,3.108E7,-4.436711E-2,6.494423E-2,-1.1530542E-1,-0E0,1.0563412E0,5.633286E1,5.1655E1,0E0,8.5773E2,-1.1381769E-1,3.1236304E-2,1.4976906E0,1.6257638E9,-0E0,1.14900164E-1,-1.1592781E-3,1.5302832E1,3.982301E0,9.289941E0,4.455577E0,4.183266E6,-2.1073142E7,2.4528265E-2,1.8278782E6,1.8339907E1,2.2928191E-2,-0E0,8.802273E-3,5.597497E-2,-2.4734927E-2,1.4943323E-2,1.2818216E-1,-6.749925E-2,2.040157E-2,-0E0,-1.2763901E-1,-9.4778E-2,-3.1764014E-4,1.5252105E-2,-4.3905284E-2,-1.0192639E-1,-0E0,-6.0170352E-2,3.3789825E-2,-1.1774039E-1,-0E0,-1.4151918E-2,1.3502686E-1,-8.9297205E-2,1.9354186E-3,-3.4594192E-4,-8.333783E-2,7.510439E-2,-8.1501015E-2,2.8687933E-2,-7.840507E-2,5.618016E-2,-4.5538496E-2,-4.628773E-4,8.287337E-2,3.3544827E-2,-6.567952E-2,2.3193741E-2,-5.494935E-2,7.848261E-2,1.8987045E-2,-1.5948048E-1,-0E0,-0E0,1.1370247E-1],"split_indices":[62,62,0,0,39,33,40,80,27,71,9,79,22,49,39,67,77,9,41,14,23,40,14,12,40,23,0,32,68,72,49,48,26,29,33,0,0,0,0,41,34,22,63,42,0,14,67,48,0,45,63,26,67,40,24,33,33,63,31,24,0,0,54,0,0,0,0,0,0,0,0,0,0,0,0,0,0,0,0,0,0,0,0,0,0,0,0,0,0,0,0,0,0,0,0,0,0,0,0,0,0,0,0,0,0],"split_type":[0,0,0,0,0,0,0,0,0,0,0,0,0,0,0,0,0,0,0,0,0,0,0,0,0,0,0,0,0,0,0,0,0,0,0,0,0,0,0,0,0,0,0,0,0,0,0,0,0,0,0,0,0,0,0,0,0,0,0,0,0,0,0,0,0,0,0,0,0,0,0,0,0,0,0,0,0,0,0,0,0,0,0,0,0,0,0,0,0,0,0,0,0,0,0,0,0,0,0,0,0,0,0,0,0],"sum_hessian":[7.339213E4,3.675111E4,3.664102E4,3.58772E4,8.7391187E2,4.7729666E2,3.9661523E2,1.1526103E2,3.620356E2,2.5444244E2,1.4217279E2,2.7623007E1,8.763802E1,1.9314415E2,1.6889148E2,7.788955E1,1.7655289E2,1.1356557E2,2.8607218E1,2.9665422E0,2.4656466E1,2.6252083E1,6.1385944E1,7.0850975E1,1.2229318E2,1.673922E2,1.499268E0,1.5143128E1,6.2746426E1,6.864198E1,1.07910904E2,1.0769675E2,5.8688197E0,2.3276464E1,5.3307533E0,1.5435277E0,1.4230144E0,2.2934689E1,1.7217754E0,2.081278E1,5.4393024E0,1.2851751E1,4.8534195E1,5.3547188E1,1.7303787E1,1.1027701E2,1.2016176E1,1.6525945E2,2.1327584E0,6.7834086E0,8.359719E0,5.3618202E1,9.128223E0,1.7375162E1,5.126682E1,4.1676643E1,6.623426E1,3.608813E1,7.160861E1,3.9273078E0,1.9415119E0,1.0050707E0,2.2271393E1,3.5605378E0,1.7702155E0,1.5910615E1,4.902165E0,3.731178E0,1.7081246E0,2.1858978E0,1.06658535E1,6.044542E0,4.248965E1,1.9539486E1,3.40077E1,1.0915891E2,1.1180904E0,8.389119E0,3.6270566E0,1.6412468E2,1.1347711E0,2.8950076E0,3.8884013E0,5.389111E0,2.970608E0,7.3140817E0,4.630412E1,4.758241E0,4.3699827E0,7.98122E0,9.393943E0,4.725094E1,4.0158806E0,3.7644257E1,4.032388E0,1.081914E1,5.541512E1,3.0641588E1,5.446545E0,4.6210495E1,2.5398119E1,2.9057434E0,1.0215645E0,1.0023271E0,2.1269066E1],"tree_param":{"num_deleted":"0","num_feature":"87","num_nodes":"105","size_leaf_vector":"1"}},{"base_weights":[1.3166299E-3,-1.1574625E0,1.1662709E-1,-1.1768772E-1,-3.967437E-1,-7.771038E-1,4.4014055E-2,-1.1591864E0,-6.0948205E-1,-1.7871441E-1,4.5318225E-1,-1.171729E-1,-0E0,-3.093101E-1,-9.1060877E-1,-4.11022E-2,-4.713069E-1,3.3590665E-1,8.713569E-1,6.1170664E-2,-4.7222054E-1,2.9400915E-1,-9.8229843E-1,4.7794554E-1,-1.43275E-1,-6.742803E-1,-5.8089323E-2,3.9685085E-1,-5.054126E-1,-0E0,9.188707E-1,-1.5800339E-1,7.877124E-1,-1.0363439E0,-3.1875056E-1,9.820848E-1,-3.2167813E-1,-0E0,-1.0106695E0,-7.8648776E-2,8.996312E-1,-3.694321E-1,8.066282E-2,-7.755697E-1,2.547765E-1,7.376809E-1,-3.3494753E-1,-1.708158E-2,4.9442297E-1,-1.022509E0,2.1572923E-2,1.061147E0,1.1463355E-1,-5.366057E-2,1.564461E-2,1.1320946E-1,-7.7254507E-3,-1.10602774E-1,-0E0,-3.8884092E-2,5.7323277E-2,1.2255233E-1,-0E0,-7.2138295E-2,-0E0,-6.427323E-3,4.52929E-2,-1.04070626E-1,-2.2991067E-2,6.804421E-2,-6.4369515E-2,1.03591256E-1,-0E0,1.803429E-2,-4.825262E-2,-5.866785E-3,4.802873E-2,-4.058055E-2,-1.0623749E-1,6.498849E-2,-5.4990463E-3,-1.1673382E-3,1.14483714E-1,1.8890688E-2,-5.3702362E-2,2.3540102E-2,-4.554773E-2,7.1397156E-2,2.9188981E-2,-1.4361452E-1,-0E0,1.0989781E-1,-0E0,5.29822E-2,-2.2951303E-2],"categories":[],"categories_nodes":[],"categories_segments":[],"categories_sizes":[],"default_left":[0,0,0,0,0,0,0,0,0,0,0,0,0,0,0,1,1,0,0,1,0,0,0,0,0,0,0,0,0,0,1,1,0,0,0,0,0,0,0,0,0,0,0,0,0,0,0,0,0,0,0,0,0,0,0,0,0,0,0,0,0,0,0,0,0,0,0,0,0,0,0,0,0,0,0,0,0,0,0,0,0,0,0,0,0,0,0,0,0,0,0,0,0,0,0],"id":12,"left_children":[1,3,-1,-1,5,7,9,11,13,15,17,-1,-1,19,21,23,25,27,29,31,33,35,37,39,41,43,45,47,49,-1,51,53,55,57,59,61,63,65,67,69,71,73,75,77,79,81,83,85,87,89,-1,91,93,-1,-1,-1,-1,-1,-1,-1,-1,-1,-1,-1,-1,-1,-1,-1,-1,-1,-1,-1,-1,-1,-1,-1,-1,-1,-1,-1,-1,-1,-1,-1,-1,-1,-1,-1,-1,-1,-1,-1,-1,-1,-1],"loss_changes":[9.128201E4,4.98625E2,0E0,0E0,1.426669E2,2.670462E1,3.606239E1,1.5657501E0,2.7478218E1,9.648669E0,5.3643475E0,0E0,0E0,1.032229E1,1.4610779E1,9.034815E0,5.808878E0,5.876047E0,1.4442482E0,8.560008E0,8.33289E0,4.7271295E0,5.174408E0,7.338299E0,7.8604717E0,5.5079403E0,6.1368074E0,4.801529E0,3.6194644E0,0E0,1.7960052E0,4.9207487E0,4.891109E0,2.091402E0,5.903243E0,1.0628557E0,1.1757172E0,5.3457165E-1,1.932312E0,5.435376E0,2.9144583E0,5.1452026E0,4.538069E0,3.0968266E0,1.2163515E0,3.2065742E0,2.8641078E0,2.4740727E0,2.719244E0,3.008617E0,0E0,5.7310677E-1,1.3137162E0,0E0,0E0,0E0,0E0,0E0,0E0,0E0,0E0,0E0,0E0,0E0,0E0,0E0,0E0,0E0,0E0,0E0,0E0,0E0,0E0,0E0,0E0,0E0,0E0,0E0,0E0,0E0,0E0,0E0,0E0,0E0,0E0,0E0,0E0,0E0,0E0,0E0,0E0,0E0,0E0,0E0,0E0],"parents":[2147483647,0,0,1,1,4,4,5,5,6,6,7,7,8,8,9,9,10,10,13,13,14,14,15,15,16,16,17,17,18,18,19,19,20,20,21,21,22,22,23,23,24,24,25,25,26,26,27,27,28,28,30,30,31,31,32,32,33,33,34,34,35,35,36,36,37,37,38,38,39,39,40,40,41,41,42,42,43,43,44,44,45,45,46,46,47,47,48,48,49,49,51,51,52,52],"right_children":[2,4,-1,-1,6,8,10,12,14,16,18,-1,-1,20,22,24,26,28,30,32,34,36,38,40,42,44,46,48,50,-1,52,54,56,58,60,62,64,66,68,70,72,74,76,78,80,82,84,86,88,90,-1,92,94,-1,-1,-1,-1,-1,-1,-1,-1,-1,-1,-1,-1,-1,-1,-1,-1,-1,-1,-1,-1,-1,-1,-1,-1,-1,-1,-1,-1,-1,-1,-1,-1,-1,-1,-1,-1,-1,-1,-1,-1,-1,-1],"split_conditions":[2.203573E-4,0E0,1.1662709E-1,-1.1768772E-1,1.1462498E0,4.283203E1,1.5286257E1,1.0299675E0,8.49493E5,3.0045068E-2,2.2544802E3,-1.171729E-1,-0E0,5.138722E1,1.5350132E-1,4.3737877E1,1.0159426E-2,1.990905E3,-1.974539E-2,1.0015049E0,5.3256816E-5,4.1170987E-1,9.615324E0,2.1427736E0,5.592194E-3,3.0601843E9,9.702506E-1,1.0365121E8,3.0484486E1,-0E0,1.0938224E0,4E-1,1.9934852E0,1E0,1E0,1.0491333E0,0E0,4.936007E0,1.283917E9,-8.284353E-1,2.769789E-2,-2.1073142E7,0E0,-3.5573962E0,4.058927E0,7.94502E-1,4.746295E-2,3.8146255E0,6.7452866E-1,1.8339907E1,2.1572923E-2,8.500519E1,3.108E7,-5.366057E-2,1.564461E-2,1.1320946E-1,-7.7254507E-3,-1.10602774E-1,-0E0,-3.8884092E-2,5.7323277E-2,1.2255233E-1,-0E0,-7.2138295E-2,-0E0,-6.427323E-3,4.52929E-2,-1.04070626E-1,-2.2991067E-2,6.804421E-2,-6.4369515E-2,1.03591256E-1,-0E0,1.803429E-2,-4.825262E-2,-5.866785E-3,4.802873E-2,-4.058055E-2,-1.0623749E-1,6.498849E-2,-5.4990463E-3,-1.1673382E-3,1.14483714E-1,1.8890688E-2,-5.3702362E-2,2.3540102E-2,-4.554773E-2,7.1397156E-2,2.9188981E-2,-1.4361452E-1,-0E0,1.0989781E-1,-0E0,5.29822E-2,-2.2951303E-2],"split_indices":[62,62,0,0,39,5,40,24,33,47,9,0,0,22,80,22,13,9,14,41,14,81,72,79,36,49,41,49,26,0,41,38,40,60,65,41,25,79,49,25,63,33,66,68,67,23,11,67,32,24,0,34,33,0,0,0,0,0,0,0,0,0,0,0,0,0,0,0,0,0,0,0,0,0,0,0,0,0,0,0,0,0,0,0,0,0,0,0,0,0,0,0,0,0,0],"split_type":[0,0,0,0,0,0,0,0,0,0,0,0,0,0,0,0,0,0,0,0,0,0,0,0,0,0,0,0,0,0,0,0,0,0,0,0,0,0,0,0,0,0,0,0,0,0,0,0,0,0,0,0,0,0,0,0,0,0,0,0,0,0,0,0,0,0,0,0,0,0,0,0,0,0,0,0,0,0,0,0,0,0,0,0,0,0,0,0,0,0,0,0,0,0,0],"sum_hessian":[6.761807E4,3.3898453E4,3.3719617E4,3.305303E4,8.4542065E2,4.546112E2,3.9080948E2,1.3500195E2,3.1960925E2,2.5184064E2,1.3896883E2,1.3324635E2,1.7555971E0,1.6273663E2,1.5687262E2,1.7438298E2,7.7457664E1,1.1180745E2,2.7161385E1,4.801961E1,1.1471702E2,7.8537736E0,1.4901884E2,2.6466322E1,1.4791666E2,4.9896553E1,2.7561115E1,1.05856255E2,5.9511952E0,1.1265516E0,2.6034832E1,3.6434612E1,1.1584996E1,2.1910383E1,9.280663E1,4.194835E0,3.658938E0,3.2385845E0,1.4578026E2,1.0736707E1,1.5729615E1,7.549216E1,7.242449E1,4.6110928E1,3.7856238E0,5.751943E0,2.1809172E1,1.839497E1,8.746128E1,4.0301523E0,1.921043E0,2.0793438E1,5.2413945E0,1.7653355E1,1.878126E1,8.891982E0,2.6930141E0,2.0824095E1,1.0862882E0,8.760775E1,5.198884E0,3.043676E0,1.1511595E0,2.1856854E0,1.4732527E0,1.686863E0,1.5517215E0,1.3882571E2,6.9545436E0,3.739296E0,6.997411E0,1.433326E1,1.3963554E0,1.1269899E1,6.422226E1,5.24785E1,1.9945995E1,2.272032E1,2.339061E1,2.5998123E0,1.1858115E0,1.502297E0,4.249646E0,4.711583E0,1.709759E1,1.0518887E1,7.8760834E0,3.8386806E1,4.907448E1,3.0085878E0,1.0215645E0,1.9793358E1,1.0000811E0,3.447928E0,1.7934666E0],"tree_param":{"num_deleted":"0","num_feature":"87","num_nodes":"95","size_leaf_vector":"1"}},{"base_weights":[1.3251494E-3,-1.1366208E0,1.14795506E-1,-1.1572267E-1,-3.7004837E-1,-7.4935395E-1,3.0010112E-2,-3.1490496E-1,-8.9526534E-1,-1.456731E-1,4.702319E-1,-8.788653E-1,-1.3110213E-1,-6.992338E-1,-1.1106554E0,-4.641694E-1,-1.3511404E-2,5.45293E-1,-4.1411392E-2,1.7635329E-1,-1.0272993E0,3.3969456E-1,-3.0709088E-1,-3.054036E-1,-8.3870214E-1,-1.1230576E0,-0E0,7.600992E-2,-5.1969516E-1,1.3219701E-1,-3.1920624E-1,6.101645E-1,4.3905057E-2,-8.7271535E-1,2.210559E-1,5.116395E-2,-0E0,-1.086564E0,-0E0,-3.3862293E-1,5.702903E-1,-8.163157E-2,-7.9743296E-1,1.3960628E-1,-5.0253606E-1,-9.857392E-1,-5.3602684E-1,-1.12889804E-1,-0E0,-6.521901E-1,-0E0,3.1146914E-1,-3.1572483E-2,5.5013436E-1,-5.3325784E-1,-0E0,6.742403E-1,-4.919015E-1,5.8560663E-1,-1.2447977E-1,-0E0,6.3286006E-1,-8.995594E-2,-0E0,-1.1178871E-1,-7.71465E-2,-0E0,-0E0,8.876691E-2,5.6947734E-2,-2.4474338E-2,-0E0,-9.0828195E-2,4.1428197E-2,-3.9984234E-2,-1.0094608E-2,-8.382196E-2,-0E0,-1.02087416E-1,-7.035214E-2,-0E0,4.34943E-3,-7.070094E-2,2.9300982E-2,-8.568487E-2,5.476004E-2,2.678572E-3,-2.3202466E-2,3.3825222E-2,8.1278846E-2,-4.998074E-2,2.9608384E-2,-6.9127314E-2,4.954551E-2,-3.1961568E-2,7.355176E-2,-0E0,-9.02572E-2,1.6771495E-2,-9.422737E-3,8.348528E-2,-0E0,8.632374E-2,4.2791523E-2,-6.522063E-2],"categories":[],"categories_nodes":[],"categories_segments":[],"categories_sizes":[],"default_left":[0,0,0,0,0,0,0,0,0,0,1,0,0,0,0,0,0,0,0,0,0,0,0,0,1,0,0,0,0,0,1,0,0,0,0,0,0,0,0,0,0,0,0,1,0,0,0,0,0,0,0,0,1,0,0,0,0,0,0,0,0,0,0,0,0,0,0,0,0,0,0,0,0,0,0,0,0,0,0,0,0,0,0,0,0,0,0,0,0,0,0,0,0,0,0,0,0,0,0,0,0,0,0,0,0],"id":13,"left_children":[1,3,-1,-1,5,7,9,11,13,15,17,19,21,23,25,27,29,31,33,35,37,39,41,43,45,47,-1,-1,49,51,53,55,57,59,61,-1,-1,63,-1,65,67,69,71,73,75,77,79,-1,-1,81,83,85,87,89,91,93,95,97,99,-1,-1,101,103,-1,-1,-1,-1,-1,-1,-1,-1,-1,-1,-1,-1,-1,-1,-1,-1,-1,-1,-1,-1,-1,-1,-1,-1,-1,-1,-1,-1,-1,-1,-1,-1,-1,-1,-1,-1,-1,-1,-1,-1,-1,-1],"loss_changes":[8.113595E4,4.9101953E2,0E0,0E0,1.2512657E2,2.5264297E1,3.1221727E1,1.0213299E1,1.0658951E1,1.1472648E1,4.9645844E0,5.006508E0,7.1151924E0,7.902199E0,1.4768524E0,5.664482E0,9.315781E0,2.6547565E0,3.901353E0,4.6439326E-1,9.055805E-1,3.8752866E0,6.125667E0,4.621035E0,3.4070587E0,5.086975E-1,0E0,0E0,5.295477E0,4.30144E0,1.2996593E1,3.281662E0,4.617088E0,1.5692356E0,1.9486623E0,0E0,0E0,1.9667625E-1,0E0,1.4614933E0,4.030754E0,4.7338357E0,1.4683113E0,2.2368522E0,3.6753569E0,1.9473419E0,4.2482567E0,0E0,0E0,3.0799541E0,4.7280073E0,3.9982533E0,5.1171246E0,4.3248816E0,7.9755554E0,1.7751328E0,4.0243683E0,2.7692595E0,2.2834284E0,0E0,0E0,1.3280997E0,2.1025271E0,0E0,0E0,0E0,0E0,0E0,0E0,0E0,0E0,0E0,0E0,0E0,0E0,0E0,0E0,0E0,0E0,0E0,0E0,0E0,0E0,0E0,0E0,0E0,0E0,0E0,0E0,0E0,0E0,0E0,0E0,0E0,0E0,0E0,0E0,0E0,0E0,0E0,0E0,0E0,0E0,0E0,0E0],"parents":[2147483647,0,0,1,1,4,4,5,5,6,6,7,7,8,8,9,9,10,10,11,11,12,12,13,13,14,14,15,15,16,16,17,17,18,18,19,19,20,20,21,21,22,22,23,23,24,24,25,25,28,28,29,29,30,30,31,31,32,32,33,33,34,34,37,37,39,39,40,40,41,41,42,42,43,43,44,44,45,45,46,46,49,49,50,50,51,51,52,52,53,53,54,54,55,55,56,56,57,57,58,58,61,61,62,62],"right_children":[2,4,-1,-1,6,8,10,12,14,16,18,20,22,24,26,28,30,32,34,36,38,40,42,44,46,48,-1,-1,50,52,54,56,58,60,62,-1,-1,64,-1,66,68,70,72,74,76,78,80,-1,-1,82,84,86,88,90,92,94,96,98,100,-1,-1,102,104,-1,-1,-1,-1,-1,-1,-1,-1,-1,-1,-1,-1,-1,-1,-1,-1,-1,-1,-1,-1,-1,-1,-1,-1,-1,-1,-1,-1,-1,-1,-1,-1,-1,-1,-1,-1,-1,-1,-1,-1,-1,-1],"split_conditions":[2.203573E-4,0E0,1.14795506E-1,-1.1572267E-1,1E0,0E0,3.27676E0,2.4857204E0,7.30439E1,1.6044E2,5.051238E-1,3.2384577E-1,4.9573013E1,2.5E4,1.8920165E0,1.13512635E-1,8.540947E2,3.4653296E0,3.068856E0,2.3900878E0,1.9834129E0,6.830746E1,9.999912E2,0E0,9.3057656E-1,1.6257638E9,-0E0,7.600992E-2,8.792189E8,2.6405987E-1,0E0,8.697893E-1,2.2092693E1,1.7584704E-2,7.5976145E-1,5.116395E-2,-0E0,7.266982E0,-0E0,1.0343547E0,1.00303E6,2.7637901E0,0E0,5.5E-1,0E0,1.5400692E1,8.103756E1,-1.12889804E-1,-0E0,1.4785033E-2,4.0669855E-2,2.3365152E0,4.1122276E-1,4.1082048E9,-2.1073142E7,9.474899E0,7.4126105E0,1.3904608E3,5.0352585E-2,-1.2447977E-1,-0E0,2.3181953E-1,5.591075E8,-0E0,-1.1178871E-1,-7.71465E-2,-0E0,-0E0,8.876691E-2,5.6947734E-2,-2.4474338E-2,-0E0,-9.0828195E-2,4.1428197E-2,-3.9984234E-2,-1.0094608E-2,-8.382196E-2,-0E0,-1.02087416E-1,-7.035214E-2,-0E0,4.34943E-3,-7.070094E-2,2.9300982E-2,-8.568487E-2,5.476004E-2,2.678572E-3,-2.3202466E-2,3.3825222E-2,8.1278846E-2,-4.998074E-2,2.9608384E-2,-6.9127314E-2,4.954551E-2,-3.1961568E-2,7.355176E-2,-0E0,-9.02572E-2,1.6771495E-2,-9.422737E-3,8.348528E-2,-0E0,8.632374E-2,4.2791523E-2,-6.522063E-2],"split_indices":[62,62,0,0,39,33,80,80,27,71,46,79,22,33,23,46,2,81,79,67,23,77,8,29,41,48,0,0,33,46,29,41,26,63,57,0,0,27,0,41,48,81,29,38,66,26,77,0,0,55,47,80,46,48,33,72,67,4,45,0,0,32,49,0,0,0,0,0,0,0,0,0,0,0,0,0,0,0,0,0,0,0,0,0,0,0,0,0,0,0,0,0,0,0,0,0,0,0,0,0,0,0,0,0,0],"split_type":[0,0,0,0,0,0,0,0,0,0,0,0,0,0,0,0,0,0,0,0,0,0,0,0,0,0,0,0,0,0,0,0,0,0,0,0,0,0,0,0,0,0,0,0,0,0,0,0,0,0,0,0,0,0,0,0,0,0,0,0,0,0,0,0,0,0,0,0,0,0,0,0,0,0,0,0,0,0,0,0,0,0,0,0,0,0,0,0,0,0,0,0,0,0,0,0,0,0,0,0,0,0,0,0,0],"sum_hessian":[6.2180527E4,3.120801E4,3.0972518E4,3.038931E4,8.1869904E2,4.2108463E2,3.9761444E2,1.0838414E2,3.1270047E2,2.830519E2,1.1456253E2,2.437436E1,8.400978E1,1.6836061E2,1.4433986E2,8.005319E1,2.0299872E2,1.0155284E2,1.3009685E1,2.1518376E0,2.222252E1,2.1059645E1,6.2950134E1,4.6739025E1,1.2162159E2,1.4231847E2,2.0214E0,2.1413128E0,7.791188E1,1.3564182E2,6.7356895E1,8.7960724E1,1.3592118E1,3.478212E0,9.531472E0,1.1484748E0,1.0033627E0,2.0525387E1,1.6971353E0,4.123867E0,1.6935778E1,4.531854E1,1.7631596E1,1.2880797E1,3.3858227E1,7.811391E1,4.3507683E1,1.4123854E2,1.0799239E0,6.155582E1,1.6356058E1,6.72405E1,6.840131E1,1.2074822E1,5.5282074E1,8.886347E0,7.907438E1,5.9513907E0,7.6407275E0,2.213887E0,1.2643251E0,5.039391E0,4.492081E0,1.032001E0,1.9493385E1,2.442822E0,1.6810452E0,5.417286E0,1.1518492E1,7.3513517E0,3.7967186E1,2.490362E0,1.51412325E1,9.917029E0,2.9637673E0,1.7364355E1,1.6493872E1,3.4834347E0,7.463047E1,3.3421017E1,1.0086666E1,3.1788983E0,5.8376923E1,1.2494293E1,3.8617654E0,3.4329563E1,3.291094E1,4.6353443E1,2.2047874E1,1.0601141E1,1.4736817E0,7.6946297E0,4.7587444E1,3.6262898E0,5.260057E0,7.372683E1,5.3475466E0,4.3751626E0,1.576228E0,1.140312E0,6.5004153E0,1.011138E0,4.028253E0,1.5368729E0,2.9552083E0],"tree_param":{"num_deleted":"0","num_feature":"87","num_nodes":"105","size_leaf_vector":"1"}},{"base_weights":[1.314562E-3,-1.1181494E0,1.1318959E-1,-1.1400318E-1,-3.4647363E-1,-7.133835E-1,2.8008226E-2,-1.1128213E0,-5.508114E-1,-1.3152461E-1,4.3476674E-1,-1.1277872E-1,-0E0,-2.7176103E-1,-8.737779E-1,-4.0445772E-1,-1.034162E-3,5.062757E-1,-3.6803063E-2,1.2515804E-1,-4.0025488E-1,2.0301215E-1,-9.457848E-1,-2.2967352E-1,-8.8803685E-1,1.4434306E-1,-2.9209423E-1,7.310753E-1,3.273778E-1,-5.6046367E-1,3.7663373E-1,-6.0016073E-2,2.4701123E-1,1.7336762E-2,-5.0795394E-1,7.995981E-1,-2.4699889E-1,2.946377E-2,-9.795331E-1,-6.1674863E-2,-6.925924E-1,-1.046854E0,-0E0,-9.583225E-2,2.5374025E-1,4.8993242E-1,-4.9085003E-1,8.188829E-1,-1.2859917E-1,5.8730835E-1,-0E0,1.476249E-2,-9.160211E-1,6.33426E-1,-7.5933817E-3,7.712057E-2,6.30079E-3,-1.8416844E-2,7.199322E-2,-8.537387E-2,-1.1475964E-2,-0E0,1.20472014E-1,-6.468883E-2,-0E0,-1.9833199E-3,4.6201162E-2,-1.0115047E-1,-1.7165843E-2,-2.7416727E-2,5.1391702E-2,-9.180472E-2,2.526199E-3,-0E0,-1.13324456E-1,-2.5539845E-2,3.8990762E-2,-3.733019E-2,3.406764E-2,6.6260815E-2,1.072834E-2,7.389229E-2,-4.690448E-2,2.686586E-2,-6.419288E-2,9.3711E-2,6.862717E-3,3.27211E-2,-9.982886E-2,-2.8453454E-2,7.329469E-2,-1.7507236E-2,5.8691114E-2,-1.6092007E-1,-0E0,-0E0,8.622401E-2],"categories":[],"categories_nodes":[],"categories_segments":[],"categories_sizes":[],"default_left":[0,0,0,0,0,0,0,0,0,0,1,0,0,0,0,0,0,0,0,0,0,0,0,0,0,0,1,0,0,0,0,0,0,1,1,0,0,0,0,0,0,0,0,0,0,0,0,0,0,0,0,0,1,0,0,0,0,0,0,0,0,0,0,0,0,0,0,0,0,0,0,0,0,0,0,0,0,0,0,0,0,0,0,0,0,0,0,0,0,0,0,0,0,0,0,0,0],"id":14,"left_children":[1,3,-1,-1,5,7,9,11,13,15,17,-1,-1,19,21,23,25,27,29,31,33,35,37,39,41,43,45,47,49,51,53,-1,55,57,59,61,63,65,67,69,71,73,75,77,79,81,83,85,87,89,91,-1,93,95,-1,-1,-1,-1,-1,-1,-1,-1,-1,-1,-1,-1,-1,-1,-1,-1,-1,-1,-1,-1,-1,-1,-1,-1,-1,-1,-1,-1,-1,-1,-1,-1,-1,-1,-1,-1,-1,-1,-1,-1,-1,-1,-1],"loss_changes":[7.225285E4,4.8248828E2,0E0,0E0,1.09756744E2,2.384613E1,2.582355E1,2.0502625E0,2.4723122E1,9.59676E0,4.28319E0,0E0,0E0,8.409591E0,1.1181709E1,6.1469564E0,8.377201E0,2.7090435E0,3.40637E0,3.1203954E0,5.981264E0,2.961331E0,5.090416E0,4.473628E0,3.2325783E0,3.5300488E0,1.0666852E1,3.8802433E0,5.2520533E0,2.8185136E0,1.4544125E0,0E0,2.4063718E0,4.0738063E0,1.2371149E1,1.2372181E0,1.0076909E0,5.4000294E-1,1.788208E0,6.3111916E0,3.5642834E0,1.9290676E0,5.324031E-1,4.7307773E0,4.5889187E0,3.7380872E0,6.8567963E0,2.3243465E0,2.423189E0,4.948366E0,2.7576566E0,0E0,4.3243976E0,1.2572117E0,0E0,0E0,0E0,0E0,0E0,0E0,0E0,0E0,0E0,0E0,0E0,0E0,0E0,0E0,0E0,0E0,0E0,0E0,0E0,0E0,0E0,0E0,0E0,0E0,0E0,0E0,0E0,0E0,0E0,0E0,0E0,0E0,0E0,0E0,0E0,0E0,0E0,0E0,0E0,0E0,0E0,0E0,0E0],"parents":[2147483647,0,0,1,1,4,4,5,5,6,6,7,7,8,8,9,9,10,10,13,13,14,14,15,15,16,16,17,17,18,18,19,19,20,20,21,21,22,22,23,23,24,24,25,25,26,26,27,27,28,28,29,29,30,30,32,32,33,33,34,34,35,35,36,36,37,37,38,38,39,39,40,40,41,41,42,42,43,43,44,44,45,45,46,46,47,47,48,48,49,49,50,50,52,52,53,53],"right_children":[2,4,-1,-1,6,8,10,12,14,16,18,-1,-1,20,22,24,26,28,30,32,34,36,38,40,42,44,46,48,50,52,54,-1,56,58,60,62,64,66,68,70,72,74,76,78,80,82,84,86,88,90,92,-1,94,96,-1,-1,-1,-1,-1,-1,-1,-1,-1,-1,-1,-1,-1,-1,-1,-1,-1,-1,-1,-1,-1,-1,-1,-1,-1,-1,-1,-1,-1,-1,-1,-1,-1,-1,-1,-1,-1,-1,-1,-1,-1,-1,-1],"split_conditions":[2.203573E-4,0E0,1.1318959E-1,-1.1400318E-1,1E0,4.283203E1,3.27676E0,1.0299675E0,1.616457E6,1.8178941E2,5.051238E-1,-1.1277872E-1,-0E0,0E0,1.5350132E-1,5.4886627E0,8.540947E2,6.7055255E-1,6.4538315E1,8.863472E2,5.138722E1,4.0300444E-1,9.615324E0,4.379562E-2,7.9699066E1,-2.37099E-2,0E0,3.6059275E-2,4.4320092E7,5.783058E-2,4.684372E0,-6.0016073E-2,-2.3911639E-1,3.591397E-3,3.0273405E-1,2.7061537E-1,0E0,4.936007E0,1.283917E9,8.792189E8,6.6100693E0,2.7363442E-2,4.304511E1,4.4650013E8,8.781525E-2,4.1082048E9,-2.1073142E7,6E0,1.1541917E-2,5.8510396E7,5.797288E0,1.476249E-2,2.1425001E-1,-4.8123736E0,-7.5933817E-3,7.712057E-2,6.30079E-3,-1.8416844E-2,7.199322E-2,-8.537387E-2,-1.1475964E-2,-0E0,1.20472014E-1,-6.468883E-2,-0E0,-1.9833199E-3,4.6201162E-2,-1.0115047E-1,-1.7165843E-2,-2.7416727E-2,5.1391702E-2,-9.180472E-2,2.526199E-3,-0E0,-1.13324456E-1,-2.5539845E-2,3.8990762E-2,-3.733019E-2,3.406764E-2,6.6260815E-2,1.072834E-2,7.389229E-2,-4.690448E-2,2.686586E-2,-6.419288E-2,9.3711E-2,6.862717E-3,3.27211E-2,-9.982886E-2,-2.8453454E-2,7.329469E-2,-1.7507236E-2,5.8691114E-2,-1.6092007E-1,-0E0,-0E0,8.622401E-2],"split_indices":[62,62,0,0,39,5,80,24,33,6,46,0,0,29,80,67,2,32,34,35,22,81,72,47,34,12,29,63,33,54,81,0,68,55,29,81,25,79,49,33,40,55,72,48,24,48,33,70,10,48,25,0,55,25,0,0,0,0,0,0,0,0,0,0,0,0,0,0,0,0,0,0,0,0,0,0,0,0,0,0,0,0,0,0,0,0,0,0,0,0,0,0,0,0,0,0,0],"split_type":[0,0,0,0,0,0,0,0,0,0,0,0,0,0,0,0,0,0,0,0,0,0,0,0,0,0,0,0,0,0,0,0,0,0,0,0,0,0,0,0,0,0,0,0,0,0,0,0,0,0,0,0,0,0,0,0,0,0,0,0,0,0,0,0,0,0,0,0,0,0,0,0,0,0,0,0,0,0,0,0,0,0,0,0,0,0,0,0,0,0,0,0,0,0,0,0,0],"sum_hessian":[5.7085758E4,2.8683469E4,2.8402287E4,2.7890797E4,7.926719E2,4.012755E2,3.9139636E2,1.12606476E2,2.8866904E2,2.7985425E2,1.11542114E2,1.11223274E2,1.383199E0,1.5751247E2,1.3115656E2,8.7363106E1,1.9249113E2,9.863245E1,1.2909665E1,3.6623993E1,1.2088847E2,7.236412E0,1.2392014E2,6.677199E1,2.059112E1,1.26417244E2,6.607389E1,3.986391E1,5.876854E1,6.605828E0,6.303838E0,3.52283E0,3.3101162E1,2.3053787E1,9.783469E1,3.7329345E0,3.5034773E0,3.1579602E0,1.20762184E2,5.140863E1,1.5363357E1,1.748661E1,3.1045094E0,3.6739887E1,8.967735E1,1.2073415E1,5.4000477E1,3.7268013E1,2.595894E0,3.279753E1,2.5971008E1,1.4635354E0,5.142292E0,5.176574E0,1.1272633E0,6.359129E0,2.6742033E1,1.7382923E1,5.6708636E0,5.0079224E1,4.7755466E1,1.7954957E0,1.9374388E0,2.064635E0,1.4388422E0,1.6160462E0,1.541914E0,1.14731804E2,6.0303802E0,3.919862E1,1.22100115E1,1.2539325E1,2.8240318E0,1.2090335E0,1.6277576E1,1.8067529E0,1.2977564E0,2.3950987E1,1.2788902E1,2.092057E1,6.875678E1,1.0594806E1,1.4786083E0,7.732092E0,4.6268383E1,3.0828112E1,6.4399023E0,1.3580542E0,1.23784E0,3.5751882E0,2.9222343E1,2.0915403E1,5.0556054E0,2.6602683E0,2.4820237E0,1.1521757E0,4.024399E0],"tree_param":{"num_deleted":"0","num_feature":"87","num_nodes":"97","size_leaf_vector":"1"}},{"base_weights":[1.316763E-3,-1.1016073E0,1.1177661E-1,-1.1249294E-1,-3.2334867E-1,-6.7756385E-1,2.605473E-2,-1.0930042E0,-5.159984E-1,-1.1975224E-1,4.0312076E-1,-1.10900186E-1,-0E0,-2.5413078E-1,-8.482434E-1,-3.9165154E-1,-5.750429E-3,2.7996048E-1,7.739807E-1,1.3003603E-1,-3.782648E-1,1.9117413E-1,-9.2448753E-1,-1.8619888E-1,-9.002181E-1,1.1340754E-1,-2.6813412E-1,3.5751426E-1,-5.268994E-1,-0E0,9.0358156E-1,-5.679937E-2,2.4521764E-1,7.3082573E-3,-4.7809002E-1,7.461625E-1,-2.2034432E-1,1.3017024E-2,-9.604517E-1,7.8879195E-1,-2.6979524E-1,-1.0298077E-1,-0E0,2.7717602E-1,-3.936783E-2,4.3874046E-1,-4.4760275E-1,2.178479E-1,7.266382E-1,-1.0026544E0,1.5588311E-2,5.2008737E-2,-5.6280773E-2,9.805432E-1,-0E0,7.704732E-2,5.6965933E-3,3.3770964E-2,-4.6183642E-2,-8.520938E-2,-1.7978275E-2,-0E0,1.1156016E-1,-6.1460864E-2,-0E0,-1.8621953E-3,4.3215174E-2,-0E0,-9.725479E-2,-0E0,1.2626395E-1,-0E0,-6.5972686E-2,2.8046617E-2,-3.495919E-2,3.5126995E-2,-3.7791386E-2,-2.5805322E-2,2.5857452E-2,6.862936E-2,-4.4049703E-2,-1.804881E-2,-9.578585E-2,6.186365E-3,7.155105E-2,-2.0547722E-2,8.888549E-2,-0E0,-1.2921527E-1,-0E0,1.02459095E-1],"categories":[],"categories_nodes":[],"categories_segments":[],"categories_sizes":[],"default_left":[0,0,0,0,0,0,0,0,0,1,0,0,0,0,0,0,0,0,0,0,0,0,0,0,1,0,0,0,0,0,0,0,0,0,0,0,0,0,0,0,1,0,0,0,1,0,0,0,0,0,0,0,0,0,0,0,0,0,0,0,0,0,0,0,0,0,0,0,0,0,0,0,0,0,0,0,0,0,0,0,0,0,0,0,0,0,0,0,0,0,0],"id":15,"left_children":[1,3,-1,-1,5,7,9,11,13,15,17,-1,-1,19,21,23,25,27,29,31,33,35,37,39,41,43,45,47,49,51,53,-1,55,57,59,61,63,65,67,69,71,-1,73,75,77,79,81,83,85,87,-1,-1,-1,89,-1,-1,-1,-1,-1,-1,-1,-1,-1,-1,-1,-1,-1,-1,-1,-1,-1,-1,-1,-1,-1,-1,-1,-1,-1,-1,-1,-1,-1,-1,-1,-1,-1,-1,-1,-1,-1],"loss_changes":[6.4443566E4,4.7603125E2,0E0,0E0,9.579774E1,2.3543991E1,2.1580114E1,1.985527E0,2.299878E1,8.204151E0,3.749792E0,0E0,0E0,7.899353E0,1.0505547E1,7.041383E0,6.41241E0,5.4069676E0,1.68083E0,2.8481367E0,5.1970844E0,2.5645833E0,4.799347E0,4.519704E0,1.8970795E0,3.6277478E0,8.466779E0,3.036003E0,3.2197528E0,1.8785387E0,1.4093552E0,0E0,2.5196893E0,3.77668E0,9.920765E0,1.037257E0,9.213676E-1,4.7682709E-1,1.0343094E0,2.1871421E0,6.5648165E0,0E0,5.4907995E-1,3.429295E0,4.4699917E0,3.2825153E0,5.9887505E0,3.963045E0,3.8362646E0,1.275353E0,0E0,0E0,0E0,5.3056145E-1,0E0,0E0,0E0,0E0,0E0,0E0,0E0,0E0,0E0,0E0,0E0,0E0,0E0,0E0,0E0,0E0,0E0,0E0,0E0,0E0,0E0,0E0,0E0,0E0,0E0,0E0,0E0,0E0,0E0,0E0,0E0,0E0,0E0,0E0,0E0,0E0,0E0],"parents":[2147483647,0,0,1,1,4,4,5,5,6,6,7,7,8,8,9,9,10,10,13,13,14,14,15,15,16,16,17,17,18,18,19,19,20,20,21,21,22,22,23,23,24,24,25,25,26,26,27,27,28,28,29,29,30,30,32,32,33,33,34,34,35,35,36,36,37,37,38,38,39,39,40,40,42,42,43,43,44,44,45,45,46,46,47,47,48,48,49,49,53,53],"right_children":[2,4,-1,-1,6,8,10,12,14,16,18,-1,-1,20,22,24,26,28,30,32,34,36,38,40,42,44,46,48,50,52,54,-1,56,58,60,62,64,66,68,70,72,-1,74,76,78,80,82,84,86,88,-1,-1,-1,90,-1,-1,-1,-1,-1,-1,-1,-1,-1,-1,-1,-1,-1,-1,-1,-1,-1,-1,-1,-1,-1,-1,-1,-1,-1,-1,-1,-1,-1,-1,-1,-1,-1,-1,-1,-1,-1],"split_conditions":[2.203573E-4,0E0,1.1177661E-1,-1.1249294E-1,1E0,4.283203E1,3.27676E0,1.0299675E0,2.510225E6,1.670201E2,2.2544802E3,-1.10900186E-1,-0E0,0E0,1.5350132E-1,4.379562E-2,8.540947E2,1.990905E3,-1.0547511E-2,8.863472E2,5.138722E1,4.0300444E-1,9.615324E0,1.0273946E-2,3.5044182E-2,2.6405987E-1,0E0,1.4638518E3,3.0484486E1,4.6725307E1,8.269263E1,-5.679937E-2,-2.3911639E-1,4.761544E-2,1.3494236E-2,2.7061537E-1,0E0,4.936007E0,-8.918142E-3,1.0679E1,6.4490277E-1,-1.0298077E-1,3.059621E1,1.1258485E0,3.9634708E-1,4.1082048E9,1.616457E6,7.142037E1,-9.545741E-3,2.1199913E1,1.5588311E-2,5.2008737E-2,-5.6280773E-2,4.752346E-2,-0E0,7.704732E-2,5.6965933E-3,3.3770964E-2,-4.6183642E-2,-8.520938E-2,-1.7978275E-2,-0E0,1.1156016E-1,-6.1460864E-2,-0E0,-1.8621953E-3,4.3215174E-2,-0E0,-9.725479E-2,-0E0,1.2626395E-1,-0E0,-6.5972686E-2,2.8046617E-2,-3.495919E-2,3.5126995E-2,-3.7791386E-2,-2.5805322E-2,2.5857452E-2,6.862936E-2,-4.4049703E-2,-1.804881E-2,-9.578585E-2,6.186365E-3,7.155105E-2,-2.0547722E-2,8.888549E-2,-0E0,-1.2921527E-1,-0E0,1.02459095E-1],"split_indices":[62,62,0,0,39,5,80,24,33,43,9,0,0,29,80,47,2,9,14,35,22,81,72,54,13,46,29,43,26,34,77,0,68,55,29,81,25,79,63,28,29,0,27,41,46,48,33,34,14,28,0,0,0,45,0,0,0,0,0,0,0,0,0,0,0,0,0,0,0,0,0,0,0,0,0,0,0,0,0,0,0,0,0,0,0,0,0,0,0,0,0],"split_type":[0,0,0,0,0,0,0,0,0,0,0,0,0,0,0,0,0,0,0,0,0,0,0,0,0,0,0,0,0,0,0,0,0,0,0,0,0,0,0,0,0,0,0,0,0,0,0,0,0,0,0,0,0,0,0,0,0,0,0,0,0,0,0,0,0,0,0,0,0,0,0,0,0,0,0,0,0,0,0,0,0,0,0,0,0,0,0,0,0,0,0],"sum_hessian":[5.233331E4,2.6325674E4,2.6007633E4,2.5558045E4,7.67629E2,3.821446E2,3.854844E2,1.0365565E2,2.7848895E2,2.7656885E2,1.0891556E2,1.02272446E2,1.383199E0,1.5840924E2,1.20079704E2,7.8392365E1,1.981765E2,8.510429E1,2.3811272E1,3.6706757E1,1.2170248E2,7.2068796E0,1.12872826E2,5.8209217E1,2.0183147E1,1.3405418E2,6.412231E1,7.92803E1,5.8239875E0,4.5482664E0,1.9263004E1,3.4125588E0,3.32942E1,2.3159313E1,9.854316E1,3.7569523E0,3.4499273E0,3.1663373E0,1.0970649E2,2.9859457E0,5.5223274E1,1.6976122E1,3.207025E0,6.746546E1,6.658873E1,1.1562869E1,5.2559437E1,6.063643E1,1.864387E1,4.019417E0,1.8045709E0,3.2290173E0,1.3192492E0,1.7672842E1,1.5901626E0,6.566813E0,2.6727386E1,1.5004143E1,8.1551695E0,4.1412907E1,5.7130253E1,1.7954957E0,1.9614567E0,2.0110853E0,1.4388422E0,1.6141905E0,1.5521468E0,1.6431941E0,1.0806329E2,1.0584599E0,1.9274858E0,3.1737265E1,2.3486008E1,1.0043058E0,2.2027192E0,6.2398205E1,5.0672565E0,4.0414963E1,2.6173765E1,1.0081244E1,1.4816242E0,3.667428E1,1.5885159E1,4.8552223E1,1.2084204E1,1.8103166E0,1.6833551E1,1.2333419E0,2.7860746E0,1.0656065E0,1.6607235E1],"tree_param":{"num_deleted":"0","num_feature":"87","num_nodes":"91","size_leaf_vector":"1"}},{"base_weights":[1.314284E-3,-1.0866973E0,1.1052962E-1,-1.1116214E-1,-3.0169633E-1,-6.431856E-1,2.3640845E-2,-1.0748104E0,-4.8304495E-1,-1.1039877E-1,3.7549028E-1,-1.09197E-1,-0E0,-2.2753216E-1,-8.085654E-1,-4.130318E-2,-5.514934E-1,4.5498788E-1,-0E0,1.0210613E-1,-3.3836353E-1,1.8022175E-1,-8.841177E-1,-1.5780205E-1,1.7342865E-1,-9.470891E-1,-1.951008E-1,5.121773E-1,-0E0,-2.6168784E-1,6.0703944E-2,-5.3747635E-2,2.0951419E-1,6.6944706E-1,-3.7684566E-1,5.508012E-1,-4.8215408E-2,-0E0,-9.198509E-1,1.2876344E-1,-3.069338E-1,-2.7540898E-1,4.1030678E-1,-1.15045E-1,-0E0,1.0209448E-1,-5.678707E-1,-0E0,5.8171403E-1,-6.4241445E-1,3.0915487E-1,-0E0,-9.723529E-1,7.9758244E-4,5.692051E-2,1.1521059E-1,-0E0,-4.9683265E-2,-3.6615792E-3,8.98244E-2,-2.0723542E-2,-1.7484386E-3,4.0444896E-2,-9.562462E-2,-8.870846E-3,2.0790732E-4,6.719502E-2,-3.6427554E-2,4.324932E-2,-4.8756942E-2,3.438019E-2,-1.0519313E-3,7.468867E-2,-2.2297649E-2,4.818324E-2,6.401293E-2,-2.194195E-2,2.5837917E-2,-8.202788E-2,1.0536599E-2,-7.502088E-2,6.638565E-2,-0E0,-0E0,-1.379908E-1,6.470746E-2,-1.6299037E-2,-6.894973E-2,3.219638E-2,-1.5602958E-1,-0E0],"categories":[],"categories_nodes":[],"categories_segments":[],"categories_sizes":[],"default_left":[0,0,0,0,0,0,0,1,0,0,1,0,0,0,0,1,0,0,0,0,0,0,0,0,0,0,1,0,0,0,0,0,0,0,1,0,0,0,0,0,0,0,0,0,0,1,0,0,0,0,0,0,0,0,0,0,0,0,0,0,0,0,0,0,0,0,0,0,0,0,0,0,0,0,0,0,0,0,0,0,0,0,0,0,0,0,0,0,0,0,0],"id":16,"left_children":[1,3,-1,-1,5,7,9,11,13,15,17,-1,-1,19,21,23,25,27,29,31,33,35,37,39,41,43,45,47,49,51,-1,-1,53,55,57,59,-1,61,63,65,67,69,71,-1,73,75,77,79,81,83,85,87,89,-1,-1,-1,-1,-1,-1,-1,-1,-1,-1,-1,-1,-1,-1,-1,-1,-1,-1,-1,-1,-1,-1,-1,-1,-1,-1,-1,-1,-1,-1,-1,-1,-1,-1,-1,-1,-1,-1],"loss_changes":[5.7558184E4,4.7043945E2,0E0,0E0,8.34352E1,2.316243E1,1.8281462E1,1.9640274E0,2.1223911E1,7.756854E0,3.6354141E0,0E0,0E0,5.9076724E0,9.570251E0,6.029192E0,3.6305437E0,2.8683891E0,2.6451042E0,2.3484228E0,4.534851E0,2.3383193E0,4.366432E0,7.0333853E0,8.972539E0,3.5287628E0,2.8599102E0,3.2856407E0,2.3551679E0,3.3916383E0,0E0,0E0,1.8838928E0,1.8833641E0,4.152252E0,2.6339557E0,0E0,4.1966662E-1,2.0831604E0,2.971527E0,4.6467314E0,3.922482E0,8.615652E0,0E0,5.911006E-1,2.479227E0,3.0677617E0,1.2408931E0,3.2202682E0,3.1135798E0,1.521544E0,2.2742953E0,3.8052511E0,0E0,0E0,0E0,0E0,0E0,0E0,0E0,0E0,0E0,0E0,0E0,0E0,0E0,0E0,0E0,0E0,0E0,0E0,0E0,0E0,0E0,0E0,0E0,0E0,0E0,0E0,0E0,0E0,0E0,0E0,0E0,0E0,0E0,0E0,0E0,0E0,0E0,0E0],"parents":[2147483647,0,0,1,1,4,4,5,5,6,6,7,7,8,8,9,9,10,10,13,13,14,14,15,15,16,16,17,17,18,18,19,19,20,20,21,21,22,22,23,23,24,24,25,25,26,26,27,27,28,28,29,29,32,32,33,33,34,34,35,35,37,37,38,38,39,39,40,40,41,41,42,42,44,44,45,45,46,46,47,47,48,48,49,49,50,50,51,51,52,52],"right_children":[2,4,-1,-1,6,8,10,12,14,16,18,-1,-1,20,22,24,26,28,30,32,34,36,38,40,42,44,46,48,50,52,-1,-1,54,56,58,60,-1,62,64,66,68,70,72,-1,74,76,78,80,82,84,86,88,90,-1,-1,-1,-1,-1,-1,-1,-1,-1,-1,-1,-1,-1,-1,-1,-1,-1,-1,-1,-1,-1,-1,-1,-1,-1,-1,-1,-1,-1,-1,-1,-1,-1,-1,-1,-1,-1,-1],"split_conditions":[2.203573E-4,0E0,1.1052962E-1,-1.1116214E-1,1E0,4.283203E1,3.27676E0,3.2704407E-1,1.616457E6,5.4886627E0,4.6068525E-1,-1.09197E-1,-0E0,0E0,1.5350132E-1,7.991949E-2,4.199997E0,5.2083336E-2,1.1688408E0,8.863472E2,2.6748994E-1,8.2021314E-1,9.615324E0,9.546747E7,3.1071231E0,5E0,6E-1,8.697893E-1,4.6796364E1,1.0685065E0,6.0703944E-2,-5.3747635E-2,1.0505849E0,3.0901056E-2,3.591397E-3,1.0491333E0,-4.8215408E-2,4.936007E0,1.283917E9,2.9314946E-2,4.4983716E0,5.240435E1,4.5497055E1,-1.15045E-1,1.9908452E-1,8.802509E-2,2.324562E-1,3.6309597E1,3.6321764E0,-6.4885825E-2,2.8170618E-1,1.0365121E8,5.931176E0,7.9758244E-4,5.692051E-2,1.1521059E-1,-0E0,-4.9683265E-2,-3.6615792E-3,8.98244E-2,-2.0723542E-2,-1.7484386E-3,4.0444896E-2,-9.562462E-2,-8.870846E-3,2.0790732E-4,6.719502E-2,-3.6427554E-2,4.324932E-2,-4.8756942E-2,3.438019E-2,-1.0519313E-3,7.468867E-2,-2.2297649E-2,4.818324E-2,6.401293E-2,-2.194195E-2,2.5837917E-2,-8.202788E-2,1.0536599E-2,-7.502088E-2,6.638565E-2,-0E0,-0E0,-1.379908E-1,6.470746E-2,-1.6299037E-2,-6.894973E-2,3.219638E-2,-1.5602958E-1,-0E0],"split_indices":[62,62,0,0,39,5,80,56,33,67,46,0,0,29,80,55,39,47,41,35,79,57,72,49,51,69,38,41,77,41,0,0,41,25,55,41,0,79,49,12,67,77,34,0,25,55,46,26,81,12,12,49,29,0,0,0,0,0,0,0,0,0,0,0,0,0,0,0,0,0,0,0,0,0,0,0,0,0,0,0,0,0,0,0,0,0,0,0,0,0,0],"split_type":[0,0,0,0,0,0,0,0,0,0,0,0,0,0,0,0,0,0,0,0,0,0,0,0,0,0,0,0,0,0,0,0,0,0,0,0,0,0,0,0,0,0,0,0,0,0,0,0,0,0,0,0,0,0,0,0,0,0,0,0,0,0,0,0,0,0,0,0,0,0,0,0,0,0,0,0,0,0,0,0,0,0,0,0,0,0,0,0,0,0,0],"sum_hessian":[4.7917414E4,2.4132814E4,2.37846E4,2.338853E4,7.442841E2,3.6415085E2,3.8013327E2,9.530922E1,2.6884164E2,2.737068E2,1.0642649E2,9.3953255E1,1.3559651E0,1.5328986E2,1.15551796E2,2.3954396E2,3.416281E1,8.972716E1,1.669933E1,3.632043E1,1.1696942E2,7.1645794E0,1.08387215E2,1.5848363E2,8.106033E1,1.4075589E1,2.0087225E1,8.153172E1,8.195434E0,1.3151031E1,3.5482988E0,3.307992E0,3.301244E1,2.7432735E0,1.1422614E2,5.6703506E0,1.4942287E0,3.173095E0,1.0521412E2,5.1997826E1,1.0648581E2,2.6487488E1,5.457284E1,1.1883095E1,2.1924934E0,1.0087969E1,9.999255E0,8.842389E0,7.268934E1,3.3539462E0,4.841488E0,9.538819E0,3.6122112E0,2.3594532E1,9.417909E0,1.6827531E0,1.0605204E0,8.193212E1,3.2294025E1,4.665963E0,1.0043873E0,1.6124481E0,1.5606469E0,9.950324E1,5.7108784E0,4.4470936E1,7.5268893E0,1.00548164E2,5.9376454E0,2.1089231E1,5.398256E0,2.3361559E1,3.1211283E1,1.0951042E0,1.0973893E0,4.566126E0,5.521843E0,1.4072323E0,8.592023E0,7.8113976E0,1.0309918E0,6.288869E1,9.800647E0,1.7751329E0,1.5788133E0,3.8403785E0,1.0011092E0,1.9002972E0,7.638522E0,2.3542337E0,1.2579774E0],"tree_param":{"num_deleted":"0","num_feature":"87","num_nodes":"91","size_leaf_vector":"1"}},{"base_weights":[1.3082062E-3,-1.0731204E0,1.0942606E-1,-1.0998607E-1,-2.8093112E-1,-6.097998E-1,2.1641375E-2,-4.3189314E-1,-1.0064533E0,-1.0807651E-1,3.2733318E-1,-1.8330301E-1,-7.381424E-1,-1.0352688E0,-0E0,8.180505E-1,-1.3727683E-1,1.2597266E-1,5.775995E-1,-1.3070847E-1,-8.383962E-2,-9.4816476E-1,-4.731182E-1,-1.0651507E0,-1.4610155E-1,-2.6308957E-2,1.8661305E-2,1.0848739E-1,-0E0,-8.85989E-2,-7.249091E-1,4.2482126E-1,-1.9415747E-1,7.6000035E-1,-0E0,1.3495228E-1,-2.6509047E-1,-0E0,-9.7187504E-2,-8.7075454E-1,-1.66213E-1,-0E0,-1.07327096E-1,-5.2081306E-2,-0E0,-4.5266967E-2,-7.157617E-1,-9.521639E-1,-0E0,-0E0,7.254177E-1,-5.05083E-1,1.4412847E-1,9.0626657E-1,-0E0,-3.3042255E-1,6.0003465E-1,-2.4648686E-3,6.6138424E-2,-1.0323883E-2,-8.27405E-2,-9.450145E-2,-0E0,3.4541436E-2,-3.40103E-2,7.569414E-2,-3.302693E-2,-1.0355724E-2,4.1961834E-2,-1.0107227E-1,1.5940411E-2,-0E0,-1.0754391E-1,5.4066427E-2,-3.245969E-2,-5.8208376E-2,4.4852644E-2,-0E0,8.198908E-2,-8.128354E-2,1.2781945E-2,5.251835E-2,-3.7289966E-2,9.7509645E-2,-0E0,6.340521E-2,-2.7386436E-2,-7.6534346E-2,5.781133E-2,8.335278E-2,-0E0],"categories":[],"categories_nodes":[],"categories_segments":[],"categories_sizes":[],"default_left":[0,0,0,0,0,0,0,0,0,0,0,1,0,0,0,0,0,0,0,0,0,0,1,0,0,0,0,0,0,0,1,0,0,0,0,1,0,0,0,1,0,0,0,0,0,0,0,0,0,0,0,0,0,0,0,0,0,0,0,0,0,0,0,0,0,0,0,0,0,0,0,0,0,0,0,0,0,0,0,0,0,0,0,0,0,0,0,0,0,0,0],"id":17,"left_children":[1,3,-1,-1,5,7,9,11,13,15,17,19,21,23,25,27,29,31,33,35,-1,37,39,41,43,-1,-1,-1,-1,45,47,49,51,53,55,57,59,-1,-1,61,63,-1,-1,-1,65,67,69,71,73,75,77,79,81,83,85,87,89,-1,-1,-1,-1,-1,-1,-1,-1,-1,-1,-1,-1,-1,-1,-1,-1,-1,-1,-1,-1,-1,-1,-1,-1,-1,-1,-1,-1,-1,-1,-1,-1,-1,-1],"loss_changes":[5.146938E4,4.665039E2,0E0,0E0,7.266879E1,2.2731049E1,1.5187677E1,1.7533867E1,2.9499893E0,6.5397863E0,5.005747E0,3.6731815E0,4.1012077E0,1.3547058E0,2.5532788E-1,1.7638788E0,6.465592E0,6.7302E0,4.503374E0,4.816407E0,0E0,8.9795685E-1,5.1066875E0,4.0200806E-1,6.807858E-1,0E0,0E0,0E0,0E0,5.7231216E0,2.518507E0,5.286414E0,3.742241E0,3.2251816E0,3.1473706E0,4.1752605E0,7.1152844E0,0E0,0E0,1.8156109E0,2.9357557E0,0E0,0E0,0E0,1.4647278E0,5.8746734E0,4.6103454E0,1.879837E0,1.0874372E0,4.2935047E0,2.2225227E0,4.3246336E0,3.1659157E0,2.6268234E0,1.8199506E0,4.0420938E0,1.2818384E0,0E0,0E0,0E0,0E0,0E0,0E0,0E0,0E0,0E0,0E0,0E0,0E0,0E0,0E0,0E0,0E0,0E0,0E0,0E0,0E0,0E0,0E0,0E0,0E0,0E0,0E0,0E0,0E0,0E0,0E0,0E0,0E0,0E0,0E0],"parents":[2147483647,0,0,1,1,4,4,5,5,6,6,7,7,8,8,9,9,10,10,11,11,12,12,13,13,14,14,15,15,16,16,17,17,18,18,19,19,21,21,22,22,23,23,24,24,29,29,30,30,31,31,32,32,33,33,34,34,35,35,36,36,39,39,40,40,44,44,45,45,46,46,47,47,48,48,49,49,50,50,51,51,52,52,53,53,54,54,55,55,56,56],"right_children":[2,4,-1,-1,6,8,10,12,14,16,18,20,22,24,26,28,30,32,34,36,-1,38,40,42,44,-1,-1,-1,-1,46,48,50,52,54,56,58,60,-1,-1,62,64,-1,-1,-1,66,68,70,72,74,76,78,80,82,84,86,88,90,-1,-1,-1,-1,-1,-1,-1,-1,-1,-1,-1,-1,-1,-1,-1,-1,-1,-1,-1,-1,-1,-1,-1,-1,-1,-1,-1,-1,-1,-1,-1,-1,-1,-1],"split_conditions":[2.203573E-4,0E0,1.0942606E-1,-1.0998607E-1,1E0,9.9547356E1,1.7180046E1,3.21944E5,9.949164E2,-8.325625E0,6.7062005E-2,1.13512635E-1,5.000519E-2,1.8920165E0,1.6363796E-3,3E0,5.757164E-2,2.8238588E7,2.7649578E-1,5.138722E1,-8.383962E-2,6.2716227E0,4.991236E1,6.2497005E0,8.8421356E2,-2.6308957E-2,1.8661305E-2,1.0848739E-1,-0E0,2.6117647E-1,7.452952E0,1.027606E3,9.1697384E7,1.160566E-1,7.142037E1,1.0015049E0,9.999872E2,-0E0,-9.7187504E-2,3.887594E-1,-2.0289922E0,-0E0,-1.07327096E-1,-5.2081306E-2,1.816485E5,1.8438037E-2,8.379076E1,-4.55966E0,