{"learner":{"attributes":{"best_iteration":"178","best_score":"0.4282408609485544"},"feature_names":["EMA_10","SMA_10","TEMA_10","EMA_20","SMA_20","EMA_50","SMA_50","TEMA_50","EMA_100","SMA_100","TEMA_100","EMA_200","SMA_200","TEMA_200","HMA_50","Dist_EMA_20","Dist_EMA_50","Dist_EMA_200","Dist_TEMA_20","EMA_20_Slope","EMA_50_Slope","EMA_20_Acceleration","Donchian_High_20","Donchian_Low_20","Donchian_Mid_20","Price_to_Donchian_Mid","Keltner_Upper_20","Keltner_Lower_20","Keltner_Position","Golden_Cross","Death_Cross","Trend_Alignment_Bullish","Trend_Alignment_Bearish","Up_Days","Trend_Persistence_10","SuperTrend_Up","SuperTrend_Down","Trend_Strength_Score","RSI_14","StochRSI_14","RSI_3","Streak","RSI_Streak_2","Percent_Rank_100","ConnorsRSI","MACD","MACD_Signal","MACD_Hist","ADX_14","Plus_DI_14","Minus_DI_14","ROC_10","ROC_20","ROC_10_Acc","Price_Velocity","Pos_Return","Mom_Consistency_20","Rel_Vol_20","Vol_10","Vol_50","Vol_Acceleration","OBV","OBV_Trend","MFI_14","VWAP_20","Dist_VWAP_20","ADL","EOM_14","Smart_Money_Proxy","Last_Swing_High","Last_Swing_Low","Higher_High","Lower_Low","Structure_Trend","Gap_Up","Gap_Down","Gap_Size","Upper_Wick","Lower_Wick","Upper_Wick_Ratio","Lower_Wick_Ratio","Bullish_Rejection","Bearish_Rejection","Days_Since_20d_High","Days_Since_20d_Low","Is_Consolidating","Beta_60","Index_Correlation_60","Diversification_Score","Idiosyncratic_Vol_60","True_Range","ATR_14","ATR_Avg_20","ATR_Expansion","Vol_Breakout_Score","BB_Mid","BB_Upper","BB_Lower","BB_Width","Hist_Volatility_20","Ulcer_Index_14","Daily_Traded_Value","Avg_Daily_Traded_Value_20","Liquidity_Score","Tradability_Score","Turnover_Ratio_Proxy","Bull_Probability","Bear_Probability","Regime_Persistence_Days","Regime_Transition_Prob","Downside_Dev_20","Current_Drawdown","Max_Drawdown_252","Sharpe_Proxy_20","Sortino_Proxy_20","Tail_Risk_5th_Pct_20","Vol_Adjusted_Trend_20","Stop_Loss_Prob_5Pct","Dist_High_20","Dist_High_50","Dist_Low_20","Range_Compression","Consolidation_Score","NR7_Flag","Mom_20_Pct_Rank","Trend_Score_Pct_Rank","Vol_Expansion_Pct_Rank","Liquidity_Pct_Rank","Drawdown_Pct_Rank"],"feature_types":["float","float","float","float","float","float","float","float","float","float","float","float","float","float","float","float","float","float","float","float","float","float","float","float","float","float","float","float","float","int","int","int","int","int","float","int","int","int","float","float","float","float","float","float","float","float","float","float","float","float","float","float","float","float","float","int","float","float","float","float","float","float","float","float","float","float","float","float","float","float","float","int","int","int","int","int","float","float","float","float","float","float","float","float","float","int","float","float","float","float","float","float","float","float","float","float","float","float","float","float","float","float","float","float","float","float","float","float","float","float","float","float","float","float","float","float","float","float","float","float","float","float","float","int","float","float","float","float","float"],"gradient_booster":{"model":{"cats":{"enc":[],"feature_segments":[],"sorted_idx":[]},"gbtree_model_param":{"num_parallel_tree":"1","num_trees":"229"},"iteration_indptr":[0,1,2,3,4,5,6,7,8,9,10,11,12,13,14,15,16,17,18,19,20,21,22,23,24,25,26,27,28,29,30,31,32,33,34,35,36,37,38,39,40,41,42,43,44,45,46,47,48,49,50,51,52,53,54,55,56,57,58,59,60,61,62,63,64,65,66,67,68,69,70,71,72,73,74,75,76,77,78,79,80,81,82,83,84,85,86,87,88,89,90,91,92,93,94,95,96,97,98,99,100,101,102,103,104,105,106,107,108,109,110,111,112,113,114,115,116,117,118,119,120,121,122,123,124,125,126,127,128,129,130,131,132,133,134,135,136,137,138,139,140,141,142,143,144,145,146,147,148,149,150,151,152,153,154,155,156,157,158,159,160,161,162,163,164,165,166,167,168,169,170,171,172,173,174,175,176,177,178,179,180,181,182,183,184,185,186,187,188,189,190,191,192,193,194,195,196,197,198,199,200,201,202,203,204,205,206,207,208,209,210,211,212,213,214,215,216,217,218,219,220,221,222,223,224,225,226,227,228,229],"tree_info":[0,0,0,0,0,0,0,0,0,0,0,0,0,0,0,0,0,0,0,0,0,0,0,0,0,0,0,0,0,0,0,0,0,0,0,0,0,0,0,0,0,0,0,0,0,0,0,0,0,0,0,0,0,0,0,0,0,0,0,0,0,0,0,0,0,0,0,0,0,0,0,0,0,0,0,0,0,0,0,0,0,0,0,0,0,0,0,0,0,0,0,0,0,0,0,0,0,0,0,0,0,0,0,0,0,0,0,0,0,0,0,0,0,0,0,0,0,0,0,0,0,0,0,0,0,0,0,0,0,0,0,0,0,0,0,0,0,0,0,0,0,0,0,0,0,0,0,0,0,0,0,0,0,0,0,0,0,0,0,0,0,0,0,0,0,0,0,0,0,0,0,0,0,0,0,0,0,0,0,0,0,0,0,0,0,0,0,0,0,0,0,0,0,0,0,0,0,0,0,0,0,0,0,0,0,0,0,0,0,0,0,0,0,0,0,0,0,0,0,0,0,0,0,0,0,0,0,0,0],"trees":[{"base_weights":[-2.5039224E-3,-1.2148693E0,1.1480957E0,-1.6719581E0,-4.4627467E-1,3.7039992E-1,1.582454E0,-1.8326052E0,-1.1889774E0,-1.9703697E-1,-1.1524512E0,1.0065192E0,-2.9485738E-1,1.2222017E0,1.8347651E0,6.215042E-3,-1.8480501E0,-5.2528715E-1,-1.3502222E0,-7.475692E-1,1.6056594E-1,1.5847448E-2,-1.2488276E0,2.7121696E-1,1.1481062E0,1.1193191E-1,-7.617677E-1,-9.237294E-2,1.3018992E0,9.458448E-3,1.8529834E0,-1.8680059E0,-4.1995612E-1,3.1748153E-2,-9.185979E-1,-1.0938953E-1,-1.4773546E0,8.0997266E-2,-9.540558E-1,-3.8395548E-1,4.5083493E-1,-1.307164E0,6.215042E-3,-6.3844496E-1,9.764136E-1,-1.0938953E-1,1.2525268E0,-3.3384332E-1,8.90111E-1,-1.1243095E0,2.9155827E-1,7.7840614E-1,-4.210741E-2,5.747722E-1,1.4083245E0,9.2608017E-1,5.6114294E-2,-5.63498E-2,-7.1196547E-3,1.9549739E-2,-3.6492467E-2,-3.8629472E-2,1.328426E-2,1.9405635E-2,-3.0546458E-2,-4.789066E-2,-1.7843446E-2,-3.6601923E-2,2.3754703E-2,-5.125742E-3,-3.7025996E-2,1.8040596E-2,-2.494889E-2,1.7727733E-2,-2.7303739E-2,-4.294356E-2,-1.157689E-2,1.9549739E-2,-3.2092363E-2,4.153527E-2,-2.0454353E-2,2.189247E-2,-3.870439E-2,4.002995E-2,-6.332549E-4,2.505901E-2,-1.8021183E-2,-2.4491144E-2,3.4347557E-2,-3.7281923E-2,1.9549739E-2,-3.2391787E-2,3.532164E-2,4.3408874E-2,-2.0454353E-2,-7.3612863E-3,3.333346E-2,4.3774627E-2,-4.597604E-3,-7.1196547E-3,4.228122E-2],"categories":[],"categories_nodes":[],"categories_segments":[],"categories_sizes":[],"default_left":[0,0,0,0,1,0,0,0,0,0,0,0,0,0,0,0,0,0,0,0,0,0,0,0,0,1,0,0,0,0,0,0,0,0,0,0,0,0,1,0,1,0,0,1,0,1,0,0,0,0,0,0,0,0,1,0,0,0,0,0,0,0,0,0,0,0,0,0,0,0,0,0,0,0,0,0,0,0,0,0,0,0,0,0,0,0,0,0,0,0,0,0,0,0,0,0,0,0,0,0,0],"id":0,"left_children":[1,3,5,7,9,11,13,15,17,19,21,23,25,27,29,-1,31,33,35,37,39,-1,41,43,45,47,49,51,53,-1,55,57,59,-1,61,63,65,67,69,71,73,75,-1,77,79,81,83,85,87,89,91,93,-1,95,97,99,-1,-1,-1,-1,-1,-1,-1,-1,-1,-1,-1,-1,-1,-1,-1,-1,-1,-1,-1,-1,-1,-1,-1,-1,-1,-1,-1,-1,-1,-1,-1,-1,-1,-1,-1,-1,-1,-1,-1,-1,-1,-1,-1,-1,-1],"loss_changes":[1.1070359E3,1.3501257E2,1.3695703E2,1.6594238E1,2.5377092E1,6.2599075E1,2.1476929E1,6.0446777E0,6.0583267E0,2.1525951E1,6.7733345E0,7.547447E0,1.3900463E1,1.1695053E1,3.6088867E0,0E0,4.3016357E0,9.690267E0,7.763893E0,7.4327316E0,1.0721539E1,0E0,3.3280067E0,9.282033E0,8.407936E0,1.408368E1,1.3309225E1,9.36909E0,7.2564087E0,0E0,6.914673E-1,2.5115967E0,3.9928699E0,0E0,6.472727E0,4.6099777E0,3.8283844E0,9.7505E0,7.357355E0,1.0974316E1,8.925178E0,3.4258652E0,0E0,4.313287E0,6.356815E0,6.6378245E0,6.0961227E0,8.61236E0,7.3472395E0,6.171852E0,1.2809241E1,5.8670273E0,0E0,6.8697233E0,7.385895E0,3.0048466E0,0E0,0E0,0E0,0E0,0E0,0E0,0E0,0E0,0E0,0E0,0E0,0E0,0E0,0E0,0E0,0E0,0E0,0E0,0E0,0E0,0E0,0E0,0E0,0E0,0E0,0E0,0E0,0E0,0E0,0E0,0E0,0E0,0E0,0E0,0E0,0E0,0E0,0E0,0E0,0E0,0E0,0E0,0E0,0E0,0E0],"parents":[2147483647,0,0,1,1,2,2,3,3,4,4,5,5,6,6,7,7,8,8,9,9,10,10,11,11,12,12,13,13,14,14,16,16,17,17,18,18,19,19,20,20,22,22,23,23,24,24,25,25,26,26,27,27,28,28,30,30,31,31,32,32,34,34,35,35,36,36,37,37,38,38,39,39,40,40,41,41,43,43,44,44,45,45,46,46,47,47,48,48,49,49,50,50,51,51,53,53,54,54,55,55],"right_children":[2,4,6,8,10,12,14,16,18,20,22,24,26,28,30,-1,32,34,36,38,40,-1,42,44,46,48,50,52,54,-1,56,58,60,-1,62,64,66,68,70,72,74,76,-1,78,80,82,84,86,88,90,92,94,-1,96,98,100,-1,-1,-1,-1,-1,-1,-1,-1,-1,-1,-1,-1,-1,-1,-1,-1,-1,-1,-1,-1,-1,-1,-1,-1,-1,-1,-1,-1,-1,-1,-1,-1,-1,-1,-1,-1,-1,-1,-1,-1,-1,-1,-1,-1,-1],"split_conditions":[4.896464E1,3.3915546E1,6.522681E1,2.6337872E1,5.7514538E1,6.2907032E1,7.731161E1,7.4670044E1,4.5817798E-1,-7.712342E-3,7.681391E1,-4.8424676E-3,7.7623795E1,-2.0942658E7,-1.3678741E-3,6.215042E-3,4.292175E-3,-5.38788E0,-2.2854434E7,1.6268564E1,3.980624E1,1.5847448E-2,1.05E2,1.0287606E0,1.3216418E-1,2.2155192E-1,8.708352E1,1.1767263E0,5.9407E-4,9.458448E-3,7.0133604E-2,9.9684227E-1,6.7787957E-3,3.1748153E-2,3.4E1,3.2234833E1,6.5340667E0,2.5618916E7,7E0,2E1,1.6982343E-2,6.808875E0,6.215042E-3,8.5982776E-1,1.25983765E2,5.043652E6,1E0,6.134605E-1,2.9345913E0,1.2983621E2,4.8301685E6,7.731587E1,-4.210741E-2,1.2750472E-1,5.7514925E6,8.826296E-3,5.6114294E-2,-5.63498E-2,-7.1196547E-3,1.9549739E-2,-3.6492467E-2,-3.8629472E-2,1.328426E-2,1.9405635E-2,-3.0546458E-2,-4.789066E-2,-1.7843446E-2,-3.6601923E-2,2.3754703E-2,-5.125742E-3,-3.7025996E-2,1.8040596E-2,-2.494889E-2,1.7727733E-2,-2.7303739E-2,-4.294356E-2,-1.157689E-2,1.9549739E-2,-3.2092363E-2,4.153527E-2,-2.0454353E-2,2.189247E-2,-3.870439E-2,4.002995E-2,-6.332549E-4,2.505901E-2,-1.8021183E-2,-2.4491144E-2,3.4347557E-2,-3.7281923E-2,1.9549739E-2,-3.2391787E-2,3.532164E-2,4.3408874E-2,-2.0454353E-2,-7.3612863E-3,3.333346E-2,4.3774627E-2,-4.597604E-3,-7.1196547E-3,4.228122E-2],"split_indices":[40,40,40,40,44,42,40,7,57,18,10,18,42,66,18,0,18,68,66,49,40,0,108,93,80,89,42,94,18,0,120,62,18,0,83,44,91,61,43,83,21,100,0,86,10,59,72,94,90,70,59,42,0,98,59,18,0,0,0,0,0,0,0,0,0,0,0,0,0,0,0,0,0,0,0,0,0,0,0,0,0,0,0,0,0,0,0,0,0,0,0,0,0,0,0,0,0,0,0,0,0],"split_type":[0,0,0,0,0,0,0,0,0,0,0,0,0,0,0,0,0,0,0,0,0,0,0,0,0,0,0,0,0,0,0,0,0,0,0,0,0,0,0,0,0,0,0,0,0,0,0,0,0,0,0,0,0,0,0,0,0,0,0,0,0,0,0,0,0,0,0,0,0,0,0,0,0,0,0,0,0,0,0,0,0,0,0,0,0,0,0,0,0,0,0,0,0,0,0,0,0,0,0,0,0],"sum_hessian":[7.9160425E2,3.8542905E2,4.0617523E2,2.4095564E2,1.444734E2,1.4622308E2,2.5995215E2,1.787171E2,6.223854E1,1.0773017E2,3.6743237E1,7.448629E1,7.173679E1,1.0947984E2,1.504723E2,1.2497699E0,1.7746733E2,1.2997607E1,4.9240936E1,4.199227E1,6.57379E1,1.7496779E0,3.4993557E1,1.24977E1,6.1988586E1,3.8742867E1,3.2993927E1,6.24885E0,1.03230995E2,1.9996319E0,1.4847267E2,1.7471783E2,2.7494938E0,2.2495859E0,1.0748021E1,4.7491255E0,4.449181E1,8.498436E0,3.3493835E1,2.2745813E1,4.2992085E1,3.374379E1,1.2497699E0,5.4989877E0,6.9987116E0,4.7491255E0,5.7239464E1,2.49954E1,1.3747469E1,2.4495491E1,8.498436E0,3.9992638E0,2.2495859E0,1.3997423E1,8.9233574E1,3.7493098E0,1.4472336E2,1.7346806E2,1.2497699E0,1.2497699E0,1.4997239E0,8.498436E0,2.2495859E0,2.7494938E0,1.9996319E0,3.8492912E1,5.9988956E0,2.7494938E0,5.7489414E0,9.248298E0,2.4245537E1,6.9987116E0,1.5747101E1,3.949273E1,3.4993558E0,2.9244616E1,4.4991717E0,1.2497699E0,4.249218E0,5.7489414E0,1.2497699E0,2.9994478E0,1.7496779E0,5.374011E1,3.4993558E0,4.249218E0,2.0746181E1,1.4997239E0,1.22477455E1,2.324572E1,1.2497699E0,3.2494018E0,5.249034E0,2.7494938E0,1.2497699E0,5.7489414E0,8.248482E0,8.648408E1,2.7494938E0,1.2497699E0,2.4995399E0],"tree_param":{"num_deleted":"0","num_feature":"129","num_nodes":"101","size_leaf_vector":"1"}},{"base_weights":[2.7911285E-2,-1.1050769E0,9.5712745E-1,-1.7230108E0,-7.160471E-1,-9.489464E-2,1.4365137E0,-1.7539934E0,-2.4074996E-1,-1.2774007E0,-1.9986734E-1,-5.419234E-1,6.116831E-1,1.0874565E0,1.6938791E0,-5.5266675E-2,-1.2478305E0,2.4025587E-2,-3.557875E-2,-1.3610998E0,5.1162726E-1,-3.9278153E-1,7.605068E-1,-8.1825614E-1,2.563725E-1,2.7746052E-1,1.3437626E0,9.213264E-1,1.6741643E0,1.431637E0,1.8632475E0,-1.5262047E0,-2.9565576E-1,-9.633172E-1,-1.5695745E0,-2.7751045E-2,4.2870045E-2,-8.517394E-1,-1.960844E-1,1.0150616E0,-3.0598583E-2,6.482187E-1,-9.141985E-1,4.632204E-2,-7.902747E-2,-5.451424E-1,7.97241E-1,-1.2871443E-2,1.5463676E0,9.7461265E-1,-8.9444244E-1,1.7380286E0,5.3307973E-3,8.669419E-1,1.6395906E0,1.8820851E0,2.142983E-2,-5.115705E-2,-1.4534566E-2,-4.2310104E-2,2.2609591E-2,1.359682E-2,-3.197598E-2,-4.8195105E-2,1.10778536E-4,-3.6620084E-2,-5.8296195E-4,6.8215937E-3,-1.60892E-2,3.7437502E-2,-9.178299E-3,-1.2350312E-2,3.9462622E-2,-4.4903785E-2,-1.9517092E-2,2.480588E-2,-1.6819822E-2,9.954618E-3,-3.2886535E-2,-1.73211E-2,2.952078E-2,-7.2948956E-3,5.170804E-2,3.804814E-2,1.9682992E-2,-7.414253E-3,-3.4322884E-2,5.419897E-3,5.4239012E-2,3.1135235E-2,-2.540954E-2,1.0498047E-2,5.1154763E-2,5.6752875E-2,1.8711433E-2],"categories":[],"categories_nodes":[],"categories_segments":[],"categories_sizes":[],"default_left":[0,0,0,1,0,0,0,1,0,0,1,0,0,0,0,0,0,0,0,1,0,1,0,0,0,1,0,0,0,0,0,0,0,0,0,0,0,0,0,0,0,0,0,0,0,0,0,0,0,0,0,0,0,0,0,0,0,0,0,0,0,0,0,0,0,0,0,0,0,0,0,0,0,0,0,0,0,0,0,0,0,0,0,0,0,0,0,0,0,0,0,0,0,0,0],"id":1,"left_children":[1,3,5,7,9,11,13,15,17,19,21,23,25,27,29,-1,31,-1,-1,33,35,37,39,41,43,45,47,49,51,53,55,57,59,61,63,-1,-1,65,67,69,-1,71,73,-1,75,77,79,-1,81,83,85,87,-1,89,91,93,-1,-1,-1,-1,-1,-1,-1,-1,-1,-1,-1,-1,-1,-1,-1,-1,-1,-1,-1,-1,-1,-1,-1,-1,-1,-1,-1,-1,-1,-1,-1,-1,-1,-1,-1,-1,-1,-1,-1],"loss_changes":[8.432256E2,8.5527374E1,2.2205292E2,5.9485474E0,6.441554E1,4.4135803E1,2.5319214E1,3.7624207E0,4.88728E0,1.6678131E1,2.206012E1,1.9064604E1,1.2891117E1,1.1236633E1,4.982483E0,0E0,5.7102776E0,0E0,0E0,6.9659576E0,8.566637E0,8.722418E0,1.0094427E1,9.55957E0,9.943289E0,1.6887E1,6.6730556E0,1.0973022E1,2.3392563E0,7.0223236E0,8.4869385E-1,2.4835892E0,8.664281E0,5.9659576E0,3.810791E0,0E0,0E0,8.955408E0,1.0239967E1,5.915283E0,0E0,3.722848E0,8.277447E0,0E0,8.750057E0,7.8511276E0,6.7265816E0,0E0,5.2503586E0,8.699219E0,2.8250456E-1,2.5553818E0,0E0,7.1691513E0,3.7522278E0,2.670288E-2,0E0,0E0,0E0,0E0,0E0,0E0,0E0,0E0,0E0,0E0,0E0,0E0,0E0,0E0,0E0,0E0,0E0,0E0,0E0,0E0,0E0,0E0,0E0,0E0,0E0,0E0,0E0,0E0,0E0,0E0,0E0,0E0,0E0,0E0,0E0,0E0,0E0,0E0,0E0],"parents":[2147483647,0,0,1,1,2,2,3,3,4,4,5,5,6,6,7,7,8,8,9,9,10,10,11,11,12,12,13,13,14,14,16,16,19,19,20,20,21,21,22,22,23,23,24,24,25,25,26,26,27,27,28,28,29,29,30,30,31,31,32,32,33,33,34,34,37,37,38,38,39,39,41,41,42,42,44,44,45,45,46,46,48,48,49,49,50,50,51,51,53,53,54,54,55,55],"right_children":[2,4,6,8,10,12,14,16,18,20,22,24,26,28,30,-1,32,-1,-1,34,36,38,40,42,44,46,48,50,52,54,56,58,60,62,64,-1,-1,66,68,70,-1,72,74,-1,76,78,80,-1,82,84,86,88,-1,90,92,94,-1,-1,-1,-1,-1,-1,-1,-1,-1,-1,-1,-1,-1,-1,-1,-1,-1,-1,-1,-1,-1,-1,-1,-1,-1,-1,-1,-1,-1,-1,-1,-1,-1,-1,-1,-1,-1,-1,-1],"split_conditions":[-1.5268727E-3,-1.9010384E-2,-2.4779632E-3,3.2028225E-1,-1.139825E-2,1.0959383E-2,1.9729765E-2,-6.762598E-2,1.4707488E-1,6.515291E1,3.318086E-2,-1.4683921E0,2.440667E-2,1.8882185E-2,1.20998295E-2,-5.5266675E-2,-4.423624E0,2.4025587E-2,-3.557875E-2,6.82826E-2,4.856585E6,2.0526949E-1,5.5E1,8.0897606E1,2.9459106E1,4.85861E6,-1.1832323E0,1.2806415E2,9.6E1,1.8E1,2.0859904E0,-2.0808496E-3,2.2301078E-2,7E0,1.1222163E9,-2.7751045E-2,4.2870045E-2,4.579083E7,9.9220705E-1,1.0522698E0,-3.0598583E-2,7.981182E1,1.9562414E-3,4.632204E-2,1.1052375E-1,6.4919785E1,-3.1143825E0,-1.2871443E-2,-3.9789996E2,6.473757E1,2.3930464E-3,-3.932305E-2,5.3307973E-3,1.1182493E-2,1.088398E-1,8.8E1,2.142983E-2,-5.115705E-2,-1.4534566E-2,-4.2310104E-2,2.2609591E-2,1.359682E-2,-3.197598E-2,-4.8195105E-2,1.10778536E-4,-3.6620084E-2,-5.8296195E-4,6.8215937E-3,-1.60892E-2,3.7437502E-2,-9.178299E-3,-1.2350312E-2,3.9462622E-2,-4.4903785E-2,-1.9517092E-2,2.480588E-2,-1.6819822E-2,9.954618E-3,-3.2886535E-2,-1.73211E-2,2.952078E-2,-7.2948956E-3,5.170804E-2,3.804814E-2,1.9682992E-2,-7.414253E-3,-3.4322884E-2,5.419897E-3,5.4239012E-2,3.1135235E-2,-2.540954E-2,1.0498047E-2,5.1154763E-2,5.6752875E-2,1.8711433E-2],"split_indices":[18,15,15,99,18,18,15,53,118,38,122,113,18,18,18,0,52,0,0,119,58,99,84,6,42,59,62,9,108,84,57,62,122,43,101,0,0,66,117,53,0,6,18,0,119,42,45,0,67,42,18,16,0,18,79,84,0,0,0,0,0,0,0,0,0,0,0,0,0,0,0,0,0,0,0,0,0,0,0,0,0,0,0,0,0,0,0,0,0,0,0,0,0,0,0],"split_type":[0,0,0,0,0,0,0,0,0,0,0,0,0,0,0,0,0,0,0,0,0,0,0,0,0,0,0,0,0,0,0,0,0,0,0,0,0,0,0,0,0,0,0,0,0,0,0,0,0,0,0,0,0,0,0,0,0,0,0,0,0,0,0,0,0,0,0,0,0,0,0,0,0,0,0,0,0,0,0,0,0,0,0,0,0,0,0,0,0,0,0,0,0,0,0],"sum_hessian":[7.989383E2,3.5991125E2,4.3902707E2,1.3772318E2,2.2218806E2,1.3768243E2,3.0134464E2,1.347238E2,2.9993646E0,1.0573015E2,1.16457924E2,8.447247E1,5.3209957E1,1.3010814E2,1.7123651E2,1.1247819E2,2.2245619E1,1.4995788E0,1.4997858E0,1.01233185E2,4.4969635E0,9.746979E1,1.8988134E1,6.2732433E1,2.1740038E1,3.7478554E1,1.5731402E1,1.03400085E2,2.6708052E1,7.090433E1,1.0033218E2,1.674674E1,5.498877E0,3.674405E1,6.4489136E1,1.7492244E0,2.7477388E0,2.8241966E1,6.922782E1,1.698907E1,1.9990637E0,3.4986973E0,5.9233738E1,3.7477405E0,1.7992298E1,1.4493072E1,2.2985483E1,1.4988322E0,1.4232571E1,1.0090222E2,2.497864E0,2.5460083E1,1.2479684E0,2.0474642E1,5.0429688E1,9.808583E1,2.2463434E0,1.3747198E1,2.999543E0,2.4995458E0,2.9993312E0,2.249617E0,3.4494434E1,6.2989468E1,1.4996672E0,1.924485E1,8.997116E0,3.0988472E1,3.823935E1,1.4490193E1,2.4988775E0,1.499546E0,1.9991511E0,1.6996172E1,4.2237568E1,5.996627E0,1.1995671E1,5.7463655E0,8.746706E0,2.4995322E0,2.048595E1,1.2490375E0,1.2983533E1,5.094797E1,4.9954247E1,1.2491121E0,1.2487519E0,1.2482249E0,2.4211859E1,1.8976881E1,1.4977599E0,2.7464724E0,4.7683216E1,9.683776E1,1.2480739E0],"tree_param":{"num_deleted":"0","num_feature":"129","num_nodes":"95","size_leaf_vector":"1"}},{"base_weights":[-1.1818779E-2,-1.1736119E0,1.0728825E0,-1.5858616E0,-4.7103256E-1,3.096686E-1,1.494214E0,-1.735408E0,-1.1466E0,-2.3923555E-1,-1.3381451E0,9.171386E-1,-3.0526167E-1,1.1666627E0,1.7129831E0,6.7568594E-3,-1.7505416E0,-6.4880294E-1,-1.3609794E0,-5.1740867E-1,2.5630695E-1,-1.4298115E0,-4.3111444E-3,-2.7891627E-1,1.0212873E0,-1.21296264E-1,-1.1205608E0,1.340762E-1,1.2388301E0,-2.048022E-3,1.7306206E0,-1.7605667E0,-5.6941397E-3,4.5438832E-1,-9.93975E-1,-1.4306697E0,6.131891E-3,-7.215808E-1,1.1724094E-1,8.2457083E-1,-3.8771105E-1,2.632481E-5,-1.511608E0,-3.56297E-2,5.35384E-1,5.5033765E-3,1.1597857E0,2.5595772E-1,-5.6692576E-1,-1.569523E0,-1.1573945E-1,-3.271873E-2,7.7579993E-1,3.0083665E-1,1.3237202E0,1.3735943E0,1.819233E0,-5.3247303E-2,-2.1029757E-2,-1.2808872E-2,3.427998E-2,-6.4068083E-3,-4.0176287E-2,-1.199884E-2,-4.6517033E-2,3.30156E-2,-2.3507146E-2,3.155804E-2,-1.0503842E-2,4.588695E-2,9.275069E-3,-2.7086169E-2,8.712897E-3,-4.708342E-2,-5.911177E-3,3.464203E-2,-6.677764E-3,-1.9555252E-2,2.533343E-2,1.7212696E-2,4.198077E-2,-3.405481E-2,1.2075085E-2,-2.47699E-2,1.8011468E-2,-7.022638E-3,-5.2463833E-2,1.4274061E-2,-3.3461105E-2,3.8995992E-2,-2.0204145E-2,2.9224338E-2,-2.1010702E-2,4.108088E-2,1.378146E-3,-2.016786E-3,4.459903E-2,5.4809924E-2,1.7836263E-2],"categories":[],"categories_nodes":[],"categories_segments":[],"categories_sizes":[],"default_left":[0,0,0,0,0,0,0,0,0,0,0,0,0,0,0,0,1,0,0,0,1,0,0,0,0,0,0,0,0,0,0,0,0,0,0,0,0,0,0,0,1,0,0,0,0,0,0,0,0,1,1,0,0,0,0,0,0,0,0,0,0,0,0,0,0,0,0,0,0,0,0,0,0,0,0,0,0,0,0,0,0,0,0,0,0,0,0,0,0,0,0,0,0,0,0,0,0,0,0],"id":2,"left_children":[1,3,5,7,9,11,13,15,17,19,21,23,25,27,29,-1,31,33,35,37,39,41,-1,43,45,47,49,51,53,-1,55,57,-1,59,61,63,-1,65,67,69,71,-1,73,-1,75,77,79,81,83,85,87,-1,89,91,93,95,97,-1,-1,-1,-1,-1,-1,-1,-1,-1,-1,-1,-1,-1,-1,-1,-1,-1,-1,-1,-1,-1,-1,-1,-1,-1,-1,-1,-1,-1,-1,-1,-1,-1,-1,-1,-1,-1,-1,-1,-1,-1,-1],"loss_changes":[1.00057355E3,1.1028937E2,1.3157861E2,1.3853149E1,2.845922E1,5.530968E1,1.694104E1,5.674988E0,5.9684525E0,1.5874727E1,3.0775719E0,9.547291E0,1.0956834E1,7.954544E0,5.0295715E0,0E0,2.4310303E0,8.538533E0,5.088608E0,9.605095E0,1.5590617E1,3.247139E0,0E0,5.624548E0,9.646698E0,1.04781275E1,5.9060154E0,7.322092E0,7.702469E0,0E0,2.3996582E0,1.4226685E0,0E0,3.974369E0,4.1567287E0,4.5968857E0,0E0,7.157154E0,8.556514E0,7.6979E0,7.333086E0,0E0,1.6856155E0,0E0,2.2497826E0,5.644795E0,7.673912E0,7.382987E0,9.100253E0,1.8045063E0,3.633361E0,0E0,5.425849E0,7.2461405E0,5.360794E0,5.779297E0,6.40564E-2,0E0,0E0,0E0,0E0,0E0,0E0,0E0,0E0,0E0,0E0,0E0,0E0,0E0,0E0,0E0,0E0,0E0,0E0,0E0,0E0,0E0,0E0,0E0,0E0,0E0,0E0,0E0,0E0,0E0,0E0,0E0,0E0,0E0,0E0,0E0,0E0,0E0,0E0,0E0,0E0,0E0,0E0],"parents":[2147483647,0,0,1,1,2,2,3,3,4,4,5,5,6,6,7,7,8,8,9,9,10,10,11,11,12,12,13,13,14,14,16,16,17,17,18,18,19,19,20,20,21,21,23,23,24,24,25,25,26,26,27,27,28,28,30,30,31,31,33,33,34,34,35,35,37,37,38,38,39,39,40,40,42,42,44,44,45,45,46,46,47,47,48,48,49,49,50,50,52,52,53,53,54,54,55,55,56,56],"right_children":[2,4,6,8,10,12,14,16,18,20,22,24,26,28,30,-1,32,34,36,38,40,42,-1,44,46,48,50,52,54,-1,56,58,-1,60,62,64,-1,66,68,70,72,-1,74,-1,76,78,80,82,84,86,88,-1,90,92,94,96,98,-1,-1,-1,-1,-1,-1,-1,-1,-1,-1,-1,-1,-1,-1,-1,-1,-1,-1,-1,-1,-1,-1,-1,-1,-1,-1,-1,-1,-1,-1,-1,-1,-1,-1,-1,-1,-1,-1,-1,-1,-1,-1],"split_conditions":[4.896464E1,3.3915546E1,6.522681E1,2.6337872E1,7.460727E1,6.2907032E1,7.680566E1,7.495194E1,6.5349215E-1,4.3775715E1,1.502571E0,5.970309E-2,-1.5527478E-1,-2.485951E7,8.439166E0,6.7568594E-3,2.8993044E-2,1.0446427E0,6.911487E1,1.9562414E-3,8.2720745E-1,5.7514538E1,-4.3111444E-3,9.5166306E1,9.392369E-2,7.670722E1,1.847075E1,3.5156542E-1,-1.7250105E-3,-2.048022E-3,7.548829E1,8.129737E2,-5.6941397E-3,5.7180405E-1,9.45977E1,5.986847E-2,6.131891E-3,7.9565735E1,-2.5361001E-2,3.339692E1,6.4512424E-2,2.632481E-5,4.833973E1,-3.56297E-2,4.4457347E8,6.1806064E0,9.5735544E-1,-1.1048341E-2,1.19805214E2,-3.3263202E0,9.7573924E-1,-3.271873E-2,2.6439328E0,-3.9030407E-3,7.1611526E8,2.8132047E-3,3.7096824E-2,-5.3247303E-2,-2.1029757E-2,-1.2808872E-2,3.427998E-2,-6.4068083E-3,-4.0176287E-2,-1.199884E-2,-4.6517033E-2,3.30156E-2,-2.3507146E-2,3.155804E-2,-1.0503842E-2,4.588695E-2,9.275069E-3,-2.7086169E-2,8.712897E-3,-4.708342E-2,-5.911177E-3,3.464203E-2,-6.677764E-3,-1.9555252E-2,2.533343E-2,1.7212696E-2,4.198077E-2,-3.405481E-2,1.2075085E-2,-2.47699E-2,1.8011468E-2,-7.022638E-3,-5.2463833E-2,1.4274061E-2,-3.3461105E-2,3.8995992E-2,-2.0204145E-2,2.9224338E-2,-2.1010702E-2,4.108088E-2,1.378146E-3,-2.016786E-3,4.459903E-2,5.4809924E-2,1.7836263E-2],"split_indices":[40,40,40,40,42,42,40,7,57,40,94,120,112,66,48,0,25,78,63,18,51,44,0,11,110,42,49,79,18,0,44,67,0,94,7,98,0,12,115,42,119,0,40,0,102,113,86,18,4,51,60,0,77,18,102,25,19,0,0,0,0,0,0,0,0,0,0,0,0,0,0,0,0,0,0,0,0,0,0,0,0,0,0,0,0,0,0,0,0,0,0,0,0,0,0,0,0,0,0],"split_type":[0,0,0,0,0,0,0,0,0,0,0,0,0,0,0,0,0,0,0,0,0,0,0,0,0,0,0,0,0,0,0,0,0,0,0,0,0,0,0,0,0,0,0,0,0,0,0,0,0,0,0,0,0,0,0,0,0,0,0,0,0,0,0,0,0,0,0,0,0,0,0,0,0,0,0,0,0,0,0,0,0,0,0,0,0,0,0,0,0,0,0,0,0,0,0,0,0,0,0],"sum_hessian":[7.919818E2,3.823623E2,4.0961948E2,2.4017723E2,1.4218507E2,1.4631487E2,2.6330463E2,1.7697533E2,6.320191E1,1.13200226E2,2.8984846E1,7.335669E1,7.2958176E1,1.0797389E2,1.5533073E2,1.24922E0,1.757261E2,2.0237078E1,4.296483E1,7.247321E1,4.072701E1,2.6735962E1,2.2488847E0,5.7415924E0,6.76151E1,6.0463802E1,1.2494375E1,7.240013E0,1.0073388E2,1.4948161E0,1.538359E2,1.7447734E2,1.2487688E0,4.7474666E0,1.5489611E1,4.1215958E1,1.748872E0,5.4729347E1,1.774387E1,2.1487062E1,1.9239948E1,1.4994056E0,2.5236557E1,2.4967625E0,3.2448301E0,8.23766E0,5.9377434E1,3.2974445E1,2.7489359E1,8.247386E0,4.2469897E0,2.2487855E0,4.9912276E0,8.737102E0,9.199678E1,3.3870438E1,1.1996548E2,1.714809E2,2.9964464E0,2.248233E0,2.4992337E0,5.247055E0,1.0242556E1,4.7466965E0,3.646926E1,1.2495061E0,5.347984E1,5.4978776E0,1.2245993E1,8.243478E0,1.3243584E1,1.0745531E1,8.494418E0,2.3987263E1,1.2492944E0,1.4976447E0,1.7471855E0,4.743762E0,3.4938984E0,1.8215273E1,4.116216E1,2.4996552E0,3.0474789E1,2.2741343E1,4.748015E0,1.2490076E0,6.998378E0,2.9973187E0,1.2496713E0,3.741401E0,1.2498267E0,5.2401137E0,3.4969883E0,8.8754776E1,3.2420044E0,2.493487E0,3.137695E1,1.18720985E2,1.2444905E0],"tree_param":{"num_deleted":"0","num_feature":"129","num_nodes":"99","size_leaf_vector":"1"}},{"base_weights":[1.1739627E-2,-1.0560188E0,9.213314E-1,-1.4161602E0,-3.5385564E-1,-2.419435E-1,1.2868252E0,-1.6198761E0,-9.299507E-1,-1.2026421E0,-1.7221445E-2,-6.8211967E-1,4.1706115E-1,9.3221474E-1,1.6109892E0,-1.6401967E0,1.4044091E-3,-1.8940811E-1,-1.3142785E0,-1.3294213E0,1.3901577E-2,-1.7986219E-1,9.05057E-1,-9.997878E-1,-3.0162755E-1,-3.2644188E-1,7.717361E-1,7.260563E-1,1.6224507E0,1.157426E0,1.7000973E0,1.1851713E-3,-1.655723E0,4.6084052E-1,-8.138288E-1,5.5107072E-2,-1.4226289E0,-1.4495199E0,1.0920304E-2,5.948578E-1,-4.5389333E-1,-6.086227E-2,1.240752E0,2.6567234E-2,-1.1317085E0,-7.0380664E-1,1.4070074E-1,7.9993284E-1,-7.318502E-1,1.1223556E0,8.076575E-2,1.0373874E0,3.9944708E-1,5.0126057E-2,4.8558954E-3,1.308099E0,-1.5836226E-2,4.7481588E-1,1.7326685E0,-5.025906E-2,-1.5615077E-2,-3.9457746E-2,2.652885E-2,1.6041124E-2,-4.1194487E-2,-2.2197094E-2,2.0960808E-2,1.1381754E-2,-4.547705E-2,-4.6941068E-2,-1.251575E-2,2.440446E-2,-2.9088965E-2,1.1332952E-2,-2.0031296E-2,3.146191E-2,-2.4297735E-2,3.7453577E-3,4.6183243E-2,1.9893372E-2,-3.681209E-2,2.0349147E-2,-2.6092378E-2,-2.7993595E-2,1.7455833E-2,-7.1468083E-3,3.9344065E-2,-3.6792014E-2,1.0284951E-2,-9.0182675E-3,4.2247273E-2,2.5482034E-2,-2.6529301E-2,1.1254074E-2,3.8718037E-2,1.8806348E-2,-9.248128E-3,4.238416E-2,1.5382462E-3,-2.260486E-2,3.2577664E-2,1.6865883E-2,5.2378073E-2],"categories":[],"categories_nodes":[],"categories_segments":[],"categories_sizes":[],"default_left":[0,0,0,0,0,0,0,0,0,0,1,0,0,0,0,0,0,0,0,1,0,0,0,0,0,1,0,0,0,1,0,0,0,1,0,0,0,1,0,0,1,0,0,0,0,0,0,0,0,0,0,0,0,0,0,0,0,0,0,0,0,0,0,0,0,0,0,0,0,0,0,0,0,0,0,0,0,0,0,0,0,0,0,0,0,0,0,0,0,0,0,0,0,0,0,0,0,0,0,0,0,0,0],"id":3,"left_children":[1,3,5,7,9,11,13,15,17,19,21,23,25,27,29,31,-1,33,35,37,-1,39,41,43,45,47,49,51,53,55,57,-1,59,61,63,65,67,69,-1,71,73,75,77,-1,79,81,83,85,87,89,91,93,95,-1,-1,97,-1,99,101,-1,-1,-1,-1,-1,-1,-1,-1,-1,-1,-1,-1,-1,-1,-1,-1,-1,-1,-1,-1,-1,-1,-1,-1,-1,-1,-1,-1,-1,-1,-1,-1,-1,-1,-1,-1,-1,-1,-1,-1,-1,-1,-1,-1],"loss_changes":[7.69104E2,9.161713E1,1.821182E2,2.2309723E1,3.564724E1,3.0183882E1,3.591931E1,5.7700806E0,2.0626087E1,8.1004715E0,1.3722187E1,7.213707E0,1.1300311E1,2.1282425E1,4.8503113E0,4.3974E0,0E0,1.1024363E1,7.2177963E0,7.2772636E0,0E0,1.676103E1,4.5233393E0,9.322731E0,5.3865557E0,7.0853424E0,6.8534927E0,1.21282425E1,2.239441E0,8.519947E0,4.719116E0,0E0,2.7866516E0,1.130641E1,1.10987425E1,2.8147168E0,8.076004E0,3.0559464E0,0E0,7.8790803E0,1.0556891E1,4.5820794E0,3.2162714E0,0E0,6.240185E0,4.19861E0,7.643275E0,2.5667877E0,6.2609878E0,8.127031E0,8.707663E0,1.00008545E1,1.01442375E1,0E0,0E0,3.6899605E0,0E0,4.5512896E0,1.1131897E0,0E0,0E0,0E0,0E0,0E0,0E0,0E0,0E0,0E0,0E0,0E0,0E0,0E0,0E0,0E0,0E0,0E0,0E0,0E0,0E0,0E0,0E0,0E0,0E0,0E0,0E0,0E0,0E0,0E0,0E0,0E0,0E0,0E0,0E0,0E0,0E0,0E0,0E0,0E0,0E0,0E0,0E0,0E0,0E0],"parents":[2147483647,0,0,1,1,2,2,3,3,4,4,5,5,6,6,7,7,8,8,9,9,10,10,11,11,12,12,13,13,14,14,15,15,17,17,18,18,19,19,21,21,22,22,23,23,24,24,25,25,26,26,27,27,28,28,29,29,30,30,32,32,33,33,34,34,35,35,36,36,37,37,39,39,40,40,41,41,42,42,44,44,45,45,46,46,47,47,48,48,49,49,50,50,51,51,52,52,55,55,57,57,58,58],"right_children":[2,4,6,8,10,12,14,16,18,20,22,24,26,28,30,32,-1,34,36,38,-1,40,42,44,46,48,50,52,54,56,58,-1,60,62,64,66,68,70,-1,72,74,76,78,-1,80,82,84,86,88,90,92,94,96,-1,-1,98,-1,100,102,-1,-1,-1,-1,-1,-1,-1,-1,-1,-1,-1,-1,-1,-1,-1,-1,-1,-1,-1,-1,-1,-1,-1,-1,-1,-1,-1,-1,-1,-1,-1,-1,-1,-1,-1,-1,-1,-1,-1,-1,-1,-1,-1,-1],"split_conditions":[-1.5268727E-3,1.5847338E-5,4.5739198E-1,-9.22744E-3,-1.5305329E-2,1.0303312E-2,1.9729765E-2,9.9684227E-1,4.2904556E-1,2.570686E1,4.580096E-2,2.4E1,3.5513145E-1,1.9106323E-2,5.600968E-3,7.590119E1,1.4044091E-3,-1.2929774E-2,-1.1202594E1,2.5357902E-1,1.3901577E-2,-9.0616964E-2,2.9815313E1,1.4E1,5.05855E-2,8.732628E-1,-2.3608336E-2,1.7E1,1.02E2,2.5357902E-1,9.33396E0,1.1851713E-3,2.3263176E1,8.665876E-2,-1.0948279E0,1.3627872E1,1.0243705E-1,-1.2366571E-2,1.0920304E-2,1.3578844E2,9.431388E1,1.7138156E-1,9.7092265E-1,2.6567234E-2,8.075532E1,2.4572416E-1,1.7229713E1,4.4335687E-1,1.1718661E2,3.5E-1,-1.1049148E-2,2.3930464E-3,2.2991235E0,5.0126057E-2,4.8558954E-3,4.4733434E0,-1.5836226E-2,7.23072E1,5.934613E-1,-5.025906E-2,-1.5615077E-2,-3.9457746E-2,2.652885E-2,1.6041124E-2,-4.1194487E-2,-2.2197094E-2,2.0960808E-2,1.1381754E-2,-4.547705E-2,-4.6941068E-2,-1.251575E-2,2.440446E-2,-2.9088965E-2,1.1332952E-2,-2.0031296E-2,3.146191E-2,-2.4297735E-2,3.7453577E-3,4.6183243E-2,1.9893372E-2,-3.681209E-2,2.0349147E-2,-2.6092378E-2,-2.7993595E-2,1.7455833E-2,-7.1468083E-3,3.9344065E-2,-3.6792014E-2,1.0284951E-2,-9.0182675E-3,4.2247273E-2,2.5482034E-2,-2.6529301E-2,1.1254074E-2,3.8718037E-2,1.8806348E-2,-9.248128E-3,4.238416E-2,1.5382462E-3,-2.260486E-2,3.2577664E-2,1.6865883E-2,5.2378073E-2],"split_indices":[18,15,28,18,18,18,15,62,107,49,25,108,28,18,18,3,0,25,68,89,0,47,67,83,120,60,115,83,108,89,48,0,49,119,54,48,110,115,0,0,69,120,93,0,5,77,50,57,8,56,20,18,51,0,0,77,0,44,28,0,0,0,0,0,0,0,0,0,0,0,0,0,0,0,0,0,0,0,0,0,0,0,0,0,0,0,0,0,0,0,0,0,0,0,0,0,0,0,0,0,0,0,0],"split_type":[0,0,0,0,0,0,0,0,0,0,0,0,0,0,0,0,0,0,0,0,0,0,0,0,0,0,0,0,0,0,0,0,0,0,0,0,0,0,0,0,0,0,0,0,0,0,0,0,0,0,0,0,0,0,0,0,0,0,0,0,0,0,0,0,0,0,0,0,0,0,0,0,0,0,0,0,0,0,0,0,0,0,0,0,0,0,0,0,0,0,0,0,0,0,0,0,0,0,0,0,0,0,0],"sum_hessian":[7.898895E2,3.632794E2,4.2661014E2,2.3944867E2,1.2383072E2,1.02073586E2,3.2453656E2,1.671029E2,7.234576E1,3.4434734E1,8.939598E1,6.1176334E1,4.089725E1,1.568407E2,1.6769585E2,1.6510582E2,1.9970927E0,2.5227991E1,4.7117764E1,3.2187424E1,2.2473128E0,7.6678894E1,1.2717088E1,3.2453606E1,2.8722729E1,1.323416E1,2.7663092E1,1.2234948E2,3.4491226E1,2.983312E1,1.3786272E2,1.4980279E0,1.6360779E2,1.2486736E1,1.2741254E1,3.4907959E0,4.362697E1,3.0190348E1,1.9970751E0,1.972973E1,5.694916E1,3.4909694E0,9.226119E0,1.7487127E0,3.0704891E1,1.4734504E1,1.3988225E1,3.2450511E0,9.989109E0,1.7936995E1,9.726097E0,6.1525646E1,6.0823833E1,3.324519E1,1.2460357E0,2.7590252E1,2.242868E0,3.9732351E0,1.338895E2,1.603662E2,3.2415867E0,1.9984789E0,1.0488257E1,3.7482255E0,8.993029E0,1.4947293E0,1.9960666E0,1.996044E0,4.1630924E1,2.6696026E1,3.4943209E0,1.7731884E1,1.9978467E0,1.1490208E1,4.5458954E1,1.2456778E0,2.2452917E0,2.2474816E0,6.978637E0,1.2487187E0,2.9456173E1,1.2484524E0,1.3486051E1,3.7486224E0,1.0239602E1,1.2475156E0,1.9975356E0,6.744315E0,3.2447937E0,2.9922032E0,1.4944792E1,5.4807835E0,4.2453136E0,1.7704107E1,4.3821537E1,4.6117733E1,1.4706099E1,2.5353907E1,2.2363467E0,1.2426105E0,2.7306247E0,1.9867742E0,1.3190271E2],"tree_param":{"num_deleted":"0","num_feature":"129","num_nodes":"103","size_leaf_vector":"1"}},{"base_weights":[-2.0252181E-2,-1.2396275E0,8.871622E-1,-1.6432096E0,-7.687973E-1,1.554365E-1,1.3816469E0,-1.7353711E0,-1.3981136E0,-5.993799E-1,-1.3647323E0,5.740944E-1,-6.051551E-1,1.09368E0,1.6294082E0,-1.7489733E0,-6.0167913E-3,7.076633E-3,-1.440699E0,-3.0660716E-1,-1.0289911E0,1.9521662E-3,-1.4553763E0,1.0673351E0,2.965888E-1,-1.6243593E-1,-8.8877386E-1,1.6092942E0,8.9114255E-1,1.1561348E0,1.6967454E0,-1.7631063E0,-2.0017892E-2,2.92482E-3,-1.4867356E0,-6.113252E-1,4.4040436E-1,4.3254235E-1,-1.122806E0,3.01396E-4,-1.5273612E0,-1.6091518E-2,1.149075E0,-9.821048E-2,6.4690286E-1,5.4902625E-1,-5.191903E-1,-3.8147563E-1,-1.4293228E0,3.7357656E-3,1.6602056E0,1.0159906E0,1.7184776E-1,-3.550346E-1,1.4256926E0,5.1117517E-2,1.633211E-2,-5.3113826E-2,-1.7200556E-2,-1.4184971E-2,-4.6328764E-2,2.5390888E-2,-2.1629747E-2,-7.1707657E-3,2.798307E-2,3.34948E-2,-1.0699637E-2,-3.7473183E-2,-5.2642655E-3,-4.810228E-2,-5.1405234E-3,3.728161E-2,1.4098673E-3,1.1393709E-2,-1.9107565E-2,-2.10816E-2,2.370192E-2,3.6247637E-2,-1.6502036E-2,-2.6872523E-2,1.5997075E-2,1.1172774E-2,-3.7263416E-2,-4.7917515E-2,-4.7445694E-5,5.1275615E-2,2.0127952E-2,3.9769437E-2,1.962619E-2,-2.101828E-2,1.6340308E-2,-3.4781355E-2,1.3063931E-2,4.702966E-2,1.6958048E-3],"categories":[],"categories_nodes":[],"categories_segments":[],"categories_sizes":[],"default_left":[0,0,0,0,0,0,0,0,0,1,0,0,1,0,0,0,0,0,0,0,0,0,0,0,0,0,0,0,0,0,0,0,0,0,0,0,1,0,0,0,0,0,0,1,0,1,0,0,0,0,0,0,0,0,0,0,0,0,0,0,0,0,0,0,0,0,0,0,0,0,0,0,0,0,0,0,0,0,0,0,0,0,0,0,0,0,0,0,0,0,0,0,0,0,0],"id":4,"left_children":[1,3,5,7,9,11,13,15,17,19,21,23,25,27,29,31,-1,-1,33,35,37,-1,39,41,43,45,47,49,51,53,55,57,-1,-1,59,61,63,65,67,-1,69,-1,71,73,75,77,79,81,83,-1,85,87,89,91,93,-1,-1,-1,-1,-1,-1,-1,-1,-1,-1,-1,-1,-1,-1,-1,-1,-1,-1,-1,-1,-1,-1,-1,-1,-1,-1,-1,-1,-1,-1,-1,-1,-1,-1,-1,-1,-1,-1,-1,-1],"loss_changes":[8.7648254E2,6.2956482E1,1.6411896E2,1.6645508E0,1.5120445E1,5.90271E1,1.7545715E1,2.3103027E0,4.141533E0,1.5369606E1,4.522194E0,1.6022404E1,8.1315E0,1.1967041E1,2.6138306E0,7.531128E-1,0E0,0E0,3.9254532E0,1.7475088E1,7.357319E0,0E0,3.408699E0,6.1998825E0,1.0820194E1,7.127952E0,1.0409788E1,2.4352112E0,8.3005295E0,9.069269E0,9.347534E-2,6.970215E-2,0E0,0E0,2.2983627E0,9.259634E0,7.7435637E0,2.419546E0,5.4487495E0,0E0,2.8878403E0,0E0,4.157154E0,9.881344E0,8.542898E0,7.5405703E0,7.797367E0,1.4719381E1,4.5473595E0,0E0,4.8671722E-1,8.119003E0,5.313326E0,3.0372462E0,3.4176025E0,0E0,0E0,0E0,0E0,0E0,0E0,0E0,0E0,0E0,0E0,0E0,0E0,0E0,0E0,0E0,0E0,0E0,0E0,0E0,0E0,0E0,0E0,0E0,0E0,0E0,0E0,0E0,0E0,0E0,0E0,0E0,0E0,0E0,0E0,0E0,0E0,0E0,0E0,0E0,0E0],"parents":[2147483647,0,0,1,1,2,2,3,3,4,4,5,5,6,6,7,7,8,8,9,9,10,10,11,11,12,12,13,13,14,14,15,15,18,18,19,19,20,20,22,22,23,23,24,24,25,25,26,26,27,27,28,28,29,29,30,30,31,31,34,34,35,35,36,36,37,37,38,38,40,40,42,42,43,43,44,44,45,45,46,46,47,47,48,48,50,50,51,51,52,52,53,53,54,54],"right_children":[2,4,6,8,10,12,14,16,18,20,22,24,26,28,30,32,-1,-1,34,36,38,-1,40,42,44,46,48,50,52,54,56,58,-1,-1,60,62,64,66,68,-1,70,-1,72,74,76,78,80,82,84,-1,86,88,90,92,94,-1,-1,-1,-1,-1,-1,-1,-1,-1,-1,-1,-1,-1,-1,-1,-1,-1,-1,-1,-1,-1,-1,-1,-1,-1,-1,-1,-1,-1,-1,-1,-1,-1,-1,-1,-1,-1,-1,-1,-1],"split_conditions":[4.3775715E1,2.6337872E1,6.3626904E1,2.0501974E1,6.6884444E-3,6.909169E1,7.731161E1,4.292175E-3,7.8788605E1,4.1E1,-3.466774E0,-8.694394E-1,-1.9615914E0,5.653797E-2,5.6E1,-4.233432E-2,-6.0167913E-3,7.076633E-3,5.0116785E-2,3.8434597E1,-1.4001966E8,1.9521662E-3,4.670237E-2,-1.5593197E-2,5.271579E1,7.9799736E-1,7.7623795E1,-1.3301679E1,-1.5221062E-1,1.6551334E1,2.286856E1,1.496314E2,-2.0017892E-2,2.92482E-3,1.4139646E1,-1.1602847E1,-1.8278362E-2,1.5179317E0,3.498918E-2,3.01396E-4,-6.487612E-3,-1.6091518E-2,3.8500395E0,8.2720745E-1,5.7387237E-2,9.9038947E-1,1.2206748E0,6E-1,8.708352E1,3.7357656E-3,1.23249306E2,1.5144284E0,1.4938984E1,1.3960305E1,1.2953018E2,5.1117517E-2,1.633211E-2,-5.3113826E-2,-1.7200556E-2,-1.4184971E-2,-4.6328764E-2,2.5390888E-2,-2.1629747E-2,-7.1707657E-3,2.798307E-2,3.34948E-2,-1.0699637E-2,-3.7473183E-2,-5.2642655E-3,-4.810228E-2,-5.1405234E-3,3.728161E-2,1.4098673E-3,1.1393709E-2,-1.9107565E-2,-2.10816E-2,2.370192E-2,3.6247637E-2,-1.6502036E-2,-2.6872523E-2,1.5997075E-2,1.1172774E-2,-3.7263416E-2,-4.7917515E-2,-4.7445694E-5,5.1275615E-2,2.0127952E-2,3.9769437E-2,1.962619E-2,-2.101828E-2,1.6340308E-2,-3.4781355E-2,1.3063931E-2,4.702966E-2,1.6958048E-3],"split_indices":[40,40,40,40,20,42,40,18,69,43,51,54,51,54,43,111,0,0,79,40,61,0,118,18,40,54,42,68,112,49,50,0,0,0,44,68,25,77,122,0,18,0,78,51,120,86,53,34,42,0,9,51,49,50,69,0,0,0,0,0,0,0,0,0,0,0,0,0,0,0,0,0,0,0,0,0,0,0,0,0,0,0,0,0,0,0,0,0,0,0,0,0,0,0,0],"split_type":[0,0,0,0,0,0,0,0,0,0,0,0,0,0,0,0,0,0,0,0,0,0,0,0,0,0,0,0,0,0,0,0,0,0,0,0,0,0,0,0,0,0,0,0,0,0,0,0,0,0,0,0,0,0,0,0,0,0,0,0,0,0,0,0,0,0,0,0,0,0,0,0,0,0,0,0,0,0,0,0,0,0,0,0,0,0,0,0,0,0,0,0,0,0,0],"sum_hessian":[7.901429E2,3.3696555E2,4.5317737E2,1.8009946E2,1.5686609E2,1.8327945E2,2.6989792E2,1.2646534E2,5.363412E1,1.2370421E2,3.3161877E1,1.1836961E2,6.4909836E1,1.2732526E2,1.4257266E2,1.2521608E2,1.2492541E0,1.2470129E0,5.2387108E1,7.458766E1,4.9116543E1,1.9938169E0,3.1168058E1,4.159397E1,7.677564E1,2.5959957E1,3.894988E1,3.395019E1,9.337507E1,2.0021612E1,1.2255104E2,1.2297936E2,2.2367163E0,1.4898509E0,5.089726E1,5.3106358E1,2.1481304E1,2.7448099E0,4.6371735E1,1.499646E0,2.9668413E1,1.7474406E0,3.984653E1,3.643431E1,4.0341335E1,8.489905E0,1.7470053E1,2.097285E1,1.797703E1,1.2397705E0,3.271042E1,7.921349E1,1.4161578E1,2.982772E0,1.703884E1,1.2131733E2,1.2337128E0,1.2173875E2,1.2406166E0,3.229111E0,4.7668148E1,3.24578E0,4.9860577E1,9.242212E0,1.2239092E1,1.2482787E0,1.4965311E0,4.0635555E1,5.736178E0,2.7920143E1,1.7482704E0,3.6608257E1,3.2382727E0,1.9461205E1,1.6973104E1,3.4939766E0,3.684736E1,5.2447968E0,3.2451081E0,1.297606E1,4.493993E0,1.1482065E1,9.490786E0,1.5978902E1,1.9981279E0,3.047386E1,2.2365606E0,4.1246075E1,3.7967415E1,3.9766517E0,1.0184926E1,1.247144E0,1.7356281E0,1.5306776E1,1.732064E0],"tree_param":{"num_deleted":"0","num_feature":"129","num_nodes":"95","size_leaf_vector":"1"}},{"base_weights":[-4.619391E-3,-1.127036E0,9.5656186E-1,-1.6090924E0,-6.77065E-1,2.9948747E-1,1.3998549E0,-1.4693021E-4,-1.6228603E0,-1.2461824E0,-5.068353E-1,7.9303455E-1,-1.2040203E-1,1.0672982E0,1.6052312E0,-1.6330514E0,-3.2696803E-3,2.1476941E-2,-1.3214955E0,-1.6523243E-1,-8.4653515E-1,-7.891608E-1,8.649551E-1,-3.4418947E-1,3.871765E-1,1.5163474E0,9.124482E-1,-2.850799E-3,1.6223062E0,-1.6429101E0,-1.2487889E-2,-1.4528291E0,-3.7737677E-1,-8.847109E-4,-1.0561359E0,-9.1135687E-1,2.9935654E-2,-3.877626E-2,5.3899223E-3,1.2961688E0,4.9181637E-1,-7.809141E-1,8.680117E-2,7.04921E-1,-3.283147E-1,4.9884338E-2,2.6507676E-1,-3.9245766E-1,9.935875E-1,4.171954E-3,1.6334518E0,-4.95747E-2,-1.6449789E-2,-4.7139637E-2,-1.9791003E-2,2.8500514E-2,-3.203809E-2,-6.6477936E-3,2.6215298E-2,9.038394E-3,-4.0966686E-2,3.324261E-2,-2.8874181E-2,4.2065214E-2,-1.893557E-3,-2.2241661E-2,2.0509003E-2,-2.7179044E-2,6.3918405E-3,1.3282557E-2,-3.1293493E-2,4.1886117E-2,8.648036E-4,2.1754883E-2,-3.559608E-2,3.2671526E-2,-2.304023E-2,-3.1626884E-2,1.0266259E-2,2.0923754E-2,3.86123E-2,4.9356643E-2,1.1348229E-2],"categories":[],"categories_nodes":[],"categories_segments":[],"categories_sizes":[],"default_left":[0,0,0,0,0,0,0,0,0,0,0,0,0,0,0,0,0,0,0,0,0,0,0,0,1,1,0,0,0,1,0,1,0,0,0,0,0,0,0,0,0,0,1,1,1,0,0,0,1,0,0,0,0,0,0,0,0,0,0,0,0,0,0,0,0,0,0,0,0,0,0,0,0,0,0,0,0,0,0,0,0,0,0],"id":5,"left_children":[1,3,5,7,9,11,13,-1,15,17,19,21,23,25,27,29,-1,-1,31,33,35,37,39,41,43,45,47,-1,49,51,-1,53,55,57,59,61,-1,-1,-1,63,65,67,69,71,73,-1,75,77,79,-1,81,-1,-1,-1,-1,-1,-1,-1,-1,-1,-1,-1,-1,-1,-1,-1,-1,-1,-1,-1,-1,-1,-1,-1,-1,-1,-1,-1,-1,-1,-1,-1,-1],"loss_changes":[8.549892E2,7.821045E1,1.2393182E2,3.8743286E0,1.7854439E1,3.6001022E1,1.5679718E1,0E0,2.5107422E0,7.3368073E0,1.7099941E1,9.760502E0,1.0865643E1,5.5844955E0,4.667145E0,1.3918457E0,0E0,0E0,4.659569E0,1.1026888E1,9.7861595E0,2.1788585E0,1.1717342E1,1.2509869E1,6.911073E0,3.9914055E0,8.545273E0,0E0,2.3179626E0,8.902893E-1,0E0,2.395584E0,6.954389E0,1.2663009E1,5.337864E0,8.524464E0,0E0,0E0,0E0,5.1329765E0,1.0625409E1,4.286604E0,1.4204689E1,9.617344E0,9.646355E0,0E0,4.006273E0,2.9015007E0,5.4293137E0,0E0,1.6337891E0,0E0,0E0,0E0,0E0,0E0,0E0,0E0,0E0,0E0,0E0,0E0,0E0,0E0,0E0,0E0,0E0,0E0,0E0,0E0,0E0,0E0,0E0,0E0,0E0,0E0,0E0,0E0,0E0,0E0,0E0,0E0,0E0],"parents":[2147483647,0,0,1,1,2,2,3,3,4,4,5,5,6,6,8,8,9,9,10,10,11,11,12,12,13,13,14,14,15,15,18,18,19,19,20,20,21,21,22,22,23,23,24,24,25,25,26,26,28,28,29,29,31,31,32,32,33,33,34,34,35,35,39,39,40,40,41,41,42,42,43,43,44,44,46,46,47,47,48,48,50,50],"right_children":[2,4,6,8,10,12,14,-1,16,18,20,22,24,26,28,30,-1,-1,32,34,36,38,40,42,44,46,48,-1,50,52,-1,54,56,58,60,62,-1,-1,-1,64,66,68,70,72,74,-1,76,78,80,-1,82,-1,-1,-1,-1,-1,-1,-1,-1,-1,-1,-1,-1,-1,-1,-1,-1,-1,-1,-1,-1,-1,-1,-1,-1,-1,-1,-1,-1,-1,-1,-1,-1],"split_conditions":[4.701492E1,2.6337872E1,6.604421E1,7.4670044E1,-1.434791E-2,6.1820766E1,7.680566E1,-1.4693021E-4,-2.4202615E-2,9.782146E0,4.1E1,1.714994E-1,6.1367714E1,1E0,8.439166E0,3.6407012E-2,-3.2696803E-3,2.1476941E-2,2.3353449E1,1.1823972E-2,1.1104045E8,7.76645E-2,3.757498E1,5.213732E0,1.0355695E0,5.4333355E6,9.220556E0,-2.850799E-3,-4.451389E-3,8.129737E2,-1.2487889E-2,-5.1273286E-1,5.6030506E1,4.2450356E1,7E0,1.2962577E0,2.9935654E-2,-3.877626E-2,5.3899223E-3,2.7445656E1,-8.545864E-3,3.1E1,1.3090681E2,4.968862E6,7.962249E-2,4.9884338E-2,1.3660051E1,1.9218246E0,2.3663123E-1,4.171954E-3,1.4843479E1,-4.95747E-2,-1.6449789E-2,-4.7139637E-2,-1.9791003E-2,2.8500514E-2,-3.203809E-2,-6.6477936E-3,2.6215298E-2,9.038394E-3,-4.0966686E-2,3.324261E-2,-2.8874181E-2,4.2065214E-2,-1.893557E-3,-2.2241661E-2,2.0509003E-2,-2.7179044E-2,6.3918405E-3,1.3282557E-2,-3.1293493E-2,4.1886117E-2,8.648036E-4,2.1754883E-2,-3.559608E-2,3.2671526E-2,-2.304023E-2,-3.1626884E-2,1.0266259E-2,2.0923754E-2,3.86123E-2,4.9356643E-2,1.1348229E-2],"split_indices":[40,40,40,7,18,44,40,0,111,48,43,99,40,33,48,76,0,0,49,21,66,62,44,92,93,59,50,0,18,67,0,53,63,40,84,100,0,0,0,48,18,84,96,58,119,0,50,100,99,0,62,0,0,0,0,0,0,0,0,0,0,0,0,0,0,0,0,0,0,0,0,0,0,0,0,0,0,0,0,0,0,0,0],"split_type":[0,0,0,0,0,0,0,0,0,0,0,0,0,0,0,0,0,0,0,0,0,0,0,0,0,0,0,0,0,0,0,0,0,0,0,0,0,0,0,0,0,0,0,0,0,0,0,0,0,0,0,0,0,0,0,0,0,0,0,0,0,0,0,0,0,0,0,0,0,0,0,0,0,0,0,0,0,0,0,0,0,0,0],"sum_hessian":[7.905044E2,3.6458673E2,4.2591763E2,1.747742E2,1.8981255E2,1.7225981E2,2.5365782E2,1.4987669E0,1.7327542E2,4.2247787E1,1.4756476E2,7.877607E1,9.348374E1,9.9209335E1,1.5444847E2,1.7203856E2,1.2368668E0,1.2472948E0,4.1000492E1,7.431742E1,7.3247345E1,2.9915557E0,7.578451E1,6.510247E1,2.8381273E1,2.3184443E1,7.6024895E1,1.4902532E0,1.5295822E2,1.7030849E2,1.7300756E0,3.552052E1,5.4799733E0,6.3588116E1,1.0729303E1,7.1249146E1,1.9981995E0,1.748788E0,1.2427678E0,3.400886E1,4.177565E1,3.193286E1,3.316961E1,1.966359E1,8.717685E0,2.046059E1,2.723853E0,4.2258964E0,7.1798996E1,1.2413242E0,1.517169E2,1.6832558E2,1.9829104E0,3.004994E1,5.470578E0,1.7467153E0,3.733258E0,5.137262E1,1.2215494E1,1.9966002E0,8.732703E0,1.2484498E0,7.0000694E1,3.1519255E1,2.4896057E0,5.2376103E0,3.653804E1,2.844294E1,3.4899206E0,2.5686052E1,7.4835577E0,9.195948E0,1.0467642E1,3.9832435E0,4.7344413E0,1.4851464E0,1.2387068E0,1.9944031E0,2.2314935E0,3.7419434E1,3.4379566E1,1.4999962E2,1.7172811E0],"tree_param":{"num_deleted":"0","num_feature":"129","num_nodes":"83","size_leaf_vector":"1"}},{"base_weights":[-1.4250075E-3,-1.1315216E0,8.636376E-1,-1.5603243E0,-6.664855E-1,1.7688377E-1,1.3194219E0,7.2413366E-3,-1.5745457E0,-3.8815197E-1,-1.0617251E0,7.1104205E-1,-4.485228E-1,9.9901927E-1,1.55901E0,-1.5933641E0,-2.8376243E-1,-1.3973656E-1,-9.343542E-1,-1.2814744E0,-3.2910132E-1,-3.9727025E-2,7.680335E-1,-1.4886454E-1,-7.913032E-1,1.4070698E0,7.7635044E-1,2.3505543E-3,1.5757313E0,-2.7500703E-3,-1.6036323E0,2.2138312E-2,-3.2765266E-2,-4.3542308E-1,5.322313E-1,-1.6968412E-2,-1.1791637E0,7.426087E-2,-1.3662534E0,3.8097646E-2,-5.967453E-1,9.824129E-1,2.7530688E-1,-5.7346267E-1,2.3873562E-1,-1.0864104E0,2.2371288E-1,1.4707544E0,-9.839567E-3,9.1181123E-1,-4.0621465E-1,1.1534854E0,1.6406113E0,-4.841297E-2,-3.5673345E-3,1.0251869E-2,-1.9782465E-2,2.737712E-2,-1.4587142E-2,3.7146926E-2,-1.6219141E-2,-1.8966228E-3,-4.1432813E-2,3.3902254E-2,-2.4567785E-2,-4.839968E-2,-2.6491787E-2,4.6849603E-4,-3.964073E-2,-1.9831583E-2,3.2988947E-2,2.2694893E-2,-1.3286604E-2,4.995132E-3,-2.9626762E-2,-3.6764376E-2,1.2160962E-2,1.5019457E-2,-3.6997616E-2,-3.9678175E-2,2.6570069E-2,4.5381002E-2,3.179711E-3,-2.1830283E-2,2.9111655E-2,8.846563E-3,-3.9231364E-2,-1.6007682E-2,3.8785733E-2,1.5695838E-2,4.9622376E-2],"categories":[],"categories_nodes":[],"categories_segments":[],"categories_sizes":[],"default_left":[0,0,0,0,0,0,0,0,0,0,1,0,0,0,0,0,0,0,0,0,0,0,1,0,0,1,0,0,0,0,1,0,0,0,1,0,0,0,0,0,0,0,0,0,0,1,0,1,0,0,0,0,0,0,0,0,0,0,0,0,0,0,0,0,0,0,0,0,0,0,0,0,0,0,0,0,0,0,0,0,0,0,0,0,0,0,0,0,0,0,0],"id":6,"left_children":[1,3,5,7,9,11,13,-1,15,17,19,21,23,25,27,29,31,33,35,37,39,-1,41,43,45,47,49,-1,51,-1,53,-1,-1,55,57,59,61,63,65,-1,67,69,71,73,75,77,79,81,-1,83,85,87,89,-1,-1,-1,-1,-1,-1,-1,-1,-1,-1,-1,-1,-1,-1,-1,-1,-1,-1,-1,-1,-1,-1,-1,-1,-1,-1,-1,-1,-1,-1,-1,-1,-1,-1,-1,-1,-1,-1],"loss_changes":[7.668477E2,6.6780334E1,1.3884042E2,4.894867E0,1.7728897E1,5.9916187E1,1.8931732E1,0E0,3.7976074E0,1.3212661E1,1.0455948E1,1.2222694E1,8.386524E0,9.536385E0,3.6133118E0,2.508606E0,3.8873742E0,1.3896248E1,6.8449535E0,6.0357437E0,8.005746E0,0E0,9.72295E0,7.60977E0,1.1741272E1,4.9096756E0,1.2851185E1,0E0,2.1947937E0,0E0,2.3807373E0,0E0,0E0,8.6345415E0,8.758404E0,5.5686464E0,5.346573E0,4.6854057E0,4.3824844E0,0E0,6.7598004E0,1.3351906E1,1.0727637E1,6.8943834E0,6.4606338E0,7.5880814E0,1.0870829E1,2.062584E0,0E0,7.4491158E0,5.8838882E0,6.15403E0,1.045166E0,0E0,0E0,0E0,0E0,0E0,0E0,0E0,0E0,0E0,0E0,0E0,0E0,0E0,0E0,0E0,0E0,0E0,0E0,0E0,0E0,0E0,0E0,0E0,0E0,0E0,0E0,0E0,0E0,0E0,0E0,0E0,0E0,0E0,0E0,0E0,0E0,0E0,0E0],"parents":[2147483647,0,0,1,1,2,2,3,3,4,4,5,5,6,6,8,8,9,9,10,10,11,11,12,12,13,13,14,14,15,15,16,16,17,17,18,18,19,19,20,20,22,22,23,23,24,24,25,25,26,26,28,28,30,30,33,33,34,34,35,35,36,36,37,37,38,38,40,40,41,41,42,42,43,43,44,44,45,45,46,46,47,47,49,49,50,50,51,51,52,52],"right_children":[2,4,6,8,10,12,14,-1,16,18,20,22,24,26,28,30,32,34,36,38,40,-1,42,44,46,48,50,-1,52,-1,54,-1,-1,56,58,60,62,64,66,-1,68,70,72,74,76,78,80,82,-1,84,86,88,90,-1,-1,-1,-1,-1,-1,-1,-1,-1,-1,-1,-1,-1,-1,-1,-1,-1,-1,-1,-1,-1,-1,-1,-1,-1,-1,-1,-1,-1,-1,-1,-1,-1,-1,-1,-1,-1,-1],"split_conditions":[4.4760555E1,2.6337872E1,6.386776E1,7.495194E1,3.867031E1,6.2907032E1,7.680566E1,7.2413366E-3,4.292175E-3,6.03592E-3,5.8015614E0,1.7030014E-1,7.670722E1,5.8369816E1,8.439166E0,1.6035101E-1,5.0195386E-3,3.9142033E1,-2.1121468E-1,-1.379796E8,1.4075579E-1,-3.9727025E-2,2.8698724E-2,5.508163E1,8.708352E1,1.17257965E2,2.7445656E1,2.3505543E-3,7.23072E1,-2.7500703E-3,8.129737E2,2.2138312E-2,-3.2765266E-2,9.051595E-2,5.842099E0,2.0252065E-1,4.8994854E-2,-8.7354876E-2,3.879681E1,3.8097646E-2,-4.305133E0,0E0,-4.8378024E-1,7E0,-9.360857E-3,-6.093125E0,4.8301685E6,2.5846332E-1,-9.839567E-3,-3.9958544E7,2.5731034E0,9.782146E0,-1.3678741E-3,-4.841297E-2,-3.5673345E-3,1.0251869E-2,-1.9782465E-2,2.737712E-2,-1.4587142E-2,3.7146926E-2,-1.6219141E-2,-1.8966228E-3,-4.1432813E-2,3.3902254E-2,-2.4567785E-2,-4.839968E-2,-2.6491787E-2,4.6849603E-4,-3.964073E-2,-1.9831583E-2,3.2988947E-2,2.2694893E-2,-1.3286604E-2,4.995132E-3,-2.9626762E-2,-3.6764376E-2,1.2160962E-2,1.5019457E-2,-3.6997616E-2,-3.9678175E-2,2.6570069E-2,4.5381002E-2,3.179711E-3,-2.1830283E-2,2.9111655E-2,8.846563E-3,-3.9231364E-2,-1.6007682E-2,3.8785733E-2,1.5695838E-2,4.9622376E-2],"split_indices":[40,40,40,7,42,42,40,0,18,20,100,99,42,42,48,89,18,40,47,61,119,0,122,40,42,27,48,0,44,0,67,0,0,119,92,89,119,111,40,0,51,73,54,84,18,51,59,89,0,66,78,48,18,0,0,0,0,0,0,0,0,0,0,0,0,0,0,0,0,0,0,0,0,0,0,0,0,0,0,0,0,0,0,0,0,0,0,0,0,0,0],"split_type":[0,0,0,0,0,0,0,0,0,0,0,0,0,0,0,0,0,0,0,0,0,0,0,0,0,0,0,0,0,0,0,0,0,0,0,0,0,0,0,0,0,0,0,0,0,0,0,0,0,0,0,0,0,0,0,0,0,0,0,0,0,0,0,0,0,0,0,0,0,0,0,0,0,0,0,0,0,0,0,0,0,0,0,0,0,0,0,0,0,0,0],"sum_hessian":[7.8241565E2,3.3910684E2,4.4330884E2,1.7520119E2,1.6390564E2,1.7739963E2,2.659092E2,1.2470026E0,1.739542E2,9.733968E1,6.6565956E1,9.560591E1,8.179371E1,1.1597925E2,1.4992996E2,1.7122348E2,2.7306986E0,6.777234E1,2.956735E1,5.063032E1,1.5935638E1,1.9985372E0,9.3607376E1,4.4407234E1,3.7386475E1,3.9067394E1,7.691185E1,1.7377656E0,1.481922E2,1.2302455E0,1.6999324E2,1.2447286E0,1.4859699E0,4.7307568E1,2.0464766E1,6.453429E0,2.311392E1,2.9870622E0,4.7643257E1,1.7479286E0,1.418771E1,6.45351E1,2.9072271E1,2.0963339E1,2.3443895E1,2.8910622E1,8.475853E0,3.7831146E1,1.2362483E0,6.9212616E1,7.6992326E0,2.2238771E1,1.2595342E2,1.6875455E2,1.2386868E0,1.0466824E1,3.6840744E1,1.4976055E1,5.4887114E0,1.4980888E0,4.9553404E0,3.742808E0,1.9371113E1,1.2473655E0,1.7396966E0,2.9976587E1,1.7666672E1,8.219744E0,5.9679666E0,3.9875882E0,6.0547516E1,1.7376614E1,1.1695658E1,7.736517E0,1.3226823E1,1.7460908E0,2.1697803E1,2.2443788E0,2.6666245E1,2.2415657E0,6.2342877E0,3.6597923E1,1.2332245E0,1.9935582E0,6.721906E1,4.709511E0,2.9897215E0,1.4811566E0,2.0757614E1,1.9745474E0,1.23978874E2],"tree_param":{"num_deleted":"0","num_feature":"129","num_nodes":"91","size_leaf_vector":"1"}},{"base_weights":[5.3774742E-3,-9.136068E-1,8.3882076E-1,-1.4311676E0,-5.078456E-1,7.1048597E-3,1.2302264E0,-1.5857711E0,-1.1412542E0,-1.2545234E0,-1.4446573E-1,-5.318562E-1,4.9596885E-1,8.957073E-1,1.4675972E0,-1.6021069E0,-3.8325803E-3,1.8747954E-2,-1.2041234E0,-1.3341067E0,3.8497725E-1,-3.2668188E-1,4.9111506E-1,-7.677443E-1,3.834387E-1,-3.8798034E-1,7.272502E-1,9.9024475E-1,-4.5532945E-1,1.2423596E0,1.6231307E0,-4.7962478E-1,-1.6275452E0,-7.012001E-1,-1.418276E0,-1.3831432E0,2.0068992E-2,3.78644E-2,-1.959184E-2,-8.445663E-1,-1.2983947E-1,7.432481E-1,-4.0805736E-1,3.9177352E-1,-8.67619E-1,-7.4975866E-1,9.2557186E-1,-1.2431265E0,1.1784437E-1,1.0314606E0,-2.1913941E-1,1.1181798E0,2.5459462E-1,2.367206E-2,-8.936111E-1,1.295661E0,-1.6282836E-1,1.6328864E0,1.4625606E-2,-3.1641193E-2,1.1257467E-2,-4.9363796E-2,-7.7129332E-3,-3.0492624E-2,1.7618934E-2,-4.427592E-2,-2.7164638E-3,-4.3381684E-2,4.297046E-3,-4.1232124E-2,-3.4236824E-3,1.957448E-2,-8.575282E-3,2.7755601E-2,-2.3822583E-2,2.9648218E-2,-3.4702636E-2,-2.1486375E-2,3.366119E-2,7.0971823E-3,-2.9885942E-2,-3.434471E-2,7.1934946E-3,-1.8950243E-2,4.2289563E-2,-6.0364236E-3,-4.464476E-2,3.152215E-2,-2.0572761E-2,-9.061277E-4,3.7222024E-2,-2.0004844E-2,3.3874307E-2,2.6668295E-2,4.3566406E-2,2.698587E-2,-1.46179125E-2,4.212384E-3,-3.4607854E-2,3.9949495E-2,-1.0980007E-2,-2.3653818E-2,1.6111232E-2,1.5675245E-2,4.92654E-2],"categories":[],"categories_nodes":[],"categories_segments":[],"categories_sizes":[],"default_left":[0,0,0,0,0,0,0,0,0,0,0,0,0,0,0,0,0,0,1,0,0,0,0,0,0,0,0,0,0,0,0,0,0,1,0,1,0,0,0,0,0,1,0,0,0,0,0,0,1,0,0,0,0,0,0,0,0,0,0,0,0,0,0,0,0,0,0,0,0,0,0,0,0,0,0,0,0,0,0,0,0,0,0,0,0,0,0,0,0,0,0,0,0,0,0,0,0,0,0,0,0,0,0,0,0],"id":7,"left_children":[1,3,5,7,9,11,13,15,17,19,21,23,25,27,29,31,-1,-1,33,35,37,39,41,43,45,47,49,51,53,55,57,59,61,63,65,67,-1,-1,-1,69,71,73,75,77,79,81,83,85,87,89,91,93,95,-1,97,99,101,103,-1,-1,-1,-1,-1,-1,-1,-1,-1,-1,-1,-1,-1,-1,-1,-1,-1,-1,-1,-1,-1,-1,-1,-1,-1,-1,-1,-1,-1,-1,-1,-1,-1,-1,-1,-1,-1,-1,-1,-1,-1,-1,-1,-1,-1,-1,-1],"loss_changes":[6.009919E2,7.764426E1,1.3394382E2,5.516266E0,5.6997185E1,3.522259E1,2.0902863E1,2.2732239E0,7.460907E0,9.497543E0,1.6707932E1,1.4023897E1,1.4611807E1,1.56117325E1,3.66214E0,2.1545715E0,0E0,0E0,5.3255005E0,7.397316E0,4.433272E0,1.1271689E1,7.611382E0,6.233633E0,9.108672E0,6.716153E0,1.6320824E1,1.0185913E1,5.3125086E0,5.4894257E0,2.3005676E-1,2.2127051E0,2.0345154E0,8.518115E0,2.9384003E0,6.414688E0,0E0,0E0,0E0,1.1672937E1,1.0203838E1,7.8755045E0,9.198239E0,4.626666E0,6.9323883E0,2.2232392E0,8.211862E0,1.1638145E0,8.559627E0,9.4756775E0,9.459104E0,5.9433823E0,8.943346E0,0E0,1.9675326E0,4.5545273E0,1.9401435E0,8.5235596E-2,0E0,0E0,0E0,0E0,0E0,0E0,0E0,0E0,0E0,0E0,0E0,0E0,0E0,0E0,0E0,0E0,0E0,0E0,0E0,0E0,0E0,0E0,0E0,0E0,0E0,0E0,0E0,0E0,0E0,0E0,0E0,0E0,0E0,0E0,0E0,0E0,0E0,0E0,0E0,0E0,0E0,0E0,0E0,0E0,0E0,0E0,0E0],"parents":[2147483647,0,0,1,1,2,2,3,3,4,4,5,5,6,6,7,7,8,8,9,9,10,10,11,11,12,12,13,13,14,14,15,15,18,18,19,19,20,20,21,21,22,22,23,23,24,24,25,25,26,26,27,27,28,28,29,29,30,30,31,31,32,32,33,33,34,34,35,35,39,39,40,40,41,41,42,42,43,43,44,44,45,45,46,46,47,47,48,48,49,49,50,50,51,51,52,52,54,54,55,55,56,56,57,57],"right_children":[2,4,6,8,10,12,14,16,18,20,22,24,26,28,30,32,-1,-1,34,36,38,40,42,44,46,48,50,52,54,56,58,60,62,64,66,68,-1,-1,-1,70,72,74,76,78,80,82,84,86,88,90,92,94,96,-1,98,100,102,104,-1,-1,-1,-1,-1,-1,-1,-1,-1,-1,-1,-1,-1,-1,-1,-1,-1,-1,-1,-1,-1,-1,-1,-1,-1,-1,-1,-1,-1,-1,-1,-1,-1,-1,-1,-1,-1,-1,-1,-1,-1,-1,-1,-1,-1,-1,-1],"split_conditions":[-9.3801285E-4,-1.4566874E-2,-2.4779632E-3,-1.162634E-2,-1.4762598E-2,7.353262E-3,5.9477186E-1,9.9684227E-1,1.0016058E-1,1.9268229E0,2.5009798E-2,5.2E1,3.6101814E1,1E0,1.2511162E-2,2.074101E0,-3.8325803E-3,1.8747954E-2,1.4075579E-1,3.9481543E-2,-5.6986897E-3,2.0526949E-1,1.0787284E8,3.0180204E-1,-5.692907E-2,1.301422E-1,-8.140732E-3,5.697155E-3,8E0,9.9519134E-1,8.8E1,-4.382907E-3,3.3888362E-2,1.1382817E0,7.824983E-3,2.609423E-1,2.0068992E-2,3.78644E-2,-1.959184E-2,4.579083E7,8.602433E-1,3.0020952E-1,1.742698E1,-5.5635662E1,1.4E1,1.6066451E-1,-7.8389525E0,-7.5013304E-1,1.1366354E0,5.3693358E-2,-1.1511298E-1,5.4779685E-1,6.0759083E1,2.367206E-2,2.6021456E1,5.224219E0,1.1217685E0,9.1435E0,1.4625606E-2,-3.1641193E-2,1.1257467E-2,-4.9363796E-2,-7.7129332E-3,-3.0492624E-2,1.7618934E-2,-4.427592E-2,-2.7164638E-3,-4.3381684E-2,4.297046E-3,-4.1232124E-2,-3.4236824E-3,1.957448E-2,-8.575282E-3,2.7755601E-2,-2.3822583E-2,2.9648218E-2,-3.4702636E-2,-2.1486375E-2,3.366119E-2,7.0971823E-3,-2.9885942E-2,-3.434471E-2,7.1934946E-3,-1.8950243E-2,4.2289563E-2,-6.0364236E-3,-4.464476E-2,3.152215E-2,-2.0572761E-2,-9.061277E-4,3.7222024E-2,-2.0004844E-2,3.3874307E-2,2.6668295E-2,4.3566406E-2,2.698587E-2,-1.46179125E-2,4.212384E-3,-3.4607854E-2,3.9949495E-2,-1.0980007E-2,-2.3653818E-2,1.6111232E-2,1.5675245E-2,4.92654E-2],"split_indices":[18,15,15,18,18,18,28,62,110,57,15,108,38,72,18,100,0,0,119,15,21,99,61,78,62,98,19,19,84,117,84,21,76,60,21,89,0,0,0,66,60,99,48,67,83,110,68,53,60,120,111,28,42,0,42,78,94,48,0,0,0,0,0,0,0,0,0,0,0,0,0,0,0,0,0,0,0,0,0,0,0,0,0,0,0,0,0,0,0,0,0,0,0,0,0,0,0,0,0,0,0,0,0,0,0],"split_type":[0,0,0,0,0,0,0,0,0,0,0,0,0,0,0,0,0,0,0,0,0,0,0,0,0,0,0,0,0,0,0,0,0,0,0,0,0,0,0,0,0,0,0,0,0,0,0,0,0,0,0,0,0,0,0,0,0,0,0,0,0,0,0,0,0,0,0,0,0,0,0,0,0,0,0,0,0,0,0,0,0,0,0,0,0,0,0,0,0,0,0,0,0,0,0,0,0,0,0,0,0,0,0,0,0],"sum_hessian":[7.826648E2,3.721846E2,4.104802E2,1.6244894E2,2.0973566E2,1.3168175E2,2.7879846E2,1.0303378E2,5.9415165E1,6.785464E1,1.4188101E2,6.2589905E1,6.909184E1,1.1770043E2,1.6109802E2,1.0179444E2,1.2393394E0,1.7349473E0,5.7680218E1,6.489102E1,2.9636152E0,1.1064574E2,3.1235277E1,4.9892826E1,1.269708E1,1.4188061E1,5.490378E1,1.10252655E2,7.447773E0,6.947489E1,9.162312E1,2.6957803E0,9.909866E1,1.8502535E1,3.917768E1,6.3642506E1,1.2485186E0,1.4892582E0,1.474357E0,2.9566612E1,8.1079124E1,2.4530262E1,6.705015E0,3.7249172E0,4.6167908E1,3.984815E0,8.712265E0,4.731453E0,9.456608E0,4.1480328E1,1.3423456E1,9.3476425E1,1.6776234E1,1.7314258E0,5.716347E0,6.701099E1,2.4639034E0,9.0408554E1,1.2145734E0,1.4718773E0,1.223903E0,9.762186E1,1.4768047E0,1.5035402E1,3.4671326E0,3.7442116E1,1.7355659E0,6.117372E1,2.4687836E0,1.6625477E1,1.2941136E1,1.2950868E1,6.812826E1,2.2290445E1,2.2398162E0,2.2286181E0,4.476397E0,1.48741E0,2.237507E0,4.7277527E0,4.1440155E1,2.735693E0,1.2491218E0,1.9937234E0,6.7185416E0,1.2476101E0,3.483843E0,4.233939E0,5.222668E0,6.971071E0,3.450926E1,1.0456775E1,2.9666812E0,5.7605118E1,3.5871307E1,8.860675E0,7.91556E0,1.2408967E0,4.4754505E0,6.57848E1,1.2261913E0,1.2341135E0,1.22979E0,1.225372E0,8.918318E1],"tree_param":{"num_deleted":"0","num_feature":"129","num_nodes":"105","size_leaf_vector":"1"}},{"base_weights":[-1.4018631E-2,-8.0443066E-1,9.002777E-1,-1.181456E0,-8.915262E-2,-1.3897903E-1,1.2119068E0,-1.4497174E0,-8.510021E-1,-6.654101E-1,3.7697437E-1,-3.9255634E-1,8.155686E-1,9.2139643E-1,1.4733555E0,-1.5668321E0,-1.0641311E0,-1.292009E0,-5.7907116E-1,-8.286798E-1,7.8982806E-1,4.859667E-1,-8.654017E-1,-5.9553075E-1,5.1849115E-1,1.0986093E0,-3.8586682E-1,7.397794E-1,1.4308993E0,5.903995E-1,1.499536E0,-1.5817446E0,-1.1124127E-2,8.509174E-3,-1.1548065E0,-1.3758358E0,1.7507283E-1,9.354587E-1,-6.810889E-1,9.3871534E-2,-1.1084994E0,-1.0031939E-2,3.854468E-2,3.2532552E-1,1.2064191E0,-1.2790253E0,1.7481355E-2,-4.3520674E-1,-1.2740517E0,-5.618296E-1,1.0617759E0,1.9642174E-1,1.3761417E0,1.3296671E-2,-3.408996E-2,6.706354E-2,8.806825E-1,1.4776695E0,2.5959145E-3,3.2812502E-2,-1.6205583E-2,4.8447853E-1,1.5172086E0,-1.3889951E-2,-4.7690798E-2,-1.2662397E-3,-3.6796805E-2,-4.291462E-2,4.222E-3,-1.5793223E-2,2.3823725E-2,3.8342934E-2,-3.9887796E-3,-7.6618614E-3,-2.8461413E-2,1.7751357E-2,-2.451947E-2,-4.1115295E-2,-1.2453867E-2,1.2604749E-2,-3.3034254E-2,4.133734E-2,-3.2907324E-3,-5.9428946E-3,-4.603396E-2,-2.5923897E-2,-1.7998182E-3,-5.1237352E-2,1.5927052E-2,-3.3905204E-2,1.9079518E-2,-6.31127E-3,3.8834512E-2,3.189984E-2,-1.5856232E-2,4.816042E-2,2.043749E-3,2.206246E-2,-1.4557853E-2,3.1570666E-2,1.1168478E-2,4.5912687E-2,9.015985E-3,3.1525034E-2,-1.2666756E-2,2.1936864E-2,4.6204455E-2],"categories":[],"categories_nodes":[],"categories_segments":[],"categories_sizes":[],"default_left":[0,0,0,0,0,0,1,0,0,1,0,0,0,0,0,1,0,0,0,0,0,0,1,1,0,0,0,0,0,0,0,0,0,0,0,1,0,0,1,0,1,0,0,1,1,1,0,0,0,0,0,0,0,0,0,0,1,0,0,0,0,0,0,0,0,0,0,0,0,0,0,0,0,0,0,0,0,0,0,0,0,0,0,0,0,0,0,0,0,0,0,0,0,0,0,0,0,0,0,0,0,0,0,0,0,0,0],"id":8,"left_children":[1,3,5,7,9,11,13,15,17,19,21,23,25,27,29,31,33,35,37,39,41,43,45,47,49,51,53,55,57,59,61,63,-1,-1,65,67,69,71,73,75,77,-1,-1,79,81,83,-1,85,87,89,91,93,95,-1,-1,97,99,101,-1,-1,-1,103,105,-1,-1,-1,-1,-1,-1,-1,-1,-1,-1,-1,-1,-1,-1,-1,-1,-1,-1,-1,-1,-1,-1,-1,-1,-1,-1,-1,-1,-1,-1,-1,-1,-1,-1,-1,-1,-1,-1,-1,-1,-1,-1,-1,-1],"loss_changes":[5.7046277E2,1.1406662E2,1.18707E2,2.3335236E1,3.9793404E1,2.0974735E1,2.0037354E1,5.176361E0,1.4434448E1,1.6381273E1,1.1526994E1,1.2901026E1,6.624956E0,1.1534973E1,2.5032043E0,1.4489746E0,5.0232544E0,6.0796127E0,1.3017263E1,1.5593449E1,4.430299E0,8.408688E0,4.92308E0,5.554163E0,8.19226E0,3.4901047E0,3.1274476E0,9.647381E0,2.0535583E0,3.9317505E0,1.8071594E0,2.6364136E-1,0E0,0E0,2.8380737E0,3.9330063E0,1.9177113E0,2.175305E0,8.375961E0,7.236189E0,7.809002E0,0E0,0E0,9.05953E0,3.1971226E0,1.2804337E0,0E0,7.5026608E0,8.905016E0,4.11203E0,2.9240103E0,3.5156097E0,3.2840729E0,0E0,0E0,7.3029213E0,6.9907227E0,1.6181641E0,0E0,0E0,0E0,2.443453E0,1.376831E0,0E0,0E0,0E0,0E0,0E0,0E0,0E0,0E0,0E0,0E0,0E0,0E0,0E0,0E0,0E0,0E0,0E0,0E0,0E0,0E0,0E0,0E0,0E0,0E0,0E0,0E0,0E0,0E0,0E0,0E0,0E0,0E0,0E0,0E0,0E0,0E0,0E0,0E0,0E0,0E0,0E0,0E0,0E0,0E0],"parents":[2147483647,0,0,1,1,2,2,3,3,4,4,5,5,6,6,7,7,8,8,9,9,10,10,11,11,12,12,13,13,14,14,15,15,16,16,17,17,18,18,19,19,20,20,21,21,22,22,23,23,24,24,25,25,26,26,27,27,28,28,29,29,30,30,31,31,34,34,35,35,36,36,37,37,38,38,39,39,40,40,43,43,44,44,45,45,47,47,48,48,49,49,50,50,51,51,52,52,55,55,56,56,57,57,61,61,62,62],"right_children":[2,4,6,8,10,12,14,16,18,20,22,24,26,28,30,32,34,36,38,40,42,44,46,48,50,52,54,56,58,60,62,64,-1,-1,66,68,70,72,74,76,78,-1,-1,80,82,84,-1,86,88,90,92,94,96,-1,-1,98,100,102,-1,-1,-1,104,106,-1,-1,-1,-1,-1,-1,-1,-1,-1,-1,-1,-1,-1,-1,-1,-1,-1,-1,-1,-1,-1,-1,-1,-1,-1,-1,-1,-1,-1,-1,-1,-1,-1,-1,-1,-1,-1,-1,-1,-1,-1,-1,-1,-1],"split_conditions":[1.8485333E-3,1.6862857E-3,4.5739198E-1,-1.9010384E-2,-8.85011E-3,6.815947E-2,5.9477186E-1,-6.831538E-3,-1.40901655E-2,6.8500644E-1,1E0,3.0926567E-1,-3.3611484E-2,1.9106323E-2,9.33396E0,3.2028225E-1,1.13679074E-1,1.9268229E0,8.10153E1,9.655273E-3,-1.40901655E-2,4.9446035E-2,7.1355534E0,7.9E1,3E0,8.5625136E-1,-1.2626216E-2,-8.420618E-1,6.2091696E-1,3.7805402E0,7.203899E-2,8.4488675E-2,-1.1124127E-2,8.509174E-3,8.059542E1,2.609423E-1,4.741773E6,6.1E1,-1.9615914E0,5.967284E1,5.3575625E6,-1.0031939E-2,3.854468E-2,4.0934696E0,1.8266531E0,6.6486046E-2,1.7481355E-2,7.353262E-3,2.2598064E-1,3.070769E-1,1.2764966E-1,7.1048576E-1,8.248316E8,1.3296671E-2,-3.408996E-2,-6.438707E-3,2.544425E0,5.5295685E1,2.5959145E-3,3.2812502E-2,-1.6205583E-2,1.6463107E-1,-2.526847E0,-1.3889951E-2,-4.7690798E-2,-1.2662397E-3,-3.6796805E-2,-4.291462E-2,4.222E-3,-1.5793223E-2,2.3823725E-2,3.8342934E-2,-3.9887796E-3,-7.6618614E-3,-2.8461413E-2,1.7751357E-2,-2.451947E-2,-4.1115295E-2,-1.2453867E-2,1.2604749E-2,-3.3034254E-2,4.133734E-2,-3.2907324E-3,-5.9428946E-3,-4.603396E-2,-2.5923897E-2,-1.7998182E-3,-5.1237352E-2,1.5927052E-2,-3.3905204E-2,1.9079518E-2,-6.31127E-3,3.8834512E-2,3.189984E-2,-1.5856232E-2,4.816042E-2,2.043749E-3,2.206246E-2,-1.4557853E-2,3.1570666E-2,1.1168478E-2,4.5912687E-2,9.015985E-3,3.1525034E-2,-1.2666756E-2,2.1936864E-2,4.6204455E-2],"split_indices":[18,15,28,15,18,120,28,18,18,28,72,109,16,18,48,99,80,105,11,19,18,65,114,43,84,121,19,45,109,103,77,119,0,0,95,89,59,84,51,63,59,0,0,100,100,120,0,18,89,106,110,78,101,0,0,19,51,38,0,0,0,62,53,0,0,0,0,0,0,0,0,0,0,0,0,0,0,0,0,0,0,0,0,0,0,0,0,0,0,0,0,0,0,0,0,0,0,0,0,0,0,0,0,0,0,0,0],"split_type":[0,0,0,0,0,0,0,0,0,0,0,0,0,0,0,0,0,0,0,0,0,0,0,0,0,0,0,0,0,0,0,0,0,0,0,0,0,0,0,0,0,0,0,0,0,0,0,0,0,0,0,0,0,0,0,0,0,0,0,0,0,0,0,0,0,0,0,0,0,0,0,0,0,0,0,0,0,0,0,0,0,0,0,0,0,0,0,0,0,0,0,0,0,0,0,0,0,0,0,0,0,0,0,0,0,0,0],"sum_hessian":[7.873791E2,4.2236414E2,3.6501498E2,2.761519E2,1.4621225E2,8.433128E1,2.806837E2,1.5054935E2,1.2560255E2,6.51911E1,8.102114E1,6.7095894E1,1.7235394E1,1.350956E2,1.4558809E2,1.13125916E2,3.7423428E1,4.6476894E1,7.9125656E1,5.900196E1,6.1891413E0,7.504626E1,5.9748874E0,5.5154266E1,1.1941626E1,1.4018439E1,3.216954E0,1.014019E2,3.369369E1,4.870733E0,1.4071736E2,1.1141427E2,1.7116454E0,2.224915E0,3.5198513E1,4.4023647E1,2.4532473E0,4.4779277E0,7.464773E1,1.3885778E1,4.511618E1,1.9911978E0,4.197943E0,6.2550713E1,1.2495543E1,4.7382646E0,1.2366229E0,4.5940617E1,9.213653E0,3.9844398E0,7.9571857E0,3.6996272E0,1.0318812E1,1.7229257E0,1.4940283E0,1.7816462E1,8.3585434E1,3.2465084E1,1.2286068E0,3.3927982E0,1.4779346E0,2.8942502E0,1.378231E2,1.2040066E0,1.10210266E2,2.2287176E0,3.2969795E1,4.2547165E1,1.4764814E0,1.2201569E0,1.2330903E0,3.2419794E0,1.2359481E0,2.956882E1,4.5078907E1,9.206363E0,4.6794157E0,3.2034435E1,1.3081745E1,5.931299E1,3.2377229E0,1.1013499E1,1.4820435E0,1.2450745E0,3.49319E0,2.0828058E1,2.5112558E1,7.4714823E0,1.7421703E0,2.7405574E0,1.2438822E0,1.2453203E0,6.7118654E0,1.4723113E0,2.227316E0,8.586818E0,1.7319949E0,7.9115047E0,9.904956E0,6.1685844E1,2.1899593E1,3.0785316E1,1.679768E0,1.6836361E0,1.2106141E0,4.8408E0,1.3298232E2],"tree_param":{"num_deleted":"0","num_feature":"129","num_nodes":"107","size_leaf_vector":"1"}},{"base_weights":[-6.123545E-3,-1.0526673E0,8.0876905E-1,-1.472385E0,-6.247481E-1,2.1286134E-1,1.2852612E0,7.252846E-3,-1.4865803E0,-3.6289716E-1,-1.0378779E0,7.7055454E-1,-3.9260817E-1,1.0084636E0,1.469652E0,-1.4965649E0,-2.1654326E-3,-1.373356E-1,-9.6509624E-1,-1.592304E-1,-1.1570948E0,4.153808E-1,1.0542865E0,-1.334456E-1,-7.058835E-1,1.4046618E0,8.190339E-1,1.1572788E0,1.5661193E0,-8.798319E-1,-1.5297894E0,-8.1404865E-1,2.4024205E-2,-1.1565131E0,-5.2127894E-2,6.484428E-1,-8.6293393E-1,-5.736987E-1,-1.4120777E0,-9.68684E-2,8.012527E-1,1.2862782E0,6.2734574E-1,3.9710113E-1,-5.068658E-1,-9.2492193E-1,3.4718695E-1,1.4862524E0,4.062544E-3,9.4872946E-1,-3.4817097E-1,-1.05556615E-1,1.3722607E0,1.4060662E-2,1.5742973E0,-3.5347395E-2,1.8741338E-2,-4.6210926E-2,-1.3622744E-2,2.4573741E-2,-3.1723797E-2,-7.883744E-3,1.7027214E-2,3.9016574E-3,-3.8439017E-2,-3.4968782E-2,2.0411642E-2,3.694574E-2,-1.6526813E-2,-3.9610468E-2,9.902878E-3,-2.4120346E-2,2.3676874E-2,2.0220706E-3,-4.418692E-2,3.2236207E-2,-9.961526E-3,3.332304E-2,-1.2082117E-2,-4.481054E-3,4.06204E-2,3.5289798E-2,1.8565054E-3,-4.8044813E-3,2.9498558E-2,-2.4330642E-2,5.1546567E-3,-3.1266242E-2,2.5160702E-2,-2.1207612E-2,2.6481517E-2,4.7304314E-2,1.5217981E-2,3.976342E-2,1.9857027E-2,2.5079941E-2,-3.7994757E-2,-3.0855065E-2,3.4505058E-2,4.4387583E-2,1.3632464E-3,1.5422873E-2,4.745657E-2],"categories":[],"categories_nodes":[],"categories_segments":[],"categories_sizes":[],"default_left":[0,0,0,0,0,0,0,0,0,0,0,1,0,0,0,0,0,0,0,0,0,0,0,0,0,1,0,0,0,0,0,0,0,0,0,0,0,0,0,0,1,0,0,0,0,0,0,0,0,0,0,0,1,0,0,0,0,0,0,0,0,0,0,0,0,0,0,0,0,0,0,0,0,0,0,0,0,0,0,0,0,0,0,0,0,0,0,0,0,0,0,0,0,0,0,0,0,0,0,0,0,0,0],"id":9,"left_children":[1,3,5,7,9,11,13,-1,15,17,19,21,23,25,27,29,-1,31,33,35,37,39,41,43,45,47,49,51,53,55,57,59,61,63,65,67,69,71,73,75,77,79,81,83,85,87,89,91,-1,93,95,97,99,-1,101,-1,-1,-1,-1,-1,-1,-1,-1,-1,-1,-1,-1,-1,-1,-1,-1,-1,-1,-1,-1,-1,-1,-1,-1,-1,-1,-1,-1,-1,-1,-1,-1,-1,-1,-1,-1,-1,-1,-1,-1,-1,-1,-1,-1,-1,-1,-1,-1],"loss_changes":[6.5504865E2,5.9472717E1,1.2234714E2,4.471985E0,1.7822891E1,6.549839E1,1.0755493E1,0E0,2.261261E0,1.40631695E1,6.5959625E0,9.724304E0,7.4755697E0,6.283409E0,2.4580383E0,2.0665894E0,0E0,8.448953E0,4.887495E0,5.6138496E0,7.6444244E0,9.255683E0,4.6811104E0,1.0554465E1,1.000391E1,2.9718285E0,1.0837627E1,1.0263035E1,2.0852661E-1,5.6150665E0,1.0827637E0,6.786168E0,1.0018237E1,3.9166908E0,5.6498213E0,3.973207E0,3.2633123E0,6.5892143E0,3.596405E0,6.0986037E0,1.0356651E1,3.6007996E0,6.5889664E0,7.3921456E0,6.561283E0,8.118509E0,5.1147094E0,1.7436218E0,0E0,5.9016113E0,9.402532E0,8.542695E0,4.478115E0,0E0,2.545166E-2,0E0,0E0,0E0,0E0,0E0,0E0,0E0,0E0,0E0,0E0,0E0,0E0,0E0,0E0,0E0,0E0,0E0,0E0,0E0,0E0,0E0,0E0,0E0,0E0,0E0,0E0,0E0,0E0,0E0,0E0,0E0,0E0,0E0,0E0,0E0,0E0,0E0,0E0,0E0,0E0,0E0,0E0,0E0,0E0,0E0,0E0,0E0,0E0],"parents":[2147483647,0,0,1,1,2,2,3,3,4,4,5,5,6,6,8,8,9,9,10,10,11,11,12,12,13,13,14,14,15,15,17,17,18,18,19,19,20,20,21,21,22,22,23,23,24,24,25,25,26,26,27,27,28,28,29,29,30,30,31,31,32,32,33,33,34,34,35,35,36,36,37,37,38,38,39,39,40,40,41,41,42,42,43,43,44,44,45,45,46,46,47,47,49,49,50,50,51,51,52,52,54,54],"right_children":[2,4,6,8,10,12,14,-1,16,18,20,22,24,26,28,30,-1,32,34,36,38,40,42,44,46,48,50,52,54,56,58,60,62,64,66,68,70,72,74,76,78,80,82,84,86,88,90,92,-1,94,96,98,100,-1,102,-1,-1,-1,-1,-1,-1,-1,-1,-1,-1,-1,-1,-1,-1,-1,-1,-1,-1,-1,-1,-1,-1,-1,-1,-1,-1,-1,-1,-1,-1,-1,-1,-1,-1,-1,-1,-1,-1,-1,-1,-1,-1,-1,-1,-1,-1,-1,-1],"split_conditions":[4.4760555E1,2.6337872E1,6.604421E1,7.4670044E1,3.867031E1,6.2907032E1,7.680566E1,7.252846E-3,9.9684227E-1,6.6884444E-3,1.0440985E-1,1.3145946E-1,7.697871E1,5.613415E1,5.398936E-1,1.4377062E1,-2.1654326E-3,5.6557673E-1,9E0,3.8737115E-1,-4.190703E0,3.841013E-3,1.1210804E-1,6.9028144E-3,8.8440384E1,5.5917005E6,2.9469864E1,1.6551334E1,4.9608015E-2,2.8682437E0,3.6407012E-2,9.782146E0,3.8434597E1,9.763522E0,8.182831E-3,9.811743E1,6.264643E8,4.204726E1,8.066976E1,3.6864632E-1,1.3819499E2,2.9345242E1,-4.8378024E-1,5.3504875E1,2.9E1,1.8667363E-2,2.652602E-1,1.3019789E8,4.062544E-3,5.493671E-1,9.911413E-1,4.5243552E-1,1.2953018E2,1.4060662E-2,8.928931E0,-3.5347395E-2,1.8741338E-2,-4.6210926E-2,-1.3622744E-2,2.4573741E-2,-3.1723797E-2,-7.883744E-3,1.7027214E-2,3.9016574E-3,-3.8439017E-2,-3.4968782E-2,2.0411642E-2,3.694574E-2,-1.6526813E-2,-3.9610468E-2,9.902878E-3,-2.4120346E-2,2.3676874E-2,2.0220706E-3,-4.418692E-2,3.2236207E-2,-9.961526E-3,3.332304E-2,-1.2082117E-2,-4.481054E-3,4.06204E-2,3.5289798E-2,1.8565054E-3,-4.8044813E-3,2.9498558E-2,-2.4330642E-2,5.1546567E-3,-3.1266242E-2,2.5160702E-2,-2.1207612E-2,2.6481517E-2,4.7304314E-2,1.5217981E-2,3.976342E-2,1.9857027E-2,2.5079941E-2,-3.7994757E-2,-3.0855065E-2,3.4505058E-2,4.4387583E-2,1.3632464E-3,1.5422873E-2,4.745657E-2],"split_indices":[40,40,40,7,42,42,40,0,62,20,110,110,42,42,54,50,0,94,83,45,51,21,98,62,42,59,48,49,98,68,76,48,40,50,20,0,102,40,5,87,67,63,54,40,84,76,39,61,0,51,117,87,69,0,48,0,0,0,0,0,0,0,0,0,0,0,0,0,0,0,0,0,0,0,0,0,0,0,0,0,0,0,0,0,0,0,0,0,0,0,0,0,0,0,0,0,0,0,0,0,0,0,0],"split_type":[0,0,0,0,0,0,0,0,0,0,0,0,0,0,0,0,0,0,0,0,0,0,0,0,0,0,0,0,0,0,0,0,0,0,0,0,0,0,0,0,0,0,0,0,0,0,0,0,0,0,0,0,0,0,0,0,0,0,0,0,0,0,0,0,0,0,0,0,0,0,0,0,0,0,0,0,0,0,0,0,0,0,0,0,0,0,0,0,0,0,0,0,0,0,0,0,0,0,0,0,0,0,0],"sum_hessian":[7.6609814E2,3.3525183E2,4.308463E2,1.680156E2,1.6723624E2,1.9207782E2,2.3876851E2,1.2482756E0,1.6676732E2,1.03508575E2,6.372765E1,9.984173E1,9.2236084E1,9.805017E1,1.4071832E2,1.6554062E2,1.2266929E0,7.6196304E1,2.7312271E1,7.892716E0,5.5834934E1,4.5433006E1,5.4408726E1,5.125798E1,4.0978104E1,2.9640627E1,6.8409546E1,3.626952E1,1.0444881E2,9.866917E0,1.556737E2,1.389179E1,6.2304516E1,2.2357864E1,4.9544067E0,3.711446E0,4.18127E0,1.7969955E1,3.786498E1,1.9841784E1,2.5591223E1,3.3948795E1,2.045993E1,2.1147991E1,3.0109991E1,3.4023014E1,6.955088E0,2.768968E1,1.9509481E0,6.1736763E1,6.6727834E0,5.350267E0,3.0919254E1,1.203901E0,1.032449E2,8.4147835E0,1.4521333E0,1.5373047E2,1.9432348E0,1.495113E0,1.2396678E1,4.112209E1,2.1182428E1,1.9730768E0,2.0384787E1,1.7313368E0,3.2230701E0,2.4792633E0,1.2321827E0,2.9453032E0,1.2359667E0,1.5723092E1,2.2468638E0,1.4908504E0,3.637413E1,2.7208202E0,1.7120962E1,2.0419353E1,5.171869E0,1.4752686E0,3.2473526E1,9.833121E0,1.062681E1,1.1214154E1,9.933838E0,2.0657358E1,9.452633E0,3.2285E1,1.7380128E0,2.2352707E0,4.7198176E0,2.4786251E1,2.9034278E0,2.512144E1,3.6615322E1,2.9536786E0,3.7191048E0,3.1880393E0,2.1622276E0,2.8498865E1,2.4203887E0,1.2222953E0,1.0202261E2],"tree_param":{"num_deleted":"0","num_feature":"129","num_nodes":"103","size_leaf_vector":"1"}},{"base_weights":[4.822742E-3,-6.8914485E-1,1.1848178E0,-1.2237843E0,-8.259148E-2,9.350247E-1,1.4388051E0,-1.4236745E0,-8.2224065E-1,2.7418903E-1,-6.0558295E-1,1.0189279E0,-2.4383341E-1,1.4622339E0,5.211781E-1,7.131583E-3,-1.4373063E0,5.2152205E-1,-9.431301E-1,-2.1660778E-1,5.70785E-1,-2.5685194E-1,-8.494976E-1,1.3105932E0,7.6870865E-1,3.4329697E-1,-1.2190522E0,1.474774E0,1.1320156E-2,-1.3415376E-2,3.4102023E-2,-1.4594811E0,-4.4801605E-1,4.1712295E-2,-4.7601497E-1,-1.3563788E0,-7.068981E-1,-7.7399516E-1,1.569218E-1,1.0222527E0,2.2675036E-1,4.563361E-1,-7.7878726E-1,-5.230075E-1,-1.2712685E0,1.3609163E0,-4.4219797E-3,1.0915835E0,3.4211263E-1,-3.4714255E-2,8.354082E-1,-9.687836E-3,-4.440717E-2,1.2624981E-2,1.4868926E0,-1.0251642E-3,-4.4093497E-2,-3.8182408E-2,2.8880956E-2,-3.5444025E-2,2.2141378E-2,-1.3080972E-2,-4.557699E-2,-1.4119094E-2,-3.8420282E-2,-2.5766157E-3,-4.2325772E-2,3.5810776E-2,-4.1583613E-3,-1.8759623E-2,3.404923E-2,1.3080639E-2,-1.7371474E-2,-1.4808868E-2,3.6472343E-2,-3.0301573E-2,1.0167426E-2,-8.070546E-3,-4.3569036E-2,-4.332524E-2,3.5338323E-3,4.1963924E-2,7.403715E-3,5.4602954E-3,3.943079E-2,-6.6209133E-3,2.1605607E-2,-9.427184E-3,3.56713E-2,2.8680531E-2,4.545424E-2],"categories":[],"categories_nodes":[],"categories_segments":[],"categories_sizes":[],"default_left":[0,0,0,0,0,0,0,0,0,0,0,0,0,0,0,0,0,0,1,0,0,0,0,1,0,0,0,0,0,0,0,0,0,0,1,0,0,0,0,0,0,0,1,0,1,1,0,0,0,0,0,0,0,0,0,0,0,0,0,0,0,0,0,0,0,0,0,0,0,0,0,0,0,0,0,0,0,0,0,0,0,0,0,0,0,0,0,0,0,0,0],"id":10,"left_children":[1,3,5,7,9,11,13,15,17,19,21,23,25,27,29,-1,31,33,35,37,39,41,43,45,47,49,51,53,-1,-1,-1,55,57,-1,59,61,63,65,67,69,71,73,75,77,79,81,-1,83,85,-1,87,-1,-1,-1,89,-1,-1,-1,-1,-1,-1,-1,-1,-1,-1,-1,-1,-1,-1,-1,-1,-1,-1,-1,-1,-1,-1,-1,-1,-1,-1,-1,-1,-1,-1,-1,-1,-1,-1,-1,-1],"loss_changes":[6.3126624E2,1.5731406E2,1.676648E1,1.9532135E1,4.280015E1,1.4766693E1,2.2411804E0,4.2108154E0,1.4802155E1,1.999594E1,7.690033E0,9.007065E0,6.4648037E0,1.2891235E0,3.507592E0,0E0,3.0664978E0,7.522065E0,6.9659195E0,1.0978627E1,1.302755E1,1.5132373E1,6.8088646E0,4.745537E0,1.0132805E1,6.409798E0,5.0223446E-1,1.0828247E0,0E0,0E0,0E0,2.3789368E0,7.2298565E0,0E0,4.665783E0,3.5998917E0,6.6822968E0,9.122325E0,9.987101E0,7.5133476E0,8.639032E0,1.3156927E1,6.3629093E0,7.2310896E0,5.6900063E0,2.1860504E0,0E0,8.465897E0,7.4610767E0,0E0,2.8665557E0,0E0,0E0,0E0,5.287781E-1,0E0,0E0,0E0,0E0,0E0,0E0,0E0,0E0,0E0,0E0,0E0,0E0,0E0,0E0,0E0,0E0,0E0,0E0,0E0,0E0,0E0,0E0,0E0,0E0,0E0,0E0,0E0,0E0,0E0,0E0,0E0,0E0,0E0,0E0,0E0,0E0],"parents":[2147483647,0,0,1,1,2,2,3,3,4,4,5,5,6,6,7,7,8,8,9,9,10,10,11,11,12,12,13,13,14,14,16,16,17,17,18,18,19,19,20,20,21,21,22,22,23,23,24,24,25,25,26,26,27,27,31,31,32,32,34,34,35,35,36,36,37,37,38,38,39,39,40,40,41,41,42,42,43,43,44,44,45,45,47,47,48,48,50,50,54,54],"right_children":[2,4,6,8,10,12,14,16,18,20,22,24,26,28,30,-1,32,34,36,38,40,42,44,46,48,50,52,54,-1,-1,-1,56,58,-1,60,62,64,66,68,70,72,74,76,78,80,82,-1,84,86,-1,88,-1,-1,-1,90,-1,-1,-1,-1,-1,-1,-1,-1,-1,-1,-1,-1,-1,-1,-1,-1,-1,-1,-1,-1,-1,-1,-1,-1,-1,-1,-1,-1,-1,-1,-1,-1,-1,-1,-1,-1],"split_conditions":[6.1367714E1,3.675627E1,7.731161E1,2.6337872E1,6.2907032E1,9.928053E8,1E0,7.4670044E1,1.368824E-1,4.4080856E1,-2.1642447E0,6.41067E1,9.052801E-3,1.4843479E1,8.960248E-1,7.131583E-3,3.3398136E-3,1.1158584E0,-2.3918018E-2,1.5759594E0,-8.494866E-1,8.8645047E-1,7.637296E1,1.1697593E2,1.5144284E0,5.5196774E8,7E0,1.2062142E-2,1.1320156E-2,-1.3415376E-2,3.4102023E-2,1.6035101E-1,3.3E1,4.1712295E-2,2.092753E-1,2.005624E-1,6.6884444E-3,8.2720745E-1,2.630153E1,-1.5593197E-2,1.5113443E0,4.938814E6,7.508319E0,1.3299185E2,1.2855171E2,2.5357902E-1,-4.4219797E-3,8.9582405E1,1.9425685E-2,-3.4714255E-2,1.4897296E0,-9.687836E-3,-4.440717E-2,1.2624981E-2,4.292175E-3,-1.0251642E-3,-4.4093497E-2,-3.8182408E-2,2.8880956E-2,-3.5444025E-2,2.2141378E-2,-1.3080972E-2,-4.557699E-2,-1.4119094E-2,-3.8420282E-2,-2.5766157E-3,-4.2325772E-2,3.5810776E-2,-4.1583613E-3,-1.8759623E-2,3.404923E-2,1.3080639E-2,-1.7371474E-2,-1.4808868E-2,3.6472343E-2,-3.0301573E-2,1.0167426E-2,-8.070546E-3,-4.3569036E-2,-4.332524E-2,3.5338323E-3,4.1963924E-2,7.403715E-3,5.4602954E-3,3.943079E-2,-6.6209133E-3,2.1605607E-2,-9.427184E-3,3.56713E-2,2.8680531E-2,4.545424E-2],"split_indices":[40,40,40,40,42,101,75,7,80,40,51,42,18,62,94,0,18,57,115,77,54,54,42,27,51,102,108,122,0,0,0,89,83,0,89,89,20,51,44,18,45,59,100,22,69,89,0,12,15,0,57,0,0,0,18,0,0,0,0,0,0,0,0,0,0,0,0,0,0,0,0,0,0,0,0,0,0,0,0,0,0,0,0,0,0,0,0,0,0,0,0],"split_type":[0,0,0,0,0,0,0,0,0,0,0,0,0,0,0,0,0,0,0,0,0,0,0,0,0,0,0,0,0,0,0,0,0,0,0,0,0,0,0,0,0,0,0,0,0,0,0,0,0,0,0,0,0,0,0,0,0,0,0,0,0,0,0,0,0,0,0,0,0,0,0,0,0,0,0,0,0,0,0,0,0,0,0,0,0,0,0,0,0,0,0],"sum_hessian":[7.688943E2,4.8441855E2,2.844757E2,2.5693158E2,2.2748695E2,1.4578226E2,1.3869347E2,1.6983932E2,8.709226E1,1.3551527E2,9.197169E1,1.362225E2,9.559748E0,1.3466179E2,4.0316687E0,1.248417E0,1.6859091E2,6.914886E0,8.0177376E1,5.1147625E1,8.436765E1,3.8697674E1,5.3274014E1,6.094495E1,7.527756E1,6.3716664E0,3.1880815E0,1.3276779E2,1.8940006E0,1.6731312E0,2.3585374E0,1.6442993E2,4.160973E0,3.4852633E0,3.4296227E0,2.7437788E1,5.2739586E1,2.0092754E1,3.105487E1,3.5634308E1,4.873334E1,1.6405876E1,2.2291796E1,3.1291494E1,2.1982517E1,5.897596E1,1.9689927E0,4.1960426E1,3.331713E1,1.2398876E0,5.1317787E0,1.2242166E0,1.9638649E0,1.9153845E0,1.308524E2,1.2109495E0,1.6321898E2,2.6875684E0,1.4734043E0,2.1861603E0,1.2434623E0,4.678032E0,2.2759756E1,3.8646545E1,1.4093043E1,1.0203312E1,9.889442E0,6.2144995E0,2.484037E1,1.9906669E0,3.3643642E1,3.905057E1,9.682771E0,7.4439797E0,8.961897E0,1.854992E1,3.7418761E0,2.558754E1,5.703955E0,1.951382E1,2.4686959E0,5.6789555E1,2.1864038E0,8.612684E0,3.3347744E1,1.3555047E1,1.9762083E1,1.2334162E0,3.8983626E0,8.371477E0,1.22480934E2],"tree_param":{"num_deleted":"0","num_feature":"129","num_nodes":"91","size_leaf_vector":"1"}},{"base_weights":[7.4008913E-3,-6.766639E-1,1.1603901E0,-1.1812363E0,-4.01479E-2,8.5722834E-1,1.3958086E0,-1.4080714E0,-8.1617177E-1,3.4786552E-1,-5.892341E-1,1.3812962E0,6.725093E-1,9.003585E-1,1.4609709E0,-1.4412118E0,-5.867898E-1,3.9076486E-1,-9.0388244E-1,1.836813E-2,6.0923284E-1,-2.8657275E-1,-8.976262E-1,1.4307572E0,5.6004524E-3,7.780849E-1,-3.154633E-1,1.1989853E0,3.368203E-2,-1.0769455E-2,1.4796025E0,-1.4516832E0,-1.4086897E-3,-9.623281E-1,2.5451927E-2,-3.4510133E-1,1.1101214E0,-6.81229E-1,-1.1992342E0,4.9676114E-1,-3.4528214E-1,-2.2669232E-2,8.728319E-1,1.7855626E-1,-7.173558E-1,-1.0149348E0,5.3795046E-1,1.4829772E0,1.48276305E-2,-6.599125E-2,8.7318295E-1,7.7473676E-1,-8.1790096E-1,1.298657E0,-4.5054947E-4,-2.5378084E-2,6.002787E-1,1.0006737E0,1.511647E0,-3.3869585E-3,-4.3841373E-2,1.6535807E-3,-3.900682E-2,1.429512E-2,-2.6336506E-2,8.033298E-3,4.1077398E-2,-2.3871718E-2,8.80155E-3,-1.5616012E-2,-4.0074047E-2,2.2606224E-2,-3.1912774E-2,9.881233E-3,-1.9399945E-2,1.0943042E-2,-3.5546128E-2,-1.2252589E-2,2.9535804E-2,-1.596294E-2,1.7351493E-2,-2.8268097E-2,1.5072489E-2,2.0891737E-2,-3.257176E-2,-1.8586464E-2,3.8525447E-2,1.3087248E-2,4.5360617E-2,2.0233732E-2,-3.0419493E-2,3.166479E-2,1.1393603E-2,3.131904E-3,3.192377E-2,1.5279E-2,-3.484347E-2,4.2019732E-2,1.4263602E-2,3.274001E-2,-8.367512E-3,-1.2249928E-2,3.8363207E-2,4.5561705E-2,1.1948452E-2],"categories":[],"categories_nodes":[],"categories_segments":[],"categories_sizes":[],"default_left":[0,0,0,0,0,0,0,0,0,0,0,1,0,0,0,0,0,0,0,0,0,1,0,1,0,0,0,0,0,0,0,0,0,0,0,0,0,0,0,0,1,0,0,0,0,0,0,0,0,0,0,0,0,0,0,0,0,0,0,0,0,0,0,0,0,0,0,0,0,0,0,0,0,0,0,0,0,0,0,0,0,0,0,0,0,0,0,0,0,0,0,0,0,0,0,0,0,0,0,0,0,0,0,0,0],"id":11,"left_children":[1,3,5,7,9,11,13,15,17,19,21,23,25,27,29,31,33,35,37,39,41,43,45,47,-1,49,51,53,55,-1,57,59,-1,61,-1,63,65,67,69,71,73,75,77,79,81,83,85,87,-1,89,91,93,95,97,-1,-1,99,101,103,-1,-1,-1,-1,-1,-1,-1,-1,-1,-1,-1,-1,-1,-1,-1,-1,-1,-1,-1,-1,-1,-1,-1,-1,-1,-1,-1,-1,-1,-1,-1,-1,-1,-1,-1,-1,-1,-1,-1,-1,-1,-1,-1,-1,-1,-1],"loss_changes":[6.117783E2,1.5630832E2,1.9417236E1,2.1335876E1,4.6289577E1,1.1543671E1,3.8821106E0,3.6749268E0,1.1620781E1,1.0958034E1,8.137098E0,1.6608582E0,1.0385349E1,5.477085E0,5.3010864E0,2.2526245E0,5.1976647E0,4.569817E0,5.7281265E0,1.0152673E1,1.1845848E1,9.5169935E0,7.968704E0,7.919464E-1,0E0,7.1307144E0,6.164295E0,1.934515E0,3.7433693E0,0E0,6.2731934E-1,1.8825989E0,0E0,2.447824E0,0E0,2.4636683E0,5.580802E-1,6.8242245E0,3.147995E0,1.0894575E1,6.960655E0,1.0281463E1,7.575371E0,6.937131E0,7.202095E0,5.7343636E0,4.236168E0,2.2309113E-1,0E0,7.599492E0,6.7290306E0,6.064477E-1,3.9647021E0,5.6307983E-1,0E0,0E0,2.2616735E0,5.107915E0,4.093933E-1,0E0,0E0,0E0,0E0,0E0,0E0,0E0,0E0,0E0,0E0,0E0,0E0,0E0,0E0,0E0,0E0,0E0,0E0,0E0,0E0,0E0,0E0,0E0,0E0,0E0,0E0,0E0,0E0,0E0,0E0,0E0,0E0,0E0,0E0,0E0,0E0,0E0,0E0,0E0,0E0,0E0,0E0,0E0,0E0,0E0,0E0],"parents":[2147483647,0,0,1,1,2,2,3,3,4,4,5,5,6,6,7,7,8,8,9,9,10,10,11,11,12,12,13,13,14,14,15,15,16,16,17,17,18,18,19,19,20,20,21,21,22,22,23,23,25,25,26,26,27,27,28,28,30,30,31,31,33,33,35,35,36,36,37,37,38,38,39,39,40,40,41,41,42,42,43,43,44,44,45,45,46,46,47,47,49,49,50,50,51,51,52,52,53,53,56,56,57,57,58,58],"right_children":[2,4,6,8,10,12,14,16,18,20,22,24,26,28,30,32,34,36,38,40,42,44,46,48,-1,50,52,54,56,-1,58,60,-1,62,-1,64,66,68,70,72,74,76,78,80,82,84,86,88,-1,90,92,94,96,98,-1,-1,100,102,104,-1,-1,-1,-1,-1,-1,-1,-1,-1,-1,-1,-1,-1,-1,-1,-1,-1,-1,-1,-1,-1,-1,-1,-1,-1,-1,-1,-1,-1,-1,-1,-1,-1,-1,-1,-1,-1,-1,-1,-1,-1,-1,-1,-1,-1,-1],"split_conditions":[6.1367714E1,3.8434597E1,7.5297005E1,2.6337872E1,6.2907032E1,3.580095E1,7.118067E1,1.9268229E0,-1.1350015E1,1.3145946E-1,-1.1109562E-2,5.5917005E6,9.497446E8,5.970778E1,8.439166E0,9.9684227E-1,1.3096259E2,-8.686611E-3,1.1234995E0,1.445244E1,4.3775715E1,9.741592E-1,7.389297E-1,4.862167E1,5.6004524E-3,0E0,5.8761525E-1,1.8242357E0,1.7825201E1,-1.0769455E-2,5.4205023E-3,7.5678986E1,-1.4086897E-3,-2.932788E-1,2.5451927E-2,4.484407E6,1.5653148E0,4.4E1,-3.1261835E-1,2.0866495E1,1.2E1,3.580095E1,-3.6217935E-2,-1.8524277E0,5.7277912E1,4.8E1,9.841296E1,7.0618354E-2,1.48276305E-2,1.3975805E-2,6.193385E1,8.471815E-2,1.1702012E2,1.9019402E1,-4.5054947E-4,-2.5378084E-2,7.057113E1,8.1854665E-1,3.7096824E-2,-3.3869585E-3,-4.3841373E-2,1.6535807E-3,-3.900682E-2,1.429512E-2,-2.6336506E-2,8.033298E-3,4.1077398E-2,-2.3871718E-2,8.80155E-3,-1.5616012E-2,-4.0074047E-2,2.2606224E-2,-3.1912774E-2,9.881233E-3,-1.9399945E-2,1.0943042E-2,-3.5546128E-2,-1.2252589E-2,2.9535804E-2,-1.596294E-2,1.7351493E-2,-2.8268097E-2,1.5072489E-2,2.0891737E-2,-3.257176E-2,-1.8586464E-2,3.8525447E-2,1.3087248E-2,4.5360617E-2,2.0233732E-2,-3.0419493E-2,3.166479E-2,1.1393603E-2,3.131904E-3,3.192377E-2,1.5279E-2,-3.484347E-2,4.2019732E-2,1.4263602E-2,3.274001E-2,-8.367512E-3,-1.2249928E-2,3.8363207E-2,4.5561705E-2,1.1948452E-2],"split_indices":[40,40,40,40,42,42,44,105,68,110,25,59,101,42,48,62,14,18,105,48,40,86,62,44,0,73,39,105,49,0,18,14,0,112,0,58,77,83,112,49,43,42,25,53,63,43,8,80,0,25,63,17,22,50,0,0,44,77,19,0,0,0,0,0,0,0,0,0,0,0,0,0,0,0,0,0,0,0,0,0,0,0,0,0,0,0,0,0,0,0,0,0,0,0,0,0,0,0,0,0,0,0,0,0,0],"split_type":[0,0,0,0,0,0,0,0,0,0,0,0,0,0,0,0,0,0,0,0,0,0,0,0,0,0,0,0,0,0,0,0,0,0,0,0,0,0,0,0,0,0,0,0,0,0,0,0,0,0,0,0,0,0,0,0,0,0,0,0,0,0,0,0,0,0,0,0,0,0,0,0,0,0,0,0,0,0,0,0,0,0,0,0,0,0,0,0,0,0,0,0,0,0,0,0,0,0,0,0,0,0,0,0,0],"sum_hessian":[7.7366486E2,4.8583414E2,2.878307E2,2.705281E2,2.1530602E2,1.2784226E2,1.5998845E2,1.650908E2,1.054373E2,1.26371605E2,8.893441E1,3.162914E1,9.621312E1,2.0318377E1,1.3967006E2,1.5796188E2,7.1289234E0,6.909155E0,9.8528145E1,5.6373558E1,6.999805E1,4.5857914E1,4.3076496E1,3.0181839E1,1.4473023E0,8.711625E1,9.09687E0,1.4826311E1,5.492066E0,1.2302549E0,1.384398E2,1.567435E2,1.2183815E0,5.9115524E0,1.2173709E0,3.6725655E0,3.2365897E0,5.806321E1,4.046494E1,2.4187769E1,3.2185787E1,2.0873617E1,4.9124428E1,2.2331476E1,2.352644E1,4.0093273E1,2.983221E0,2.8035063E1,2.1467767E0,8.852134E0,7.8264114E1,2.698863E0,6.3980074E0,1.3636965E1,1.189347E0,1.9585242E0,3.5335417E0,1.0703006E1,1.277368E2,1.2179539E0,1.5552556E2,1.6824397E0,4.2291126E0,1.486248E0,2.1863177E0,1.2397833E0,1.9968063E0,5.212344E1,5.9397683E0,7.5843706E0,3.2880566E1,2.1214155E1,2.9736137E0,9.909692E0,2.2276096E1,1.6169436E1,4.7041826E0,3.7260756E0,4.5398354E1,7.921299E0,1.4410176E1,2.005584E1,3.4706E0,1.2415698E0,3.8851704E1,1.235918E0,1.747303E0,1.1893914E0,2.684567E1,5.132122E0,3.7200117E0,5.631607E1,2.1948046E1,1.224103E0,1.4747599E0,1.2163832E0,5.181624E0,1.1509397E1,2.127568E0,2.112414E0,1.4211278E0,1.6870759E0,9.015929E0,1.2656826E2,1.1685421E0],"tree_param":{"num_deleted":"0","num_feature":"129","num_nodes":"105","size_leaf_vector":"1"}},{"base_weights":[1.22861E-2,-8.386877E-1,7.49504E-1,-1.1524225E0,-2.0010725E-1,-2.3473033E-1,1.0613846E0,-1.376816E0,-8.064446E-1,-9.2240655E-1,1.310579E-1,-5.808616E-1,2.4208987E-1,6.542267E-1,1.2760301E0,-1.3988734E0,-2.2084376E-1,-2.6631233E-1,-1.0744398E0,5.674348E-1,-1.0541624E0,-2.899979E-2,9.531303E-1,-7.274034E-1,3.380762E-1,-2.5033328E-1,8.003496E-1,4.5126238E-1,1.277235E0,1.0538099E0,1.4874909E0,-1.4651328E0,-9.0779614E-1,-3.0647105E-2,2.5240388E-2,2.937415E-1,-7.9042023E-1,3.3130985E-2,-1.1349407E0,-1.4902306E-2,3.8606267E-2,-1.1758683E0,2.7990013E-1,-4.5750308E-1,3.0832312E-1,1.2465721E0,-2.4945036E-2,4.0510947E-1,-8.1371075E-1,-4.6617845E-1,3.879275E-2,-8.481405E-1,3.0922115E-1,1.2409631E0,1.1881818E-1,7.8855854E-1,3.726688E-2,7.114623E-1,1.4558285E0,1.1835386E0,2.4558455E-1,1.1471994E-2,1.4963794E0,-4.437856E-2,-4.8325965E-3,6.8938388E-3,-3.768241E-2,-1.4702078E-2,2.4602788E-2,-1.9544018E-3,-3.7650052E-2,-3.6496773E-2,-5.319426E-3,-3.7308805E-2,8.410125E-3,3.8170293E-2,-2.87972E-2,3.5813145E-2,-1.7868992E-2,2.1056129E-2,-4.5517622E-3,4.3523576E-2,3.9672996E-3,3.4161177E-2,-8.45519E-3,-2.9560007E-2,-4.991127E-3,-2.8717568E-2,1.991732E-2,-3.5336506E-2,2.0649495E-2,2.6498921E-2,-2.1144427E-2,-7.1405317E-3,4.2773288E-2,3.1595323E-2,-1.4883778E-2,2.6510067E-2,-1.9541034E-2,-2.149987E-2,1.2398847E-2,-8.449015E-3,3.4860674E-2,4.5117322E-2,1.1380448E-2,3.7061527E-2,-5.158375E-3,1.7184146E-2,-3.5185765E-2,4.5155633E-2,1.2102897E-2],"categories":[],"categories_nodes":[],"categories_segments":[],"categories_sizes":[],"default_left":[0,1,0,0,0,0,0,0,0,0,0,1,0,0,0,1,0,0,0,0,0,0,0,0,0,1,1,1,0,1,0,0,0,0,0,1,0,0,1,0,0,0,0,0,0,0,0,0,0,0,0,0,0,0,0,0,0,0,1,1,0,0,0,0,0,0,0,0,0,0,0,0,0,0,0,0,0,0,0,0,0,0,0,0,0,0,0,0,0,0,0,0,0,0,0,0,0,0,0,0,0,0,0,0,0,0,0,0,0,0,0],"id":12,"left_children":[1,3,5,7,9,11,13,15,17,19,21,23,25,27,29,31,33,35,37,39,41,43,45,47,49,51,53,55,57,59,61,63,65,-1,-1,67,69,-1,71,-1,-1,73,75,77,79,81,-1,83,85,87,-1,89,91,93,95,97,99,101,103,105,107,-1,109,-1,-1,-1,-1,-1,-1,-1,-1,-1,-1,-1,-1,-1,-1,-1,-1,-1,-1,-1,-1,-1,-1,-1,-1,-1,-1,-1,-1,-1,-1,-1,-1,-1,-1,-1,-1,-1,-1,-1,-1,-1,-1,-1,-1,-1,-1,-1,-1],"loss_changes":[4.8153543E2,7.115253E1,1.26492004E2,1.7421967E1,2.8488028E1,1.6608559E1,2.6474548E1,3.347046E0,1.3657364E1,7.9405193E0,1.0841713E1,8.070768E0,1.1931181E1,1.3322964E1,7.998047E0,3.2419739E0,4.1528797E0,9.99897E0,9.696785E0,3.4637675E0,5.965626E0,1.0224936E1,8.066233E0,5.2591248E0,7.265486E0,8.101482E0,5.9298067E0,1.1764061E1,1.6382713E0,1.0475975E1,4.2848206E-1,2.016571E0,7.9487057E0,0E0,0E0,7.338817E0,5.8011675E0,0E0,4.693924E0,0E0,0E0,3.5066223E0,5.786285E0,7.8117905E0,7.2819386E0,2.5225258E0,0E0,2.4570768E0,5.0792027E0,3.6566887E0,0E0,6.686471E0,8.095834E0,3.670086E0,5.723784E0,6.942465E0,1.1343232E1,4.0434613E0,4.2115402E-1,6.4122696E0,7.849503E0,0E0,3.624115E-1,0E0,0E0,0E0,0E0,0E0,0E0,0E0,0E0,0E0,0E0,0E0,0E0,0E0,0E0,0E0,0E0,0E0,0E0,0E0,0E0,0E0,0E0,0E0,0E0,0E0,0E0,0E0,0E0,0E0,0E0,0E0,0E0,0E0,0E0,0E0,0E0,0E0,0E0,0E0,0E0,0E0,0E0,0E0,0E0,0E0,0E0,0E0,0E0],"parents":[2147483647,0,0,1,1,2,2,3,3,4,4,5,5,6,6,7,7,8,8,9,9,10,10,11,11,12,12,13,13,14,14,15,15,16,16,17,17,18,18,19,19,20,20,21,21,22,22,23,23,24,24,25,25,26,26,27,27,28,28,29,29,30,30,31,31,32,32,35,35,36,36,38,38,41,41,42,42,43,43,44,44,45,45,47,47,48,48,49,49,51,51,52,52,53,53,54,54,55,55,56,56,57,57,58,58,59,59,60,60,62,62],"right_children":[2,4,6,8,10,12,14,16,18,20,22,24,26,28,30,32,34,36,38,40,42,44,46,48,50,52,54,56,58,60,62,64,66,-1,-1,68,70,-1,72,-1,-1,74,76,78,80,82,-1,84,86,88,-1,90,92,94,96,98,100,102,104,106,108,-1,110,-1,-1,-1,-1,-1,-1,-1,-1,-1,-1,-1,-1,-1,-1,-1,-1,-1,-1,-1,-1,-1,-1,-1,-1,-1,-1,-1,-1,-1,-1,-1,-1,-1,-1,-1,-1,-1,-1,-1,-1,-1,-1,-1,-1,-1,-1,-1,-1],"split_conditions":[-1.5268727E-3,5.0476515E-1,4.5739198E-1,-1.162634E-2,-1.4762598E-2,9.277354E-3,1.2891299E-2,2.28163E1,4.2904556E-1,5.0408267E-3,6.87885E-1,2.28311E-1,9.7821105E-1,1.7984018E-2,1.4056924E-2,4.6563277E-1,1.1083E0,-1.8814613E0,-3.0618997E0,1.6306627E1,9E0,-7.712342E-3,5.6E1,8.110138E1,1.013656E0,4.9682845E6,1.0202578E0,5.96362E-1,-3.0495389E0,3.545826E0,3.3124012E-1,1.2768802E-1,3.2665904E-3,-3.0647105E-2,2.5240388E-2,2.1027893E-1,2.151453E1,3.3130985E-2,5.4164095E6,-1.4902306E-2,3.8606267E-2,8.6527206E-2,4.6872697E0,8.401344E1,7.326685E-2,4E0,-2.4945036E-2,2.125007E-1,4.3E1,3.0866323E0,3.879275E-2,2.6136678E-2,3.2829847E0,-3.4057877E0,-2.5363125E-2,9.029635E-1,3.3583617E-1,9.590405E-1,5.290196E6,2.5357902E-1,2.3E1,1.1471994E-2,8.8E1,-4.437856E-2,-4.8325965E-3,6.8938388E-3,-3.768241E-2,-1.4702078E-2,2.4602788E-2,-1.9544018E-3,-3.7650052E-2,-3.6496773E-2,-5.319426E-3,-3.7308805E-2,8.410125E-3,3.8170293E-2,-2.87972E-2,3.5813145E-2,-1.7868992E-2,2.1056129E-2,-4.5517622E-3,4.3523576E-2,3.9672996E-3,3.4161177E-2,-8.45519E-3,-2.9560007E-2,-4.991127E-3,-2.8717568E-2,1.991732E-2,-3.5336506E-2,2.0649495E-2,2.6498921E-2,-2.1144427E-2,-7.1405317E-3,4.2773288E-2,3.1595323E-2,-1.4883778E-2,2.6510067E-2,-1.9541034E-2,-2.149987E-2,1.2398847E-2,-8.449015E-3,3.4860674E-2,4.5117322E-2,1.1380448E-2,3.7061527E-2,-5.158375E-3,1.7184146E-2,-3.5185765E-2,4.5155633E-2,1.2102897E-2],"split_indices":[18,28,28,18,18,18,15,49,107,20,28,89,93,18,18,28,57,51,54,49,83,18,84,9,94,59,86,51,68,100,87,17,20,0,0,89,42,0,59,0,0,16,90,69,62,83,0,99,83,53,0,18,68,46,115,46,106,86,59,89,83,0,84,0,0,0,0,0,0,0,0,0,0,0,0,0,0,0,0,0,0,0,0,0,0,0,0,0,0,0,0,0,0,0,0,0,0,0,0,0,0,0,0,0,0,0,0,0,0,0,0],"split_type":[0,0,0,0,0,0,0,0,0,0,0,0,0,0,0,0,0,0,0,0,0,0,0,0,0,0,0,0,0,0,0,0,0,0,0,0,0,0,0,0,0,0,0,0,0,0,0,0,0,0,0,0,0,0,0,0,0,0,0,0,0,0,0,0,0,0,0,0,0,0,0,0,0,0,0,0,0,0,0,0,0,0,0,0,0,0,0,0,0,0,0,0,0,0,0,0,0,0,0,0,0,0,0,0,0,0,0,0,0,0,0],"sum_hessian":[7.6556476E2,3.553013E2,4.1026343E2,2.3770976E2,1.1759154E2,9.878006E1,3.1148337E2,1.4238351E2,9.532625E1,3.6404625E1,8.118691E1,5.7106995E1,4.1673065E1,1.08920906E2,2.0256247E2,1.3951132E2,2.8721855E0,3.2273727E1,6.3052525E1,2.689226E0,3.3715397E1,6.876339E1,1.2423525E1,4.943249E1,7.6745024E0,2.2435238E1,1.9237827E1,8.3456635E1,2.5464268E1,1.0168605E2,1.0087642E2,1.21177734E2,1.8333593E1,1.6594553E0,1.2127302E0,1.5814321E1,1.6459406E1,1.2373806E0,6.1815144E1,1.2095834E0,1.4796426E0,3.1005373E1,2.710025E0,3.0131231E1,3.863216E1,1.0928139E1,1.4953866E0,3.2388582E0,4.6193634E1,4.4439487E0,3.2305539E0,1.0597509E1,1.18377285E1,1.11855E1,8.052328E0,4.5489803E1,3.7966835E1,7.3052864E0,1.8158981E1,8.722169E1,1.4464366E1,1.1561537E0,9.972027E1,1.19743805E2,1.4339291E0,4.377078E0,1.3956515E1,6.381021E0,9.4333E0,6.8718157E0,9.587589E0,5.6711258E1,5.1038833E0,2.9766302E1,1.2390709E0,1.4905908E0,1.2194343E0,1.7359884E0,2.8395243E1,2.0537628E1,1.809453E1,8.9804325E0,1.9477056E0,1.2482347E0,1.9906234E0,3.610053E1,1.0093105E1,3.2044249E0,1.2395238E0,8.917153E0,1.6803563E0,7.6409073E0,4.196821E0,1.2105002E0,9.974999E0,2.9132438E0,5.1390843E0,4.303364E1,2.456161E0,1.2333175E1,2.563366E1,2.3969674E0,4.9083195E0,1.7002483E1,1.1564977E0,8.409381E1,3.1278806E0,1.2237479E1,2.2268867E0,9.854885E1,1.1714172E0],"tree_param":{"num_deleted":"0","num_feature":"129","num_nodes":"111","size_leaf_vector":"1"}},{"base_weights":[2.6758E-5,-8.173271E-1,7.608637E-1,-1.2959697E0,-4.4899312E-1,2.7306348E-2,1.1301029E0,-1.4146389E0,-8.9886695E-1,-1.0089943E0,-1.6564794E-1,-4.3694934E-1,3.6223495E-1,8.990245E-1,1.3848511E0,-4.155869E-1,-1.4351599E0,2.1277584E-1,-1.0100695E0,-1.1032598E0,5.4701185E-1,-2.9810196E-1,9.102833E-1,2.620651E-1,-6.516649E-1,5.7029113E-2,8.580344E-1,7.1733654E-1,1.3771064E0,2.5047743E-1,1.4189397E0,1.3720388E-2,-2.9559618E-2,-1.4497361E0,-7.836891E-3,-2.5943784E-2,2.6277183E-2,-1.1702064E0,-2.6475528E-1,-1.1504349E0,1.739507E-2,-1.3390857E-2,1.0207294E0,-1.828902E-1,-8.6620903E-1,1.1289043E0,-1.7872472E-1,-2.2975E-1,3.790596E-2,-7.8033894E-1,7.2260123E-1,-8.3804715E-1,3.247614E-1,-1.9161671E-2,9.8954815E-1,-6.065223E-1,7.9310125E-1,4.0470725E-3,1.4224306E0,-2.379512E-2,3.225302E-2,5.1205933E-1,1.4327375E0,-4.3907024E-2,-6.6437507E-3,-2.9400506E-3,-3.8883395E-2,2.5546582E-2,-2.0300714E-2,-3.665575E-2,4.7553135E-3,3.6974095E-2,1.0365555E-2,2.404678E-2,-7.6629263E-3,1.4232256E-2,-3.1623855E-2,4.084701E-2,-3.726613E-3,-2.327422E-2,1.5102186E-2,2.3094982E-2,-1.825805E-2,-1.4075845E-2,-3.694126E-2,3.66788E-2,-8.103658E-3,-3.601319E-2,1.1166529E-2,2.350434E-2,-1.3743414E-2,3.325958E-2,-1.0961757E-2,2.1815155E-2,-3.8324308E-2,3.060373E-2,1.4286224E-2,1.059613E-2,4.3418337E-2,-1.8356986E-3,2.5495643E-2,4.364503E-2,2.0117234E-2],"categories":[],"categories_nodes":[],"categories_segments":[],"categories_sizes":[],"default_left":[0,0,0,0,0,0,1,0,0,0,1,0,0,0,0,0,0,0,0,1,0,0,1,0,0,1,0,0,0,0,0,0,0,0,0,0,0,0,0,0,0,0,0,1,0,1,0,0,0,0,1,0,0,0,0,0,0,0,0,0,0,0,0,0,0,0,0,0,0,0,0,0,0,0,0,0,0,0,0,0,0,0,0,0,0,0,0,0,0,0,0,0,0,0,0,0,0,0,0,0,0,0,0],"id":13,"left_children":[1,3,5,7,9,11,13,15,17,19,21,23,25,27,29,31,33,35,37,39,41,43,45,47,49,51,53,55,57,59,61,-1,-1,63,-1,-1,-1,65,67,69,-1,-1,71,73,75,77,79,81,-1,83,85,87,89,-1,91,93,95,-1,97,-1,-1,99,101,-1,-1,-1,-1,-1,-1,-1,-1,-1,-1,-1,-1,-1,-1,-1,-1,-1,-1,-1,-1,-1,-1,-1,-1,-1,-1,-1,-1,-1,-1,-1,-1,-1,-1,-1,-1,-1,-1,-1,-1],"loss_changes":[4.702431E2,6.368779E1,1.0604422E2,6.1741943E0,3.2764355E1,2.070649E1,1.4088379E1,1.8618774E0,5.04792E0,1.0802429E1,2.008176E1,8.551077E0,1.1650259E1,1.1123642E1,4.3638763E0,2.3509712E0,1.6247711E0,3.8882399E0,3.9528656E0,5.8989487E0,2.639259E0,7.992091E0,3.888154E0,7.103971E0,8.167942E0,1.1996888E1,6.4168167E0,1.0824543E1,1.9087524E0,4.9620237E0,7.462158E-1,0E0,0E0,1.6369476E0,0E0,0E0,0E0,3.8022575E0,4.075181E0,6.217331E0,0E0,0E0,6.686592E-2,7.688593E0,5.7220774E0,3.9686222E0,1.7965249E0,4.302335E0,0E0,5.007778E0,2.4154708E0,5.5100822E0,1.4142534E1,0E0,4.827896E0,6.431347E0,6.562744E0,0E0,4.4235992E-1,0E0,0E0,6.965562E-1,9.77005E-1,0E0,0E0,0E0,0E0,0E0,0E0,0E0,0E0,0E0,0E0,0E0,0E0,0E0,0E0,0E0,0E0,0E0,0E0,0E0,0E0,0E0,0E0,0E0,0E0,0E0,0E0,0E0,0E0,0E0,0E0,0E0,0E0,0E0,0E0,0E0,0E0,0E0,0E0,0E0,0E0],"parents":[2147483647,0,0,1,1,2,2,3,3,4,4,5,5,6,6,7,7,8,8,9,9,10,10,11,11,12,12,13,13,14,14,15,15,16,16,17,17,18,18,19,19,20,20,21,21,22,22,23,23,24,24,25,25,26,26,27,27,28,28,29,29,30,30,33,33,37,37,38,38,39,39,42,42,43,43,44,44,45,45,46,46,47,47,49,49,50,50,51,51,52,52,54,54,55,55,56,56,58,58,61,61,62,62],"right_children":[2,4,6,8,10,12,14,16,18,20,22,24,26,28,30,32,34,36,38,40,42,44,46,48,50,52,54,56,58,60,62,-1,-1,64,-1,-1,-1,66,68,70,-1,-1,72,74,76,78,80,82,-1,84,86,88,90,-1,92,94,96,-1,98,-1,-1,100,102,-1,-1,-1,-1,-1,-1,-1,-1,-1,-1,-1,-1,-1,-1,-1,-1,-1,-1,-1,-1,-1,-1,-1,-1,-1,-1,-1,-1,-1,-1,-1,-1,-1,-1,-1,-1,-1,-1,-1,-1],"split_conditions":[-2.8263268E-4,4.3318036E-1,4.8979184E-1,-7.3563973E-3,-1.40901655E-2,5.457477E-2,6.168719E-1,2.074101E0,1.13679074E-1,1.9268229E0,4.580096E-2,-2.5738953E-2,9.473749E0,1.9106323E-2,-2.526847E0,4.062894E8,3.3888362E-2,8.1295654E-2,-3.0197823E0,2.609423E-1,-1.1197946E6,5.4987505E6,-3.7436584E-1,1.6133394E1,-1.1532913E0,4.8194865E6,3.3927533E-1,-2.4505761E-1,-3.932305E-2,7.9609793E-1,7.203899E-2,1.3720388E-2,-2.9559618E-2,9.2762583E-1,-7.836891E-3,-2.5943784E-2,2.6277183E-2,8.732614E1,1.3E1,6.494415E1,1.739507E-2,-1.3390857E-2,2.0640734E7,-5.1844674E-1,1.1966372E8,1.7799232E0,1.0514175E0,2.3587655E-1,3.790596E-2,-8.78117E-3,7.5E1,4.6309528E-1,7E0,-1.9161671E-2,1.6199822E8,3.3766081E0,1.6E1,4.0470725E-3,1.5407133E-1,-2.379512E-2,3.225302E-2,1.0371314E0,1.9268229E0,-4.3907024E-2,-6.6437507E-3,-2.9400506E-3,-3.8883395E-2,2.5546582E-2,-2.0300714E-2,-3.665575E-2,4.7553135E-3,3.6974095E-2,1.0365555E-2,2.404678E-2,-7.6629263E-3,1.4232256E-2,-3.1623855E-2,4.084701E-2,-3.726613E-3,-2.327422E-2,1.5102186E-2,2.3094982E-2,-1.825805E-2,-1.4075845E-2,-3.694126E-2,3.66788E-2,-8.103658E-3,-3.601319E-2,1.1166529E-2,2.350434E-2,-1.3743414E-2,3.325958E-2,-1.0961757E-2,2.1815155E-2,-3.8324308E-2,3.060373E-2,1.4286224E-2,1.059613E-2,4.3418337E-2,-1.8356986E-3,2.5495643E-2,4.364503E-2,2.0117234E-2],"split_indices":[18,28,28,18,18,120,28,100,80,57,25,115,67,18,53,102,76,39,52,89,66,59,88,49,113,59,28,111,16,39,77,0,0,62,0,0,0,22,83,38,0,0,66,88,101,100,93,99,0,20,43,28,84,0,61,90,83,0,77,0,0,45,57,0,0,0,0,0,0,0,0,0,0,0,0,0,0,0,0,0,0,0,0,0,0,0,0,0,0,0,0,0,0,0,0,0,0,0,0,0,0,0,0],"split_type":[0,0,0,0,0,0,0,0,0,0,0,0,0,0,0,0,0,0,0,0,0,0,0,0,0,0,0,0,0,0,0,0,0,0,0,0,0,0,0,0,0,0,0,0,0,0,0,0,0,0,0,0,0,0,0,0,0,0,0,0,0,0,0,0,0,0,0,0,0,0,0,0,0,0,0,0,0,0,0,0,0,0,0,0,0,0,0,0,0,0,0,0,0,0,0,0,0,0,0,0,0,0,0],"sum_hessian":[7.5417224E2,3.6354645E2,3.9062582E2,1.5700417E2,2.0654227E2,1.3114922E2,2.594766E2,1.1890771E2,3.809646E1,6.853305E1,1.3800922E2,5.4835415E1,7.63138E1,1.384341E2,1.210425E2,2.8210084E0,1.160867E2,3.3813334E0,3.4715126E1,6.4892715E1,3.6403387E0,1.2352539E2,1.448383E1,1.2833844E1,4.2001568E1,4.7926235E1,2.8387564E1,1.0212388E2,3.6310215E1,3.7748158E0,1.17267685E2,1.1919669E0,1.6290416E0,1.1443092E2,1.6557806E0,1.1722889E0,2.2090445E0,2.810619E1,6.608936E0,6.343129E1,1.4614234E0,1.1940961E0,2.4462426E0,1.03797295E2,1.9728096E1,1.2031785E1,2.4520454E0,9.123787E0,3.7100573E0,3.880079E1,3.2007806E0,1.0544372E1,3.7381863E1,1.9813337E0,2.6406229E1,5.1489773E0,9.697491E1,1.41819E0,3.4892025E1,1.6829746E0,2.0918412E0,2.3286014E0,1.1493909E2,1.12967255E2,1.4636623E0,3.1404982E0,2.496569E1,1.4937648E0,5.115171E0,6.0212296E1,3.2189956E0,1.2339697E0,1.2122729E0,6.4338393E0,9.736345E1,2.2379591E0,1.7490137E1,1.0074716E1,1.9570693E0,1.2343049E0,1.2177404E0,2.2239587E0,6.8998284E0,2.4168552E1,1.46322365E1,1.9746027E0,1.226178E0,8.120845E0,2.4235263E0,2.3570332E1,1.381153E1,2.4439657E1,1.9665711E0,1.6953158E0,3.4536614E0,5.5206074E1,4.176883E1,1.1379669E0,3.375406E1,1.1670079E0,1.1615934E0,1.108174E2,4.1216846E0],"tree_param":{"num_deleted":"0","num_feature":"129","num_nodes":"103","size_leaf_vector":"1"}},{"base_weights":[-4.7246222E-3,-7.281813E-1,6.9340295E-1,-1.200335E0,-3.3383504E-1,2.8840965E-1,1.0666531E0,-1.3916951E0,-9.7529954E-1,-7.599488E-1,-6.41216E-2,-1.2370424E0,3.6354628E-1,5.7722896E-1,1.3129268E0,2.3188318E-4,-1.4190409E0,-1.0970361E0,-3.7739184E-1,-5.3701556E-1,-1.2734107E0,2.3258115E-1,-5.237097E-1,-4.485682E-2,-3.7440073E-1,-1.0383504E-1,5.785105E-1,-8.1392443E-1,6.6304034E-1,1.3312144E0,3.5706335E-3,-1.4385157E0,-1.2716104E-2,-1.1331763E0,1.4751454E-2,8.582664E-1,-6.750005E-1,-7.465244E-1,1.8712732E-1,-1.4163858E0,2.7438381E-3,4.534459E-1,-6.646577E-1,-6.046411E-1,3.7660647E-2,1.0011981E-2,-2.744606E-2,3.0339733E-1,-6.4661574E-1,1.0007273E0,3.659623E-1,5.752239E-3,-3.762045E-2,4.401786E-1,1.3623135E0,1.3435407E0,3.460029E-3,-1.5195876E-2,-4.375337E-2,-2.2026692E-2,-3.8175464E-2,4.118926E-2,-1.3178583E-3,-2.8243538E-2,1.9835053E-2,-2.5688274E-2,2.3794457E-2,-1.3140631E-2,3.0113246E-2,-5.083712E-3,-4.4944756E-2,-1.987643E-2,1.8278819E-2,-3.3140715E-2,1.1621119E-2,-2.3625426E-2,5.0779255E-3,-1.8774984E-2,1.9154556E-2,-4.2004496E-2,-4.9351784E-3,3.327403E-2,-4.397312E-3,2.3733092E-2,-3.6796316E-4,1.6082363E-2,-2.507056E-2,4.3984488E-2,2.3530973E-3,3.436341E-2,4.35329E-2],"categories":[],"categories_nodes":[],"categories_segments":[],"categories_sizes":[],"default_left":[0,0,1,1,1,0,1,0,0,0,0,0,0,0,0,0,1,0,0,0,0,1,0,0,0,0,1,0,1,0,0,0,0,0,0,0,0,0,0,0,0,0,0,0,0,0,0,0,1,1,0,0,0,0,0,0,0,0,0,0,0,0,0,0,0,0,0,0,0,0,0,0,0,0,0,0,0,0,0,0,0,0,0,0,0,0,0,0,0,0,0],"id":14,"left_children":[1,3,5,7,9,11,13,15,17,19,21,23,25,27,29,-1,31,33,35,37,39,41,43,-1,45,47,49,51,53,55,-1,57,-1,59,-1,61,63,65,67,69,-1,71,73,75,-1,-1,-1,77,79,81,83,-1,-1,85,87,89,-1,-1,-1,-1,-1,-1,-1,-1,-1,-1,-1,-1,-1,-1,-1,-1,-1,-1,-1,-1,-1,-1,-1,-1,-1,-1,-1,-1,-1,-1,-1,-1,-1,-1,-1],"loss_changes":[3.81927E2,6.8742966E1,5.7865784E1,5.903961E0,2.3366447E1,2.1761745E1,2.3336075E1,3.4086761E0,5.469673E0,8.345295E0,1.7283844E1,1.434824E0,1.7942268E1,8.740795E0,2.727951E0,0E0,1.078125E0,4.3832626E0,6.1684456E0,8.746296E0,4.647175E0,1.5594905E1,7.9125032E0,0E0,1.6054409E0,1.2777591E1,1.0588081E1,2.2056754E0,9.570417E0,1.7949066E0,0E0,8.400879E-1,0E0,2.7043762E0,0E0,1.6346452E0,5.182468E0,8.14806E0,7.3467846E0,1.8890076E0,0E0,1.1278222E1,7.6728215E0,6.9543304E0,0E0,0E0,0E0,1.0737555E1,8.749574E0,5.1744804E0,1.3318922E1,0E0,0E0,6.683812E0,1.923954E0,1.0800781E0,0E0,0E0,0E0,0E0,0E0,0E0,0E0,0E0,0E0,0E0,0E0,0E0,0E0,0E0,0E0,0E0,0E0,0E0,0E0,0E0,0E0,0E0,0E0,0E0,0E0,0E0,0E0,0E0,0E0,0E0,0E0,0E0,0E0,0E0,0E0],"parents":[2147483647,0,0,1,1,2,2,3,3,4,4,5,5,6,6,7,7,8,8,9,9,10,10,11,11,12,12,13,13,14,14,16,16,17,17,18,18,19,19,20,20,21,21,22,22,24,24,25,25,26,26,27,27,28,28,29,29,31,31,33,33,35,35,36,36,37,37,38,38,39,39,41,41,42,42,43,43,47,47,48,48,49,49,50,50,53,53,54,54,55,55],"right_children":[2,4,6,8,10,12,14,16,18,20,22,24,26,28,30,-1,32,34,36,38,40,42,44,-1,46,48,50,52,54,56,-1,58,-1,60,-1,62,64,66,68,70,-1,72,74,76,-1,-1,-1,78,80,82,84,-1,-1,86,88,90,-1,-1,-1,-1,-1,-1,-1,-1,-1,-1,-1,-1,-1,-1,-1,-1,-1,-1,-1,-1,-1,-1,-1,-1,-1,-1,-1,-1,-1,-1,-1,-1,-1,-1,-1],"split_conditions":[4.9261492E-1,1.1809206E-1,8.1996036E-1,1.9630653E1,4.31038E-1,-2E0,5.71451E-1,6.0700227E-2,-5.1273286E-1,-8.140732E-3,1.2466566E-3,3.5E1,-2.4779632E-3,3.422092E-1,2.0859904E0,2.3188318E-4,3.2212612E-1,2.4052204E-3,1.3E1,4.111384E1,8.208885E7,5.3523625E6,1.6778445E-1,-4.485682E-2,6.288665E-1,7E0,1.2218244E0,-4.721663E0,1.2458483E-1,1E0,3.5706335E-3,9.1674514E-2,-1.2716104E-2,9.918331E-1,1.4751454E-2,-2.7342084E-1,1.782287E0,5.2135577E0,1.0040421E0,2.0175438E0,2.7438381E-3,0E0,2.8935356E0,3.1464493E-1,3.7660647E-2,1.0011981E-2,-2.744606E-2,2E0,-4.721763E0,5.50434E6,3E0,5.752239E-3,-3.762045E-2,1E0,9.371173E8,7.635818E1,3.460029E-3,-1.5195876E-2,-4.375337E-2,-2.2026692E-2,-3.8175464E-2,4.118926E-2,-1.3178583E-3,-2.8243538E-2,1.9835053E-2,-2.5688274E-2,2.3794457E-2,-1.3140631E-2,3.0113246E-2,-5.083712E-3,-4.4944756E-2,-1.987643E-2,1.8278819E-2,-3.3140715E-2,1.1621119E-2,-2.3625426E-2,5.0779255E-3,-1.8774984E-2,1.9154556E-2,-4.2004496E-2,-4.9351784E-3,3.327403E-2,-4.397312E-3,2.3733092E-2,-3.6796316E-4,1.6082363E-2,-2.507056E-2,4.3984488E-2,2.3530973E-3,3.436341E-2,4.35329E-2],"split_indices":[39,39,39,44,28,41,28,119,53,19,47,108,15,28,57,0,99,21,43,38,66,59,110,0,39,84,51,51,98,29,0,110,0,117,0,52,113,53,93,90,0,73,78,53,0,0,0,84,52,59,83,0,0,72,101,44,0,0,0,0,0,0,0,0,0,0,0,0,0,0,0,0,0,0,0,0,0,0,0,0,0,0,0,0,0,0,0,0,0,0,0],"split_type":[0,0,0,0,0,0,0,0,0,0,0,0,0,0,0,0,0,0,0,0,0,0,0,0,0,0,0,0,0,0,0,0,0,0,0,0,0,0,0,0,0,0,0,0,0,0,0,0,0,0,0,0,0,0,0,0,0,0,0,0,0,0,0,0,0,0,0,0,0,0,0,0,0,0,0,0,0,0,0,0,0,0,0,0,0,0,0,0,0,0,0],"sum_hessian":[7.5419385E2,3.7035687E2,3.83837E2,1.6762016E2,2.027367E2,1.8494069E2,1.9889632E2,8.778628E1,7.9833885E1,7.787936E1,1.24857346E2,7.9557695E0,1.7698492E2,6.7699585E1,1.3119675E2,1.6962763E0,8.609E1,6.563544E1,1.4198447E1,5.572899E1,2.2150368E1,7.617434E1,4.8683002E1,5.5587482E0,2.3970213E0,5.59197E1,1.2106522E2,3.4403515E0,6.425923E1,1.2910417E2,2.0925655E0,8.400067E1,2.0893283E0,6.445597E1,1.1794649E0,2.3902702E0,1.1808177E1,4.319959E1,1.2529403E1,2.001589E1,2.1344774E0,6.1524147E1,1.4650194E1,4.719614E1,1.4868627E0,1.2031448E0,1.1938765E0,3.2201157E1,2.3718546E1,3.9296463E1,8.176875E1,1.2190268E0,2.2213247E0,4.9964718E1,1.4294515E1,1.2770455E2,1.3996216E0,2.3117445E0,8.168893E1,1.8307537E1,4.6148434E1,1.1897135E0,1.2005568E0,1.0091249E1,1.716927E0,4.0739445E1,2.4601424E0,7.359386E0,5.170017E0,1.4209251E0,1.8594965E1,7.140604E0,5.4383545E1,1.0294321E1,4.3558726E0,3.8161114E1,9.035024E0,8.304455E0,2.3896702E1,8.511272E0,1.52072735E1,3.5934353E1,3.3621097E0,3.7982986E1,4.378577E1,4.701097E1,2.9537454E0,1.30935755E1,1.2009392E0,4.9037834E1,7.866672E1],"tree_param":{"num_deleted":"0","num_feature":"129","num_nodes":"91","size_leaf_vector":"1"}},{"base_weights":[4.1496195E-3,-9.7314626E-1,6.94467E-1,-1.31945E0,-5.774414E-1,1.6422503E-1,1.1635172E0,-1.3336314E0,-2.376382E-1,-4.1662142E-1,-1.1121111E0,5.728102E-1,-2.9923537E-1,-3.790059E-2,1.1818684E0,-1.3437146E0,4.5816592E-4,-2.5072461E-2,1.3766217E-2,3.8287878E-2,-6.069043E-1,-1.24335E0,3.68572E-1,-4.2036757E-2,6.313978E-1,-1.778849E-2,-6.81103E-1,9.1150826E-1,1.3580482E0,-1.3540559E0,-2.9295608E-3,-3.5247633E-1,5.987594E-1,1.1063137E-1,-7.089837E-1,-6.36749E-4,-1.2917743E0,-1.6309895E-2,3.3253852E-2,9.6045E-1,3.992832E-1,2.5880712E-1,-5.942776E-1,-8.8978386E-1,1.508168E-1,-2.6293924E-2,9.7858983E-1,2.6542498E-3,1.3687567E0,-6.466984E-3,