tree
version=v4
num_class=1
num_tree_per_iteration=1
label_index=0
max_feature_idx=128
objective=binary sigmoid:1
feature_names=EMA_10 SMA_10 TEMA_10 EMA_20 SMA_20 EMA_50 SMA_50 TEMA_50 EMA_100 SMA_100 TEMA_100 EMA_200 SMA_200 TEMA_200 HMA_50 Dist_EMA_20 Dist_EMA_50 Dist_EMA_200 Dist_TEMA_20 EMA_20_Slope EMA_50_Slope EMA_20_Acceleration Donchian_High_20 Donchian_Low_20 Donchian_Mid_20 Price_to_Donchian_Mid Keltner_Upper_20 Keltner_Lower_20 Keltner_Position Golden_Cross Death_Cross Trend_Alignment_Bullish Trend_Alignment_Bearish Up_Days Trend_Persistence_10 SuperTrend_Up SuperTrend_Down Trend_Strength_Score RSI_14 StochRSI_14 RSI_3 Streak RSI_Streak_2 Percent_Rank_100 ConnorsRSI MACD MACD_Signal MACD_Hist ADX_14 Plus_DI_14 Minus_DI_14 ROC_10 ROC_20 ROC_10_Acc Price_Velocity Pos_Return Mom_Consistency_20 Rel_Vol_20 Vol_10 Vol_50 Vol_Acceleration OBV OBV_Trend MFI_14 VWAP_20 Dist_VWAP_20 ADL EOM_14 Smart_Money_Proxy Last_Swing_High Last_Swing_Low Higher_High Lower_Low Structure_Trend Gap_Up Gap_Down Gap_Size Upper_Wick Lower_Wick Upper_Wick_Ratio Lower_Wick_Ratio Bullish_Rejection Bearish_Rejection Days_Since_20d_High Days_Since_20d_Low Is_Consolidating Beta_60 Index_Correlation_60 Diversification_Score Idiosyncratic_Vol_60 True_Range ATR_14 ATR_Avg_20 ATR_Expansion Vol_Breakout_Score BB_Mid BB_Upper BB_Lower BB_Width Hist_Volatility_20 Ulcer_Index_14 Daily_Traded_Value Avg_Daily_Traded_Value_20 Liquidity_Score Tradability_Score Turnover_Ratio_Proxy Bull_Probability Bear_Probability Regime_Persistence_Days Regime_Transition_Prob Downside_Dev_20 Current_Drawdown Max_Drawdown_252 Sharpe_Proxy_20 Sortino_Proxy_20 Tail_Risk_5th_Pct_20 Vol_Adjusted_Trend_20 Stop_Loss_Prob_5Pct Dist_High_20 Dist_High_50 Dist_Low_20 Range_Compression Consolidation_Score NR7_Flag Mom_20_Pct_Rank Trend_Score_Pct_Rank Vol_Expansion_Pct_Rank Liquidity_Pct_Rank Drawdown_Pct_Rank
feature_infos=[71.231494309345095:160.38413189516126] [71.184531619571629:160.58636416378633] [70.783206931311383:167.09972578175118] [72.401652109622177:157.06453986001245] [71.641229427547216:156.44988046998395] [74.289437043744314:151.0016384330911] [72.964175805543519:151.91481746253635] [69.431631912113104:161.70504419682848] [76.65195965786063:147.20814466310631] [75.914957055117981:148.08776479929082] [71.484581259325395:157.91478329858228] [79.574283415235286:140.10029992227857] [78.653305000630425:139.96712085953922] [72.738758739104696:155.48547833803599] [68.843531400153282:160.6242854343605] [-0.097344928850635851:0.1026313532237387] [-0.13704953502441564:0.14955531646832609] [-0.19315298571581097:0.25014607503728042] [-0.061633423431320916:0.057396881860275244] [-0.041474529928075272:0.040627243026459321] [-0.025877988780869651:0.027393255562957165] [-0.03957612660159996:0.040284566704055148] [74.573386178212729:176.51829534254657] [68.071428903987282:146.89062581645686] [71.322407541100006:159.77919632358515] [-0.10651409676790513:0.10300971815678139] [78.799900654359305:174.52325625606719] [64.963426701549565:139.99099566372394] [0.032001371964811197:1.0120429611852686] none none [0:1] [0:1] [0:1] [0:1] none none [0:4] [13.023737483140891:93.133019270476325] [0:0.99999999999776956] [0.31330197217228317:99.504106434470259] [-11:12] [0.074082556955161749:99.969092666906633] [0:99] [1.5967053522665584:98.342417765056908] [-4.7158225270874823:5.1367175552451414] [-4.0846600506240236:4.780421802547357] [-1.8913292169740294:2.2263942982302818] [6.9168535103819142:100] [3.152903953949167:33.695730655249676] [0:32.535268791960078] [-13.577497264516451:17.235911623369869] [-17.333217673029235:20.668058028909801] [-16.497112646718161:16.874259278332691] [-6.6489400370012959:6.8092651127646917] [0:1] [0.14999999999999999:0.84999999999999998] [0.016598519151087184:2.9884820879041634] [1940097.7471642452:8255190.9383159559] [3816036.396359982:6213854.6179882586] [0.42753627593134746:1.5741347961950189] [-226869771.76436123:320862943.14025241] [-381.83714087315116:187.26304910162287] [7.5737750028953315:94.44857087931598] [71.57100938159607:157.79757804546216] [-0.12750768784744559:0.1355467926814227] [-59973368.635960326:129782965.79796645] [-1495.9736095492278:1679.9112781007345] [-16.001925328797736:15.787341682371295] [71.19271988661859:165.35907837127397] [68.997723608029006:162.76961419199822] [0:1] [0:1] [-1:1] [0:1] [0:1] [0:0.056703936570784638] [6.1421353805712897e-05:7.5821559092610471] [0.00019506091388166169:7.5953166002349235] [1.3151983125368331e-05:0.4999999999964031] [0.00012337515804492641:0.49999999999670852] none none [0:92] [0:117] [0:1] [0.63209094180090064:1.6502958055242831] [0.25304013801578606:0.59748785953595873] [-0.59748785953595873:-0.25304013801578606] [0.15619603579544009:0.28154667400062267] [0.18928793338037053:15.190633200469847] [2.622830094692207:9.1579561211676257] [3.3305658616814116:8.6002282589972374] [0.78375584298103873:1.3176118174267453] [0.058138856579097328:2.2346939556748877] [71.641229427547216:156.44988046998395] [73.352903133170884:169.47027810032802] [68.656595835172951:146.03805434018423] [0.026158042035796657:0.24422913723413056] [0.11430531321031777:0.37571133862209194] [0.27667503108749025:11.188605690187234] [9801365.1050662342:1443138713.8077085] [239813173.40020412:892638365.30686545] [3.3798730360517251:3.9506755487413496] [0.33798730360517248:0.39506755487413497] [0.016598519151087184:2.9884820879041634] [0.096797836244318536:0.82732777334033969] [0.071305537767277022:0.77439943237790965] [0:174] [0:0.82447959938300319] [0.044584726275204246:0.22036475650550649] [-0.3686657435490166:0] [-0.3686657435490166:-0.0097919538050433869] [-15.843853164709225:12.296469220927433] [-16.672790569773262:42.000686032545318] [-0.03441785140289251:-0.0037433448274166443] [-1.1796864725686758:1.0451982009454872] [0.95627126821082642:0.99793892413151641] [0.00089019192709890711:0.25333296258726745] [0.002234481804355122:0.38522435774283242] [6.3047075305425437e-05:0.27946059085303043] [0.017138859699383165:2.2346939556748877] [0.0065395105089491807:0.061057284308532675] [0:1] [1:1] none [1:1] none none
tree_sizes=6872 6915 6943 6893 6888 6903 6910 6916 6899 6893 6896 6883 6892 6896 6963 6918 6928 6926 6916 6919 6920 6914 6897 6908 6906 6903 6924 6928 6927 6938 6936 6919 6928 6929 6961 6923 6894 6924 6905 6917 6943 6915 6969 6943 6927 6899 6910 6919 6921 6936 6913 6912 6923 6919 6912 6846 6943 6940 6950 6951 6968 6967 6955 6950 6967 6943 6726 6953 6962 6959 6627 6944 6406 6193 6940 6958 6927 6919 6873 6951 6944 6837 6964 6538 6959 6857 6755 6973 6954 6944 6975 6952 6527 6971 6959 6995 6942 6670 6453 6456 6971 5514 6981 5092 5716 4653 5830 4977 4966 5597 5510 6365 5279 4472 4034 5819 6324 6231 6528 5396 5293 5531

Tree=0
num_leaves=64
num_cat=0
split_feature=40 40 54 40 40 40 18 78 38 110 18 39 53 48 80 18 66 87 87 87 40 50 18 98 87 91 89 59 48 51 18 111 10 43 60 89 43 89 20 54 62 80 40 48 17 101 67 48 62 39 67 18 83 112 51 53 9 83 78 118 101 38 50
split_gain=1077.65 205.559 79.4439 76.1577 22.8355 21.9267 20.4261 14.8241 14.2476 11.1009 10.9942 11.5534 10.7252 10.2965 10.1824 12.8172 10.1758 10.0201 10.5874 10.1176 9.16926 8.73052 8.61042 8.43257 8.81014 8.40755 8.26497 11.5621 8.21929 7.82356 9.63974 7.37547 7.09551 6.70574 6.64421 6.0063 5.99099 6.11328 11.7634 5.33749 4.61112 4.53417 4.4255 4.99333 4.66235 4.40519 4.37519 4.32371 3.74643 3.58743 2.81088 2.72794 4.3593 2.5648 3.65782 2.51136 2.23074 3.60066 2.20061 1.7896 1.43166 1.4133 0.900166
threshold=43.776720215302014 66.007698116560334 -0.4447736541289728 26.182843721899598 61.220041266944712 77.015870604378208 -0.0076433406286355665 3.0660326762801664 45.046644653018753 0.13123065841340542 -0.0019639710091174365 0.27818765700610898 -2.5257869028784916 9.8949264762386964 0.12186609196802757 0.0071868006743408906 -16748990.314529188 0.50792315141526301 0.43525642585523894 0.40309256894233797 50.508659465205263 15.585629894416215 -0.0014494826726235484 0.09854894616017125 0.34244985176821202 4.3003208637253882 0.19919679800077059 5299244.3308950262 15.099240625790554 2.006821624091641 -0.0034250995639563617 -0.11712622691284351 96.505050927381561 29.500000000000004 1.2020590678894358 0.19664920004732886 55.500000000000014 0.21332618703257655 0.0064464488611341896 0.95376499386144087 0.029106702879081136 0.49999999998954525 20.572462254576511 25.995298675526708 -0.081906668348643893 925395729.42083657 92.324747232722345 9.7364859656510525 0.078589018569327845 0.13770814800528663 -48.80580369099291 0.013959996788677724 9.5000000000000018 -0.1945449243559623 0.17880944942214663 0.71289693316230374 93.358729903620386 1.0000000180025095e-35 0.59783784415327557 0.075833931961923465 991206696.87127483 54.269702150658595 16.918466291530713
decision_type=2 2 2 2 2 2 2 2 2 8 2 8 8 2 2 2 2 8 10 10 2 2 2 10 10 2 10 10 2 10 2 2 2 10 10 10 10 8 8 2 2 2 2 2 2 2 10 2 2 8 10 2 2 2 10 10 2 2 2 8 2 2 2
left_child=3 2 9 42 7 16 13 12 14 20 11 -9 31 -5 -8 25 -3 18 19 -6 28 -10 -18 24 -14 -16 27 39 -2 30 -23 -4 -25 41 36 -12 37 38 -15 -24 -37 -22 59 44 -44 58 -33 -7 -27 -39 -20 52 56 61 -55 -46 57 -49 -28 -1 -61 -11 -63
right_child=1 5 4 6 17 47 8 10 21 53 35 -13 23 34 15 -17 22 -19 50 -21 33 29 26 32 -26 48 45 -29 -30 -31 -32 46 -34 -35 -36 40 -38 49 -40 -41 -42 -43 43 -45 55 -47 -48 51 -50 -51 -52 -53 -54 54 -56 -57 -58 -59 -60 60 -62 62 -64
leaf_value=-0.015222983533847323 0.056328645604146049 0.030323859960445239 0.012474421293763024 0.032324228086883768 0.057363318772993561 0.060874936800597253 0.044326436845514919 0.044326436845514905 0.064511969757758192 0.086334167500723924 0.023465454955513158 -0.018032865183025173 -0.0027144781278297496 0.01716889668827325 0.023922681955841959 0.031188884015121359 0.03832533246619934 0.012772242851049151 0.052042142476063508 0.0063194424431829432 0.08633416750072391 0.011837699343703019 0.082904964998257835 -0.015017817572161307 0.03361418510299833 -0.018549999128755476 0.061329565920242378 0.014320914948937042 0.0047191479420321258 -0.0075961619146502762 0.06451196975775822 -0.033687920085587547 0.018495596256287009 0.032324228086883768 0.011725842784908685 0.042689772014792488 -0.033687920085587547 -0.011042243182509903 -0.021054016129133719 0.051661119975789503 0.081115815866536461 0.050327541224830491 -0.0036823981890096828 0.008319810569621465 -0.031720344879254583 0.051327725288049748 0.00060410493907287269 0.086334167500723952 0.0080588929879120939 -0.033687920085587547 0.079666273745928856 0.085758521996712855 0.050327541224830491 0.080618829996613878 0.046326804971953434 -0.013684238821202309 0.085121823181670275 0.050327541224830484 0.08061882999661385 -0.032091173909272984 -0.015684606947640824 0.080333063121408366 0.062329749983461635
leaf_weight=6.4988036155700675 4.9990797042846697 7.4986195564270011 9.7482054233551043 4.9990797042846671 7.2486655712127703 8.2484815120697004 4.9990797042846671 4.9990797042846689 5.4989876747131374 12.997607231140138 5.249033689498904 5.7489416599273691 7.7485735416412345 14.747285127639774 6.2488496303558341 9.248297452926634 8.7483894824981672 7.7485735416412345 5.2490336894989005 6.7487576007843018 8.4984354972839373 7.2486655712127721 8.7483894824981743 11.247929334640505 26.745076417922974 27.744892358779907 5.9988956451416007 4.9990797042846671 6.248849630355835 5.7489416599273673 5.498987674713133 9.248297452926634 11.497883319854735 4.9990797042846671 9.248297452926634 5.498987674713133 12.997607231140135 13.247561216354372 14.2473771572113 11.247929334640501 5.7489416599273682 4.9990797042846671 8.9983434677124006 4.9990797042846671 30.494386196136475 5.9988956451416007 5.2490336894989005 4.9990797042846662 5.7489416599273673 11.997791290283201 8.9983434677124006 104.23081183433533 4.9990797042846671 5.2490336894988996 5.9988956451416016 8.9983434677124006 24.745444536209106 4.999079704284668 47.241303205490112 112.72924733161926 4.9990797042846671 4.9990797042846662 4.999079704284668
leaf_count=26 20 30 39 20 29 33 20 20 22 52 21 23 31 59 25 37 35 31 21 27 34 29 35 45 107 111 24 20 25 23 22 37 46 20 37 22 52 53 57 45 23 20 36 20 122 24 21 20 23 48 36 417 20 21 24 36 99 20 189 451 20 20 20
internal_value=0.0268303 0.0566212 0.0345881 -0.0139363 0.0222809 0.0748187 0.00111472 0.0154246 0.0120897 0.0624235 0.0345815 0.0109715 0.00901933 -0.00938897 0.00354115 -0.00062061 0.063942 0.0429929 0.0512835 0.0327529 0.0490164 0.031324 0.0666531 0.0161029 0.0254534 -0.00802282 0.0695952 0.0551284 0.0276567 0.0214574 0.0345599 -0.00770376 0.00192303 0.0620054 -0.0121153 0.0499638 -0.0153946 -0.0110109 -0.00161305 0.0653303 0.0623297 0.0729984 -0.027442 -0.0202275 -0.0231705 0.0756993 -0.0212718 0.0819984 -0.0139828 -0.0218045 0.069489 0.0832086 0.076521 0.0740691 0.0623297 -0.0276109 0.0802899 0.0683309 0.0784454 -0.0305485 -0.0313945 0.0798112 0.0713314
internal_weight=798.603 461.415 208.712 337.188 144.723 252.703 159.471 108.73 77.9856 63.9882 27.245 10.748 81.485 81.485 53.9901 48.991 100.482 35.9934 28.2448 13.9974 29.7445 23.9956 92.9829 57.2395 34.4936 39.7427 84.2345 24.9954 11.2479 18.4966 12.7477 24.2455 22.7458 18.4966 76.4859 16.497 67.2376 54.24 28.9947 19.9963 11.2479 13.4975 177.717 53.4902 48.4911 59.2391 14.4973 152.222 33.4938 25.2454 14.2474 143.973 39.7427 34.2437 11.2479 39.4927 34.7436 9.99816 53.2402 124.227 117.728 22.9958 9.99816
internal_count=3195 1846 835 1349 579 1011 638 435 312 256 109 43 326 326 216 196 402 144 113 56 119 96 372 229 138 159 337 100 45 74 51 97 91 74 306 66 269 217 116 80 45 54 711 214 194 237 58 609 134 101 57 576 159 137 45 158 139 40 213 497 471 92 40
is_linear=0
shrinkage=1


Tree=1
num_leaves=64
num_cat=0
split_feature=40 40 54 40 40 18 40 78 57 50 59 110 18 39 53 54 63 121 90 80 100 48 21 48 45 119 121 77 18 49 56 92 53 21 43 20 38 119 84 18 59 114 18 50 48 114 99 80 110 83 51 39 18 119 19 120 57 108 53 40 66 38 115
split_gain=1014.36 193.837 73.9066 71.6612 25.1012 19.2354 15.3341 13.9468 12.3729 12.0609 14.8182 10.8559 10.3494 10.8695 10.0902 9.41284 12.1231 8.59663 10.851 8.48534 8.25288 13.8347 8.04686 8.60027 7.94306 7.82464 7.47457 7.42545 13.8141 7.41681 7.10726 7.94247 6.89715 9.60918 6.18896 8.37718 10.9599 6.18875 6.16893 6.92332 5.33121 5.15851 4.29832 4.68073 4.08819 3.92034 3.905 3.90333 3.89883 3.21399 3.00257 2.74225 2.58045 4.23314 2.45582 4.43878 2.41506 2.41171 2.17831 3.06455 2.7889 1.83437 1.77257
threshold=43.776720215302014 64.61417449574013 -0.4447736541289728 26.182843721899598 77.015870604378208 -0.0091663170846665119 61.220041266944712 3.0660326762801664 1.0624547457778262 15.585629894416215 5204040.8242091266 0.13123065841340542 -0.0019639710091174365 0.27818765700610898 -2.5257869028784916 -0.098816457875145133 55.93786820000178 0.92731249206807731 4.0657141541584858 0.49999999999044292 4.36168144350028 15.165581595427485 0.0078622451981395104 15.027097970694982 -0.81767102975046402 0.14432136899485193 1.1029480709328185 2.4195263559102433 0.0021781097692526136 20.311903311865727 0.52500000000000013 5.7740066426794359 2.8166866145707012 -0.0034746096043539064 55.500000000000014 0.0066944457290410127 50.144922175495559 0.1200550795750225 11.500000000000002 0.001602448030435092 5499195.1015006676 -1.7290786659701998 0.0033329613038707152 14.370136237398926 9.7364859656510525 1.9004306051159605 0.1947545366398252 0.39772147310609746 0.099637620623801451 6.5000000000000009 -0.084985958331478526 0.1296500387452417 0.013959996788677724 0.066198731702516625 0.0066671646316738267 0.10579959900894888 1.9190720223412341 62.500000000000007 0.51799675650666543 20.572462254576511 26678553.765099067 59.79342381767831 -0.024125735767811872
decision_type=2 2 2 2 2 2 2 2 2 2 10 8 2 8 8 2 2 2 2 2 8 2 10 2 2 10 2 2 2 2 8 10 10 10 8 10 2 8 2 2 8 10 2 2 2 10 10 2 10 2 10 10 2 10 10 10 2 2 10 2 2 2 8
left_child=3 2 11 42 15 34 7 14 9 -7 27 22 13 -9 25 -3 40 18 -16 38 21 -10 23 -2 -8 45 62 28 -11 -19 31 -14 33 -26 35 36 41 -29 -18 -40 46 -5 43 47 -6 -4 -17 -1 -24 61 -48 -43 53 57 -13 -56 58 -46 -45 -60 -61 -37 -22
right_child=1 4 6 5 44 8 24 12 20 10 -12 54 30 -15 17 16 19 29 -20 -21 26 -23 48 -25 32 -27 -28 37 -30 -31 -32 -33 -34 -35 -36 49 -38 -39 39 -41 -42 51 -44 56 52 -47 50 -49 -50 -51 -52 -53 -54 -55 55 -57 -58 -59 59 60 -62 -63 -64
leaf_value=-0.053545658133941777 0.030725688902353641 0.05091011858870334 -0.059427216372536909 -0.0086556767575099152 0.032750092739927884 0.033680891695261658 -0.016132666589280434 0.016678614999673796 -0.035262443570416899 -0.027130404544965493 0.022820156442294022 0.05171208610335469 -0.01926150876786642 -0.0438104154243487 -0.014416744105951698 0.018249910747578126 0.0034331569473825992 -0.036815086785705636 0.019334597494736656 -0.011393816971277806 -0.040240586782765715 0.029611582567477174 0.016505456439794793 -0.015131396961878216 0.040285490391873471 -0.00035643691726239415 -0.016860692132692347 -0.015102975513868605 0.021982200801270571 0.0052930010222814721 0.052037828757811912 0.031044915912978224 0.052785954066803788 -0.008184960829432061 -0.050659354668056905 -0.056991098788834162 0.0059805363860029308 -0.055983587973773598 0.0066885181954441627 0.046354485315744848 0.014106870228805267 -0.032092465836127196 -0.026834577698591395 -0.057305463825486923 0.055568362733537463 -0.031663035152543796 0.056050263108513222 -0.017764176366103158 0.050500568725622842 -0.023573625516565166 0.039410835511252768 -0.059983006590314789 0.056957875701057765 0.022145199235107167 0.01447100826423902 0.049973804932711252 -0.037832891809795738 0.035576341093814565 -0.059099777325784489 -0.024072840087751034 -0.053634727851796862 -0.035489494280282023 -0.060117885717239673
leaf_weight=5.248970687389372 6.4948686808347729 24.970600813627243 7.4985135048627916 5.2493821531534239 8.242361828684805 5.9954770505428305 5.9968275576829937 4.9975448846817025 7.2485290616750699 14.497111096978189 8.9974223673343641 19.967888399958611 4.9973882138729113 5.7495325207710275 23.496581107378006 5.2446490228176108 8.7412099391222018 15.247601464390756 13.497691065073012 7.7426695674657813 7.4984520375728607 4.9987495988607407 4.9955762177705747 8.4952548593282682 6.495803356170657 4.9998150914907447 8.9981943666934949 5.9990538358688328 7.998094528913497 4.9989396929740897 4.9935868084430686 6.496349573135376 5.2456028759479514 8.4951574057340604 20.745547831058502 12.498226970434194 9.4990447461605054 7.49882397055626 5.7474906295537975 12.735370099544523 6.7451061159372321 7.4995920956134796 5.4994072765111914 132.21884995698929 27.954799070954323 11.748667448759077 15.729501709342001 5.7492135018110275 7.7416127771139145 4.999624788761138 25.718829900026321 5.4992403537034988 104.05855952203274 4.9947508424520484 5.4941177666187269 7.4905746281147003 6.9987231045961371 6.7400365173816672 10.247558131814005 6.7496729046106321 4.9996849596500397 4.9993906915187827 8.7484054267406517
leaf_count=21 26 100 30 21 33 24 24 20 29 58 36 80 20 23 94 21 35 61 54 31 30 20 20 34 26 20 36 24 32 20 20 26 21 34 83 50 38 30 23 51 27 30 22 529 112 47 63 23 31 20 103 22 417 20 22 30 28 27 41 27 20 20 35
internal_value=-0.000297597 0.0286257 0.00596945 -0.0398422 0.0453285 -0.0252422 -0.00639475 -0.0113621 -0.0159093 -0.0062891 -0.0116155 0.0334681 0.00722393 -0.0156822 -0.0175738 0.0346454 0.0300514 -0.0107031 -0.00210227 0.0163177 -0.0289919 -0.00878399 0.0196349 0.0047374 0.014192 -0.0337937 -0.0387955 -0.0202236 -0.00966858 -0.0264185 0.022155 0.00917207 0.0231783 0.012818 -0.0368742 -0.0311824 -0.0201522 -0.0378144 0.0241989 0.0340198 0.0390379 -0.0337555 -0.0529434 -0.0537771 0.0532973 -0.0424797 0.0426393 -0.0348412 0.0371676 -0.0447865 0.0457254 -0.0438917 0.0544755 0.0479672 0.0451078 0.0349518 -0.055069 0.0516846 -0.0558512 -0.0471097 -0.0366523 -0.0508477 -0.0509439
internal_weight=798.182 461.001 195.635 337.18 265.366 159.468 134.956 108.722 88.4783 50.986 44.9905 60.6799 27.2344 10.7471 81.4878 113.375 88.4048 57.2408 36.9943 34.9667 37.4923 12.2473 27.7273 14.9901 26.2334 24.247 25.2451 35.9931 22.4952 20.2465 16.4873 11.4937 20.2366 14.991 70.99 50.2445 27.7473 13.4979 27.2241 18.4829 53.4381 18.2482 177.712 172.213 151.991 19.2472 46.693 10.9982 12.7372 22.4972 41.4483 12.9988 143.748 39.6896 32.9526 12.9847 161.214 34.6948 154.216 21.9969 11.7494 17.4976 16.2469
internal_count=3195 1846 783 1349 1063 638 540 435 354 204 180 243 109 43 326 454 354 229 148 140 150 49 111 60 105 97 101 144 90 81 66 46 81 60 284 201 111 54 109 74 214 73 711 689 609 77 187 44 51 90 166 52 576 159 132 52 645 139 617 88 47 70 65
is_linear=0
shrinkage=0.03


Tree=2
num_leaves=64
num_cat=0
split_feature=18 15 120 18 18 107 15 15 28 108 20 46 18 114 42 67 44 54 42 21 57 58 86 21 68 46 97 89 54 51 107 46 87 107 98 86 94 102 14 18 15 120 67 18 53 28 87 59 18 50 84 121 93 80 48 108 119 65 17 118 51 39 111
split_gain=798.483 143.9 138.301 59.2291 40.6432 31.0758 29.8555 21.5329 19.5133 17.344 13.8013 13.8996 13.3552 13.3532 12.6947 10.7399 10.4412 10.2121 9.99025 12.441 9.934 11.2141 9.8415 9.75295 9.53847 9.3789 8.97835 8.81941 8.38789 8.38706 9.7705 8.06059 7.81507 11.5494 9.50876 7.7964 7.51142 8.3533 6.99429 6.9588 6.83115 6.99572 6.85491 6.28833 7.1961 5.79753 5.58933 5.49921 5.16366 4.80079 5.81439 5.12012 4.66764 4.65134 4.45938 4.03874 4.30542 3.80364 3.10365 2.98206 2.81924 2.75433 2.64663
threshold=0.0017985125386281414 0.0017215697803564455 0.068176117377237097 -0.0091663170846665119 -0.0091663170846665119 0.46690741893361892 -0.0038576546990085948 0.035978048310131648 0.5937308447951648 36.500000000000007 0.0065453326033220139 0.91924785539795284 0.019255380206167929 10.094083729165925 61.721719211280124 -110.40233165939885 79.891768547754083 -0.61918071749690273 67.035608053105776 -0.0084326327563803254 0.39787413423401502 5023318.370689773 0.89454372288680595 0.00065560273811398403 0.17129878760226167 -0.49062327566363761 87.074257360184319 0.2297573809748176 0.85896576480040931 0.61167032312853731 0.3948833063140309 -1.6289252505583625 0.4612119099749849 0.56782838193500884 0.11614911324129985 0.96815535083672744 0.85331147870231294 508656571.5189864 79.886654963995596 0.007024863372618438 -0.022152461644633827 0.048813184590179533 -90.103130411571698 -0.01579284700681324 -2.5865798225211001 0.49478193574633617 0.44716843380313676 4984448.6511278572 0.012422539089916923 13.82720191966593 22.500000000000004 1.1567261674242191 1.0149333243974625 0.21691909629100906 15.925010142931646 8.5000000000000018 0.14361543709581948 -0.0092154984148104611 -0.071667556349385791 0.051022519300638801 -4.7515897889362728 0.50213134683008598 -0.21905497200178162
decision_type=2 2 8 2 2 10 2 2 10 2 10 2 2 8 2 8 10 2 2 10 2 10 10 8 2 2 8 10 2 10 10 2 8 10 10 8 2 2 10 2 2 8 8 2 8 10 8 10 2 2 2 2 8 2 2 2 10 8 2 8 10 10 2
left_child=1 4 6 7 40 17 9 10 12 27 11 -3 14 18 31 -14 29 26 20 -20 -5 54 57 -8 -23 -24 -6 32 -27 45 -31 -4 36 34 -34 -15 37 -2 -7 -11 -1 42 -42 -12 52 -16 -44 -28 49 -10 51 -51 -45 -33 -22 56 -40 -19 -38 -37 -43 -21 -62
right_child=2 3 8 13 5 38 23 -9 48 39 43 -13 15 35 16 -17 -18 22 19 61 21 24 25 -25 -26 28 47 -29 -30 30 -32 53 33 -35 -36 59 58 -39 55 -41 41 60 46 44 -46 -47 -48 -49 -50 50 -52 -53 -54 -55 -56 -57 -58 -59 -60 -61 62 -63 -64
leaf_value=-0.054873506758979514 -0.037082084261963646 -0.027854264559013627 0.0039671296975033569 -0.016758453833928204 -0.024561371676687239 -0.016530222478470837 0.051915938546123426 0.021306693023033466 0.052207176271499137 0.0018275559479736562 -0.048842702639995211 0.035207371093282959 0.012779736878417308 0.0084055120871441794 0.005524615671365629 0.054010126505898572 0.056812989294205841 -0.023602541197335795 0.014281754869927282 -0.018503247594031068 0.047815437969510093 0.03140768081680561 -0.038549252443252087 0.010371606649505729 -0.018665373824479414 0.012889007847008811 -0.00039972174329876359 0.017640011917389845 -0.031284190144820812 0.010399474241257031 -0.035038868915288734 0.019557722898676487 -0.0080099782352516802 -0.031668778614161064 0.041668746719705205 0.057113847404721009 -0.023615682652926791 0.017124734509370448 -0.015882368285722273 0.044600718077878389 -0.053579235799047165 -0.029452544355874664 -0.0020278749273915497 -0.028145996062999123 -0.045816320924887279 0.041726908186833694 -0.040997753578352725 0.041134671091451136 0.054535432086101301 -0.00038799858788088749 0.045254030359437335 0.039853698103408601 0.011511013939661464 0.049746313490800061 0.016935506863897287 -0.054161824832458655 -0.048132233398418246 -0.059042454034141705 -0.051936178229633041 0.028182783088981297 -0.034422166172624211 -0.049628173839036976 -0.053780426380144006
leaf_weight=98.075109347701073 5.2452361136674899 8.4940024316310865 4.990320771932601 7.4924925416707984 4.9945691227912929 7.7414736896753302 10.97217373549938 7.989661216735839 26.900571823120117 7.2421467304229719 25.717308893799778 4.9958669394254676 6.7320234626531601 7.2365620732307461 6.7424223423004177 36.595438286662102 4.983063042163848 4.9967213422060013 8.7398420572280902 4.9955069273710233 11.975675716996195 5.7369981408119193 7.2437557429075268 9.4797253608703631 8.4916481524705869 14.741003200411798 4.9936029314994794 6.4928776174783698 5.2455074042081824 16.465527728199962 5.7451349198818198 5.4883572161197653 10.239875972270967 10.744578182697294 5.2430452406406394 8.9723440706729853 4.9969599246978769 4.995046928524971 6.2447747290134421 6.4917110502719879 6.4920409768819809 6.2435894012451163 8.9929380863904953 5.7439364790916416 9.2399718314409309 9.7213577479124051 5.2439389973878869 6.743079736828804 92.557361304759979 6.2348290681839007 18.187877714633942 5.2346784919500351 4.9931989312171945 28.169598773121834 6.4896429032087317 28.467724397778511 9.2356720566749555 5.9964731931686384 11.492425218224525 4.9896807819604883 7.4915936887264243 5.2459389716386795 41.943362534046173
leaf_count=393 21 34 20 30 20 31 44 32 108 29 103 20 27 29 27 147 20 20 35 20 48 23 29 38 34 59 20 26 21 66 23 22 41 43 21 36 20 20 25 26 26 25 36 23 37 39 21 27 372 25 73 21 20 113 26 114 37 24 46 20 30 21 168
internal_value=-0.000288685 -0.0281243 0.032102 -0.0041312 -0.0407163 -0.0261258 0.000615076 -0.024922 0.0428329 -0.00834005 -0.0311627 -0.00449988 0.0341228 0.0132467 0.027026 0.0476039 0.0159405 -0.0104199 0.00592708 -0.0120097 0.0143992 0.0215396 -0.018976 0.0326596 0.00152411 -0.00930384 0.00912692 -0.0153596 0.00129565 0.0106743 -0.00135386 0.0395482 -0.0194055 -0.00777115 0.00881293 0.0336765 -0.0308214 -0.0106409 -0.0428238 0.0220455 -0.0496341 -0.0429089 -0.0280316 -0.039034 -0.0264069 0.026901 -0.0163818 0.023463 0.0501715 0.0430298 0.0347056 0.0179783 -0.00970389 0.0448237 0.0369627 -0.0474554 -0.0351227 -0.042934 -0.0433539 0.0467746 -0.0484477 -0.0344463 -0.0508468
internal_weight=797.052 428.667 368.384 147.54 281.127 106.644 93.6358 67.1739 274.749 73.1839 59.1843 13.4899 125.633 80.3663 82.3058 43.3275 43.6575 54.9547 59.1677 18.9813 40.1865 32.694 38.2235 20.4519 14.2286 27.2303 16.7313 59.45 19.9865 38.6744 22.2107 38.6483 52.9572 26.2275 15.4829 21.1986 26.7297 10.2403 51.6896 13.7339 174.483 76.4075 20.7289 45.6944 19.9771 16.4638 14.2369 11.7367 149.115 56.558 29.6574 11.4695 10.7371 33.658 18.4653 43.9482 15.4804 10.9932 16.4894 13.962 55.6785 10.2414 49.435
internal_count=3195 1717 1478 591 1126 427 375 269 1103 293 237 54 504 322 330 174 175 220 237 76 161 131 153 82 57 109 67 238 80 155 89 155 212 105 62 85 107 41 207 55 699 306 83 183 80 66 57 47 599 227 119 46 43 135 74 176 62 44 66 56 223 41 198
is_linear=0
shrinkage=0.03


Tree=3
num_leaves=64
num_cat=0
split_feature=40 40 40 42 18 54 40 40 54 18 94 42 89 42 59 19 93 62 86 50 42 18 26 18 25 50 80 89 43 54 83 60 89 78 12 98 39 17 108 106 62 102 26 57 112 50 18 60 48 77 48 47 80 78 39 98 16 43 18 83 57 9 83
split_gain=903.252 143.003 89.0843 70.697 28.8428 20.6749 25.8074 18.6642 14.7547 13.6774 13.0692 12.3246 11.8801 11.3867 9.53612 9.24371 8.27922 8.05444 8.02242 7.68463 7.91998 8.33387 7.58531 11.7176 7.56767 7.35632 7.17678 7.17428 7.05039 7.01339 8.17653 10.0309 8.78523 6.78162 6.25408 6.15209 7.09316 5.42379 5.1354 5.08765 4.53613 6.78803 4.2845 4.27732 4.13272 3.94684 4.29432 3.94114 3.78956 3.76409 4.83933 3.64658 3.63731 3.5295 7.92848 3.46424 2.38962 2.38957 2.34856 4.04697 2.25806 2.04937 3.36141
threshold=46.834840814065053 66.007698116560334 26.182843721899598 65.00296425674378 -0.0091663170846665119 0.88312998104900242 40.08459587346637 77.015870604378208 -0.84865744618686978 -0.0047352170818006929 0.59646495600579907 76.31222976105424 0.22157339680852581 38.724084214575278 5372573.7624990027 0.0062653604937448057 1.0283321438729136 -0.009380299966972953 1.0392590359663776 19.489186380800149 50.091150196272771 0.0061983810176401682 104.81569812098863 0.0050767584667031551 -0.010835810319007008 18.66143457338643 0.12186609196802757 0.17869091447158289 79.500000000000014 0.58097517693271084 8.5000000000000018 1.0669623929115286 0.21563253867370533 2.5944934727810041 85.020999468524195 0.064023734663494619 0.39975529851877556 -0.020548010825499102 24.500000000000004 0.32893886579935966 0.13973205676328246 529125850.72994477 105.06102488483603 0.5739067738317668 -0.29547511812130095 14.370136237398926 0.0033329613038707152 0.9509162906100298 9.7364859656510525 0.90597111166561473 14.681459970102656 0.057667261656249975 0.39772147310609746 2.4440427650572407 0.59606870967662351 0.084814285157419886 0.0033594224908168424 90.500000000000014 0.013959996788677724 9.5000000000000018 1.9190720223412341 93.358729903620386 1.0000000180025095e-35
decision_type=2 2 2 2 2 2 2 2 2 2 2 2 10 2 10 10 10 2 10 2 2 2 10 2 10 2 2 10 8 2 2 10 8 2 2 8 10 2 2 10 2 2 10 2 2 2 2 10 2 2 2 2 2 2 10 8 2 8 2 2 2 2 2
left_child=2 3 45 8 29 6 14 19 53 16 -8 12 35 15 26 -12 -10 -15 22 20 44 33 39 -24 28 34 -6 -28 38 30 37 32 -32 51 -23 -5 -37 -4 -13 -11 -39 -42 -14 -26 -3 52 60 -38 -9 -20 -51 -22 -1 56 -55 -45 -2 -21 59 61 -47 62 -50
right_child=1 7 4 11 5 -7 10 48 9 18 13 24 42 17 -16 -17 -18 -19 49 57 21 25 23 -25 43 -27 27 -29 -30 -31 31 -33 -34 -35 -36 36 47 40 -40 -41 41 -43 -44 55 -46 46 -48 -49 58 50 -52 -53 -54 54 -56 -57 -58 -59 -60 -61 -62 -63 -64
leaf_value=-0.050783014096140063 0.0320301023929691 0.02322053669694497 -0.015707431415260171 0.012462196189461925 0.011263356877240959 -0.04796917088572869 -0.027224202659556527 0.030749794675789081 -0.033646587809814374 0.010385994740038866 0.043193191686340428 -0.014015354653661558 0.0050634403707691044 -0.023452170705850966 0.01945392153303253 -0.0016905554177750407 0.017312489222170897 0.025028681855091633 0.057385885465949381 0.055721766532889037 0.03915071832933481 0.0051036880060090989 -0.030302214695254268 0.021170278854731429 -0.012484639435313756 -0.0032853029660480943 -0.057988130770860902 -0.022244254959571205 -0.028942413613548362 -0.054388912408524892 -0.007218257523971202 0.01543356127459042 -0.050086208037660444 -0.018872235719824146 0.04048336975696535 -2.2309665377967506e-05 -0.054295300966615286 -0.050922302387818294 0.028493987492594821 0.051818366770601178 -0.051804429242724277 -0.0040632188933542035 0.037707765602708145 -0.056073427178975795 0.053640979436820085 -0.05291294716946391 -0.025176854249543509 -0.017860679750215748 0.055115320623589953 0.046077524710150218 0.01445740157448934 0.0028628390222574869 -0.016197542103143968 0.0048366270180626126 0.049158450164738014 -0.027140251294832229 0.056098591754229231 0.031895202939477688 0.054084382585257308 0.020194781209760329 -0.035464886754996587 0.053784462187006485 0.020220410204094732
leaf_weight=5.2293644696474058 4.9703965783119228 5.4706180691719082 7.7359361648559561 6.4893918484449413 4.994594231247901 11.977908119559286 6.4964622706174842 8.213650315999983 6.7429671138524991 4.9898465126752871 16.700115859508518 5.2448321133852023 7.2357515990734083 7.4924943298101425 5.2435671091079703 5.4862822592258444 4.9948992133140564 5.2419133484363538 5.9818257093429592 15.901609405875208 4.9852399230003375 5.2293705642223349 6.7372373491525677 9.7276731431484205 4.9951493144035366 4.9817110002040854 5.7413571625947943 42.200622826814651 9.7382859736680967 13.201684206724165 8.7375537902116829 6.492021530866622 8.4767636954784376 6.2389673590660086 32.096915736794472 7.9868750274181393 5.7464897185564023 23.435646966099739 4.9921740591526031 5.7307690232992172 5.236860513687132 5.4907407909631729 7.2381968051195145 9.2406139671802485 15.15006999671459 153.54058003425598 5.4921693652868262 4.994191586971283 4.9602062553167325 8.4658071696758288 8.973503112792967 4.9840831607580185 5.7415540665388107 6.2348478138446799 8.7025493383407575 6.2390671968460092 14.670452848076819 4.9729731976985923 103.25557690858841 4.9782192111015311 6.9789184033870688 24.543011546134949 4.9778499454259872
leaf_count=21 20 22 31 26 20 48 26 33 27 20 67 21 29 30 21 22 20 21 24 64 20 21 27 39 20 20 23 169 39 53 35 26 34 25 129 32 23 94 20 23 21 22 29 37 61 617 22 20 20 34 36 20 23 25 35 25 59 20 417 20 28 99 20
internal_value=-0.000280248 0.0293385 -0.034788 0.00869467 -0.0205442 -0.0107307 -0.00625227 0.0439048 0.0259321 0.0172149 0.0118472 -0.0121523 -0.000275608 0.0191158 -0.0191369 0.0320943 -0.0119616 -0.00349581 0.0239822 0.033854 0.029583 0.0239491 0.0128954 0.000108372 -0.023806 0.0309567 -0.0229595 -0.0265248 -0.0106687 -0.0344382 -0.0304236 -0.0163435 -0.0283275 0.00565767 0.0355267 -0.0127102 -0.0214329 -0.03839 0.00671473 0.0325339 -0.0435263 -0.0273689 0.0213884 -0.0366228 0.0455705 -0.0501102 -0.0512619 -0.037354 0.0505649 0.0368509 0.0298072 0.0210089 -0.0326829 0.0416491 0.0306586 -0.0444119 0.0500077 0.0500455 0.0517053 0.0454799 -0.0521544 0.0491304 0.0376369
internal_weight=795.369 428.004 367.365 177.064 190.383 111.575 99.5974 250.94 96.9228 62.3445 41.4173 80.141 39.6909 34.9208 58.1801 22.1864 11.7379 12.7344 50.6067 100.012 79.137 58.5163 27.1855 16.4649 40.4501 42.308 52.9366 47.942 19.9753 78.8072 65.6055 23.7063 17.2143 16.2083 37.3263 25.2169 18.7276 41.8992 10.237 10.7206 34.1632 10.7276 14.4739 20.4748 20.6207 176.983 166.012 10.7407 150.929 23.4211 17.4393 9.96932 10.9709 34.5782 14.9374 15.4797 19.6408 20.8746 142.715 39.4593 160.519 34.4811 9.93806
internal_count=3195 1721 1474 710 763 447 399 1011 389 250 166 321 159 140 233 89 47 51 203 402 318 235 109 66 162 170 212 192 80 316 263 95 69 65 150 101 75 168 41 43 137 43 58 82 83 711 667 43 609 94 70 40 44 139 60 62 79 84 576 159 645 139 40
is_linear=0
shrinkage=0.03


Tree=4
num_leaves=64
num_cat=0
split_feature=40 40 42 40 40 18 54 42 42 48 98 18 100 57 51 86 48 63 54 120 89 40 23 21 53 42 91 98 101 77 57 18 43 57 57 84 58 43 80 58 40 15 100 12 58 38 121 121 88 40 48 53 16 48 46 89 63 58 80 89 53 40 57
split_gain=852.459 165.107 78.9839 61.3241 21.6047 16.2438 16.0849 12.9053 12.4871 11.3073 10.8295 10.3644 10.3028 11.01 10.2105 9.9844 8.85539 8.25261 9.15657 8.12817 10.9412 8.0943 8.07347 7.85704 7.81703 8.12581 7.42719 7.21823 7.03039 12.0977 6.80181 6.68143 6.54123 6.13363 10.488 5.80809 5.80304 8.99114 8.35946 5.73301 5.50391 5.22927 5.02941 4.56322 4.29071 7.04729 7.2453 4.30778 6.27524 3.86046 4.51316 3.84736 3.63461 3.63356 3.45634 3.30675 4.64235 3.44218 3.06323 2.8121 2.47594 4.25521 2.5155
threshold=43.776720215302014 64.61417449574013 65.00296425674378 26.182843721899598 77.015870604378208 -0.0076433406286355665 -0.84865744618686978 76.31222976105424 38.724084214575278 14.630353953609497 0.064023734663494619 -0.0039830119311438086 4.6509113460796199 0.69414197494845986 -1.8810427523972004 1.0035531965343167 9.8949264762386964 55.93786820000178 -0.098816457875145133 0.070217218591517416 0.19331944726188185 72.902979661372328 89.918912138714646 0.0023021428554509476 1.3333501743575125 72.578070833648567 5.7068041760450212 0.065751424908243775 759852218.81090105 1.7098865393515938 1.1529693467966127 -0.011721972108049648 50.500000000000007 1.0260103991181639 0.61035194754010758 6.5000000000000009 5893263.9830406476 36.500000000000007 0.49999999998196415 4367930.2468359163 39.345445065926363 0.0017215697803564455 6.1082945060342846 122.54604653623012 5529417.7769460967 54.69866019989994 1.0918262061234232 1.1615163748087334 -0.4614893870049388 20.572462254576511 25.995298675526708 2.172650904264855 -0.022342392372773565 9.7364859656510525 0.95797363550818559 0.21912321541892502 57.708127665038269 4367930.2468359163 0.49999999998622213 0.20600515632580033 0.71289693316230374 23.311450099712768 1.749631244069201
decision_type=2 2 2 2 2 2 2 2 2 2 8 2 10 2 10 10 2 2 2 8 10 2 10 10 8 2 2 10 2 2 2 2 8 2 2 2 10 8 2 10 2 2 10 2 8 2 2 2 8 2 2 10 2 2 2 8 2 10 2 10 10 2 2
left_child=3 2 6 49 17 16 31 10 9 27 30 32 -11 -14 28 22 -5 44 -19 -20 -21 -22 41 24 25 -12 -24 -7 29 -9 -4 -2 -8 34 -10 -15 55 38 -38 -17 -29 -13 -35 -33 47 59 -47 -3 -49 -1 60 54 -41 -6 -16 56 57 -18 -58 -46 62 -62 -51
right_child=1 4 7 5 53 8 11 14 33 12 23 15 13 35 51 39 36 18 19 20 21 -23 26 -25 -26 -27 -28 40 -30 -31 -32 43 -34 42 -36 -37 37 -39 -40 52 -42 -43 -44 -45 45 46 -48 48 -50 50 -52 -53 -54 -55 -56 -57 58 -59 -60 -61 61 -63 -64
leaf_value=-0.051717453895153961 0.0040521524445919256 0.050807975525252728 -0.0014141963880538976 0.0062029799295353133 0.029895471181924736 0.0073419093430686713 -0.0232399661622779 -0.031947975832688713 -0.032931216237680326 0.034161165535255118 -0.031471674084778675 0.0038459451930051925 0.030644025616379831 -0.0018300655067517461 -0.057991818226352049 0.0069083482494841876 -0.0049845040493608026 0.046138532009414777 0.050121668199350433 -0.029570045451318146 0.0038697435114775323 0.039538144194610748 -0.034824678150499326 -0.037651009792334336 0.029331539992156389 0.0097244078521285283 0.011499976260042781 -0.045408767751629477 -0.039482075884213624 0.021555216618489682 0.04638173825001056 0.045037707915673166 0.015209578515868176 -0.051991320813813274 0.019944383950149663 -0.046081614432033506 0.025526086067280504 -0.05064446025815552 -0.028743107833329701 0.022375862781272404 -0.0080033860502898048 0.045301027877058045 -0.015783940829193596 0.014209762132280314 0.025644682616042025 -0.016276145983612076 0.033776871554933696 0.0044832546938942033 0.045494559896487437 -0.052196145685006134 -0.014864452403995925 -0.018096682087827505 0.049393441931845729 0.050440106113946073 -0.030482608655879682 -0.048143820599340248 -0.056306718162708484 -0.03193753489977369 -0.027942273135273647 0.054624517748169406 -0.014385109363034426 -0.050968806851643074 -0.031241892039657049
leaf_weight=123.15157829225063 4.9853216707706443 29.230780065059662 5.4879270792007429 4.9935151934623709 8.1951953172683698 6.2388776689767864 9.7314127534627932 6.7385306656360653 9.4782897680997866 9.7279242873191851 9.7320040166378075 5.4861726760864276 5.2395861595869055 5.7401136457920057 11.227135375142103 5.9745566248893764 5.7287338972091701 10.879387259483336 4.9731827527284613 5.488428637385371 15.192624539136888 9.1895411014556867 5.9945089370012266 8.4857754707336408 4.9941272586584118 7.7335077524185172 6.4842764586210251 9.2325247526168805 6.2348066717386237 8.7325196862220746 5.2367356419563293 32.951181203126907 6.7403883486986151 11.218220189213755 5.2441023141145697 4.9900502860546112 4.9891176521778071 5.222380444407464 5.2349873185157776 6.7283860296011033 5.7423275858163825 5.4682422429323196 4.9879452586174002 4.9736846834421149 4.9629356265068072 4.9717226028442365 5.4625032395124435 5.2190596610307693 9.4160686582326871 30.502192184329033 4.9832257628440848 4.9898802191019049 13.418584331870074 141.917993247509 6.4848761409521094 23.112626701593399 9.9480699449777585 16.683457866311073 5.2272478044033042 7.6723153591156006 5.7241475880146009 5.7217019647359848 6.2050117999315253
leaf_count=497 20 118 22 20 33 25 39 27 38 39 39 22 21 23 45 24 23 44 20 22 61 37 24 34 20 31 26 37 25 35 21 133 27 45 21 20 20 21 21 27 23 22 20 20 20 20 22 21 38 123 20 20 54 576 26 93 40 67 21 31 23 23 25
internal_value=-0.000272256 0.0263455 0.00543187 -0.036617 0.0418664 -0.0231062 0.0224032 -0.0160464 -0.0133156 -0.00355917 -0.00405479 0.01311 0.00982287 -0.00500273 -0.0272987 0.0199627 -0.0324987 0.0319368 0.0221126 0.0146109 0.00869872 0.017313 0.00574521 -0.0130582 -0.00376646 -0.0132306 -0.0107533 -0.0197698 -0.0125871 -0.0017485 0.021924 0.0367027 -0.00750612 -0.0281138 -0.014097 -0.0224092 -0.0350366 -0.0186192 -0.00226104 0.032717 -0.0310651 0.0245396 -0.0408474 0.0409948 0.0386476 0.0281738 0.0099275 0.0441558 0.0308694 -0.0488013 -0.0420428 -0.0413648 0.0403705 0.0493185 -0.0479199 -0.0392144 -0.0337236 -0.0250481 -0.0465364 0.0432417 -0.0448554 -0.032673 -0.048654
internal_weight=793.054 457.786 195.015 335.268 262.772 158.98 108.937 86.0778 77.84 46.9114 41.6701 66.0265 25.6977 15.9698 44.4077 49.5547 81.1401 112.659 45.7232 34.8438 29.8706 24.3822 23.4332 30.9454 22.4596 17.4655 12.4788 21.2137 21.7059 15.4711 10.7247 42.9102 16.4718 30.9286 14.7224 10.7302 76.1466 15.4465 10.2241 26.1215 14.9749 10.9544 16.2062 37.9249 66.9354 23.0695 10.4342 43.8659 14.6351 176.288 53.1363 22.7019 20.147 150.113 17.712 60.7001 37.5875 22.4122 15.1753 12.6353 48.1531 11.4458 36.7072
internal_count=3195 1846 783 1349 1063 638 438 345 312 188 167 265 103 64 178 199 326 454 184 140 120 98 94 124 90 70 50 85 87 62 43 173 66 124 59 43 306 62 41 105 60 44 65 153 270 93 42 177 59 711 214 91 81 609 71 244 151 90 61 51 194 46 148
is_linear=0
shrinkage=0.03


Tree=5
num_leaves=64
num_cat=0
split_feature=40 40 40 42 42 40 107 27 40 18 40 79 43 40 67 108 49 42 111 1 68 51 21 94 62 19 68 83 44 80 90 50 116 65 44 40 66 39 25 39 67 42 60 101 14 44 21 57 76 93 120 44 17 49 15 21 89 79 108 48 79 77 60
split_gain=876.699 115.34 88.3761 43.7831 23.9568 20.618 15.1416 14.0345 12.649 10.5588 10.3498 10.0286 10.0142 9.10583 8.84014 8.35327 8.43685 8.17173 8.10367 9.158 7.82808 7.49248 9.4177 7.45675 8.24164 7.77618 6.92278 6.80833 6.57733 9.77134 9.6381 6.61647 6.0798 8.89955 5.86807 5.46626 5.31858 5.72827 4.93143 4.88492 4.85773 3.90609 5.13502 3.91993 3.79202 4.45406 5.66851 4.42016 3.08771 2.4508 2.44095 4.7631 5.89408 2.52256 2.29061 2.14425 3.31575 1.31029 1.21017 1.18889 1.14873 0.695113 0.680217
threshold=50.508659465205263 34.225194804944238 71.910516384103843 63.001358799763963 37.238217938293168 62.166151177199168 0.23306987144526559 71.644559455059863 40.08459587346637 -0.0012248705317128108 20.572462254576511 0.49999999998728611 39.500000000000007 59.079491386190902 98.185454467231821 13.500000000000002 16.806577486151657 67.980155418676276 -0.24650523664176122 83.172177970959851 7.2331319701532282 -4.525780370159679 -0.010888386991310998 0.57162683569383133 -0.068733171009058555 0.0062653604937448057 -11.309194770311624 5.5000000000000009 70.651779370999563 0.49999999999073674 4.235392067338446 18.057989401652261 -0.090679262195312901 -0.0092154984148104611 78.922970938124791 45.124946741270726 17712235.999385666 0.7032686798915454 -0.0098697847556490793 0.43943538230458967 -41.554892345560518 39.971498982172712 0.84217469991500715 294384950.00828654 95.532283747886666 40.286834477955885 0.011214107412827105 1.079301919001092 0.012558805293105154 1.0108528799588781 0.089860590294142353 74.374794450235512 0.043532310393242214 15.351044254584155 -0.0027670407445736073 -0.0037444083225473047 0.21241476225563591 0.49999999998760941 29.500000000000004 11.105636204585496 0.37120092221678985 3.5560221179142109 0.7806392096442788
decision_type=2 2 2 2 2 2 8 8 2 2 2 2 10 2 10 2 2 2 2 2 2 8 10 2 2 10 2 2 10 2 2 2 10 8 10 2 2 10 8 10 8 2 8 2 10 10 8 2 2 10 8 8 2 2 2 8 8 2 2 2 2 2 8
left_child=1 10 3 13 6 28 35 -6 11 -4 54 15 -7 14 36 -8 -17 -14 19 -12 34 22 -9 -10 -25 -26 -20 -16 29 30 -5 -30 49 -34 -19 -3 37 -2 -32 -35 -33 42 43 -28 57 -46 47 -47 -44 60 51 52 -11 -53 59 56 -52 -15 -38 -1 -23 -55 -57
right_child=2 4 9 5 7 12 8 21 23 50 18 -13 17 44 27 16 -18 20 26 -21 -22 32 -24 24 25 -27 41 -29 31 -31 38 40 33 39 -36 -37 58 -39 -40 -41 -42 -43 48 -45 45 46 -48 -49 -50 -51 55 53 -54 61 -56 62 -58 -59 -60 -61 -62 -63 -64
leaf_value=-0.041348553008758483 0.033127071053279465 -0.051452858841514987 0.011053122225300426 0.013073344538559432 0.024943227694477297 -0.02074360272273023 -0.056313778696771802 -0.034573335353504049 -0.015811300329968254 0.043949428353970102 -0.036949588003851633 0.014556530655482751 -0.0036036605924150513 0.054492607366133886 -0.020645517569166411 0.014238997312744342 -0.031519931963020428 0.041662665849209662 -0.010770920248458112 0.01379182261650946 0.00017544098505187054 -0.039373368728796071 0.013300534534093572 -0.0041579720077763943 0.041452766403974724 0.0084177870374451038 -0.0023586395973877821 0.024313979098868892 -0.047268616452227977 0.028936515045262814 -0.0049534059827367836 -0.029963136353558902 0.0059326840509658692 -0.022770522413502602 0.0092845671179722263 -0.0098389677642486423 0.035922815960270048 -0.0062382369274971237 -0.04145355707783243 -0.049127065718008713 0.01139729510617774 -0.052860017275348191 -0.044992335323542132 -0.038312965233711027 0.04867534020998969 0.051212603941832358 -0.0023404192485775082 0.01386056357360378 -0.023029557764911293 -0.028828742058868623 0.053273199873161356 0.029994364397579857 -3.3266212858909687e-05 0.053097150626237238 -0.030958063704368134 0.042268634622261637 0.019296815297490031 0.039577102336415218 0.054692867320970492 -0.052230530771215145 -0.056946171189472858 0.040652057646892815 0.051000385731955325
leaf_weight=9.8533108830451948 9.1761693507432955 6.2134179919958097 7.431047022342681 8.7293465286493355 4.992615431547164 5.7305944859981528 4.9708329886198106 6.7153808921575537 5.973036751151084 6.1570336520671827 7.7081913799047452 9.7171542495489103 9.4506090730428678 16.056611955165867 6.4689718037843686 6.4898114800453177 8.2189027667045575 23.069000989198688 6.458024948835372 5.4750436097383499 7.4490506947040549 4.9819929003715542 8.2311273217201215 9.2047429680824226 16.618020787835128 10.443017393350599 5.4701339155435544 5.7045430839061737 7.235371574759486 6.9785836338996878 5.4877485781908035 5.2379636168479919 6.9748125821352005 18.154694512486461 6.4452247768640509 5.2339807897806168 5.9532100707292539 5.2191318422555915 8.4781386852264387 9.7157950252294523 4.9907077103853208 25.767215520143509 54.052409157156944 5.4462948590517044 10.375023037195207 6.6981269866228086 5.2042602002620724 4.9648938626050949 6.448387384414672 6.2225392162799826 5.1622188687324497 6.3939375579357138 4.9441741853952408 22.840654656291012 5.1854403316974631 8.5807971060276014 5.1780411154031762 7.9129944145679465 6.4308567643165588 108.91343581676483 10.207337990403174 4.9070460051298133 124.97082726657391
leaf_count=40 37 25 30 35 20 23 20 27 24 25 31 39 38 65 26 26 33 93 26 22 30 20 33 37 67 42 22 23 29 28 22 21 28 73 26 21 24 21 34 39 20 104 218 22 42 27 21 20 26 25 21 26 20 93 21 35 21 32 26 442 41 20 510
internal_value=-0.000214507 -0.0313357 0.0320389 0.0174172 -0.0115305 0.00367325 -0.000388392 -0.0236796 0.00473126 0.0461311 -0.0444372 -0.0103797 0.0166716 0.032551 0.0216196 -0.0226925 -0.0113301 0.0212912 -0.0380304 -0.0158765 0.0276562 -0.0270889 -0.00820892 0.015248 0.0203635 0.0287044 -0.0408484 0.000422628 -0.0107057 -0.00210874 -0.0116549 -0.0253132 -0.032105 -0.024374 0.034592 -0.0324262 0.0312554 0.0188549 -0.0271112 -0.0319585 -0.00978282 -0.0428471 -0.0392344 -0.0202965 0.0408657 0.0332084 0.0236947 0.035312 -0.0426515 -0.0446862 0.0475093 0.0414313 0.0243607 0.0469818 -0.0504756 0.0494203 0.036259 0.0495686 0.0456698 -0.0513277 -0.0511824 0.0508963 0.0504394
internal_weight=786.07 400.057 386.013 189.447 159.279 99.2823 83.0829 76.1963 71.6355 196.566 240.778 29.3967 52.1445 90.1648 38.9529 19.6795 14.7087 46.4139 116.826 13.1832 36.9633 71.2037 14.9465 42.2388 36.2658 27.061 103.642 12.1735 47.1379 29.6738 22.6952 17.464 56.2572 34.8453 29.5142 11.4474 26.7794 14.3953 13.9659 27.8705 10.2287 97.1844 71.4172 10.9164 51.2119 27.2423 16.8673 11.663 60.5008 21.4119 189.135 45.2428 11.1012 34.1416 123.952 143.892 10.3403 23.9696 12.3841 118.767 15.1893 27.7477 133.552
internal_count=3178 1614 1564 763 640 399 334 306 288 801 974 118 210 364 157 79 59 187 471 53 149 286 60 170 146 109 418 49 189 119 91 70 226 140 119 46 108 58 56 112 41 392 288 44 207 110 68 47 244 86 771 184 45 139 503 587 42 97 50 482 61 113 545
is_linear=0
shrinkage=0.03


Tree=6
num_leaves=64
num_cat=0
split_feature=40 40 40 42 42 40 107 27 40 18 40 43 40 73 115 42 111 1 19 57 28 52 18 39 58 94 57 78 7 102 83 57 67 44 89 40 89 86 62 40 58 119 44 102 65 111 93 42 89 65 67 118 107 120 44 17 15 21 107 40 48 89 48
split_gain=828.453 109.631 84.4076 41.4191 22.5764 19.426 14.2775 13.2263 11.9199 10.1038 10.0062 9.43747 8.67909 8.08325 7.96399 7.8344 7.69753 8.64199 7.22888 8.38966 8.55094 7.59083 7.57634 11.2557 7.08695 7.02826 7.84443 14.5242 6.99092 6.54675 6.47383 11.3046 6.36986 6.19393 8.02499 9.34079 5.8112 5.63712 5.19824 5.18776 4.54585 4.07864 6.59185 6.12004 3.98426 3.78968 3.62339 3.33618 4.11789 7.09919 3.17097 2.6286 2.53556 2.35696 4.5593 5.59574 2.19815 2.06838 3.29669 1.81896 3.65368 1.4985 1.14106
threshold=50.508659465205263 34.225194804944238 71.910516384103843 63.001358799763963 37.238217938293168 62.166151177199168 0.23306987144526559 71.644559455059863 40.08459587346637 -0.0012248705317128108 20.572462254576511 39.500000000000007 57.95872089326906 -1.0000000180025095e-35 -0.015659561540002861 67.980155418676276 -0.24650523664176122 83.172177970959851 -0.012113642382046716 1.421596329899167 0.36055383195677038 -1.9619807187811085 -0.013977146036723917 0.30674934585840324 4344264.5991017846 0.57162683569383133 1.2851685285218635 2.1931141803755385 94.131442603854381 438203393.58411902 18.500000000000004 1.0859368212301022 92.324747232722345 70.651779370999563 0.21092977061238041 54.307317757479836 0.21332618703257655 0.95108404190343709 0.065450628677448455 45.124946741270726 5625950.0479118796 0.059835115851829587 40.286834477955885 563297023.11192882 0.0083464796623505238 -0.16764633156615211 1.0313734541832371 36.334472505168243 0.19821567452169156 -0.030588215481167181 -50.919280825860795 0.074794016181814207 0.39183558294009418 0.089860590294142353 74.374794450235512 0.043532310393242214 -0.0027670407445736073 -0.0037444083225473047 0.22775414994119084 76.78613980521304 15.974805754325276 0.20373629811009267 11.105636204585496
decision_type=2 2 2 2 2 2 8 8 2 2 2 10 2 2 10 2 2 2 8 2 10 10 2 10 10 2 2 2 2 2 2 2 8 10 8 2 10 10 2 2 10 8 10 2 8 2 10 2 10 10 8 10 8 8 8 2 2 8 8 2 2 8 2
left_child=1 10 3 12 6 33 39 -6 30 -4 56 -7 14 -13 32 -15 17 -12 19 20 -9 -20 -23 -24 29 -10 28 -28 -27 -18 31 44 45 34 38 -36 -35 -32 -5 -3 -17 42 -14 46 -8 -2 -44 48 49 -26 -43 -50 -31 54 55 -11 62 58 -55 60 -56 -47 -1
right_child=2 4 9 5 7 11 8 18 25 53 16 13 41 15 -16 40 24 -19 21 -21 -22 22 23 -25 47 26 27 -29 -30 52 37 -33 -34 36 35 -37 -38 -39 -40 -41 -42 50 43 -45 -46 61 -48 -49 51 -51 -52 -53 -54 57 59 -57 -58 -59 -60 -61 -62 -63 -64
leaf_value=-0.04032943345278267 0.01318547246745351 -0.050118310138442868 0.010731942421953015 0.036001016091706112 0.024189483950864118 -0.02010647776412473 0.0012725263986176209 -0.01775393394838589 -0.015334943751254972 0.042877005909457894 -0.035940594981799745 -0.011185617580834077 0.049685996247607965 -3.4103144304746147e-05 -0.013560766255423662 0.039316522221071175 -0.0059855776628854173 0.013369931213223852 -0.050081391374349131 -0.044526007172327554 0.029164213477240433 -0.048387523816652483 0.0030267523759214001 -0.035636541324742421 0.0018877790885223344 0.052257987755506198 0.035097137877754273 -0.030608614607363433 0.018108378748519879 -0.024762038441399199 -0.0018834509644069409 0.033273611379941365 0.0047444921346661718 -0.043424514564854168 -0.037540857359784907 0.0058186109891814946 -0.0086754627060178485 -0.042214034168868993 -0.0040421940057188349 -0.0095420713047718129 0.013607544028514256 0.029577610888210128 0.012335611125562947 -0.0099403173325069705 -0.036739289742497287 0.030399174799293063 0.048254942313357099 -0.05270182872539584 -0.031670345846875704 -0.040005299173846071 0.05118017341773775 -0.049308161206808809 -0.05445916197806755 0.052363688282943584 0.052844922072571104 -3.2266822538536935e-05 -0.030139930034449217 0.049307300628664938 0.018403036612829302 0.050396131598840467 0.016685985951723863 0.050913685183966981 -0.051019860613963408
leaf_weight=9.8000322580337507 4.9507697820663479 6.1878753304481489 7.4239450991153708 6.2346932142972964 4.9937185347080222 5.7347500175237647 4.9782052338123348 8.9619908779859561 5.9738087952136985 6.1222208142280561 7.6871636807918531 6.2012469768524161 9.075145751237871 8.4575911760330182 5.4754434376955023 23.233021661639217 9.6579522639513034 5.4783234745264053 15.13766725361347 4.9745624512433997 5.732085093855857 9.1559921503066963 13.197266474366193 13.929315313696859 5.2055090814828899 8.1742935478687304 5.6929938197135908 6.4675412476062775 15.868925034999846 4.9426554292440388 5.230904206633566 6.4759512692689887 8.6820966750383395 7.9833153933286694 8.4729380160570162 9.468514144420622 9.4684416502714139 7.7260355204343796 5.484185978770256 5.2349132746458054 8.4381180256605131 8.1656086742877942 4.9384693503379804 4.967904493212699 4.9487768262624767 4.9405216276645634 5.1773970723152161 25.387850180268288 10.145962491631506 12.109502807259558 24.356215000152588 30.360491722822189 5.4304608851671228 5.1335487961769077 5.1504523605108243 4.9441906362771988 5.1666933745145789 132.53457844257355 5.1568261981010446 23.848846033215523 4.9151226878166199 9.1206964254379272 108.16409747302532
leaf_count=40 20 25 30 25 20 23 20 36 24 25 31 25 37 34 22 94 39 22 61 20 23 37 53 56 21 33 23 26 64 20 21 26 35 32 34 38 38 31 22 21 34 33 20 20 20 20 21 103 41 49 99 123 22 21 21 20 21 545 21 98 20 37 442
internal_value=-0.000208592 -0.0305107 0.031223 0.0169336 -0.0112017 0.00356726 -0.000377392 -0.0230045 0.00459577 0.0450584 -0.0433311 0.0161972 0.0316875 0.0206909 0.0194991 0.0256169 -0.037025 -0.0154219 -0.0263197 -0.0108516 0.000548599 -0.0322363 -0.0247911 -0.0168266 -0.0397798 0.0148129 0.0197874 0.000151746 0.0297187 -0.0237599 -0.0100818 0.00243851 0.0260354 -0.0103904 -0.00204653 -0.0146581 -0.0245714 -0.025932 0.0172616 -0.0315228 0.0324669 0.0388201 0.0294831 0.017328 -0.017677 0.0357582 0.0307195 -0.0436363 -0.0396559 -0.0274107 0.0457562 -0.0448903 -0.0403089 0.0464153 0.0404266 0.0237062 -0.0492929 0.0483013 0.035345 0.0458825 0.0351881 0.0437057 -0.0501317
internal_weight=782.836 398.58 384.257 189.027 159.043 99.1768 82.9602 76.0826 71.5374 195.23 239.537 52.0647 89.8503 46.33 33.1695 40.1287 116.406 13.1655 71.0889 19.6686 14.6941 51.4202 36.2826 27.1266 103.24 42.1776 36.2038 12.1605 24.0432 20.0311 29.3599 16.4029 27.6941 47.1121 29.6603 17.9415 17.4518 12.9569 11.7189 11.4228 31.6711 56.6807 24.1589 15.0838 9.92698 19.012 10.1159 83.2093 57.8215 17.315 32.5218 40.5065 10.3731 187.806 44.9808 11.0664 123.131 142.825 10.2904 33.9144 10.0656 14.0612 117.964
internal_count=3178 1614 1564 763 640 399 334 306 288 801 974 210 364 187 134 162 471 53 286 79 59 207 146 109 418 170 146 49 97 81 118 66 112 189 119 72 70 52 47 46 128 230 98 61 40 77 41 337 234 70 132 164 42 771 184 45 503 587 42 139 41 57 482
is_linear=0
shrinkage=0.03


Tree=7
num_leaves=64
num_cat=0
split_feature=40 40 40 54 40 54 40 19 27 54 40 18 86 25 51 54 57 58 43 47 67 48 68 25 66 111 1 58 101 40 59 40 100 79 47 108 104 115 83 84 111 16 19 98 63 89 98 120 108 86 57 15 18 99 63 84 51 104 114 100 48 100 101
split_gain=783.41 104.368 80.7645 22.5043 26.0441 16.4135 13.0244 11.6398 10.2602 9.73481 9.70324 9.69175 8.81504 8.26786 8.06329 10.5398 9.19893 11.9558 7.94704 12.1736 8.2877 7.80361 8.1504 9.20198 7.55882 7.32375 8.16002 6.75997 7.44397 6.2454 6.24312 6.2315 6.18035 6.01336 5.77831 4.29161 4.19877 3.89699 3.85714 3.60012 3.16617 3.16095 6.91217 3.15374 4.94934 2.42561 3.91065 2.281 3.3285 3.03765 2.25054 2.11783 1.67802 2.53429 1.82736 1.39984 1.25546 1.16966 1.15752 2.65957 1.1006 0.61687 0.624867
threshold=50.508659465205263 34.225194804944238 71.910516384103843 -0.42958673367182593 61.802401675300011 -0.82033709574144342 40.696655744639408 0.0052305850891686467 71.644559455059863 1.0405437466154128 20.572462254576511 -0.0012248705317128108 0.94204099797450491 0.030546568432178903 2.0804825822522854 0.88312998104900242 1.1927469709535299 4707881.255075491 65.500000000000014 0.12988514710009277 41.668059883143641 26.376850884786901 7.2331319701532282 0.028629036643058763 11145446.66922673 -0.24650523664176122 83.172177970959851 4344264.5991017846 201841450.64524141 47.165366039307976 4927157.2374699656 46.834840814065053 3.9841246893334157 0.49999999998561495 -0.37096062956494474 27.500000000000004 0.38077418288191806 -0.013450470180066955 19.500000000000004 11.500000000000002 -0.16764633156615211 0.028098040283869172 0.0050737599608761076 0.056143034402543208 49.758372132160893 0.19787992492172032 0.13020049517599289 0.089860590294142353 92.500000000000014 0.86532031486460881 0.82081657260741159 -0.0027670407445736073 0.012422539089916923 0.28161285248570994 78.338693913763962 14.500000000000002 0.92312360539398519 0.37735173023760921 -1.4656383328871005 6.1082945060342846 11.105636204585496 2.1449901726118514 963531692.15938532
decision_type=2 2 2 2 2 2 2 10 8 2 2 2 8 10 8 2 2 10 8 2 10 2 2 10 2 2 2 10 2 2 10 2 8 2 2 2 2 10 2 2 2 2 10 10 2 10 10 8 2 8 2 2 2 8 2 2 10 2 10 10 2 8 2
left_child=1 10 3 37 13 6 12 32 -7 36 51 -4 -3 18 15 16 17 -10 20 34 24 22 23 -11 -5 26 -12 28 -27 -17 -18 -9 -8 50 -20 -16 38 41 39 -6 -30 42 56 44 -29 46 -45 48 49 -13 -14 60 53 54 55 -49 -2 -47 59 -51 -1 -62 -63
right_child=2 5 11 4 9 8 7 31 14 21 25 47 33 -15 35 29 30 -19 19 -21 -22 -23 -24 -25 -26 27 -28 43 40 -31 -32 -33 -34 -35 -36 -37 -38 -39 -40 -41 -42 -43 -44 45 -46 57 -48 52 -50 58 -52 -53 -54 -55 -56 -57 -58 -59 -60 -61 61 62 -64
leaf_value=-0.039362340953851875 0.052586484094659124 0.013233042046061554 0.010420410528074266 -0.00042014489717388814 0.0086593288993962996 0.017773680004377412 0.053724986657129041 -0.019671207609353807 -0.022781998915765114 0.014403842569589903 -0.034979522713383213 0.023280483511143799 -0.049575178093626472 -0.033465127311848884 -0.056509623738365634 -0.049453906521493889 -0.005695758950491233 0.013412223000894409 -0.002824138441214861 0.023005350383447365 -0.019623364160192492 -0.021909306371720772 -0.013066085231268624 0.053762870656274331 0.037545726845737405 0.00069804459864804768 0.012962372028900654 -0.0053782436514377549 -0.01849941726878487 -0.014896873506736208 -0.03974554603740111 0.016091323392651014 0.016092791813180251 -0.0021752493448643755 -0.030347676101224467 -0.024515092869688913 0.0099007343441904049 0.011387102342692036 0.053118148192814178 0.036868907536122535 -0.049336627332583628 0.050530788039610627 0.0063560640391716033 -0.043339617807991664 -0.047897623603850893 -0.050765174485525949 -0.013652319082786997 0.033065764621433014 0.016123321019029146 0.021438155672100744 -0.024974463378519506 -0.029354060788967854 0.049417714973253181 0.021987603763493402 0.028623215063154055 0.050194256068506166 0.03471969543818651 -0.039625856714973429 0.049901110949023664 0.050958689925850925 -0.039464216859436338 -0.05092799021485353 -0.040175534298147443
leaf_weight=9.7404810935258848 7.3373445719480532 7.9558847397565868 7.4166287034749976 7.7094064801931443 5.1840735673904446 6.4803231358528128 6.8842176795005825 9.4455598145723361 13.636638864874838 21.263465285301212 7.6617981195449811 6.3227667659521094 5.9308723062276858 6.9737545251846305 7.9287333935499174 12.099017754197122 7.9550664871931103 20.654908493161201 12.69957949221134 8.69023849070072 5.2290890216827384 5.2303691059350959 6.4461358934640876 7.1416309773921958 12.1701213568449 7.4272231459617641 5.4810115098953247 4.9315165877342206 4.9431640952825555 7.7038516402244559 12.401617288589476 8.1849318295717222 9.1455152034759504 7.4561289995908728 14.941990643739702 7.1993010491132736 5.9304128140211096 4.9192184358835211 9.8141489624977094 18.973806291818619 7.6095521748065922 14.668233513832091 6.3753939718008033 17.448991447687153 4.9239262640476227 39.493114620447159 5.1786838173866263 5.0757659971714011 4.8899948298931113 4.8755596876144391 7.6816604137420654 5.1461763083934775 98.442935839295387 4.8902644068002692 5.3295116424560538 27.887812197208405 6.8385158777236938 10.804720625281332 22.303522914648056 6.2903445512056351 4.8715976327657691 97.306948453187943 5.120186284184455
leaf_count=40 30 32 30 31 21 26 28 38 55 86 31 26 24 28 32 49 32 83 51 35 21 21 26 29 49 30 22 20 20 31 50 33 37 30 60 29 24 20 40 77 31 60 26 71 20 161 21 21 20 20 31 21 409 20 22 115 28 44 92 26 20 401 21
internal_value=-0.000203002 -0.0297285 0.030448 0.0164699 0.0110795 -0.0108867 0.00105487 0.0137531 -0.0186794 0.0227029 -0.0422911 0.0440516 -0.0136715 -0.00250958 -0.0213164 -0.0172592 -0.0104644 -0.000981048 0.00100401 -0.00796542 0.0139826 0.0122603 0.0173883 0.0242995 0.0228223 -0.0360728 -0.0149861 -0.0387697 -0.0231077 -0.0360103 -0.0264394 -0.0030685 0.0322545 -0.0238311 -0.0177023 -0.0412837 0.0331924 0.0363991 0.0372584 0.0308154 -0.0371932 0.0398926 0.0322997 -0.0425499 -0.0266216 -0.0447025 -0.0365452 0.0453904 0.0394806 0.042351 -0.0356928 -0.0481897 0.0472549 0.0423245 0.0449217 0.0475568 0.0439674 -0.0483723 0.0459536 0.0380686 -0.0490179 -0.0498944 -0.0503905
internal_weight=779.095 396.833 382.262 188.537 148.398 158.744 62.6848 33.6602 96.0595 79.984 238.089 193.725 29.0245 68.4142 89.5791 74.4511 54.6482 34.2915 61.4404 36.3318 25.1086 40.0816 34.8512 28.4051 19.8795 115.904 13.1428 102.761 19.9799 19.8029 20.3567 17.6305 16.0297 21.0687 27.6416 15.128 39.9024 40.1387 33.972 24.1579 12.5527 35.2195 20.5513 82.781 9.85544 72.9255 22.6277 186.308 44.6822 39.7922 13.6125 122.185 141.626 43.1834 38.2931 32.9636 14.1759 50.2978 33.4694 11.1659 117.039 107.299 102.427
internal_count=3178 1614 1564 763 599 640 253 136 387 324 974 801 117 275 361 300 220 138 247 146 101 162 141 115 80 471 53 418 81 80 82 71 65 85 111 61 162 164 138 98 51 144 84 337 40 297 92 771 184 164 55 503 587 178 158 136 58 205 138 46 482 442 422
is_linear=0
shrinkage=0.03


Tree=8
num_leaves=64
num_cat=0
split_feature=40 40 40 54 54 40 68 40 101 65 54 101 59 19 67 40 40 19 18 98 98 40 41 60 21 111 115 98 100 115 40 70 97 12 40 87 19 98 53 67 62 24 53 54 60 98 54 89 58 119 18 49 69 40 98 102 15 40 92 58 87 38 60
split_gain=741.906 125.554 56.7175 25.1449 19.5509 14.0963 13.57 11.1203 10.7626 10.684 16.885 11.9162 11.0047 10.357 10.2419 10.2262 10.1818 9.82651 9.31512 7.19433 8.4703 6.93618 8.17452 7.14045 6.46221 6.07944 8.38808 6.05768 5.77411 6.64939 5.61029 5.56838 5.45235 8.66864 5.08208 5.01903 4.88902 5.49219 5.88696 4.60368 4.55465 4.52216 4.28572 4.00301 5.16054 5.3863 3.61699 3.60477 4.1387 3.34505 3.17742 2.29899 4.3299 2.21101 5.67175 2.11501 2.04801 1.85083 3.58888 4.50238 1.56009 3.16347 1.30155
threshold=53.885023743572681 36.86297993279566 71.910516384103843 -0.84865744618686978 0.92876881106023756 25.493463814603462 -11.522055457319963 40.696655744639408 429311788.49909824 0.01320870121556717 0.85896576480040931 610827882.97307801 4881854.8829233507 0.0062653604937448057 54.133749537412065 48.496322129304765 62.166151177199168 -0.011620169063410162 -0.0012248705317128108 0.078905515262108303 0.09854894616017125 64.61417449574013 1.5000000000000002 0.89688479536166577 -0.0019327611082263837 -0.21408866457155412 -0.023028372519654113 0.088935228653365297 3.8133933790360293 -0.02324134885009561 47.165366039307976 96.243922146506065 107.46496197998702 95.342871500628448 46.019076902904075 0.46590643376748009 0.0036348728881367156 0.1307383003787923 3.5861588056663325 153.63764852231154 -0.012483497971241092 96.922199682779123 0.77275065449417657 0.23702248972110598 0.93386392459480783 0.073633391955080077 0.18121775278827104 0.20373629811009267 5403499.0640944922 0.10836892038938718 -0.0012248705317128108 14.786170594415392 100.70911850798072 20.572462254576511 0.12904691327986847 508656571.5189864 -0.0027670407445736073 76.046262759259534 4.8585469299212978 4999467.626548036 0.44499020567648712 44.370849617354295 0.7806392096442788
decision_type=2 2 2 2 2 2 2 2 2 8 2 2 8 10 8 2 2 8 2 10 8 2 2 8 10 2 8 10 8 8 2 10 10 2 2 8 10 10 10 8 2 8 8 2 8 10 2 8 10 10 2 2 10 2 8 2 2 2 8 8 8 2 8
left_child=1 5 4 7 21 53 -7 8 -3 10 11 17 -13 28 16 27 49 35 -4 -18 -21 22 23 40 -24 26 -8 -15 -9 -30 -12 -19 33 -16 -14 -5 -23 38 42 46 -2 -32 -38 44 45 -27 -11 48 -25 -6 -46 52 -20 56 60 -49 -1 58 59 -53 61 -55 -59
right_child=2 3 18 9 14 6 25 13 -10 39 30 12 34 15 32 -17 19 31 51 20 -22 36 24 47 -26 43 -28 -29 29 -31 41 -33 -34 -35 -36 -37 37 -39 -40 -41 -42 -43 -44 -45 50 -47 -48 55 -50 -51 -52 57 -54 54 -56 -57 -58 62 -60 -61 -62 -63 -64
leaf_value=-0.047978616901040057 -0.01553777009777522 -0.038601260901287009 0.010118185198625144 0.011498252615452856 -0.013299608112637636 0.0090985340011603601 -0.038223707967634905 0.052351318353867506 0.0098868029583303232 -0.053851135125203974 -0.046047948802243992 0.0098221783877091174 -0.05189257220154643 -0.037278120716530028 0.0069184638446738852 0.032421277083019159 -0.014184004840465881 0.01033867160580536 0.044614717175660561 0.048730538634598003 0.0017887996659448229 0.051568017406018185 0.018669163589819997 0.037669452796191598 -0.02367472131508876 0.0022387382322427568 0.0035389272357504477 0.0040385115629049942 0.04274085711958657 -0.0032584464420553957 -0.035406102615394668 -0.016862966037685587 0.0014116823941567405 0.048375156902167725 -0.016209079835296642 0.053117014296480171 0.025809366720307408 0.051639554678624119 0.045977250258639454 -0.01118196527585715 0.025174727097486943 -0.0017797468258664564 -0.011950237906119123 -0.052151277389082491 -0.044141172552939485 -0.033858399384283248 -0.023286925551761189 0.030153145175120702 0.00098994282187500138 -0.044835376733941862 -0.023417126663729783 0.045198012331605295 0.010705116684688692 -0.026807048610537045 -0.018888062139863809 0.048485386666869135 -0.028598088542632141 0.035356543702050824 0.047350299349619353 0.0078459240735940395 -0.051464399880369695 -0.051628451014054638 0.047555043055570873
leaf_weight=116.00289361178875 4.9595325142145157 7.1682252883911159 7.4091295897960654 4.9719399660825703 7.21009413897991 7.1860347688198081 8.8899063766002637 8.5389676243066805 9.688257619738577 9.672760918736456 11.559980005025865 7.6932643502950695 7.4251437634229642 5.2335108220577267 8.4166859984397941 7.1147464811801902 8.9140510410070437 16.620737195014957 10.113817512989042 5.6598311662673924 8.8992521911859512 14.090871214866636 7.4728987514972687 5.6360995173454267 5.7315765321254712 6.1900150328874579 8.4356801211833972 8.1942690908908826 5.6395981460809708 5.6736143678426725 6.9510144889354679 11.431285187602041 9.6607874333858472 9.8542539030313474 6.9584164321422577 5.4846230149269113 5.4048072993755376 6.8045762330293647 5.1108629554510108 5.6897372156381634 4.9329487681388837 7.4648613482713708 5.416310638189314 13.90059073269367 31.909771233797066 9.3249640613794309 5.4470120519399634 10.055994004011156 5.4416900426149368 5.2179596126079559 8.4140780717134529 5.5487238019704828 5.0969558805227271 9.5052007138729113 9.5772078335285169 12.9684522151947 5.1240806579589835 8.3682487607002241 16.681175515055656 6.0944018214941034 16.998117908835411 8.9937041848897916 132.77133056521416
leaf_count=482 20 29 30 20 29 29 36 35 39 39 47 31 30 21 34 29 36 67 42 23 36 58 30 23 23 25 34 33 23 23 28 46 39 40 28 22 22 28 21 23 20 30 22 57 130 38 22 41 22 21 34 23 21 39 39 53 21 35 69 25 70 37 556
internal_value=-0.000197668 -0.0268298 0.0321523 -0.00632176 0.0188296 -0.0397922 -0.0305242 0.00973482 -0.0107328 -0.0148833 -0.0102433 -0.00156751 -0.0191393 0.0182758 0.00601598 0.00334264 -0.00458347 0.00850632 0.0431012 0.00704161 0.0200374 0.0275285 0.0209905 0.0272038 0.000289242 -0.0337946 -0.0178898 -0.0120647 0.0337283 0.0196721 -0.0304786 -0.000746079 0.0196397 0.0292777 -0.0346298 0.0333279 0.0376832 0.0290782 0.0194421 -0.0341842 0.00476378 -0.0179936 0.00690949 -0.0377458 -0.0341597 -0.0194567 -0.0428401 0.0337132 0.0196516 -0.02654 -0.0398168 0.0444245 0.033252 -0.045048 -0.0393757 0.0404787 -0.0471588 0.0454273 0.0384287 0.0256467 -0.0449034 -0.0388746 0.0468318
internal_weight=775.018 425.074 349.943 164.622 157.86 260.452 94.251 57.2512 16.8565 107.371 86.5613 60.5854 22.0768 40.3947 63.8329 20.5425 35.9012 38.5086 192.084 23.4731 14.5591 94.0266 57.1992 43.9947 13.2045 87.065 17.3256 13.4278 19.8522 11.3132 25.9759 28.052 27.9317 18.2709 14.3836 10.4566 36.8274 22.7366 15.932 20.8095 9.89248 14.4159 10.8211 69.7394 55.8388 15.515 15.1198 34.1022 11.0778 12.4281 40.3238 184.675 15.2108 166.201 45.0742 23.0244 121.127 169.464 28.3243 11.6431 35.497 18.4989 141.14
internal_count=3178 1736 1442 665 641 1071 383 232 68 433 349 244 89 164 258 83 145 155 801 95 59 383 232 179 53 354 70 54 81 46 105 113 113 74 58 42 151 93 65 84 40 58 44 284 227 63 61 139 45 50 164 771 63 688 185 94 503 708 117 48 146 76 591
is_linear=0
shrinkage=0.03


Tree=9
num_leaves=64
num_cat=0
split_feature=40 40 40 42 54 40 80 40 92 65 54 101 40 19 40 18 43 101 114 59 42 34 73 54 42 79 42 111 99 120 100 110 66 60 102 40 42 89 78 60 89 70 67 20 18 87 89 27 46 49 120 40 98 98 15 40 92 42 108 40 119 45 60
split_gain=702.392 119.609 54.5572 30.0171 23.7081 13.6851 14.5616 10.5 10.4415 11.3575 13.9347 10.1661 9.93252 9.82265 9.65633 8.97016 8.60501 8.5783 10.8235 8.93791 7.77921 8.30542 7.45814 7.32626 7.25545 7.47369 6.19374 6.00908 6.90417 5.70151 5.53094 6.23853 5.05067 4.81074 8.21574 5.27891 5.19683 4.80151 4.49413 4.48059 4.63273 3.84022 4.83697 3.62335 3.25805 3.08749 3.04979 9.33517 2.75077 2.23301 4.21708 2.16753 5.44577 1.98811 1.98681 1.81502 3.45001 5.56862 1.51862 1.90929 1.32408 2.21871 1.26263
threshold=53.885023743572681 36.86297993279566 71.910516384103843 63.001358799763963 -0.84865744618686978 25.493463814603462 0.12186609196802757 40.696655744639408 6.3852367386425604 0.01320870121556717 0.85896576480040931 429311788.49909824 62.166151177199168 0.0062653604937448057 48.496322129304765 -0.0012248705317128108 39.500000000000007 610827882.97307801 -6.0108968030751759 4857919.8140498111 77.149278046412718 0.55000000000000016 -1.0000000180025095e-35 1.3504944266436711 67.980155418676276 0.48283336665770854 21.088070706017401 -0.21408866457155412 0.26964750111133579 0.050566680644505362 3.8133933790360293 0.14923567184414469 15095584.01437021 0.93498911885873859 560764078.09810293 64.61417449574013 31.99300819709023 0.21858694870049319 2.5944934727810041 1.0651766900816404 0.2129397995112077 117.32112648711363 -14.10441379367624 0.0029149635581889165 -0.0026458681220965542 0.41852963476944771 0.21332618703257655 84.125996571969111 -1.6289252505583625 14.786170594415392 0.083440200028572567 20.572462254576511 0.12904691327986847 0.065267754909770395 -0.0027670407445736073 76.046262759259534 4.8585469299212978 61.721719211280124 45.500000000000007 22.040503947486915 0.053300487488402784 1.1494952490842822 0.7806392096442788
decision_type=2 2 2 2 2 2 2 2 8 10 2 2 2 10 2 2 10 2 10 8 2 8 2 2 2 2 2 2 8 10 8 8 2 8 2 2 2 10 2 8 8 10 8 10 2 10 8 10 2 2 8 2 8 10 2 2 8 2 2 2 8 2 8
left_child=1 5 3 33 7 51 -7 11 9 10 17 -3 20 30 26 -4 -14 18 -6 -19 21 37 -18 32 -24 -26 -15 28 29 -8 -9 -32 -22 34 35 36 -2 -5 45 40 -11 46 -43 -10 -35 -12 47 -29 -46 50 -17 54 58 -48 -1 56 57 -51 -53 -60 61 -50 -57
right_child=2 4 15 12 8 6 27 13 43 39 38 -13 16 14 -16 49 22 19 -20 -21 23 -23 24 -25 25 -27 -28 41 -30 -31 31 -33 -34 44 -36 -37 -38 -39 -40 -41 -42 42 -44 -45 48 -47 53 -49 60 55 -52 52 -54 -55 -56 62 -58 -59 59 -61 -62 -63 -64
leaf_value=-0.047004684032029717 0.037026701900337002 -0.037585718697208878 0.0098249438553230043 0.0056262874693520952 0.051354681517374802 0.010538812010951368 -0.02587504257556951 0.051216231068142333 -0.048607665627853881 -0.038304344275589791 -0.053395606004557124 0.0095870521569867938 -0.019971084250713901 0.01195715569614675 0.031585671248364554 0.010219251862647155 -0.011615886341665708 0.018793012299504308 0.0045288715433840073 -0.028051897372307809 -0.028318287882307704 -0.016884221045943094 -0.00091588913425763824 -0.049784601051863345 0.015810678761721816 0.04510092857882627 -0.029252713112816429 0.0027929096218545736 -0.047477995093802364 0.014843389298227627 -0.006206961819600741 0.038773473630092918 0.013875571825904017 0.020585618188165646 -0.010709378869506889 0.050679418084397181 -0.0047701186395630001 0.045515158051913383 -0.0071368922542762352 -0.056337363414464076 -0.001119126965028131 -0.043540938125489898 -0.0090458709204242708 -0.020545036567131403 0.023167783783434901 -0.024148447504720883 -0.029684501287029375 -0.042760331216028499 0.021428646665292227 0.049788574136299703 0.043755699197082568 -0.048072638812274818 -0.01836745775098492 -0.050529248465022276 -0.027869888616392426 0.034562938794911895 0.046351031191487702 0.0075509888808533007 -0.020579121472689563 -0.045854702314209163 0.048851890578800225 0.050170566839451348 0.046624696247500902
leaf_weight=114.87129902839661 5.8444417268037849 7.1414483189582851 7.4014768153429022 5.9732220172882098 5.2214229404926291 7.4389106184244147 6.1686307191848773 8.4674367904663104 9.3595059365034121 7.1384176611900338 5.6482350528240222 9.6913880556821805 5.7277517765760413 5.7166005373001116 7.0843388587236396 5.0866885334253285 6.1881414949893943 5.2092052102088955 29.784574970602989 12.3711109906435 4.9867443889379484 7.7077249884605399 8.4328736215829831 5.4503034204244605 15.708384662866594 15.652808785438536 7.7086040526628494 5.1794876009225872 4.9129026383161536 6.2112287729978561 4.9253064244985554 6.3566500991582879 5.2321442812681198 7.8714694976806632 5.4335276782512656 7.4786428511142722 4.9404615163803101 4.9804286807775497 7.1927648037672034 4.9653095901012412 5.2206115424633035 6.3641849756240845 8.6052937209606153 7.4266986846923819 6.0950094461441031 7.645866647362709 4.9105383008718517 18.546804517507553 4.8679587692022306 4.7870263159275073 10.025962606072426 24.33112296462059 9.5535634756088239 25.516000017523766 5.1005833446979514 8.3045477271079999 16.531822398304939 6.7995959967374802 4.851265609264372 6.036820113658905 23.969942808151245 4.8012610971927643 131.37899878621101
leaf_count=482 24 29 30 24 21 30 25 35 38 29 23 39 23 23 29 21 25 21 120 50 20 31 34 22 64 64 31 21 20 25 20 26 21 32 22 31 20 20 29 20 21 26 35 30 25 31 20 76 20 20 42 101 39 105 21 35 69 28 20 25 99 20 556
internal_value=-0.000192541 -0.0261634 0.031397 0.0183268 -0.00614523 -0.03888 -0.0297365 0.00947044 -0.014463 -0.010428 -0.00525038 -0.0104263 0.00639835 0.0177896 0.00324826 0.0422028 0.0147036 0.00292659 0.0115133 -0.0141713 -0.00611132 0.00697447 0.0190228 -0.021696 0.0237873 0.0304299 -0.0117051 -0.0332036 -0.0173872 -0.00544577 0.0328906 0.0191366 -0.00671473 0.0327207 0.021676 0.0313108 0.01788 0.023763 -0.0262393 -0.0322672 -0.0225968 -0.0371605 -0.0237112 -0.036192 0.0382186 -0.0365746 -0.0408782 -0.032816 0.0417117 0.043513 0.0324678 -0.044089 -0.0384561 -0.0471651 -0.0461912 0.0445077 0.0375536 0.0250015 -0.0439054 -0.034593 0.0450717 0.0357005 0.0459076
internal_weight=770.533 422.874 347.659 157.343 164.275 258.599 93.854 57.0918 107.184 90.3975 73.0732 16.8328 86.0405 40.2589 20.5095 190.316 51.71 52.5863 35.006 17.5803 34.3306 18.6614 45.9822 15.6692 39.7941 31.3612 13.4252 86.4151 17.2928 12.3799 19.7494 11.282 10.2189 71.3027 23.6971 18.2635 10.7849 10.9537 20.4869 17.3243 12.359 69.1223 14.9695 16.7862 47.6056 13.2941 54.1528 23.7263 39.7342 182.915 15.1127 164.745 44.7728 30.4265 119.972 167.802 28.1184 11.5866 35.2192 10.8881 33.6392 9.66922 139.684
internal_count=3178 1736 1442 641 665 1071 383 232 433 365 295 68 348 164 83 801 210 212 141 71 138 75 187 63 162 128 54 353 70 50 81 46 41 293 97 75 44 44 83 70 50 283 61 68 196 54 222 97 164 771 63 688 185 125 503 708 117 48 146 45 139 40 591
is_linear=0
shrinkage=0.03


Tree=10
num_leaves=64
num_cat=0
split_feature=40 40 40 42 54 40 43 18 19 49 40 43 54 86 42 48 40 59 99 94 90 88 101 59 67 42 60 25 83 48 44 49 21 110 19 39 61 18 12 61 53 94 54 108 112 101 18 112 114 50 53 87 68 90 10 99 50 85 8 49 39 12 59
split_gain=649.873 122.255 41.6981 38.3444 17.065 15.6619 13.4807 11.9105 10.3383 16.1654 14.8244 9.86101 9.8117 9.83644 8.47278 9.37206 8.34743 7.33813 6.93875 6.78317 9.38126 8.1876 6.67187 6.88539 6.41061 6.3882 6.38052 6.05081 10.3397 6.16346 5.98517 7.89324 5.82639 6.10485 5.6725 5.05209 4.87644 4.70779 3.95557 3.89279 3.79524 5.20524 7.96963 8.64454 3.76436 3.63429 3.59789 3.12134 3.04616 2.47569 2.22368 1.73104 5.97967 1.71492 1.63881 1.3723 1.34174 1.27868 2.54041 1.19529 1.10841 1.08191 1.13717
threshold=44.782340727646904 64.61417449574013 26.182843721899598 77.149278046412718 -0.84865744618686978 75.713553350461652 38.500000000000007 -0.02244645615698387 0.0063667538688645447 19.965168482990229 58.64359888471234 74.500000000000014 0.59777720755300134 0.9814344105156626 58.354273395993822 28.395323606671873 38.322540377489574 5402056.1494250437 0.23445916265321817 0.58958580596759613 4.5795379755435031 -0.41500106197801601 543024404.69241786 5124735.972981819 94.289955062447874 23.046704564476766 0.91444468400636814 0.0070279348690432814 20.500000000000004 16.441009388608837 75.46874589364198 17.873428901463466 0.0067556646205422068 0.15798106861323602 -0.005401143659404503 0.66612032966196033 35206335.611447416 -0.011480577675311869 90.279175783711551 114459740.1607392 -3.7568582443605933 0.6760169431619838 0.34242441228150261 27.500000000000004 -0.20181891500213139 572592213.030442 0.0046796691939942009 -0.19699029548299402 7.7335363513043829 14.780083484455792 2.7744360461644395 0.39125665780463631 5.3329618781558734 7.716531971264744 93.011190286221805 0.23378660046139935 14.002742038941419 1.0000000180025095e-35 102.94162818237608 17.821552085838114 0.21682826814813913 81.248578539618464 4479819.3566633044
decision_type=2 2 2 2 2 2 10 2 10 2 2 8 2 8 2 2 2 10 10 2 2 10 2 8 8 2 10 10 2 2 8 2 10 8 10 10 2 2 2 2 10 2 2 2 2 2 2 2 10 2 8 8 2 2 2 10 2 2 2 2 10 2 10
left_child=2 3 50 4 25 14 7 -4 9 11 22 34 13 -5 39 27 17 32 -13 -18 -21 -22 49 -24 46 48 -27 38 29 -29 31 -7 33 -9 -6 -12 -28 -19 -16 -3 55 60 43 -43 -34 -44 -14 -40 -2 -10 51 52 59 -33 -11 -8 -53 -32 -59 -1 -42 -58 -63
right_child=1 5 6 12 8 30 40 16 10 54 35 18 24 -15 15 -17 19 37 -20 20 21 -23 23 -25 -26 26 36 28 -30 -31 57 53 44 -35 -36 -37 -38 -39 47 -41 41 42 45 -45 -46 -47 -48 -49 -50 -51 -52 56 -54 -55 -56 -57 61 58 -60 -61 -62 62 -64
leaf_value=-0.048942255413580778 0.050768143375351883 0.044313064228963896 -0.044903049099933999 0.026268638673712083 0.029268152797921252 0.0077309715950515711 -0.034723779614653665 -0.0091838585326902179 -0.027151091765461384 0.031800660893357396 0.036343393767204392 -0.026645981455676284 -0.051771549579586122 -0.027691871467340527 0.011691828881227341 -0.01455646097708794 -0.031226734947063177 -0.015467304813428916 0.006437887002353382 0.035044174893448007 0.01089130842965642 -0.029592072729648033 -0.033324185213646704 0.015518098997998199 -0.0048526136296474214 0.037220929100528891 -0.018184311601421536 0.03526348192375061 -0.016415920656510406 0.0061179444068525327 0.046983182413209583 0.044104604205865129 -0.049860558394946339 -0.040257887768961102 0.0052072690307748736 0.00055369613846554166 0.021121676943773694 0.026000589547019694 0.051032621378429122 0.015728651536833924 -0.035166545515231004 -0.034300339312105264 -0.023497535481584647 0.011226546168460768 -0.017526822023301157 -0.052139925842442161 -0.026010690203885758 0.028453503424019484 0.024698364629954537 -0.057129350061072198 -0.027257781312311914 -0.031458076038547132 -0.0063390391028716932 0.024436626873221668 0.054801734458578603 -0.051007571891879391 -0.03260306531076311 0.04795369813049051 0.021795076536575725 -0.031656930494379086 -0.054469847524045961 -0.03938446507752185 -0.047438385778448389
leaf_weight=12.800776213407522 11.798191130161287 28.126569464802742 10.595975950360296 6.1963401138782475 15.353538393974302 9.1134429275989515 8.2981865257024783 25.785111650824547 4.9491675347089785 4.9352627843618375 5.9341616332530966 11.168738022446634 11.569262698292734 5.9694251865148553 5.1220562756061581 5.9312236756086341 4.9481053799390819 4.8822101056575775 11.663870751857756 7.6703789979219463 12.06486158072949 7.1671813875436738 4.9680312275886509 5.4443257898092279 5.7037866264581707 8.2239575684070605 5.3852577656507474 17.973121970891956 6.8487547636032096 10.256684377789496 105.83081446588039 20.47187024354935 9.5391916930675489 7.3013582676649085 20.718267872929573 8.8343548327684385 6.0120902508497238 4.9745435714721662 12.313217312097553 5.0591757893562308 4.8977275341749174 6.1433807015419033 8.7936600297689456 9.6493788510560972 4.9078150093555442 7.2940451502799979 8.4384014904499036 9.9733831435441935 6.1295902132987967 4.9679923802614212 7.6972170770168296 6.2536700516939154 4.7954958230257025 4.9558217227458945 6.4073138386011124 10.61740607023239 5.4551961570978156 8.1925722211599332 5.6426187902688971 5.0095365494489661 5.9050085991621017 18.507742986083031 106.98019839823246
leaf_count=54 49 118 44 25 62 38 34 105 20 20 24 45 47 24 21 24 20 20 47 31 49 29 20 22 23 34 22 74 28 42 453 87 39 30 84 36 25 20 51 21 20 25 36 39 20 30 34 41 25 20 32 26 20 21 26 44 23 35 24 21 24 78 452
internal_value=-0.000676826 0.0233159 -0.0325214 0.0044309 0.0115445 0.0366612 -0.0216413 -0.0148318 0.00535494 0.011998 -0.00794074 0.00568283 -0.0224056 -0.000208383 0.0275163 0.0214828 -0.0112613 -0.0180966 -0.00974533 0.00105491 0.0069924 -0.00419558 -0.0245586 -0.00778594 -0.0329085 0.0289095 0.0170815 0.0249036 0.0166517 0.0246741 0.0426866 0.0316858 -0.0229815 -0.0160411 0.0154485 0.0149344 0.00254956 0.00546087 0.0354647 0.0399554 -0.032678 -0.0277208 -0.0216224 -0.0064834 -0.0388764 -0.0364838 -0.0409067 0.0409283 0.0418548 -0.0421687 -0.0430076 -0.0437662 -0.0360741 0.0402713 0.0447937 -0.0438639 -0.0450336 0.0458619 0.037285 -0.0440804 -0.0457181 -0.045682 -0.0462505
internal_weight=765.518 436.583 328.935 180.771 142.894 255.811 161.436 99.8367 105.345 70.247 35.098 58.9044 37.8772 12.1658 101.604 68.4184 89.2408 57.3902 22.8326 31.8505 26.9024 19.232 20.3295 10.4124 25.7115 37.5491 19.6213 62.4872 35.0786 28.2298 154.207 34.5411 47.5335 33.0865 36.0718 14.7685 11.3973 9.85675 27.4087 33.1857 61.5988 42.6832 31.8805 15.7928 14.447 16.0877 20.0077 22.2866 17.9278 9.91716 167.5 159.803 22.6058 25.4277 11.3426 18.9156 137.197 119.666 13.8352 17.8103 10.8027 130.943 125.488
internal_count=3177 1812 1365 734 581 1078 659 407 426 284 142 238 153 49 420 281 363 234 92 129 109 78 82 42 104 155 81 257 144 116 658 146 194 135 146 60 47 40 113 139 252 174 130 64 59 66 81 92 74 40 706 674 95 108 46 78 579 512 59 75 44 553 530
is_linear=0
shrinkage=0.03


Tree=11
num_leaves=64
num_cat=0
split_feature=40 40 40 42 54 40 43 18 19 49 40 51 43 42 48 40 62 59 99 94 94 88 42 18 60 51 119 59 44 49 25 83 48 101 58 21 92 101 18 77 51 50 18 61 12 61 12 113 112 102 40 98 54 67 59 6 48 101 120 98 44 40 85
split_gain=615.755 116.738 40.2945 36.1737 16.1922 15.271 12.8106 11.3693 9.74246 15.3093 13.9739 9.48659 9.28758 8.14777 8.86616 7.88421 7.31275 6.93431 6.53502 6.39831 6.4921 10.2374 6.13103 6.07755 6.44874 6.0265 8.92377 5.95994 5.83654 7.58136 5.77346 9.76912 5.86547 5.49043 5.181 5.16966 4.80854 4.59017 4.42999 4.09709 4.09471 5.8443 5.22733 9.13736 3.78438 3.75078 3.72826 3.07852 3.01558 2.61376 2.13293 4.88701 3.22698 1.72387 1.62888 1.56997 1.40499 1.4128 1.36538 2.64898 1.28622 3.7983 1.24878
threshold=44.782340727646904 64.61417449574013 26.182843721899598 77.149278046412718 -0.84865744618686978 75.713553350461652 38.500000000000007 -0.02244645615698387 0.0063667538688645447 19.965168482990229 58.64359888471234 -2.0962606992977482 74.500000000000014 58.354273395993822 28.395323606671873 38.322540377489574 0.21747833886706555 5402056.1494250437 0.23445916265321817 0.58958580596759613 0.84687169721834643 -0.42864769013722642 20.766646859176628 -0.0072758585159267454 0.91927613708540712 -0.29925586982895885 0.095627358016982383 4961971.7661475101 75.46874589364198 17.873428901463466 0.0070279348690432814 20.500000000000004 16.441009388608837 204498630.10545471 4989751.9380433178 0.0084067922032467681 5.4464893134629557 498959552.87224084 -0.011480577675311869 1.7734641357152088 -3.1573202229399215 13.748311258652535 -0.0024429736993708834 17113944.585638281 90.279175783711551 114459740.1607392 105.16092755136937 -1.112780443342323 -0.19699029548299402 456763388.32788628 20.572462254576511 0.1307383003787923 -2.2957438575293589 9.8992983264974086 4836137.060225741 91.714293293841806 11.414757869756052 975894925.17261302 0.12085870188984675 0.13505058709314038 59.673878099968867 39.345445065926363 1.0000000180025095e-35
decision_type=2 2 2 2 2 2 10 2 10 2 2 10 8 2 2 2 2 10 10 2 2 10 2 2 10 8 8 8 8 2 10 2 2 2 10 8 8 2 2 2 10 2 2 2 2 2 2 10 2 2 2 10 2 10 8 2 2 2 10 10 10 2 2
left_child=2 3 50 4 22 13 7 -4 9 12 16 27 33 45 30 17 37 25 -14 -17 -21 -22 54 -24 -25 26 -9 -5 29 -7 44 32 -32 -6 -29 -26 49 -10 -19 -27 42 -42 47 -44 -15 58 -13 -8 -46 -12 56 52 -52 -31 -2 -11 -1 -58 -3 -60 61 -43 -30
right_child=1 5 6 11 8 28 40 15 10 55 36 46 18 14 -16 19 -18 38 -20 20 21 -23 23 24 35 39 -28 34 62 53 31 -33 -34 -35 -36 -37 -38 -39 -40 -41 41 60 43 -45 48 -47 -48 -49 -50 -51 51 -53 -54 -55 -56 -57 57 -59 59 -61 -62 -63 -64
leaf_value=-0.033957077102821837 0.030625978578261267 0.048462320983178972 -0.043951910355888107 -0.02544468867234918 -0.014304984142672391 0.0075103916711218039 -0.049843899013489928 0.013392301518866436 -0.055471581836302464 0.030930200117971665 0.011169296959002064 -0.047135540651825604 -0.025869318932355587 0.011360622105464666 -0.01410546671380075 -0.03037855298884657 0.0078729067686875674 -0.01503904309054265 0.0062448092923640432 0.037883664591066291 0.017892679152365254 -0.023401485831510707 -0.011181876686795603 0.049716993493057492 0.030853762188124426 -0.051545246302695434 -0.023998052853065294 0.030615110422110799 0.046154897410456322 0.023077034302625164 0.034409836753875357 -0.0158917437371346 0.0059395271174626273 0.019680705946966748 -0.011793267734614294 -0.010862860706814564 -0.0096075711997852652 -0.021501208289342981 0.025204266050529143 -0.022976926426765597 -0.00817339397830074 -0.045472195389757671 -0.030980389926590687 0.0234153377520178 0.049991358818168942 0.015300257018735254 -0.0197118791129102 -0.019365648317565733 0.027722893229709736 0.042149145932286108 -0.021668910763951315 -0.016243992425508405 -0.044792576320446996 0.043222434258969475 0.050975529381542116 0.053490103619891538 -0.046185405793102277 -0.029378290448199649 0.018334884365577144 0.048977590345858031 -0.051621354487667637 -0.01670758162320244 0.036522904879646503
leaf_weight=10.566231355071066 5.7761269658803913 17.651422262191776 10.501936465501784 8.4252716749906558 4.9612408578395835 9.0998795181512815 6.4541217833757401 7.8702267259359386 5.6866285204887417 4.9221263676881772 4.8984011262655223 11.791973903775217 11.159069627523424 5.1133763343095806 5.9371435791254035 4.933884114027026 4.9417785108089438 4.8707769066095352 11.663761481642721 4.9336169362068203 12.330891191959386 9.6175317913293785 4.9188403487205532 6.6883630007505444 5.9934412539005244 8.2437007278203982 21.271834254264832 4.9741067141294462 104.51794375479221 4.7005721181631115 17.868021816015247 6.8622053712606421 10.247974723577498 31.072172030806541 5.4154572784900665 4.8265573829412478 4.9475666880607614 9.6630806773900968 4.9777085185050947 9.9969079345464689 5.1338682472705832 17.519427448511127 6.393106132745741 4.9167608618736267 12.194380521774296 5.0450204461812964 7.1773115843534461 5.545372739434244 9.9297969937324488 4.9057529121637344 6.4259799867868415 8.4976275116205198 35.099127203226089 20.474746629595757 9.1451571136713028 6.3680744171142578 100.50965109467506 4.7123456448316565 4.7613071948289853 5.4399533271789551 9.9142760485410673 5.4065894037485114 13.702436238527296
leaf_count=45 24 75 44 34 20 38 27 32 23 20 20 48 45 21 24 20 20 20 47 20 50 39 20 28 25 34 87 20 453 20 74 28 42 126 22 20 20 39 20 41 21 72 26 20 51 21 29 23 41 20 27 35 148 88 38 26 431 20 20 23 41 22 59
internal_value=-0.000660683 0.0227616 -0.0317717 0.00430927 0.0112273 0.035885 -0.0210731 -0.01443 0.00520228 0.0116554 -0.00771497 -0.0217885 0.00551704 0.0268405 0.020922 -0.0109482 -0.0238675 -0.017604 -0.00945718 0.00102425 0.00678786 -0.000201921 0.0281964 0.018282 0.0265596 -0.0223648 -0.0139003 -0.0066948 0.0418783 0.0309783 0.0242646 0.0162001 0.0240327 0.0150014 0.00851016 0.0122449 0.0145035 -0.0340863 0.00530109 -0.0358882 -0.0318642 -0.0379397 -0.0219664 -0.00733283 0.0346209 0.0391016 -0.0367594 -0.0357589 0.0399968 0.0266708 -0.0421491 -0.0369724 -0.0412142 0.039461 0.0430981 0.0436548 -0.0443855 -0.0454327 0.0434128 0.0346755 -0.042593 -0.0386887 0.0450385
internal_weight=760.512 433.868 326.644 180.322 142.538 253.546 160.833 99.549 105.19 70.1464 35.0432 37.7841 58.8562 101.051 68.1529 89.0471 20.2915 57.2312 22.8228 31.8159 26.882 21.9484 37.3485 22.4272 17.5084 47.3827 29.1421 18.8148 152.496 34.2752 62.2158 34.9782 28.116 36.0334 10.3896 10.82 14.7517 15.3497 9.84849 18.2406 61.2835 37.9742 23.3094 11.3099 27.2376 32.8977 18.9693 11.9995 22.1242 9.80415 165.811 50.0227 41.5251 25.1753 14.9213 11.2902 115.788 105.222 27.8527 10.2013 32.8403 22.926 118.22
internal_count=3177 1812 1365 734 581 1078 659 407 426 284 142 153 238 420 281 363 82 234 92 129 109 89 155 93 73 194 119 76 658 146 257 144 116 146 42 45 60 62 40 75 252 156 96 46 113 139 77 50 92 40 706 210 175 108 62 46 496 451 118 43 135 94 512
is_linear=0
shrinkage=0.03


Tree=12
num_leaves=64
num_cat=0
split_feature=40 40 40 42 54 40 43 19 49 40 54 86 20 16 57 40 43 54 80 50 62 5 58 67 42 21 53 60 44 49 12 84 19 110 44 70 39 108 61 80 63 18 49 18 113 83 56 45 53 107 110 90 88 68 6 50 49 12 59 17 86 42 108
split_gain=583.725 111.562 38.9912 34.1292 15.3731 14.9058 12.2624 9.18364 14.5164 13.1741 9.15945 9.11774 8.9303 9.76573 9.71021 9.83302 8.74907 7.86429 9.6028 6.95732 6.90547 6.59796 6.23045 6.06046 5.86501 5.85926 10.0198 5.84455 5.70308 7.29113 5.37637 7.29308 5.37074 5.30608 5.24337 5.18713 4.80367 4.67235 4.56552 4.22947 4.11998 5.60605 3.81611 3.42966 3.3293 2.94952 2.89737 4.2838 2.16358 1.9021 1.83388 1.67939 1.59224 5.88282 1.51017 1.32233 1.29204 1.05915 1.12049 1.8197 0.808257 1.33566 2.14874
threshold=44.782340727646904 64.61417449574013 26.182843721899598 77.149278046412718 -0.84865744618686978 75.713553350461652 55.500000000000014 0.0063667538688645447 19.965168482990229 58.64359888471234 0.59777720755300134 0.9814344105156626 0.0066944457290410127 0.018908309581620309 1.1242328762604312 40.08459587346637 74.500000000000014 -0.026243023894785718 0.49999999999227102 15.907545239070117 0.21747833886706555 99.941863236215809 5259841.9385057418 94.289955062447874 23.046704564476766 0.006641530314903007 3.3259716475426271 0.91444468400636814 75.46874589364198 17.873428901463466 87.450192667287951 21.500000000000004 -0.005401143659404503 0.11170209006809965 64.361952312529127 108.21914886664159 0.66612032966196033 25.500000000000004 35206335.611447416 0.49999999999065814 41.802508749880168 -0.00039692074792550125 23.483145501891318 0.0046796691939942009 3.8139837685583449 27.500000000000004 0.57500000000000007 1.9660456946668534 2.7744360461644395 0.19033503850974898 0.11455577374123418 7.716531971264744 -0.39152887762988192 5.3329618781558734 91.714293293841806 14.002742038941419 17.873428901463466 81.248578539618464 4479819.3566633044 -0.071667556349385791 0.99573527701374587 87.133596151173819 15.500000000000002
decision_type=2 2 2 2 2 2 10 10 2 2 2 8 10 2 2 2 8 2 2 2 2 2 10 8 2 8 8 10 8 2 2 2 10 10 10 8 10 2 2 2 2 2 2 2 10 2 10 2 8 8 10 2 10 2 2 2 2 2 10 2 8 2 2
left_child=2 3 48 4 24 17 12 8 16 20 11 -5 13 14 15 19 32 49 25 -4 39 -17 -18 43 44 30 -27 -26 29 -7 31 -19 -6 -16 -32 -20 -11 -35 -29 -9 41 -8 46 -12 -2 -28 -14 -48 52 -3 -42 -31 55 56 -10 -1 -54 -57 59 -59 61 62 -30
right_child=1 5 6 10 7 28 40 9 54 36 23 -13 42 -15 33 21 22 18 35 -21 -22 -23 -24 -25 27 26 45 38 60 51 34 -33 -34 37 -36 -37 -38 -39 -40 -41 50 -43 -44 -45 -46 -47 47 -49 -50 -51 -52 -53 53 -55 -56 57 -58 58 -60 -61 -62 -63 -64
leaf_value=-0.029775727036694111 0.048924852930717612 0.025402968286375512 0.016756842671946843 0.025756466112423475 0.028045116857187972 0.0072959928448254078 -0.037499109798703863 -0.044040282311803319 0.030095725816924213 0.035019191915051567 -0.049886131725325057 -0.026246625373700549 -0.04594346577743981 0.028540024819717454 0.0014958397856014122 0.040352217275695233 0.0028331067707426994 -0.01397977146001571 -0.026670726784423972 -0.018013536622143545 0.0076350060217884128 -0.0045647248402475556 -0.02964474479713947 -0.0040823346023849153 0.035619041780619531 -0.017313999489338962 0.037149094826304026 -0.017747553615313251 0.01857891728092146 0.042533466607573553 0.0089345755366183211 0.038074308596263748 0.0046026433167013362 -0.041835614839454617 0.041555424072530149 0.016064478572411629 6.207329645749046e-05 -0.018796030069261661 0.020329577682152305 -0.010323979127147827 -0.028082021091020346 0.00095453737180176319 -0.010329686902935271 -0.024658497097089498 0.020944715675597771 0.0081167287183511565 -0.0035741292693137507 -0.040879999222466046 -0.025700513433546422 0.046031014049093349 -0.048658534747185733 0.022902996342779855 -0.047300117064241205 -0.0050659399511820717 0.052276709367411731 -0.030949979403668209 -0.029010849262099264 -0.025348599069087919 -0.045780194010472071 -0.045008960129551488 0.045886927501833909 0.046251109087771011 0.041557063509806827
leaf_weight=6.1614646911621085 12.047250434756281 5.1685825735330608 6.1588201820850363 6.1907124072313282 15.301563605666159 9.0864751338958722 9.332503989338873 10.36499170958996 4.9070720076560956 5.9111022055149069 11.448782593011858 5.9515536129474649 12.253787532448774 5.2050072401762 5.6245581805706015 6.1357196718454343 14.373181611299517 4.8913133442401868 5.1595181077718708 32.562798231840134 4.9428705275058737 5.656855970621109 8.4362322986125928 5.6900395452976253 8.108880892395975 6.8222003281116486 9.078081816434862 5.3879556208848935 5.2916538566350964 20.033700063824657 5.1659605354070655 4.7991248220205307 20.687074765563011 15.581900745630266 31.327858611941338 5.0662056207656869 8.812045603990553 16.11460554599762 5.9788818210363388 4.946492373943328 5.0586563795805004 5.378636196255683 6.8027922362089148 8.4146469235420209 5.6093882471323004 4.822417974472045 4.8488144874572736 6.4623179286718369 7.5951805263757697 18.152555838227272 16.99393966794014 4.8770720213651648 13.442458182573324 4.7503022998571387 6.3211065232753754 5.3571618646383277 4.6890125274658194 6.7445024251937893 103.88737572729588 11.396479457616804 81.982100561261177 17.536717817187309 11.897811681032179
leaf_count=26 51 22 25 25 62 38 39 42 20 24 47 24 51 21 23 25 58 20 21 133 20 23 34 23 34 28 38 22 23 87 21 20 84 64 131 21 36 66 25 20 21 22 28 34 23 20 20 27 32 78 71 21 58 20 26 23 20 29 449 49 360 77 52
internal_value=-0.000645184 0.0222302 -0.031056 0.0041922 0.0109227 0.0351455 -0.0205277 0.00505555 0.0113259 -0.00749787 -0.0211858 0.000267057 -0.0159971 -0.0113865 -0.0137525 -0.00517876 0.00535698 0.0261938 0.0215782 -0.0124832 -0.0231953 0.0188057 -0.00917907 -0.0313796 0.0275138 0.0257164 0.0124629 0.0161614 0.0411123 0.0302994 0.0316632 0.0117997 0.0145699 -0.0253571 0.0369377 -0.00549811 0.0140968 -0.0301222 0.00228077 -0.033148 -0.0357359 -0.0234398 -0.0301228 -0.0391991 0.0400358 0.0270771 -0.0358368 -0.0248879 -0.0413372 0.0414593 -0.0439385 0.0386902 -0.0420964 -0.0347843 0.0425829 -0.0433492 -0.0425703 -0.0440058 -0.0445789 -0.0376996 0.0442621 0.0404261 0.0344834
internal_weight=755.187 430.991 324.196 179.832 142.136 251.159 160.172 105.004 70.0262 34.9775 37.6957 12.1423 123.408 93.0403 87.8353 50.5142 58.7981 100.454 77.1327 38.7216 20.2544 11.7926 22.8094 25.5535 37.1324 66.907 20.7227 19.4757 150.706 33.9972 46.1843 9.69044 35.9886 37.3211 36.4938 10.2257 14.7231 31.6965 11.3668 15.3115 36.7637 14.7111 30.3677 19.8634 17.6566 13.9005 23.5649 11.3111 164.024 23.3211 22.0526 24.9108 156.429 22.8818 11.2282 133.547 18.1315 127.386 122.028 18.141 116.708 34.7262 17.1895
internal_count=3177 1812 1365 734 581 1078 659 426 284 142 153 49 506 380 359 206 238 420 320 158 82 48 92 104 155 278 86 81 658 146 192 40 146 153 152 42 60 130 47 62 153 61 126 81 74 58 98 47 706 100 92 108 674 98 46 576 78 550 527 78 512 152 75
is_linear=0
shrinkage=0.03


Tree=13
num_leaves=64
num_cat=0
split_feature=40 40 40 42 54 40 43 18 51 19 49 40 43 42 80 40 80 39 101 21 53 87 43 93 99 94 90 88 42 18 60 40 44 44 49 101 31 3 21 66 92 51 53 15 61 54 101 39 87 77 42 7 15 40 98 54 68 39 67 114 48 101 120
split_gain=553.54 106.68 37.8022 32.2187 14.6052 14.5736 11.7731 10.5746 8.84629 8.65802 13.7811 12.4222 8.24201 7.68779 9.3161 7.19715 8.06381 7.32983 7.73245 6.72749 8.15781 6.26239 8.58617 6.2219 6.17059 5.94249 8.28981 7.29525 5.67411 5.69824 6.03655 5.61089 10.336 5.58578 7.01885 5.18726 4.9151 9.53512 4.89611 4.78365 4.56825 3.92029 6.33726 6.44597 3.60025 3.24862 3.09344 2.54112 2.53403 2.3866 2.95354 5.99091 2.87293 2.13969 4.77862 3.13524 1.90114 1.84484 1.69778 1.53698 1.37463 1.40257 1.31748
threshold=44.782340727646904 64.61417449574013 26.182843721899598 77.149278046412718 -0.84865744618686978 75.713553350461652 38.500000000000007 -0.02244645615698387 -2.0962606992977482 0.0063667538688645447 19.965168482990229 58.64359888471234 74.500000000000014 58.354273395993822 0.49999999999227102 38.322540377489574 0.49999999997178507 0.50455702515357037 653221168.09620059 0.0064546034256456096 3.5861588056663325 0.39869965172229244 22.500000000000004 1.0394812161984897 0.23445916265321817 0.58958580596759613 4.5795379755435031 -0.41500106197801601 20.766646859176628 -0.0072758585159267454 0.91927613708540712 48.496322129304765 72.744829306105743 75.46874589364198 17.873428901463466 204498630.10545471 1.0000000180025095e-35 105.46092650667622 0.0084067922032467681 4460245.9336819695 5.4464893134629557 -3.1573202229399215 -3.3598085453188284 -0.026649399860266234 114459740.1607392 0.59777720755300134 551597846.45472229 0.73549029844885039 0.43152557778431871 0.82407743466735905 63.001358799763963 99.239418421684135 1.0000000180025095e-35 20.572462254576511 0.1307383003787923 -2.2957438575293589 -1.9113057163401892 0.58676141618191646 9.8992983264974086 1.7980968670876718 11.414757869756052 975894925.17261302 0.12085870188984675
decision_type=2 2 2 2 2 2 10 2 10 10 2 2 8 2 2 2 2 8 2 8 8 10 8 8 10 2 2 10 2 2 10 2 8 8 2 2 2 2 8 2 8 10 8 2 2 2 2 8 10 2 2 2 2 2 10 2 2 8 10 8 2 2 10
left_child=2 3 53 4 28 13 7 -4 31 10 12 23 35 44 19 16 17 18 -9 36 -21 -18 -23 46 -14 -17 -27 -28 57 -30 -31 -5 -33 34 -7 -6 39 -38 -32 -15 47 42 -8 -44 62 -10 -11 -13 -22 -43 51 -51 -52 60 55 -55 -47 -2 -36 -12 -1 -62 -3
right_child=1 5 6 8 9 33 41 15 45 11 59 40 24 14 -16 25 21 -19 -20 20 48 22 -24 -25 -26 26 27 -29 29 30 38 32 -34 -35 58 -37 37 -39 -40 -41 -42 49 43 -45 -46 56 -48 -49 -50 50 52 -53 -54 54 -56 -57 -58 -59 -60 -61 61 -63 -64
